{"hidden": 32, "omega0": 30.0, "layers": [{"w": [-0.28453, 0.3909, 0.16631, 0.1318, 0.3931, -0.47921, 0.33433, 0.14389, -0.34436, 0.15896, -0.12537, -0.17184, -0.02295, -0.20993, 0.43301, 0.45125, -0.02672, -0.49225, -0.03218, 0.03853, 0.30787, -0.01996, 0.11474, 0.08195, -0.27335, -0.31523, -0.40169, 0.02929, 0.1372, -0.05492, 0.46492, -0.09509, -0.32915, 0.0674, -0.14528, -0.0624, 0.48635, -0.04146, 0.42611, 0.0488, -0.21566, 0.38055, -0.25141, 0.03758, 0.09939, 0.21587, -0.45025, 0.01001, -0.09522, 0.34398, 0.14744, 0.18871, 0.3118, -0.13877, -0.03884, 0.4197, -0.39023, -0.31029, 0.02504, -0.20762, 0.06051, 0.42495, -0.07838, -0.44317], "b": [0.37298, -0.08704, 0.0132, 0.16835, 0.41796, 0.67802, -0.54568, -0.25187, 0.29727, 0.60869, 0.58806, 0.64474, 0.14229, -0.59854, 0.06646, -0.41754, -0.66069, 0.61846, 0.53683, -0.69314, 0.12835, -0.11908, -0.13555, -0.34082, 0.23715, -0.40512, 0.24454, 0.34288, 0.51582, 0.26677, -0.70254, -0.46191], "in": 2, "out": 32}, {"w": [-0.01418, 0.02153, -0.02089, -0.01746, 0.00236, -0.0058, 0.00476, -0.02623, -0.0179, 0.0002, 7e-05, -0.01505, -0.00234, -0.01899, 0.0396, 0.0078, 0.00387, -0.0517, 0.01388, 0.01425, 0.00916, -0.00076, 0.03687, 0.01699, 0.02964, 0.01707, 0.02179, 0.03292, -0.03906, 0.00954, 0.03137, -0.02963, 0.00114, -0.01346, 0.0347, -0.01734, -0.00239, -0.02222, 0.00696, -0.02443, 0.01816, -0.01906, -0.01089, 0.00895, -0.00197, 0.01219, 0.02281, -0.00578, 0.01067, -0.00785, -0.01186, 0.00192, 0.00662, -0.02169, -0.02051, -0.01623, 0.01013, 0.00048, -0.00137, 0.02677, 0.01106, 0.01052, -0.03204, 0.00765, 0.02372, 0.00598, 0.01796, 0.01577, -0.01715, -0.01281, -0.02187, -0.01081, 0.0047, 0.00128, -0.00211, -0.00112, 0.01322, -0.03119, 0.01809, 0.01965, 0.03293, 0.02484, 0.01577, -0.00778, -0.00689, -0.00373, 0.02545, 0.01072, 0.02552, 0.00235, 0.00783, 0.01883, 0.0042, 0.01178, 0.01174, 0.00489, 0.0023, -0.01266, 0.00467, 0.03129, -0.04303, -0.02231, 0.02411, 0.00339, -0.03266, -0.00179, -0.02723, 0.01119, 0.01654, -0.00577, 0.00145, -0.01402, 0.02258, 0.01746, -0.03326, -0.01755, -0.01093, 0.0198, -0.00288, -0.05584, -0.01389, -0.00399, -0.01297, -0.06221, 0.01466, 0.02437, -0.02294, 0.01933, 0.01011, -0.01315, 0.00261, 0.00054, 0.00863, -0.00907, -0.01209, -0.00459, 4e-05, -0.00708, -0.00278, -0.01739, -0.00217, 0.02222, -0.01281, 0.01774, -0.01407, -0.00887, 0.05599, -0.00576, -0.0033, -0.00767, 0.01951, 0.04489, 0.01977, 0.01141, -0.01916, 0.0078, -0.00377, 0.00188, 0.03023, -0.00793, -0.00217, 0.01195, -0.02266, 0.00571, -0.02282, 0.03223, 0.00261, 0.0074, -0.03321, -0.01602, -0.0097, 0.05941, -0.00487, 0.0124, -0.01978, 0.01716, 0.00714, 0.06003, 0.00795, -0.00848, 0.00281, -0.00079, -0.00067, -0.00311, -0.01078, -0.00297, -0.0065, -0.0003, 0.01264, -0.0032, -0.0036, 0.0249, -0.00189, -0.02224, -0.04265, -0.00151, 8e-05, -0.00288, 0.01227, 0.0175, 0.01537, -0.00574, 0.02376, -0.00862, -0.012, -0.01739, 0.01019, -0.01305, -0.01979, -0.03107, -0.00519, 0.00515, -0.0317, 0.00078, -0.01535, 0.03255, -0.0092, -0.01655, 0.01046, -0.00764, -0.02112, -0.02639, -0.00662, -0.0432, -0.01409, 0.03233, 0.02448, 0.01716, 0.01439, 0.03793, -0.02416, 0.0093, -0.02584, 0.02017, -0.01517, 0.00217, 0.00648, 0.01251, 0.00133, -0.03728, 0.0062, -0.06826, -0.00348, 0.01277, -0.02357, 0.02018, -0.02208, 0.01844, 0.02251, 0.02396, 0.00664, -0.01603, -0.00207, 0.03493, 0.01714, 0.04884, -0.04356, 0.00621, -0.01745, 0.02803, -0.02142, 0.00448, -0.00375, -0.00081, 0.0032, 0.0163, -0.00536, -0.03868, -0.00961, -0.01443, -0.00436, 0.02338, -0.00387, -0.01876, -0.0129, 0.01619, 0.01197, 0.01134, -0.01627, 0.00311, -0.04231, 0.02133, 0.00219, -0.00719, 0.00553, -0.00659, 0.00988, -0.00061, 0.02662, 0.00876, 0.02282, -0.00465, 0.02092, -0.00531, 0.03445, -0.00733, -0.00248, -0.0216, 0.01895, 0.02205, 0.01705, 0.00596, 0.0099, -0.00966, -0.01528, 0.00251, 0.00642, -0.00811, -0.01082, -0.01123, -0.001, -0.01257, 0.03489, 0.00065, 0.00099, 0.00367, 0.0031, -0.01777, -0.00497, 0.00638, 0.01102, 0.00373, 0.01033, 0.01037, -0.00916, -0.02486, -0.00419, -0.01136, 0.00171, 0.02387, 0.00264, -0.01834, -0.01952, -0.0, 0.00687, 0.00692, 0.01083, -0.02959, 0.00034, 0.00782, -0.02502, 0.00649, -0.00275, 0.00547, -0.00686, 0.00446, -0.00439, 0.04324, -0.01201, 0.01668, 0.00339, 0.00141, -0.03041, -0.01477, 0.00192, -0.0126, 0.01805, -0.03388, 0.00829, 0.01227, -0.01794, 0.00546, -0.01087, -0.03851, -0.02916, -0.0186, -0.0225, 0.02132, -0.01885, -0.03433, 0.02809, -0.01356, 0.02885, 0.01506, 0.00803, 0.02965, -0.0429, 0.02423, 0.01453, -0.00601, 0.00299, 0.01463, -0.04168, 0.01349, 0.03241, -0.02599, 0.00805, 0.00757, 0.00987, -0.03834, -0.00316, 0.01043, -0.01137, -0.01002, -0.01558, 0.03975, 0.00902, 0.00025, -0.00641, 0.00422, 0.0421, 0.01088, 0.02293, -0.0155, -0.02112, 0.00997, 0.02497, 0.00524, -0.01302, -0.02735, 0.02737, -0.01886, -0.00949, -0.00791, -0.05072, 0.02648, 0.00089, 0.01022, -0.00874, 0.02421, -0.02121, 0.02125, -0.01206, 0.01761, -0.00371, -0.02783, 0.00724, 0.01217, -0.00246, 0.00458, -0.00373, 0.00883, 0.01821, -0.02223, 0.01845, -0.0003, -0.01589, 0.01858, -0.00266, 0.00524, -0.00438, 0.01762, 0.00226, 0.0178, 0.02722, -0.00638, -0.01356, 0.01797, 0.00283, -0.00962, 0.00459, -0.02073, 0.00268, -0.00654, -0.01421, 0.00287, -0.021, 0.01255, -0.0099, -0.01997, -0.00985, 9e-05, 0.01943, 0.00617, -0.00945, -0.00053, 0.00719, 0.01543, 0.0095, 0.00925, -0.01797, 0.00677, 0.00027, -0.00854, 0.01427, -0.00369, -0.0103, -0.00782, 0.01949, -0.01616, 0.02333, -0.00218, -0.01345, -0.01687, -0.00027, -0.00668, -0.02522, -0.02815, 0.01388, 0.0042, 0.01585, 0.03567, 0.01632, 0.0137, -0.01727, 0.00133, -0.00397, 0.01767, -0.00713, -0.03241, -0.01465, -0.00968, 0.01635, -0.00306, 0.01814, -0.02491, -0.01283, 0.02132, -0.00791, -0.00269, -0.01858, -0.01768, 0.00031, -0.01315, 0.03402, 0.00122, 0.00841, 0.00969, -0.04045, -0.00564, -0.01029, -0.0034, 0.02076, -0.02132, 0.00356, -0.00321, 0.00347, -0.00631, -0.0165, 0.01443, -0.01379, -0.00543, 0.02158, 0.00833, -0.0033, -0.00767, -0.01201, 0.02434, -0.00094, -0.00556, 0.01397, 0.01919, -0.05621, 0.0748, 0.00263, -0.02284, 0.00906, -0.01169, -0.00589, 0.02229, 0.01397, -0.00244, -0.01558, 0.00325, 0.01153, 0.00482, 0.01317, 0.00906, 0.00531, -0.00394, -0.01253, 0.00725, 0.00246, -0.02352, -0.02723, -0.01009, 0.01653, 0.00332, 0.01185, -0.01855, 0.00813, 0.00254, 0.00216, -0.02097, 0.02873, -0.01374, 0.01958, 0.00687, -0.00399, -0.00695, -0.00985, 0.001, -0.01294, 0.01077, -0.02165, 0.03598, -0.00282, 0.00926, 0.01494, 0.01009, -0.00176, -0.01295, 0.00438, 0.0227, -0.00593, 0.00543, -0.01184, -0.01901, 0.01837, 0.01143, 0.00794, -0.02094, -0.01048, -0.01691, 0.0052, -0.00146, 0.0189, -0.0187, 0.00822, 0.00387, 0.01057, -0.00867, 0.00571, 0.00232, 0.01476, -0.00914, 0.00516, -0.00492, -0.01267, -0.02527, 0.00029, -0.00883, -0.03567, -0.00039, 0.01439, -0.01803, 0.00955, -0.0106, 0.00359, 0.00086, 0.01321, -0.00248, 0.00989, 0.0079, 0.00421, 0.01386, -0.01609, 0.02616, 0.01689, -0.00721, -0.0456, 0.01975, -0.03145, -0.00465, 0.02108, 0.01614, -0.01909, 0.01118, 0.00301, 0.00795, 0.00836, -0.03532, -0.01693, 0.00132, -0.00071, -0.02174, -0.01163, -0.03107, -0.00276, -0.01971, 0.02335, 0.01441, -0.01163, -0.01433, -0.00665, 0.0201, -0.03903, -0.04271, 0.00397, 0.01827, -0.00946, 0.02181, -0.00675, -0.01927, -0.01277, 0.0074, 0.00217, -0.00509, -0.01465, 0.00086, 0.019, 0.01745, 0.03199, -0.00468, -0.00341, -0.01599, 0.0344, 0.02341, -0.00417, 0.01108, 0.00262, 0.00351, -0.00532, -0.0051, -0.0044, 0.00456, 0.00134, 0.0116, -0.00402, -0.00314, 0.00247, -0.02007, -0.00368, 0.00576, -0.02234, 0.01253, 0.01337, 0.00106, -0.02689, -0.01623, 0.02114, 0.0047, -0.00078, 0.02164, -0.03615, -0.02597, 0.00496, -0.02636, 0.02416, -0.02347, 0.04566, -0.0071, -0.01551, 0.00896, 0.00125, -0.0106, 0.01635, -0.03204, 0.03267, -0.01382, 0.00939, -0.00838, 0.00361, 0.02614, 0.05714, -0.05965, -0.00783, -0.01092, 0.0174, 0.0127, -0.06318, 0.0281, -0.00146, 0.00427, -0.0209, 0.02257, 0.01553, 0.02203, -0.00762, -0.00847, -0.03182, -0.0006, -0.01045, -0.01508, 0.01117, 0.0007, -0.02609, -0.00894, 0.00156, 0.0239, -0.00047, -0.02204, -0.05358, -0.00475, -0.00437, 0.01822, -0.00888, 0.05978, 0.05137, -0.00511, -0.01249, 0.00206, -0.00258, -0.00834, 0.01637, -0.00904, 0.04484, -0.05107, -0.01915, 0.04046, -0.00755, -0.01197, -0.00155, 0.02565, 0.01108, 0.03837, 0.00979, 0.00724, -0.00888, -0.01228, -0.0112, 0.0113, -0.03474, -0.00324, 0.00496, 0.04837, -0.01455, -0.01003, 0.04009, -0.05615, -0.01676, -0.00277, -0.01852, 0.00707, -0.00804, 0.01749, 0.01344, -0.00162, -0.03047, -0.01709, -0.015, 0.00325, 0.01793, 0.00176, -0.01094, -0.00545, 0.00099, -0.00728, 0.00563, 0.0041, -0.00952, 0.0266, -0.01283, -0.013, 0.01908, -0.00521, 0.0193, -0.01328, 0.0225, -0.01688, -0.01475, -0.00107, -0.0345, 0.02548, 0.0177, -0.01268, -0.02223, 0.03753, -0.02186, 0.00045, -0.01324, -0.02872, -0.01984, -0.01171, -0.01372, -0.00519, -0.01044, -0.01984, 0.01931, -0.0317, 0.00063, 0.03088, -0.01773, -0.02523, 0.00327, -0.02258, 0.0019, 0.00036, -0.01312, -0.03202, -0.00693, 0.02432, 0.01221, -0.00255, 0.00833, -0.00913, -0.01915, -0.01082, 0.00866, 0.013, -0.01252, 0.0063, -0.01912, 0.00214, -0.01797, -0.02614, 0.00031, 0.00637, 0.01296, 0.01154, 0.01366, 0.01469, 0.00651, 0.00092, -0.00374, -0.01362, -0.04362, 0.00741, -0.05042, -0.00812, -0.0108, -0.04848, -0.00429, 0.01825, -0.02653, 0.02316, 0.02187, 2e-05, 0.0095, -0.01396, 0.00884, -0.00691, -0.02659, -0.00045, 0.00724, -0.03286, 0.03784, -0.00554, -0.00018, -0.00788, 0.00636, -0.01024, -0.01573, -0.02042, -0.01683, -0.01607, 0.01398, 0.00707, 0.00391, -0.01307, -0.01137, -0.00581, 0.05024, 0.01365, 0.00562, -0.01459, 0.00357, -0.03381, 0.03445, -0.02871, 0.03384, -0.01554, -0.01577, -0.0011, 0.02002, 0.00395, 0.03496, 0.03609, 0.01461, 0.01049, 0.02396, 0.01188, 0.043, -0.01035, -0.01714, -0.05411, 0.02674, 0.01854, -0.01608, 0.01625, 0.0196, 0.02785, 0.04911, -0.02955, 0.01949, 0.0216, -0.00818, -0.01931, -0.0702, 0.0469, -0.01606, 0.00423, -0.02944, -0.0051, 0.01557, -0.00634, -0.02574, -0.00739, 0.00636, 0.03182, -0.00245, -0.01434, 0.00102, -0.02067, -0.02012, -0.00501, 0.04226, -0.06076, -0.02439, 0.0129, 0.0069, 0.02056, 0.00782, 0.00182, 0.01507, -0.0287, 0.04534, -0.00604, -0.0052, -0.02813, 0.00027, -0.01805, 0.01537, -0.01028, 0.00811, -0.00052, -0.06414, -0.04184, -0.03739, 0.00656, -0.01666, -0.02363, 0.00966, -0.02821, 0.00151, 0.00366, 0.03205, -0.01492, 0.00698, 0.01449, -0.00306, 0.00972, 0.01179, 0.02545, -0.00657, 0.03149, -0.02346, 0.01789, -0.00568, -0.00273, 0.00815, -0.00256, -0.00308, -0.02569], "b": [-0.03314, -0.13873, -0.11624, 0.00913, -0.13984, -0.04347, -0.09845, -0.11531, 0.08341, -0.11296, -0.13838, 0.07973, 0.01934, 0.15347, -0.03077, -0.0975, 0.00066, 0.0035, 0.12046, -0.20051, -0.0091, 0.07935, -0.10977, -0.10459, 0.07524, -0.15331, 0.06205, -0.11396, 0.07871, -0.17951, 0.10155, -0.17034], "in": 32, "out": 32}, {"w": [-0.00065, 0.03642, -0.04143, -0.00831, 0.04653, 0.02254, 0.02801, -0.00091, -0.00367, -0.0179, 0.01911, -0.03863, 0.05712, -0.01985, -0.00869, 0.01787, -0.06067, 0.0051, 0.02083, 0.00773, -0.00243, -0.0044, -0.05115, -0.0033, -0.00153, 0.05816, 0.00303, 0.02963, 0.01148, 0.00083, -0.02207, 0.02463, -0.00218, -0.02463, 0.03022, -0.00716, -0.02334, 0.02689, -0.03148, -0.01331, -0.01098, -0.04258, 0.021, -0.01023, -0.02751, -0.00856, 0.03542, -0.00471, 0.0359, -0.00895, 0.01273, -0.03393, 0.00641, 0.01713, 0.01038, 0.02713, -0.03524, -0.01262, -0.02198, -0.02575, -0.01799, -0.00795, -0.00724, -0.03078, 0.00108, -0.00138, -0.01911, 0.00371, 0.00864, 0.01696, -0.0148, -0.01133, -0.00771, -0.01379, 0.01528, 0.00322, 0.00761, -0.00116, -0.00608, 0.011, 0.00157, -0.00323, 0.01145, -0.01688, -0.00658, 0.02193, -0.00023, 0.00756, -0.00212, 0.01597, 3e-05, 0.00988, 0.0003, 0.01057, -0.02158, -0.00601, 0.01411, -0.03385, 0.02441, 0.00047, -0.02822, -0.03074, -0.00433, -3e-05, 0.02775, 0.02682, 0.00505, 0.01843, -0.0297, 0.02872, 0.02609, 0.00802, 0.03437, -0.01587, -0.00782, 0.00182, 0.02338, -0.02197, 0.02549, 0.00868, -0.02745, -0.01718, -0.012, 0.00652, 0.0016, -0.00591, 0.00726, -0.01101, 0.0037, -0.00601, -0.01047, 0.01101, -0.01258, 0.01528, -0.00411, 0.00271, -0.00054, 1e-05, -0.00309, 0.00095, -0.00315, 0.00317, 0.00631, -0.00573, -0.0011, 0.01231, -0.00341, 0.00906, 0.0015, -0.01654, -0.00643, 0.00141, 0.00582, 0.0023, 0.00351, -0.00277, -0.00374, 0.00099, -0.00548, 0.00883, -0.00131, 0.02878, -0.0408, 0.01551, -0.00653, -0.0217, 0.04782, 0.02385, 0.0532, 0.07365, 0.02111, 0.0091, 0.02288, -0.01095, -0.06295, -0.0194, -0.00599, -0.00222, -0.0299, 0.02198, 0.01118, 0.00502, -0.0135, -0.03202, 0.03615, -0.03238, 0.02708, 0.02504, 0.01544, 0.01118, 0.01963, 0.0276, -0.01871, 0.01411, -0.03928, 0.01387, 0.00732, 0.0003, 0.0039, 0.03286, -0.01073, 0.00345, -0.00834, 0.00357, 0.01906, -0.00819, -0.03589, -0.01496, -0.00701, 0.02355, -0.01326, 0.02424, -0.00148, 0.00865, -0.02203, -0.01979, 0.0179, -0.00035, 0.03036, 0.03828, 0.02828, 0.01694, 0.0335, 0.00742, 0.04055, -0.01947, 0.01789, -0.02617, 0.00497, 0.00492, -0.00997, -0.02579, -0.0231, -0.0329, -0.00637, -0.02417, -0.02094, 0.03158, 0.06002, 0.02451, 0.0004, 0.00379, 0.00875, -0.03943, -0.00687, 0.01188, 0.02539, 0.00855, -0.0156, 0.01998, -0.01154, -0.03158, -0.03351, 6e-05, -0.03272, -0.01964, -0.05854, 0.02723, 0.03009, -0.02437, 0.02594, -0.01001, 0.031, 0.03911, 0.04755, 0.01592, -0.00115, -0.05169, 0.06218, 0.03975, -0.03642, 0.03027, 0.09828, 0.08195, -0.03935, 0.04503, 0.04492, 0.03119, -0.03551, 0.00906, -0.03617, -0.02372, -0.00212, 0.04431, -0.02506, 0.02289, -0.06485, -0.00803, -0.009, 0.02695, 0.00175, 0.02501, -0.00793, -0.00379, 0.03581, 0.03464, 0.0196, 0.02564, 0.00323, -0.004, 0.01445, -0.00143, -0.01752, -0.01332, -0.02906, -0.005, -0.01268, -0.00066, -0.02888, 0.04063, -0.00792, -0.02062, 0.02147, 0.00568, 0.03248, -0.0079, 0.01941, 0.00555, 0.01427, 0.02466, -0.01836, 0.01951, -0.01944, 0.02589, 0.01411, 0.0089, 0.01232, 0.01408, -0.00674, -0.00426, -0.02836, -0.01862, 0.03242, -0.013, 0.00632, 0.00556, -0.01595, 0.0142, -0.00425, 0.01373, -0.01727, 0.0112, -0.02222, -0.02224, 0.02257, 0.02625, 0.02239, 0.02661, 0.02334, 0.02556, -0.00237, 0.01954, 0.0162, 0.01698, -0.03259, 0.01822, 0.00531, -0.02324, -0.01135, 0.028, 0.04266, 0.02709, 0.00119, -0.01856, -0.01122, -0.00896, 0.03148, -0.01687, -0.00058, -0.01685, -0.02408, 0.01111, 0.00071, -0.00017, -0.01915, -0.04114, 0.02568, -0.00588, 0.00117, 0.00795, 0.0085, 0.0077, 0.00724, 0.01289, 0.0322, -0.04379, 0.03928, -0.03392, -0.04831, -0.0546, 0.00661, -0.01412, -0.0192, 0.03106, 0.07605, 0.03818, -0.02686, 0.04462, -0.01957, -0.00603, 0.0301, -0.02426, -0.00953, -0.03835, 0.02007, -0.00062, 0.0367, -0.00739, -0.02276, -0.01935, -0.02744, -0.03087, -0.06634, -0.04452, -0.00825, -0.01009, -0.00516, 0.00509, 0.04139, -0.01776, 2e-05, 0.0172, -0.01535, 0.01169, 0.00564, -0.00628, 0.01059, -0.01876, 0.0001, -0.02033, -0.00824, 0.02455, 0.0376, -0.01908, 0.03503, -0.0234, 0.00386, 0.04332, 0.00628, 0.01204, 0.00092, -0.00424, -0.00033, -0.01171, -0.00867, -0.00015, -0.01624, -0.00084, 0.04485, 0.05676, 0.04751, -0.06063, 0.06002, -0.00723, -0.01439, 0.00288, 0.0133, 0.01551, 0.03228, -0.0285, -0.02447, -0.00288, 0.00827, -0.0068, -0.05093, 0.07244, -0.069, -0.05442, -0.08053, 0.00118, 0.06845, -0.04006, -8e-05, 0.02037, 0.0316, 0.0514, 0.02353, 0.03307, 0.01467, -0.00187, 0.00529, 0.02754, -0.02862, 0.00923, 0.00636, 0.06207, -0.00054, 0.00161, -0.01825, -0.04523, -0.01962, -0.02152, 0.04702, 0.0036, -0.01143, 0.00955, -0.01456, 0.0214, 0.02095, -0.00095, -0.01816, 0.03118, -0.02459, -0.01021, 0.02169, 0.03841, 0.04288, 0.01579, 0.0026, 0.0307, -0.01106, 0.01428, -0.00466, 0.00874, 0.00976, 0.00252, -0.00176, 0.01874, -0.01205, -0.00631, -0.01964, -0.01231, 0.01558, -0.01893, 0.0043, -0.02054, 0.00887, 0.01017, 0.0025, 0.00662, 0.02172, -0.02445, -0.0033, 0.00184, 0.0018, 0.00585, -0.00118, 0.02221, -0.01708, 0.01092, -0.01055, 0.01129, -0.01384, -0.00311, 0.02915, -0.02211, 0.04423, -0.01555, 0.00613, 0.01917, -0.02877, -0.02925, -0.02305, -0.0454, 0.00179, 0.02341, -0.04224, 0.00796, 0.06774, 0.03423, 0.02348, -0.00839, 0.01675, -0.04668, -0.0133, 0.03028, 0.03908, -0.00157, -0.04823, -0.0389, -0.04091, -0.02192, -0.02216, 0.0087, -0.02947, -0.02054, -0.01887, -0.0181, 0.01886, -0.00052, -0.00133, 0.03628, -0.00364, 0.00505, -0.02966, -0.01813, 0.0292, -0.03423, 0.00304, -0.02549, 0.01132, -0.0132, 0.00764, 0.00199, 0.01117, 0.00154, -0.00693, 0.04775, -0.018, 0.00291, -0.00633, 0.02359, 0.01389, 0.00936, -0.00395, -0.00625, -0.00229, 0.0183, -0.01056, 0.00552, -0.02908, 0.01738, 0.03189, 0.00391, 0.02248, 0.03427, 0.02363, 0.01484, -0.01312, -0.02803, 0.00052, -0.00328, -0.00476, -0.02393, -0.05303, -0.00845, -0.01129, 0.04351, -0.00758, -0.00235, -0.02477, -0.01788, 0.02526, 0.03043, 0.03675, 0.02428, 0.04541, 0.02525, 0.0062, 0.03233, -0.02831, 0.01018, -0.00472, 0.02183, -0.00743, -0.00577, 0.01292, 0.00772, 0.0009, 0.03644, 0.01873, 0.00776, 0.01427, -0.03163, -0.02976, -0.01775, -0.01905, -0.01017, -0.02552, 0.02076, -0.00951, 0.01837, -0.0129, -0.01076, 0.01504, -0.0103, 0.01301, 0.02099, 0.0148, 0.00787, 0.01343, -0.00109, 0.00909, -0.00725, 0.0077, -0.00247, 6e-05, 0.01416, -0.00834, -0.00485, -0.02708, -0.03289, 0.00287, -0.00435, 0.00201, 0.00178, 0.01087, 0.02408, 0.00814, 0.01744, 0.03365, -0.02974, -3e-05, -0.00575, 0.01253, 0.01122, -0.00626, -0.00088, -0.01704, -0.0029, -0.03152, -0.00158, -0.02867, -0.01018, 0.01531, -0.00715, 0.03026, -0.02982, -0.03683, 0.02603, -0.03479, -0.02343, -0.05709, -0.0487, 0.06526, -0.01471, -0.00988, -0.00819, 0.04422, 0.02554, 0.04117, -0.00993, 0.03564, -0.04805, -0.0041, 0.03732, 0.01382, 0.07939, -0.00375, -0.04854, -0.01444, -0.01421, -0.03568, -0.00793, -0.04462, -0.01817, 0.00407, -0.02341, 0.00175, -0.0078, -0.01061, -0.01637, 0.00998, -0.00772, -0.00623, 0.00936, 0.00182, 0.02012, -0.02558, 0.02157, 0.0169, -0.00298, 0.00773, -0.00222, -0.00776, 0.00304, 0.01426, -0.03025, 0.01357, -0.00238, -0.00852, -0.01735, 0.00649, -0.00907, -0.01142, -0.00837, 0.00106, -0.0196, -0.00391, 0.00446, 0.0049, -0.00743, 0.00676, 0.01744, -0.01553, -6e-05, 0.00529, -0.0226, 0.00694, -0.00852, 0.0062, -0.00032, -0.02311, 0.00683, -0.00154, 0.00542, 0.02764, 0.01905, 0.00033, -0.00318, 0.00078, 0.00418, 0.00672, 0.01631, 0.00251, 0.00187, -0.00254, -0.00229, -0.00264, 0.00471, 0.01252, -0.02167, 0.01349, -0.01126, -0.03615, -0.02933, -0.00511, -0.02104, 0.00385, 0.00682, 0.0019, 0.01823, -0.0171, 0.0119, 0.01842, -0.00372, 0.02757, -0.01651, -0.01243, -0.00132, 0.0229, -0.00753, 0.02147, -0.00586, -0.01583, -0.01955, 0.00548, -0.02347, -0.01353, -0.02191, 0.01569, -0.00561, 0.01006, -0.04576, 0.01488, -0.03847, 0.01835, 0.00643, 0.001, -0.0153, -0.01605, -0.025, -0.02903, 0.02019, -0.02668, 0.06045, 0.03498, 0.01481, 0.02101, 0.00668, -0.02075, -0.02935, -0.00237, -0.02431, 0.04768, -0.0046, -0.02792, -0.00735, -0.01151, -0.038, -0.01753, -0.02196, 0.02274, -0.02397, -0.00582, 0.03348, -0.00832, 0.01487, 0.01163, -0.01082, 0.00193, 0.0095, -0.00309, -0.0007, 0.01714, -0.0144, 0.03656, -0.02785, -0.0206, -0.0105, -0.03235, 0.00219, -0.01881, -0.00582, -0.01692, 0.01748, -0.02674, -0.0127, 0.00976, 0.01545, 0.01915, 0.03159, 0.01269, 0.01546, -0.00587, 0.00601, -0.02567, 0.03095, 0.05122, 0.01355, -0.01982, 0.02727, -0.01191, -0.00424, 0.01656, -0.03682, -0.00024, -0.00561, -0.01189, -0.01182, 0.01507, 0.03395, -0.00774, -0.0056, 0.04976, -0.03811, -0.01441, 0.01876, 0.0037, 0.01642, 0.00083, 0.02285, 0.00824, 0.00031, -0.02372, -0.01246, -0.01105, -0.01008, -0.03793, 0.00062, -0.01733, 0.01734, 0.01239, -0.01613, 0.03116, -0.001, 0.0358, 0.03002, 0.01026, 0.00424, 0.02418, -0.03544, -0.00951, -0.01725, 0.00677, 0.01909, -0.01549, 0.00874, -0.0, 0.00457, -0.00994, -0.02691, 0.01678, -0.00373, 0.01744, 0.01256, 0.03237, 0.01628, 0.01822, 0.03284, 0.03587, 0.00296, 0.01776, 0.02967, -0.02209, -0.0181, -0.01053, 0.01244, -0.02787, 0.03371, 0.00089, -0.03458, 0.01611, -0.01503, -0.04324, -0.09511, 0.02563, 0.06626, 0.02571, -0.01208, -0.00953, -0.01087, -0.01902, 0.04651, -0.01808, 0.01656, -0.01003, 0.05025, -0.04853, -0.03413, -0.03616, -0.04551, 0.01516, -0.02636, 0.02807, -0.01694, -0.02519, -0.02025, -0.00344, -0.01965, 0.0057, -0.00062, 0.01828, 0.01418, -0.02143, 0.00032, -1e-05, 0.00191, 0.02057, -0.00925, -0.00953, -0.01966, 0.03019, -0.02658, 0.02333, 0.01729, -0.02225, -0.00687, -0.01269, -0.02351, -0.03443, -0.01684, 0.00432, -0.01597], "b": [0.10217, -0.02592, -0.06352, -0.01312, 0.05122, 0.01571, 0.12628, -0.21171, -0.03159, 0.12966, 0.03024, 0.08566, 0.06057, -0.08041, -0.00569, 0.04826, -0.07458, -0.10504, 0.02683, 0.03176, 0.01131, -0.15008, -0.01365, -0.11253, 0.10824, -0.12033, 0.10491, 0.12002, -0.15039, 0.1299, -0.19152, -0.03793], "in": 32, "out": 32}, {"w": [-0.26357, -0.2583, -0.288, -0.27471, 0.06201, 0.28188, -0.22325, -0.28907, -0.2374, -0.29306, 0.22806, 0.26144, 0.2537, -0.17825, -0.33813, 0.2338, -0.20102, 0.2548, 0.25454, 0.20663, 0.234, 0.24584, -0.24803, 0.22567, -0.32423, 0.26206, 0.23565, -0.32704, 0.19466, -0.25764, -0.33245, -0.36487, -0.18014, -0.17726, -0.1997, -0.17152, 0.2385, 0.20551, -0.21851, -0.17717, -0.18169, -0.17692, 0.21882, 0.15754, 0.18373, -0.20185, -0.24345, 0.18452, -0.21622, 0.20672, 0.18082, 0.20442, 0.21117, 0.22834, -0.19334, 0.22768, -0.14579, 0.18818, 0.19569, -0.15127, 0.19058, -0.16679, -0.2531, -0.22113, -0.0989, -0.08494, -0.08759, -0.07279, 0.26365, 0.11233, -0.16627, -0.06451, -0.10451, -0.06446, 0.18762, 0.0629, 0.10124, -0.17779, -0.13168, 0.11797, -0.16945, 0.13834, 0.08673, 0.15044, 0.16445, 0.175, -0.11788, 0.19939, 0.00577, 0.10091, 0.13639, 0.00686, 0.1449, -0.07705, -0.1465, -0.07248], "b": [-0.08148, 0.09367, 0.17194], "in": 32, "out": 3}], "psnr": 24.39}