{"hidden": 32, "omega0": 30.0, "layers": [{"w": [-0.28617, 0.34895, 0.1448, 0.10188, 0.38559, -0.48358, 0.3522, 0.137, -0.3418, 0.08231, -0.13113, -0.19768, -0.0533, -0.23993, 0.43995, 0.45357, -0.02538, -0.42549, -0.03758, 0.04905, 0.33006, 0.04174, 0.10675, 0.12885, -0.29375, -0.28102, -0.4459, -0.04809, 0.13402, -0.00237, 0.48063, -0.1099, -0.29029, 0.06161, -0.12801, -0.05408, 0.5193, 0.0024, 0.39937, 0.07914, -0.14904, 0.37487, -0.29034, 0.02707, 0.08594, 0.25537, -0.425, 0.00909, -0.16473, 0.33272, 0.20202, 0.18913, 0.30097, -0.12825, -0.02103, 0.35625, -0.4103, -0.3077, 0.01936, -0.20121, 0.08606, 0.43786, -0.02873, -0.41081], "b": [0.38137, -0.0795, 0.03653, 0.15867, 0.43995, 0.69788, -0.5501, -0.2677, 0.28699, 0.61441, 0.60406, 0.62484, 0.12569, -0.61072, 0.04751, -0.4304, -0.65309, 0.64622, 0.53137, -0.70768, 0.12475, -0.11315, -0.12024, -0.30692, 0.27524, -0.41654, 0.26195, 0.33627, 0.52812, 0.28255, -0.71092, -0.4636], "in": 2, "out": 32}, {"w": [0.01358, 0.00145, -0.00089, 0.02344, -0.03004, -0.01751, 0.01645, 0.01938, -0.01139, -0.00346, 0.00966, 0.0066, 0.00652, 0.00882, -0.01301, 0.01146, 0.01505, 0.00498, -0.01245, 0.00953, 0.00644, -0.03416, 0.00366, -0.00981, -0.00522, -0.01938, 0.01733, 0.01866, 0.02281, -0.00775, 0.0041, -0.01461, 0.02339, 0.02536, -0.00288, -0.01804, 0.03181, -0.016, -0.00118, 0.00357, 0.02063, 0.01887, -0.03328, 0.04787, 0.00099, -0.00032, 0.01833, 0.00278, 0.01109, 0.01183, 0.00279, 0.00202, 0.00742, -0.02275, -0.01027, -0.04014, -0.01678, -0.01314, -0.02774, -0.02205, -0.01394, -0.01691, -0.01939, 0.04467, -0.03026, -0.00815, -0.00813, -0.02233, -0.02055, 0.00268, -0.01678, -0.02698, 0.01252, -0.0262, 0.02235, 0.01298, -0.0014, -0.0175, -0.0015, -0.01101, -0.00375, 0.01422, 0.01069, 0.00563, 0.00159, 0.01508, 0.00586, -0.00435, 0.01768, 0.00579, -0.03414, 0.01787, -0.01728, -0.02208, -0.01493, 0.00969, -0.00297, -0.00752, -0.01107, 0.00039, -0.01585, -0.01372, 0.01951, 0.00627, 0.00327, 0.00952, 0.02412, -0.00922, -0.00261, -0.0277, -0.01988, -0.00338, 0.04082, 0.0156, -0.01163, 0.01587, 0.01239, 0.02839, -0.00548, 0.00212, -0.00012, 0.01889, -0.00964, 0.00484, -0.01044, -0.00666, 0.00077, -0.00788, 0.01629, 0.00946, -0.01644, -0.00653, -0.00806, 0.02126, 0.01024, -0.01989, -0.00571, -0.00439, 0.00851, -0.00446, -0.00137, -0.00382, -0.01267, -0.01435, 0.00015, 0.00684, -0.00544, 0.00029, 0.01785, -0.00295, -0.01541, -0.00652, -0.0173, 0.00126, 0.01154, 0.00432, 0.01617, 0.00598, -0.0056, -0.00865, 0.0192, 0.00413, -0.01333, 0.00497, -0.0226, 0.01136, 0.00417, -0.00445, -0.01694, -0.01408, -0.00966, 0.00044, -0.01747, -0.0238, -0.01675, -0.00111, 0.01222, 0.00582, -0.00753, -0.01953, -0.02481, -0.02786, 0.00523, -0.02717, -0.02158, -0.00413, -0.04439, 0.02588, 0.02466, 0.01192, -0.00952, -0.03655, -0.00595, 0.006, -0.00118, -0.00076, 0.03986, 0.01479, -0.00842, 0.00292, 0.00216, 0.01103, 0.02713, -0.006, 0.01342, 0.01535, -0.0018, -0.0124, 0.00951, 0.0024, 0.00038, 0.00219, 0.00983, 0.01264, 0.02092, 0.02722, 0.01942, 0.00578, -0.00762, 0.00798, 0.01952, -0.02412, -0.00763, 0.01404, -0.00494, 0.03979, 0.03062, 0.03985, 0.01047, 0.04592, -0.00729, -0.00939, -0.00246, -0.02247, 0.00952, -0.00684, 0.00394, 0.04776, -0.03011, -0.00765, 0.03385, -0.00128, -0.02419, -0.02722, -0.02529, 0.03116, 0.02507, 0.02572, 0.00927, -0.02011, 0.01879, -0.00368, -0.01549, -0.00899, -0.01115, 0.03292, -0.02018, -0.01434, -0.01123, -5e-05, -0.0143, -0.01693, 0.02838, -0.00923, 0.00192, -0.02904, 0.01714, -0.01606, -0.03262, -0.0094, -0.01578, -0.0025, -0.02716, 0.02938, -0.00552, -0.01641, -0.00281, 0.00311, -0.01158, 0.00106, 0.00212, 0.01249, 0.01418, -0.02257, -0.01614, 0.04683, -0.00888, -0.01646, 0.00376, -0.02971, 0.01401, -0.01579, 0.02686, 0.01244, 0.0192, 0.00056, 0.0197, 0.00373, 0.00463, -0.00414, 0.00975, 0.03115, 0.00335, -0.01958, 0.04752, 0.0191, 0.0341, 0.01897, 0.00604, 0.02563, 0.00579, 0.00972, -0.01921, 0.0053, -0.00344, 0.01985, 0.0231, -0.03862, -0.00757, 0.03506, 0.03639, -0.01313, 0.00827, 0.01129, 0.02076, -0.0064, -0.01281, -0.00204, 0.00476, -0.00395, -0.00085, 0.0175, -0.02165, 0.04033, -0.01383, 0.02035, 0.03675, 0.01413, -0.00335, -0.00305, 6e-05, -0.00499, 0.00198, 0.02769, -0.01916, -0.02915, -0.01013, 0.01175, -0.01772, -0.00841, 0.0091, 0.00762, -0.01248, 0.00359, -0.00962, 0.01199, 0.00432, 0.01051, -0.0125, 0.01927, 0.00268, 0.00094, 0.02242, -0.02921, -0.01296, -0.0113, -0.04678, 0.01423, 0.01246, 0.04342, 0.00999, -0.00395, 0.001, 0.0176, 0.00407, 0.03781, 0.00529, 0.00601, 0.01778, -0.01001, -0.0265, 0.02413, 0.02921, 0.0128, 0.00228, 0.00751, 0.01914, -0.01274, 0.00314, 0.00366, -0.00881, -0.00331, -0.01879, -0.01525, -0.00552, -0.02527, 0.01778, 0.0283, -0.00109, -0.00063, 0.02389, -0.0162, 0.00606, 0.01334, -0.00465, 0.01009, -0.00125, 0.00363, 0.00496, -0.00394, 0.02609, -0.00585, 0.0137, -0.01241, -0.00207, -0.01226, -0.01206, 0.00511, -0.00505, -0.02058, -0.02035, -0.02624, -0.01295, -0.01582, 0.00801, -0.00262, 0.00702, 0.03426, 0.00353, -0.01223, 0.01242, 0.01426, 0.00569, -0.00647, -0.01288, -0.00826, -0.00924, 0.01366, -0.00592, 0.00783, -0.00781, 0.00825, 0.02631, -0.00437, 0.00833, -0.00181, -0.0051, 0.02539, -0.00029, -0.00979, 0.00293, -0.03485, -0.00026, 0.01008, -0.01037, 0.00595, -0.00947, -0.00909, -0.0205, -0.00779, -0.00848, 0.0212, -0.00032, -0.01506, 0.00494, 0.00422, -0.02528, -0.00037, -0.02599, -0.02057, -0.01377, -0.01915, 0.00939, -0.00132, -0.03995, -0.0018, -0.00037, 0.00328, 0.01068, -0.00566, 0.01853, -0.03316, 0.00586, 0.00219, 0.01105, 0.01076, -0.01626, -0.0015, 0.0348, 0.00637, -0.00635, -0.00723, 0.01526, -0.01008, 0.0446, 0.00904, -0.00531, -0.03606, 0.01191, 0.00696, 0.00548, 0.00636, 0.01882, 0.00312, -0.00417, -0.00148, 0.00386, 0.01876, -0.01664, -0.01404, 0.00237, 0.02965, 0.00577, -0.01472, -0.0105, -0.00709, 0.00242, 0.01598, -0.00644, -0.00853, 0.02464, 0.00019, 0.00896, -0.01405, 0.02979, -0.01665, -0.04519, 0.02496, 0.00782, 0.00671, 0.02466, -0.00844, 0.00244, -0.00907, 0.01649, -0.02097, -0.01169, -0.01646, 0.02408, -0.01955, -0.02058, 0.03188, -0.00975, 0.03011, 0.00117, -0.02095, -0.0038, 0.00681, 0.02671, -0.00046, -0.01842, 0.00149, -0.00731, 0.0074, -0.00343, 0.01282, 0.0138, 0.02487, 0.02163, -0.00713, -0.02385, -0.00948, -0.01854, -0.01761, -0.02363, -0.0241, 0.02192, 0.0185, 0.01177, -0.01129, 0.0155, 0.00316, 0.023, -0.02023, 0.00421, 0.00881, -0.00323, 0.02659, 0.00925, -0.00666, -0.02817, 0.00704, 0.00458, -0.00096, 0.00462, 0.01474, -0.05533, 0.00813, -0.03572, -0.01804, -0.00367, -0.00189, 0.00747, 0.00359, -0.02562, 0.02237, -0.00308, -0.01754, 0.01809, 0.00277, 0.03043, 0.00852, -0.04035, -0.00516, 0.0146, 0.00273, -0.01913, 0.01003, 0.02225, 0.00574, 0.00239, -0.04132, -0.03649, -0.0467, 0.04249, -0.02904, -0.0089, -0.01812, -0.00359, 0.03891, -0.0084, -0.01206, -0.04092, -0.00272, 0.01972, 0.04065, 0.00154, -0.0229, 0.00551, -0.02845, -0.02712, -0.00558, 0.00755, -0.01051, -0.01354, -0.02122, -0.00222, 0.00412, -0.01972, -0.02351, 0.01457, 0.00087, -0.01386, 0.00101, -0.0175, -0.01022, -0.00768, 0.02243, 0.02626, -0.01596, 0.02519, 0.02328, 0.00211, -0.02427, -0.02721, 0.01184, 0.0255, -0.01957, 0.00879, 0.02899, 0.0191, -0.00948, -0.01617, 0.02487, -0.0064, 0.00971, -0.0258, 0.01603, 0.01338, -0.02365, -0.00028, 0.03235, -0.02266, 0.00732, 0.0045, -0.00539, -0.02266, -0.01567, -0.00398, -0.00075, 0.0081, 0.0176, 0.00726, -0.00887, 0.00301, -0.02206, 0.03838, 0.01885, -0.0117, 0.00958, -0.00182, 0.01758, -0.01041, -0.00703, -0.00354, -0.00981, 0.00057, -0.00836, 0.0057, 0.00613, -0.00874, -0.00692, 0.00925, -0.0057, -0.012, 0.03154, -0.00269, 0.02301, -0.01452, -0.01797, 0.02029, 0.01783, -0.02227, 0.01229, -0.01066, 0.00425, -0.01857, 0.01331, -0.03224, -0.01626, 0.01796, 0.03845, -0.00206, -0.04821, 0.00555, -0.02941, -0.03207, 0.0122, 0.00744, -0.02437, -0.04682, -0.00345, -0.00647, 0.0036, 0.00013, -0.01839, 0.00767, -0.0104, 0.02397, -0.02742, 0.0295, -0.04518, 0.02872, -0.02118, 0.00296, 0.01179, 0.02759, 0.02759, -0.01015, -0.029, 0.01612, -0.01013, 0.00368, -0.02338, -0.0173, 0.06936, 0.02729, -0.01551, 0.00484, 0.00065, 0.02187, 0.00311, -0.01349, 0.00686, -0.00542, -0.00519, -0.00605, -0.00335, 0.03143, 0.01131, 8e-05, 0.02098, 0.00296, -0.00516, -0.01862, 0.00099, 0.00574, 0.00492, 0.00155, -0.02167, -0.05252, -0.02071, -0.00763, -0.00886, 0.00263, 0.013, -0.02309, -0.0229, -0.02586, 0.03262, -0.00935, 0.0086, -0.02776, 0.00795, 0.00488, -0.00261, -0.01143, 0.01798, -0.00523, 0.00823, -0.00201, 0.00804, 0.0043, 0.01379, 0.0383, 0.00689, 0.00918, -0.01044, -0.00893, 0.01634, -0.01334, 0.00114, 0.03167, -0.02066, 0.01431, -0.02092, 0.03066, -0.00861, 0.02413, -0.00876, 0.00197, 0.06159, 0.01007, 0.00343, 0.00043, -0.01098, 0.00653, -0.00188, -0.0121, -0.0191, 0.02408, -0.00887, -0.03095, -0.02066, -0.01672, 0.0148, 0.00702, 0.02244, -0.00719, -0.00484, -0.00224, -0.0166, -0.03061, 0.00506, 0.00775, 0.02661, -0.01888, 0.00253, 0.01927, -0.0236, 0.02343, 0.0133, 0.00783, -0.01536, -0.02193, 0.0086, -0.00168, -0.00666, -0.02338, -0.00491, 0.01289, 0.01653, 0.00257, -0.0055, -0.01629, -0.00012, -0.01268, -0.03168, -0.01266, 0.00351, 0.01866, 0.00676, 0.00623, 0.00028, -0.00224, -0.00333, 0.0181, -0.03656, 0.01539, 0.00067, -0.04088, 0.00826, -0.02777, -0.00191, 0.0044, -0.07806, 0.00969, -0.00843, -0.01733, -0.01302, 0.01664, -0.00462, 0.00017, 0.02976, 0.00492, -0.00711, -0.00842, -0.00408, -0.01267, -0.00445, 0.00278, -0.03974, 0.01397, 0.01157, -0.01198, 0.01609, -0.04747, 0.01649, 0.01351, 0.00602, 0.04903, 0.01791, 0.02763, -0.03024, 0.00813, 0.00688, -0.00873, 0.0443, 0.00712, -0.00204, -0.0008, 0.01031, -0.00917, 0.00406, 0.00215, -0.01106, -0.00815, -0.01415, 0.00183, -0.00239, 0.00717, 3e-05, 0.00145, 0.01622, -0.00532, -0.03164, -0.00582, 0.03025, 0.01194, 0.00881, 0.0181, 0.0014, -0.00425, -0.01853, 0.01203, 0.00753, 0.0311, -0.01866, -0.05002, 0.01343, -0.0216, -0.00576, 0.00088, 0.0151, 0.01079, -0.00467, 0.01213, -0.02369, -0.01359, -0.01324, 0.02197, 0.01032, -0.01965, 0.02149, -0.01689, 0.00951, -0.01461, 0.00961, 0.02346, -0.00347, -0.01768, -0.00579, 0.00975, -0.02875, -0.01542, 0.02389, -0.043, -0.02898, -0.01094, 0.03556, 0.01136, -0.02625, 0.00432, 0.00689, -0.0054, 0.01569, 0.014, 0.00374, 0.00148, -0.0115, -0.01166, 0.00809, 0.00754, 0.01599, 0.00265, -0.02754, -0.01235, -0.03996, -1e-05, 0.02069, -0.02609, -0.01414, -0.04997, 0.02767, 0.03253, 0.0066, -0.0035, -0.01813, 0.03783, -0.02728, 0.02634, 0.01458, -0.01913, 0.01967, 0.00347, -0.01382, 0.00278, 0.00751, -0.03561, -0.02654, 0.03778, 0.01465, -0.00251, -0.02022], "b": [-0.04751, -0.15174, -0.09183, 0.01867, -0.16618, -0.00517, -0.1044, -0.10482, 0.07488, -0.12622, -0.12925, 0.13708, 0.02732, 0.1727, -0.04581, -0.10529, -0.03001, -0.00194, 0.12317, -0.18934, -0.00172, 0.09055, -0.11052, -0.09661, 0.09237, -0.14529, 0.03383, -0.15452, 0.09487, -0.15838, 0.10557, -0.16784], "in": 32, "out": 32}, {"w": [-0.02713, 0.02926, -0.00268, 0.01518, 0.05912, -0.00408, -0.04011, 0.03333, -0.02608, 0.03831, 0.00737, 0.04434, -0.01077, 0.00454, 0.01233, -0.01376, -0.03527, -0.02751, 0.01033, -0.01498, 0.00455, -0.02379, 0.00039, -0.01411, 0.03479, -0.02674, -0.02452, 0.04304, -0.04495, -0.02279, 0.03396, -0.00735, 0.02134, 0.02253, -0.01925, 0.04096, 0.01506, -0.01523, -0.0423, -0.01098, -0.0324, 0.00635, 0.00925, 0.03434, -0.00985, 0.03077, 0.00774, 0.0031, 0.00935, -0.01886, -0.03108, -0.01763, 0.02762, -0.0403, 0.03676, -0.00354, 0.00755, 0.02016, -0.02267, 0.01913, -0.02552, -0.02255, -0.02444, -0.0103, 0.01651, -0.01141, 0.02348, -0.01307, -0.01868, 0.02082, 0.03003, 0.01981, 0.00344, -0.01543, -0.00994, 0.00075, 0.01269, -0.04413, -0.00431, 0.00993, 0.00476, 0.02435, -0.02187, 0.01562, -0.01968, 0.00867, -0.02481, 0.00592, -0.02233, -0.00528, 0.0066, 0.00269, 0.01994, 0.03079, 0.00878, -0.0011, 0.01057, 0.00375, 0.00248, -0.00585, 0.0075, 0.00434, -0.00579, 0.01221, 0.01361, 0.01433, 0.00041, 0.01365, -0.00301, -0.02103, 0.01734, -0.00955, -0.01164, 0.00174, 0.01035, 0.00586, -0.00367, -0.02319, -0.00732, 0.01214, -0.00036, -0.03291, -0.0044, -0.00224, -0.01559, -0.00898, 0.0014, 0.0025, -0.01248, -0.00975, 0.00489, 0.03146, 0.07847, -0.03226, -0.05265, 0.01975, -0.0307, 0.02356, 0.00461, 0.02008, -0.01817, 0.05389, 0.03436, -0.03885, -0.01276, -0.00781, 0.02446, -0.02854, 0.02928, -0.04461, 0.02028, 0.00118, 0.0318, -0.02748, -0.01478, 0.01515, -0.06859, -0.03666, 0.039, 0.00288, -0.05177, 0.03848, 0.04539, 0.01927, -0.01216, -0.0012, 0.03717, 0.00422, 0.02169, 0.02329, 0.02779, -0.00804, 0.03132, -0.06288, -0.0201, -0.04651, -0.01894, 0.03221, -0.00448, 0.01871, -0.05281, 0.03548, -0.00432, -0.01071, -0.00247, -0.00265, 0.04568, 0.00668, 0.00017, 0.00894, -0.00557, 0.03373, -0.02843, -0.00279, -0.0079, -0.01443, 0.00146, -0.01338, -0.00212, -0.00981, -0.00747, 0.0037, 0.00581, 0.01807, 0.03041, -0.02474, -0.02092, -0.00129, -0.02643, 0.00179, 0.01287, 0.01815, -0.01925, 0.01316, -0.01613, 0.02133, -0.00916, 0.03587, 0.01817, 0.00778, 0.00764, 0.03119, -0.01638, 0.0027, 0.03765, -0.04446, -0.01629, -0.00519, -0.01011, 0.01095, -0.02877, -0.04349, -0.00846, -0.02845, -0.03851, -0.04287, -0.04141, 0.02157, 0.0249, 0.03434, 0.06579, -0.01363, 0.0325, -0.05018, 0.03121, -0.02271, -0.00011, -0.03315, -0.01503, 0.01664, -0.05196, -0.00941, -0.01042, -0.0414, 0.02968, -0.01784, -0.05748, 0.01755, 0.02165, 0.01865, 0.03166, 0.02402, 0.0447, 0.0132, 0.00824, 0.00514, 0.02289, -5e-05, 0.06003, -0.0089, -0.05001, -0.02801, -0.03316, 0.04516, -0.0167, 0.03021, -0.02718, 0.03034, 0.00673, -0.02738, -0.01638, -0.01335, 0.03091, 0.03154, 0.00492, 0.02391, 0.01939, -0.00944, -0.00178, -0.01519, -0.00296, 0.01239, -0.00605, -0.00491, -0.0002, 0.00213, 0.00184, 0.0139, -0.01426, -0.01259, -0.01021, 0.0055, 0.009, -0.00136, 0.00843, 0.00569, 0.00925, -0.0049, 0.00019, -0.01056, -0.01186, 0.01152, -0.00394, -0.00667, 0.01783, 0.01007, 0.00391, 0.00078, -0.00105, 0.00422, 0.02969, 0.01016, -0.02234, -0.00452, -0.00944, -0.0127, -0.01988, -0.02774, -0.02351, -0.0234, -0.04445, -0.03231, -0.03202, 0.00305, -0.01182, 0.03639, 0.04429, -0.02767, -0.02385, -0.00477, 0.00887, 0.01806, 0.00784, 0.03164, -0.02298, 0.03061, -0.01077, -0.04413, 0.03428, -0.0087, -0.02806, 0.00213, -0.02049, 0.01149, -0.01195, -0.00514, 0.01628, -0.01657, 0.00394, 0.01811, 0.00241, 0.02756, 0.03141, 0.02927, -0.00064, -0.02318, 0.00114, -0.03425, -0.03014, 0.03297, 0.03104, -0.00619, 0.00037, -0.01017, -0.01969, -0.0235, 0.02064, -0.02585, -0.01856, 0.0459, -0.01613, -0.01281, 0.0375, -0.01342, -0.0686, 0.01757, -0.00319, -0.01702, 0.04794, -0.0167, -0.07613, 0.03993, -0.01031, 0.05335, 0.03752, 0.05026, -0.03629, 0.01797, 0.03744, -0.00462, -0.04343, -0.03057, 0.03528, -0.02587, 0.03373, -0.03224, 0.0001, -0.02618, 0.05369, -0.05612, -0.01934, 0.01531, -0.04072, -0.0515, 0.04703, -0.01115, 0.03582, 0.05349, -0.10035, 0.07134, -0.00352, -0.05541, -0.03914, -0.0253, -0.0744, 0.03233, -0.01342, 0.02561, 0.02554, 0.07703, 0.01019, -0.00988, 0.01197, 0.0032, -0.02783, -0.02293, 0.04071, -0.04685, 0.08307, 0.00252, -0.01331, 0.04482, -0.0426, 0.00603, -0.00425, -0.01922, -0.02172, 0.02147, 0.00774, -0.0029, -0.00085, -0.00449, -0.01017, 0.00601, -0.0013, 0.00552, -0.00416, -0.00096, -0.0003, -0.00458, 0.00367, 0.00064, 0.00485, 0.00369, 0.00023, 0.00308, -0.00252, 0.00191, 0.00135, 0.00566, 0.00248, 0.00262, -0.00711, 0.00571, 0.00332, -0.00309, -0.00226, 0.00513, -0.00166, 0.00586, 0.03087, 0.04083, -0.05929, 0.04656, -0.00357, -0.05569, -0.04516, -0.04414, -0.06399, 0.01268, -0.01269, 0.02575, 0.00412, 0.04622, -0.02464, -0.00205, 0.00742, -0.01062, 0.00237, -0.01937, 0.03563, -0.0433, 0.05042, -0.00027, 0.01435, 0.05604, -0.03913, 0.01273, -0.00628, -0.04129, -0.01451, 0.01121, -0.02214, -0.01303, 0.00555, -0.03971, -0.05705, 0.02295, -0.04357, -0.04999, -0.03262, -0.05981, -0.05475, 0.00472, -0.01154, -0.0169, -0.02711, 0.06794, 0.04657, -0.01782, -0.03308, 0.02003, -0.01588, 0.01085, -0.01372, 0.04628, -0.03651, 0.02064, 0.0247, -0.03464, 0.00238, -0.00052, -0.047, -0.06603, -0.01894, -0.01825, 0.01338, -0.01405, 0.00176, -0.005, -0.00045, 0.01561, 0.00629, 0.01169, 0.02223, 0.01605, -0.01633, 0.02353, 0.00791, -0.02827, -0.02642, 0.00437, 0.01565, -0.00398, 0.02532, -0.04037, -0.00581, -0.01418, 0.01966, -0.02341, -0.0279, 0.02057, -0.05305, -0.00672, 0.03982, 0.00318, -0.02303, -0.01945, 0.03837, -0.02991, -0.00136, 0.01717, 0.03844, 0.00895, 0.02742, -0.03016, -0.00341, -0.01868, 0.02252, -0.01764, -0.03934, -0.01669, -0.01613, 0.00668, 0.00469, 0.01114, -0.04207, 0.05029, -0.02755, 0.00389, -0.03918, -0.0015, 0.04336, -0.01062, -0.01783, 0.02026, -0.01328, 0.01295, -0.01671, -0.01746, 0.02076, 0.04633, 0.01826, -0.01619, 0.04334, 0.05785, 0.02207, 0.09387, 0.0289, 0.02955, 0.03389, 0.01002, 0.00575, -0.08002, -0.06477, 0.03235, 0.04299, 0.01752, -0.05352, 0.01848, -0.00492, -0.05627, 0.04591, 0.003, -0.00568, 0.07341, -0.01847, 0.01726, 0.05281, 0.03963, -0.0176, 0.00721, 0.01556, 0.008, 0.00797, -0.0022, 0.00051, 0.01241, -0.00525, 0.00764, 0.01554, 0.00653, 0.02388, -0.01027, 0.01156, -0.02065, -0.01543, -0.00838, 0.00786, 0.00544, -0.0005, 0.00742, 0.0083, -0.01295, 0.01642, -0.00344, 0.004, 0.02719, -0.01326, 0.01215, 0.00342, 0.00059, 0.02863, -0.02954, 0.00054, -0.02031, 0.02804, 0.01988, -0.03284, 0.00964, -0.02356, -0.02224, -0.01488, -0.0097, 0.0094, 0.05581, 0.0121, 0.03085, 0.03241, -0.02192, 0.01259, -0.01064, 0.00687, -0.02478, -0.01648, 0.02065, -0.01386, 0.0217, -0.01158, -0.01149, -0.01411, 0.00505, 0.00374, -0.01377, 0.02808, 0.02703, -0.0123, 0.00091, -0.04876, 0.01059, -0.00509, -0.01771, -0.05329, -0.03288, -0.04482, -0.01029, -0.02812, -0.04191, 0.01891, 0.05358, 0.0935, -0.02564, -0.00868, -0.04246, 0.01583, 0.02507, 0.01249, 0.02967, -0.03017, 0.01357, 0.019, -0.03953, 0.02825, 0.01312, -0.02931, -0.00114, -0.02145, -0.00251, -0.02674, 0.00077, 0.01732, -0.01669, -0.02813, 0.03226, 0.00585, 0.0251, 0.0161, 0.01638, -0.01301, -0.00718, 0.01885, -0.02688, -0.02785, -0.0167, 0.00543, -0.01934, 0.03319, -0.04336, 0.03071, 0.01774, 0.0247, -0.02034, -0.021, 0.03833, -0.02265, -0.04231, 0.0223, -0.02496, -0.01354, 0.00889, 0.00086, 0.00314, 0.02679, -0.00453, -0.01601, 0.00625, -0.02076, 0.00344, 0.01801, 0.02049, -0.01144, -0.00604, 0.01999, -0.01084, -0.01669, 0.01023, 0.00081, -0.00608, 0.01426, -0.00354, -0.00309, -0.00727, 0.01707, 0.00091, 0.00414, 0.00225, -0.00775, -0.01934, 0.01702, -0.0085, 0.00954, -0.05422, 0.03846, -0.05619, 0.00766, 0.0406, 0.04307, 0.02384, 0.0316, -0.01069, -0.00554, -0.03588, 0.0127, -0.02495, -0.0118, 0.00968, -0.00578, 0.02905, 0.02668, 0.05014, -0.05735, 0.00983, -0.04364, -0.00188, 0.00389, -0.04801, 0.01116, -0.00809, -0.03598, 0.03814, 0.00218, -0.00122, 0.00633, -0.0093, 0.00195, -0.01487, -0.00349, 0.00338, -0.00477, 0.00778, -0.00074, 0.00054, 0.00524, 0.00834, -0.01383, 0.01198, 0.00798, -0.00464, -0.00845, 0.0119, 0.00258, -0.00272, -0.00045, -0.01962, -0.01221, 0.00074, 0.00683, -0.01171, -0.00762, -0.00956, -0.02049, -0.00208, 0.01026, -0.00025, -0.02791, -0.00427, -0.00308, 0.00416, 0.00761, 0.01878, -0.01365, 0.01168, 0.02166, -4e-05, 0.01721, 0.00118, 0.02337, -0.02857, -0.04926, -0.00262, -0.00171, 0.02449, 0.02534, 0.0239, -0.02567, 0.01666, -0.00974, 0.00434, 0.01278, 0.01041, 0.01368, -0.00261, -0.00868, 0.01509, -0.00255, 0.01726, 0.02691, 0.00277, -0.0147, -0.04707, -0.00301, 0.04527, -0.01196, 0.00887, 0.01122, -0.06669, -0.00679, -0.01978, -0.01409, -0.01821, 0.0322, 0.05948, 0.05796, -0.04839, -0.01449, 0.00551, 0.00192, -0.0025, 0.01427, 0.00468, -0.0328, -0.0147, 0.01994, -0.0242, 0.01357, -0.00857, -0.01265, -0.03126, 0.00843, -0.01678, -0.00405, -0.04825, 0.0217, 0.00113, 0.04438, -0.00256, 0.01015, -0.03324, -0.01545, -0.00358, 0.02672, -0.01045, -0.03098, 0.0115, -0.00827, 0.02724, -0.02052, 0.0482, -0.04038, 0.01039, -0.00906, 0.02827, -0.03754, 0.02569, 0.03138, -0.02533, 0.02782, 0.01974, -0.02418, -0.00875, 0.0036, -0.00733, -0.01277, -0.06935, 0.02448, 0.00486, -0.04543, 0.02333, 0.01476, -0.01026, -0.03816, -0.00403, 0.04304, -0.04243, -0.01035, -0.06303, 0.03269, 0.02834, -0.04484, 0.00384, 0.00051, -0.02805, -0.01874, 0.03499, -0.04866, 0.02075, 0.05212, -0.02992, -0.00887, -0.00128, -0.02749, -0.02513, 0.00655, -0.00725, -0.01689, 0.01021, -0.00484, 0.00499, -0.02325, -0.02006, -0.01655, 0.0024, -0.01523, 0.00499, -0.00671, 0.01822, 0.00932, 0.0099, 0.02872, -0.02103, 0.00537, -0.00893, 0.01816, -0.03326, 0.01703, 0.00311, 0.00112, 0.00193, -0.02292, -0.0067, 0.00241, -0.00609, 0.00304, -0.01444], "b": [0.15063, -0.04976, -0.05625, -0.02277, 0.09054, -0.00663, 0.11993, -0.21089, -0.00205, 0.16617, 0.02328, 0.05571, 0.06218, -0.0752, -0.04715, 0.03342, -0.051, -0.08041, 0.02768, 0.03627, 0.03467, -0.13967, -0.05449, -0.12457, 0.15593, -0.12756, 0.11903, 0.11975, -0.16301, 0.1341, -0.18278, -0.04433], "in": 32, "out": 32}, {"w": [-0.27279, -0.24046, -0.2568, -0.2566, 0.26664, 0.27343, -0.27332, -0.22438, 0.28176, -0.23963, 0.25346, 0.25366, 0.2613, -0.28637, -0.31154, 0.25297, -0.21942, 0.22892, 0.24426, 0.23357, 0.23853, 0.26931, -0.29243, 0.27352, -0.25944, 0.25074, 0.13512, -0.27879, 0.22187, -0.24441, -0.32321, -0.28896, -0.17451, -0.15742, -0.16876, -0.03187, 0.18234, 0.15359, -0.18738, -0.13766, 0.15759, -0.02024, 0.1965, 0.13594, 0.1424, -0.15756, -0.06332, 0.15428, -0.14651, 0.21623, 0.16786, 0.13969, 0.22046, 0.17146, -0.17758, 0.1744, -0.10549, 0.17497, 0.31091, -0.13051, 0.15281, -0.15693, -0.21823, -0.10178, -0.13122, -0.11885, -0.13152, 0.00049, 0.13777, 0.11233, -0.14664, -0.0993, 0.1128, 0.0275, 0.15498, 0.10114, 0.09868, -0.10923, 0.18804, 0.11469, -0.10683, 0.17315, 0.13193, 0.09843, 0.17627, 0.12653, -0.13299, 0.13234, -0.06613, 0.12927, 0.29683, -0.08991, 0.11613, -0.11609, -0.16084, -0.05663], "b": [0.02705, -0.00473, -0.06675], "in": 32, "out": 3}], "psnr": 24.03}