{"hidden": 32, "omega0": 30.0, "layers": [{"w": [-0.28235, 0.36162, 0.15821, 0.10102, 0.39494, -0.45814, 0.38199, 0.16467, -0.30254, 0.11711, -0.16023, -0.20763, -0.02365, -0.20569, 0.41756, 0.4247, -0.01813, -0.443, 0.00758, 0.04288, 0.32091, 0.0022, 0.12859, 0.12404, -0.26361, -0.31256, -0.41414, -0.00448, 0.14726, -0.03413, 0.42616, -0.12104, -0.32597, 0.07439, -0.14033, -0.04729, 0.46867, -0.01246, 0.42267, 0.0888, -0.14503, 0.37703, -0.28764, 0.02244, 0.12784, 0.24754, -0.44095, 0.00876, -0.12968, 0.30874, 0.1683, 0.16861, 0.26623, -0.12826, -0.00277, 0.40063, -0.39153, -0.33808, 0.03535, -0.19268, 0.00813, 0.45269, -0.06969, -0.4139], "b": [0.37041, -0.07428, 0.05255, 0.1663, 0.4452, 0.70537, -0.5392, -0.24761, 0.25607, 0.61155, 0.61504, 0.62078, 0.13037, -0.62456, 0.07117, -0.45141, -0.66641, 0.64666, 0.51209, -0.68995, 0.11436, -0.13743, -0.1162, -0.33989, 0.26214, -0.42125, 0.25858, 0.36295, 0.51175, 0.27908, -0.71168, -0.47279], "in": 2, "out": 32}, {"w": [0.00184, 0.00802, 0.00394, -0.00852, 0.01247, 0.01619, -0.02959, 0.00384, -0.00593, -0.01978, -0.01681, 0.01519, 0.00329, 0.00941, -0.03181, -0.01289, 0.00843, -0.01465, 0.00803, 0.00219, 0.00529, -0.00467, 0.00638, -0.01234, 0.00024, -0.00249, 0.0047, -0.00213, -0.01418, 0.00532, -0.02166, -0.03278, 0.00226, 0.00643, -0.00651, 0.00574, -0.00813, 0.01691, -0.00253, -0.00376, -0.00804, 0.00745, -0.00983, 0.03438, -0.00712, -0.01824, -0.00128, 0.00532, 0.0052, -0.0234, 0.00048, -0.00011, -0.00679, 0.01051, -0.02206, -0.00673, -0.00195, 0.00884, 0.01625, -0.00259, 0.00952, 0.02167, -0.02726, 0.00957, 0.00445, 0.00475, 0.00449, -0.00072, 0.01016, 0.00455, 0.00669, 0.00143, 0.02355, -0.03816, 0.00871, 0.02911, -0.00172, -0.0053, -0.02091, -0.00915, 0.0218, 0.01015, 0.00221, 0.00826, -0.01138, 0.01353, -0.01396, 0.00609, 0.01092, -0.03741, -0.00127, 0.01053, -5e-05, 0.03558, -0.00683, 0.01656, -0.00099, 0.01252, 0.00137, -0.00758, -0.02266, -0.01511, -0.01028, 0.00532, 0.01313, 0.01786, 0.01037, -0.00391, 0.00015, -0.00665, 0.0059, -0.00829, 0.01607, 0.00573, 0.00131, 0.00655, 0.01341, 0.00975, -0.00595, -0.00149, -0.00596, 0.00456, 0.01203, -0.01887, 0.00364, 0.00912, 0.0089, -0.01923, -0.00916, 0.00824, 0.001, 0.00483, 0.00509, -0.01677, 0.01049, 0.00266, 0.0224, -0.0222, 0.0156, 0.00726, 0.00287, 0.0142, -0.00182, -0.00519, 0.00452, 0.0124, -0.01257, -0.00373, -0.00308, -0.00011, -0.02233, 0.00481, 0.00289, 0.00496, -0.0074, 0.02185, -0.00291, -0.04613, -0.02856, 0.00687, -0.00256, 0.00048, 0.00807, 0.00907, -0.00684, -0.0082, 0.03889, 0.00145, -0.02226, -0.00819, 0.01001, 0.00532, -0.00706, -0.00265, -0.00025, -0.00436, -0.00266, -0.01183, 0.00214, 0.00935, 0.01466, -0.00039, -0.01076, -0.00816, 0.01128, 0.00938, -0.00159, -0.02561, 0.00934, 0.02827, -0.00193, 0.01051, -0.00164, -0.02673, -0.00891, -0.00274, -0.00479, 0.00605, 0.00769, -0.0065, -0.01324, -0.02254, 0.00656, 0.00302, 0.0144, -0.02844, 0.0268, 0.01323, -0.01192, -0.01292, 0.00721, -0.01692, -0.0227, -0.03072, 0.02263, -0.00828, -0.00464, -0.01852, 0.02136, 0.00092, 0.00206, -0.04612, -0.00049, -0.02595, 0.01955, 0.02509, 0.00175, 0.00349, 0.01475, 0.04118, -0.02848, 0.01316, 0.03725, -0.02986, -0.01468, -0.00527, 0.00544, -0.01691, 0.00489, 0.00935, 0.00413, 0.0096, 0.00653, -0.02278, -0.01929, 0.00076, 0.01018, -0.00428, 0.01797, -0.02242, -0.00326, -0.0233, -0.01554, 0.00979, 0.01314, -0.01017, -0.02276, -0.00395, -0.00493, 0.00343, -0.0498, 0.0176, -0.00363, -0.003, 0.02897, -0.01405, -0.00224, -0.01849, -0.04289, -0.04721, 0.00798, -0.0021, -0.01451, 0.0203, 0.01427, -0.01883, 0.00527, 0.01264, 0.01831, -0.00722, 0.00945, 0.00688, -7e-05, 0.044, -0.00586, -0.00435, 0.01169, -0.01074, 0.00511, -0.00805, 0.00472, -0.00265, 0.0071, 0.00418, 0.04624, -0.01036, -0.03286, 0.02855, 0.00473, 0.00574, 0.00527, -0.0085, 0.00525, 0.00266, 0.01419, 0.00571, -0.00885, -0.00363, -0.00027, -0.00421, -0.00445, -0.00858, -0.00678, -0.00856, -0.00381, -0.05581, 0.00783, 0.03024, -0.02894, 0.01303, -0.00065, -0.02708, 0.0014, 0.01926, -0.00997, -0.00147, -0.00956, -0.01274, 0.01673, -0.00073, 0.01905, -0.02502, -0.01069, -0.04665, -0.01127, 0.00045, -0.01099, -0.0324, 0.01027, -0.00328, -0.00475, 0.00071, 0.02334, 0.00818, -0.01585, -0.00397, -0.02129, 0.0038, 0.00716, -0.0107, 0.00083, -0.01813, 0.01502, 0.00949, 0.0014, 0.00471, -0.00521, -0.01996, 0.02107, 0.01231, -0.044, 0.00181, 0.01861, 0.01559, -0.00322, -0.01836, -0.00397, 0.01031, 0.00695, -0.02151, 0.00854, 0.01078, -0.006, -0.00162, 0.00012, 0.00446, -0.02869, 0.02194, 0.00228, 0.01688, 0.01441, 0.01515, -0.02562, -0.00303, -0.0119, -0.01892, 0.00428, 0.0025, 0.01323, -0.00303, -0.01451, -0.00357, -0.00887, 0.01176, 0.00174, -0.00722, 0.00796, 0.01754, -0.02043, -0.00694, -0.01274, -0.01573, -0.00272, -0.0103, 0.00298, 0.00073, 0.00904, 0.01047, -0.0013, 0.01827, -0.00642, -0.01359, 0.00127, 0.01877, 0.00488, -0.03268, -0.01645, 0.00531, 0.00182, 0.00766, -0.01817, -0.02898, -0.00716, -0.00151, 0.01538, -0.00897, 0.00531, 0.02313, 0.01445, -0.0019, -0.01087, -0.00788, 0.00949, -0.02189, -0.00065, 0.01201, -0.0357, 0.01238, -0.01138, -0.00588, 0.0099, -0.00761, 0.01192, 0.01359, 0.00667, 0.01921, 0.00151, -0.0227, -0.01586, -0.00138, 0.0129, -0.03435, -0.00956, -0.04456, -0.00756, 0.00585, 0.00634, -0.01421, -0.00542, -0.0284, 0.04144, 0.02458, 0.02184, 0.0069, 0.01485, 0.00251, -0.00939, -0.01201, 0.01599, 0.00526, 0.00425, -0.00117, 0.0146, 0.01617, 0.01279, -0.00566, 0.01267, -0.00518, -0.00257, 0.00972, 0.00627, -0.00679, 0.00344, 0.00637, 0.01119, 0.0194, -0.00336, -0.00737, 0.01103, -0.00033, 0.00176, -0.00025, 0.0224, 0.003, -0.02245, -0.0017, 0.01385, 0.00104, -0.0139, 0.0121, -0.03446, -0.00649, -0.01266, 5e-05, -0.02102, -0.02573, 0.02437, 0.05159, 0.01505, -0.00976, -0.02307, 0.04851, 0.00429, 0.00219, -0.00402, 0.00069, 0.02019, 0.04118, -0.04472, 0.00984, -0.00192, -0.0237, 0.01054, 0.00306, -0.00554, 0.0055, -0.00752, 0.03645, -0.00102, -0.00744, -0.02117, -0.01762, -0.02108, -0.00172, 0.06668, 0.02719, -0.01068, 0.03101, -0.03332, 0.01009, -0.00035, -0.00091, -0.0112, 0.01482, 0.00729, 0.00571, -0.00985, -0.00885, -0.01158, 0.012, -0.03219, 0.0028, 0.01273, -0.0314, -0.012, -0.00728, -0.01494, 0.00729, 0.00547, 0.00489, -0.00246, -0.00287, -0.00299, 0.00625, 0.00936, 0.00768, 0.03281, 0.0043, -0.01296, 0.00552, 0.00038, 0.05321, 0.00271, -0.00832, -0.02095, 0.00296, -0.00363, 0.01673, -0.01475, -0.01124, -0.01913, -0.01391, 0.00984, 0.01655, -0.02084, -0.01408, -0.0184, 0.00703, -0.00802, 0.02768, 0.00916, 0.01104, -0.02045, 0.03553, -0.0025, 0.02115, 0.01987, 0.0079, -0.01247, 0.00133, 0.0028, 0.00301, -0.00586, 0.00277, -0.02993, 0.00966, -0.00222, 0.00594, -0.0192, 0.01277, -0.00446, -0.00198, -0.01166, -0.02095, 0.02955, -0.01525, 0.0066, 0.00818, 0.02621, -0.01412, 0.00643, -0.00116, -0.0032, 0.00011, -0.00138, 0.01928, -0.0081, -0.01702, -0.02177, 0.00994, -0.00458, 0.00377, 0.00911, 0.04203, -0.02042, 0.04101, 0.00951, 0.01718, -0.00294, 0.02588, -0.01844, -0.01129, -0.0252, -0.02988, 0.03512, 0.00032, -0.02795, 0.00615, 0.02305, 0.01046, -0.01996, -0.00551, -0.0161, 0.03762, -0.00649, 0.00942, -0.01383, 9e-05, -0.02062, -0.00148, -0.00525, -0.01074, -0.00078, 0.02167, -0.00539, 0.02358, -0.03601, 0.03068, -0.04715, -0.01983, 0.01117, 0.00695, 0.02086, -0.01148, -0.01009, 0.00201, 0.0135, -0.04464, -0.0381, 0.01441, -0.02219, 0.01835, -0.00579, 0.0084, 0.01039, -0.0001, 0.0335, 0.00885, -0.00217, 0.02223, 0.00581, 0.00705, -0.02142, 0.01434, -0.01855, 0.01945, -0.02908, -0.01121, 0.01263, -0.00119, 0.01911, 0.05119, 0.00305, -0.03437, 0.01819, 0.0087, 0.00051, 0.00724, 0.01304, 0.01738, 0.03015, -0.00589, 0.00079, 0.0017, 0.01096, 0.01369, 0.00239, -0.00788, -0.00621, 0.01247, 0.01248, -0.00822, -0.01399, -0.01276, 0.00454, 0.00938, 0.01455, -0.0087, 0.01539, -0.0185, 0.00075, -0.01093, 0.00016, 0.00272, -0.00947, -0.01122, 0.00344, 0.00915, 0.00272, -0.00405, -0.01495, -0.01198, 0.02116, 0.00859, -0.01208, -0.01332, 0.01477, 0.02151, 0.01569, 0.01628, 0.00308, -0.00679, -0.02168, 0.02354, -0.00375, 0.01858, -0.0044, 0.00312, -0.01208, -0.00385, -0.02138, 0.00409, 0.00805, 0.02297, 0.00349, -0.00185, 0.00494, 0.00927, 0.00177, -0.0346, 0.05143, 0.00978, 0.0063, 0.04771, -0.0055, -0.00951, 0.05044, -0.00108, -0.00455, 0.01599, 0.00159, -0.04251, -0.01523, -0.01495, 0.00555, -0.00513, 0.02154, -0.03607, 0.00109, -0.02005, -0.00704, 0.00528, -0.0058, -0.01037, -0.01049, 0.06865, 0.03979, -0.02904, -0.00567, 0.01922, -0.02873, 0.00228, 0.00969, 0.02283, -0.04408, -0.00794, -0.00957, 0.02194, -0.00182, 0.00054, 0.0235, -0.02346, 0.01626, 0.01724, 0.00477, -0.0021, -0.00236, 0.02039, -0.00362, 0.00833, -0.01375, -0.00387, -0.01454, 0.00172, 0.0199, -0.00576, 0.00115, -0.02631, -0.02039, -0.0033, 0.01217, -0.0088, 0.00398, -0.02006, -0.00521, 0.00261, -0.00765, 0.02984, 0.02922, 0.00084, 0.01063, -0.01278, -0.00482, 4e-05, -0.0124, -0.0059, -0.01567, 0.00436, -0.0094, -0.02633, 0.00527, 0.01225, -0.00779, 0.00124, 0.0149, -0.00609, 0.01461, -0.00364, 0.00586, 0.04494, -0.015, -0.00472, -0.04055, -0.00274, -0.00929, 0.0403, -0.02668, -0.00958, 0.01001, -0.03485, -0.01793, 0.00161, 0.0097, -0.01269, -0.00298, -0.02042, 0.01404, 0.01376, 0.00294, 0.04258, -0.03344, -0.01205, -0.04448, -0.01587, -0.00749, -0.03172, -0.01261, 0.02253, -0.00911, 0.03781, -0.02913, 0.00228, -0.01397, 0.02899, -0.01649, 0.00484, -0.02325, -0.00879, 0.00343, -0.00483, 0.00426, 0.00772, -0.00065, 0.00162, 0.00367, -0.04253, 0.02088, -0.00062, -0.00862, 0.01419, -0.00737, 0.00481, 0.02282, -0.00338, -0.01078, -0.01236, -0.01982, 0.00669, -0.00141, 0.01049, -0.00052, -0.00639, 0.01208, -0.00044, -0.00222, 0.00359, -0.00264, -0.01051, -0.01671, -0.00342, -0.02356, -0.01077, -0.00756, 0.00827, -0.00771, -0.01109, -0.0002, -0.0007, 0.00418, -0.00935, -0.01032, 0.0114, 0.01341, 0.00062, -0.01148, 0.02138, -0.00464, -0.01303, 0.00774, 0.01704, -0.00917, 0.01957, -0.00563, -0.00851, 0.00332, -0.0008, -0.00803, -0.00818, -0.00621, 0.01048, -0.00376, -0.02874, -0.00551, -0.00723, -0.00174, 0.02818, -0.0091, 0.00229, -0.01583, -0.01453, -0.00104, -0.01343, 0.00263, -0.01473, 0.00482, -0.00552, 0.01119, -0.01354, -0.00287, 0.00291, 0.00047, -0.00916, 0.00822, -0.00364, -0.00799, 0.00438, -0.00399, -0.01339, 0.00026, 0.00213, -0.00548, -0.01707, 0.01292, 0.00275, -0.01497, 0.00241, 0.01356, 0.0153, 0.00968, 0.00549, -0.00985, 0.01806, -0.02918, 0.01554, 0.00383, 0.00513, 0.00635, -0.01372, -0.00801, 0.00669, 0.01733, 0.03099, 0.01127, -0.00273, -0.00692, -0.00776, 0.00537, 0.01828, -0.00348, -0.02439, -0.00961, -0.00467, 0.03359, -0.02864], "b": [-0.02697, -0.15574, -0.12351, -0.005, -0.15732, 0.00418, -0.11682, -0.09843, 0.0696, -0.16188, -0.14781, 0.11148, 0.03271, 0.16059, -0.06999, -0.08567, -0.01689, 0.02035, 0.14844, -0.18022, 0.00262, 0.08255, -0.09822, -0.10266, 0.10316, -0.17978, 0.05395, -0.15762, 0.11109, -0.14856, 0.10585, -0.1628], "in": 32, "out": 32}, {"w": [0.03368, 0.00643, 0.01124, -0.00817, 0.01558, 0.02419, -0.01386, -0.02316, -0.01443, -0.01796, -0.0096, -0.009, 0.00798, 0.00954, 0.00957, 0.02604, 0.00469, -0.00586, -0.0005, -0.00645, -0.00772, 0.00243, 0.02474, -0.01278, -0.00648, -0.00341, -0.03739, -0.00893, -0.01241, -0.01102, -0.00135, -0.03268, -0.00185, 0.00862, 0.00457, 0.0118, -0.02103, 0.00496, 0.00571, -0.0083, -0.00225, -0.0034, 0.0024, 0.01144, -0.01105, -0.00247, 0.00999, 0.00543, 0.00267, 0.00607, 0.02524, -0.00357, 0.00616, 0.01277, -0.0138, -0.00846, -0.00053, 0.00468, -0.02975, 0.00189, 0.00671, -0.03077, -0.00265, 0.00523, -0.01807, -0.02148, 0.04425, 0.0067, 0.00778, -0.03334, -0.01485, 0.00897, -0.00329, 0.01434, -0.00913, 0.02668, -0.0094, -0.00729, 0.02588, 0.01578, 0.01229, 0.01683, 0.00734, -0.02108, 0.02234, -0.00949, -0.00485, 0.00214, -0.01845, -0.00105, -0.0211, -0.0176, 0.01657, -0.02631, 0.01175, -0.01413, 0.02052, 0.01207, 0.00572, -0.01807, 0.00514, -0.03265, -0.01391, -0.00822, -0.00949, 0.0067, -0.01555, -0.0224, 0.01424, -0.00362, 0.00301, 0.00574, 0.00176, 0.0209, -0.00029, -0.02708, -0.01226, 0.01063, 0.00437, 0.00746, -0.00573, -0.02428, -0.02746, -0.02144, -0.00752, 0.0206, 0.00728, 0.00196, 0.01907, 0.00257, 0.0146, 0.01077, 0.0195, 0.01519, 0.0019, -0.00187, -0.00327, -0.00135, 0.00468, 0.00758, -0.01209, -0.00302, 0.01126, 0.01571, -0.00498, -0.01256, 0.0031, 0.00161, -0.0046, -0.00901, 0.01195, -0.00062, -0.00526, 0.0117, -0.01157, -0.00872, 0.01473, -0.00402, 0.03221, -0.009, -0.0155, -0.0019, -0.00261, -0.031, 0.00549, -0.00095, -0.01381, 0.0093, 0.00471, -0.00048, 0.00083, -0.0228, -0.0223, -0.02335, -0.01194, -0.01624, 0.01176, 0.00824, 0.01545, 0.00342, -0.00294, -0.00699, -0.04853, 0.01166, -0.01339, -0.00666, -0.04372, -0.01431, -0.01416, -0.01244, -0.02822, 0.00725, 0.02206, 0.01005, 0.0069, -0.0596, -0.01515, 0.03733, -0.02328, -0.00531, -0.01833, -0.02379, -0.01959, -0.04377, -0.00279, 0.00576, -0.02555, 0.01949, 0.0324, 0.01869, -0.00167, -0.0178, -0.01238, 0.0304, -0.00207, 0.02672, -0.01094, -0.03034, -0.03343, -0.02219, -0.04998, 0.01275, -0.02586, -0.00457, 0.02, -0.04172, -0.02723, 0.00746, -0.02932, 0.02183, 8e-05, -0.00189, 0.00066, -0.03262, -0.01033, -0.01795, 0.02654, 0.02543, 0.00251, 0.00715, 0.00442, -0.01265, 0.01444, 0.016, -0.01013, 0.01065, -0.01435, -0.00698, 0.00585, 0.02588, -0.00363, -0.01562, -0.03017, 0.01158, 0.01345, 0.02386, 0.02665, -0.01057, -0.0113, -0.00099, 0.0076, 0.03207, 0.01391, -8e-05, 0.01168, -0.02441, -0.01357, 0.0008, 0.01467, 0.02025, 0.01042, -0.00774, -0.00693, -0.01738, -0.02209, 0.01798, -0.02038, -0.00879, 0.02276, -0.00074, 0.01876, 0.01835, 0.00357, 0.00372, 0.00246, 0.01867, 0.00927, -0.00322, -0.033, -0.0086, -0.00932, -0.01718, 0.0057, -0.00503, 0.00138, 0.02203, 0.00635, 0.00485, 0.01129, -0.00455, -0.00471, -0.01661, -0.01503, -0.0241, 0.00847, 0.00917, 0.00754, 0.0116, -0.0087, -0.00337, -0.0419, 0.02261, -0.00238, -0.00614, -0.0089, -0.00556, -0.00954, 0.00779, -0.00135, 0.0049, 0.00361, 0.0049, 0.00367, -0.03227, -0.04263, 0.02418, -0.03886, -0.01687, -0.01943, -0.00421, 0.00948, -0.02068, 0.01465, -0.02403, 0.00238, 0.02068, 0.01711, -0.00934, 0.03327, -0.0124, 0.03079, 0.02219, -0.02149, -0.00163, -0.02372, -0.00696, -0.03744, -0.01924, -0.03688, -0.00189, -0.0509, -0.00717, 0.01205, 0.02357, -0.00603, 0.00157, -0.00663, 0.02508, 0.01409, -0.00676, 0.01448, -0.01658, 0.01628, -0.00685, 0.02578, 0.02352, -0.01124, 0.00162, 0.01331, -0.02603, -0.0099, -0.00318, 0.01577, 0.0098, -0.01934, -0.02721, 0.0133, 0.01205, 0.00588, 0.00284, 0.01912, 0.02415, -0.01472, -0.00953, -0.01119, 0.02467, 0.01844, -0.00345, 0.02824, 0.00415, -0.01579, -0.01354, -0.02637, 0.02057, 0.00182, -0.02457, -0.00796, -0.01726, -0.01291, 0.01032, 0.0117, 0.02645, 0.00414, -0.01344, 0.01541, -0.00584, 0.04639, 0.02937, 0.00509, -0.00067, -0.03512, 0.00752, -0.00828, -0.0389, 0.03528, -0.01588, -0.0302, -0.00715, -0.03902, 0.04369, 0.04879, -0.03057, -0.03826, -0.00152, -0.03301, 0.01731, -0.04585, -0.03345, -0.02783, 0.03932, -0.02758, -0.01989, 0.0082, -0.05197, 0.01515, 0.00819, -0.03129, 0.00214, 0.04615, -0.00828, -0.00599, -0.03222, -0.02417, 0.01096, -0.00207, 0.02346, 0.00982, -0.00466, 0.00904, 0.02949, -0.02075, 0.01714, 0.01706, 0.00638, -0.00729, -0.00234, 0.01291, -0.01342, 0.00026, 0.00701, -0.00338, -0.00589, -0.0053, 0.00175, -0.02484, -0.01526, -0.00653, -0.00652, -0.01432, -0.01422, 0.05431, 0.0005, 0.01976, 0.00427, -0.00755, 0.02111, 0.0083, -0.0302, 0.01649, -0.00681, 0.00199, 0.00928, -0.01893, 0.03288, -0.00597, 0.00865, 0.0206, 0.02479, 0.01386, -0.01827, -0.00259, 0.00615, 0.03523, 0.00544, -0.00283, -0.03202, 0.00206, 0.00323, 0.0069, 0.02165, -0.01678, 0.0154, -0.03575, 0.00559, 0.00221, 0.00599, 0.00097, 0.01076, 0.00396, 0.02707, 0.0209, -0.0022, 0.00381, -0.00396, 0.0016, -0.00515, -0.00167, 0.01252, -0.01516, -0.00632, -0.00956, -0.00208, -0.00067, -0.00798, -0.01065, 0.00051, -0.00253, 0.00432, -0.00335, -0.00297, -0.00109, -0.0071, 0.00131, 0.00331, -0.0014, 0.00489, -0.00259, -0.00194, -0.01084, -0.00615, -0.01008, 0.00801, -0.00038, -0.00041, -0.01032, -0.01036, -0.00432, 0.02716, 0.01904, -0.02439, 0.00949, 0.01443, 0.00881, 0.01448, -0.00549, 0.00868, -0.00169, -0.00887, 0.02054, -0.00674, -0.01254, 0.00973, -0.01228, -0.00692, -0.01619, -0.0032, 0.00267, 0.00483, 0.00326, 0.00379, 0.00059, 0.00918, 0.03028, -0.00553, 0.03644, 0.00477, -0.0154, 0.01473, -0.03792, 0.04712, 0.03811, -0.01461, 0.00537, 0.00192, 0.00819, -0.0375, 0.00727, 0.02077, 0.02557, 0.01026, 0.00351, -0.01679, -0.0419, -0.00487, 0.01371, 0.00819, -0.00665, 0.00196, 0.0016, 0.01186, -0.00223, 0.00247, -0.01113, 0.01354, 0.00701, -0.00374, 0.00743, 0.01363, -0.00961, 0.00904, -0.01538, 0.04688, 0.00293, 0.02491, 0.02761, 0.0191, 0.02668, -0.02234, 0.02047, 0.04192, -0.00954, -0.00318, 0.01305, -0.02591, -0.01691, -0.00744, -0.01332, 0.02538, -0.01028, -0.02414, -0.00821, -0.0093, 0.03374, 0.01262, 0.03603, 0.01341, 0.0287, -0.00037, 0.01122, 0.00981, -0.00807, 0.00449, 0.00639, -0.00837, -0.025, -0.02318, -0.0063, -0.00379, -0.00194, 0.04039, 0.00952, -0.00364, -0.01283, 0.0135, -0.00063, 0.01854, -0.00694, 0.03872, -0.00152, -0.00072, -0.00289, -0.00195, 0.00325, -0.01214, -0.00819, -0.00774, -0.03717, 0.00753, -0.00368, -0.01482, -0.01305, -0.031, -0.01099, 0.00674, -0.00958, -0.01007, -0.02219, -0.01883, -0.01136, -0.00228, 0.01417, -0.00198, 2e-05, -0.01491, 0.02372, 0.0003, -0.00485, -0.02353, -0.01191, 0.00454, 0.00611, 0.01445, -0.01221, 0.0127, -0.01931, 0.01397, 0.00219, 0.02064, 0.03034, 0.01673, 0.01474, 0.0169, -0.00495, 0.00368, 0.01747, -0.03348, 0.0014, 0.00231, -0.01011, 0.00537, 0.00161, -0.00071, -0.00709, 0.00813, -0.00423, -0.00273, -0.02447, 0.01506, -0.00743, -0.00031, -0.00871, 0.00296, 0.00967, 0.00534, 0.00106, 0.00141, 0.00375, -0.00522, 0.00204, -0.01445, -0.01436, -0.00384, -0.0128, 0.00077, 0.01214, -0.00097, 0.00414, 0.02447, 0.00946, 0.02046, 0.01125, -0.02574, 0.01911, 0.00597, 0.01469, 0.01304, 0.00138, 0.0282, -0.00543, -0.00321, 0.01109, -0.00576, -0.01772, -0.00771, -0.0035, 0.01399, -0.01315, -0.00623, 0.00623, -0.00403, 0.00808, 0.01393, 0.01017, 0.00912, 0.02823, 0.01372, 0.01539, 0.00901, -0.00714, 0.03083, 0.00606, -0.00448, 0.01565, -0.0306, 0.00391, -0.01809, -0.02281, 0.01235, -0.00647, -0.01897, 0.00696, -0.00655, -0.01381, 0.00877, -0.0009, -0.00278, -0.00679, -0.01976, -0.01065, 0.00293, 0.02055, 0.00272, -0.01994, 0.01133, -0.02271, 0.00929, -0.0031, -0.02499, 0.00333, -0.02222, -0.03106, 0.01005, -0.00533, -0.01429, 0.00824, -0.00736, 0.02623, 0.01494, 0.00701, -0.0152, 0.00931, 0.01718, 0.01338, 0.034, 0.0032, -0.00578, -0.00915, 0.00308, -0.03269, 0.04065, -0.00351, -0.03232, -0.02536, -0.0064, -0.00641, 0.0438, 0.0286, 0.01851, 0.02565, -0.02144, 0.00887, 0.00052, 0.00423, 0.00712, -0.04735, -0.00293, 0.01134, -0.0212, 0.04431, 0.0142, -0.00472, -0.04531, 0.02498, -0.00014, 0.03249, 0.02874, -0.01747, 0.00497, -0.02645, -0.00594, 0.01507, -0.0139, 0.01136, 0.0053, -0.01446, 0.00857, 0.00756, -0.0032, -0.02302, -0.00482, -0.02066, 0.0174, -0.0108, 0.03144, -0.0302, -0.0014, -0.00262, 0.00138, 0.01752, -0.02383, -0.00106, 0.02922, 0.00355, 0.01775, 0.01106, -0.00527, 0.04087, -0.00431, -0.01629, -0.01248, -0.00914, -0.01024, -0.02464, 0.00112, -0.0131, -0.00764, -0.00452, 0.01232, -0.00183, -0.01335, 0.04533, 0.00946, 0.02862, 0.03068, 0.01404, -0.01315, -0.00052, 0.01193, -0.01551, 0.0016, -0.00617, -0.03074, 0.02398, 0.01606, 0.03473, 0.00069, 0.00645, 0.00773, 0.01032, 0.01469, 0.01403, -0.01722, -0.00882, -0.01444, -0.01752, 0.00787, -0.01361, -0.01366, -0.00324, -0.00237, 0.01205, 0.01194, 0.04261, 0.00611, 0.03326, -0.01121, -0.0004, 0.02013, -0.01217, -0.00702, 0.05739, -0.00933, 0.01606, -0.01446, 0.01005, -0.02141, 0.00598, 0.04122, 0.00176, 0.01011, -0.02139, -0.01291, 0.02113, 0.00149, 0.02455, -0.00136, 0.00911, 0.01569, -0.00434, -0.01303, 0.01197, -0.01843, 0.00203, 0.0103, -0.00299, -0.00933, 0.03499, -0.01729, 0.00791, -0.02942, 0.00181, 0.00432, -0.01068, -0.02729, -0.01007, 0.01046, -0.01106, -0.00027, -0.00014, -0.01537, -0.00244, -0.02547, 0.02471, -0.00811, -0.00803, 0.01287, 0.01892, 0.00098, -0.00352, -0.01856, -0.0043, 0.01633, 0.00327, 0.00896, -0.00697, 0.00267, 0.00095, 0.00191, -0.02494, 0.0036, -0.02151, -0.00755, 0.00789, -0.00014, -0.00688, -0.01656, -0.0235, 0.01367, -0.01095, -0.0004, -0.02121, -0.00978, -0.00083, -0.01256, -0.00784, 0.00073, -0.00525, 0.01768, 0.00363, -0.00421, 0.00653, -0.00095, -0.00075, -0.00607, -0.01087, 0.02037, -0.02207, -0.01504, -0.02994, -0.01571, -0.02394, 0.02114, -0.015, -0.0215], "b": [0.1155, 0.00677, -0.06574, 0.00208, 0.06642, 0.00503, 0.10572, -0.16341, -0.11733, 0.12196, 0.03472, 0.04997, 0.04669, -0.03882, -0.06742, 0.04614, -0.01289, -0.08011, 0.04261, 0.02099, -0.02127, -0.11153, -0.05574, -0.12744, 0.10804, -0.13248, 0.16789, 0.04161, -0.14495, 0.12396, -0.17108, 0.01041], "in": 32, "out": 32}, {"w": [-0.12758, -0.01349, -0.19855, 0.277, -0.16141, 0.15275, -0.21783, -0.23612, 0.23826, 0.16343, 0.14502, 0.27427, 0.19057, -0.19458, 0.14604, 0.22819, 0.00984, 0.15523, 0.22109, 0.3109, -0.31854, 0.24126, 0.03735, 0.06487, -0.22532, 0.19869, -0.20615, 0.11308, 0.15082, -0.22869, -0.09266, 0.21511, -0.12042, 0.05487, -0.16757, 0.18276, -0.12028, 0.14599, -0.16684, -0.14895, 0.17161, 0.16484, 0.13026, 0.20167, 0.14794, -0.12949, 0.13603, 0.18548, 0.01935, 0.159, 0.1495, 0.21882, -0.22771, 0.19884, -0.14312, 0.13754, -0.1787, 0.13484, -0.14724, 0.13137, 0.12643, -0.13431, -0.14855, 0.16781, -0.18531, 0.20306, -0.08139, 0.12681, -0.22329, 0.15214, -0.15231, -0.0792, 0.15472, 0.21411, 0.16433, 0.08312, 0.12468, -0.0723, 0.1813, 0.10729, 0.24664, 0.21917, 0.0606, 0.17481, -0.07479, 0.16986, -0.22857, 0.23056, -0.09424, 0.11205, -0.08996, 0.19242, 0.19283, -0.04211, -0.22063, 0.19007], "b": [-0.35469, -0.10859, -0.10912], "in": 32, "out": 3}], "psnr": 27.67}