{"hidden": 32, "omega0": 30.0, "layers": [{"w": [-0.30649, 0.33844, 0.11269, 0.11226, 0.3985, -0.45559, 0.37678, 0.13132, -0.32642, 0.13087, -0.15445, -0.1728, -0.06809, -0.23926, 0.44435, 0.38666, -0.03978, -0.45825, -0.05422, 0.01617, 0.32877, 0.01781, 0.17362, 0.13901, -0.2773, -0.26964, -0.41078, 0.00087, 0.13579, -0.00252, 0.47078, -0.13606, -0.34915, 0.07329, -0.13857, -0.05433, 0.5296, -0.0602, 0.41296, 0.05116, -0.18617, 0.3534, -0.25614, 0.03187, 0.11599, 0.24655, -0.44547, 0.04041, -0.12268, 0.34976, 0.14699, 0.19812, 0.28821, -0.11071, -0.03075, 0.389, -0.38939, -0.34984, 0.02387, -0.18005, 0.02866, 0.43548, -0.05045, -0.4036], "b": [0.38882, -0.05713, 0.03227, 0.15941, 0.4419, 0.67004, -0.55215, -0.27116, 0.26253, 0.58782, 0.60254, 0.64618, 0.14074, -0.5985, 0.0496, -0.42731, -0.64546, 0.63689, 0.53856, -0.71676, 0.12079, -0.11727, -0.12144, -0.33137, 0.27379, -0.42937, 0.26438, 0.36056, 0.47806, 0.26359, -0.70669, -0.4812], "in": 2, "out": 32}, {"w": [-0.01534, 0.00124, 0.00731, 0.00833, -0.01527, -0.01713, -0.02483, 0.01934, -0.03071, 0.06525, 0.00028, -0.01028, 0.01711, 0.0091, -0.02742, 0.00146, -0.02053, -0.00556, -0.01422, 0.01551, -0.01138, -0.00118, 0.0104, -0.00454, -0.02356, 0.00475, 0.00991, 0.00577, -0.02037, 0.00484, -0.02901, -0.02558, -0.00648, 0.00445, 0.00677, 0.0096, 0.00552, -0.03394, -0.00362, -0.00072, 0.0233, 0.01211, -0.02308, 0.00655, -0.02378, 0.00242, 0.00246, -0.00103, 0.01405, 0.01629, -0.00096, 0.01452, -0.02202, -0.01704, 0.02858, -0.02499, -0.01956, -0.00174, -0.01181, -0.00782, 0.00541, -0.00992, 0.01006, 0.01567, 0.02506, -0.06139, -0.00439, 0.01789, -0.01359, -0.03975, 0.0135, -0.01435, 0.00322, 0.00829, 0.03963, -9e-05, -0.00641, -0.02768, -0.01408, -0.00901, 0.00773, -0.04601, -0.00759, -0.00151, -0.01208, 0.01312, 0.00505, 0.01967, -0.02472, -0.00306, -0.01583, 0.03608, 0.00273, 0.00249, 0.00139, 0.0276, -0.01982, -0.01225, 0.01946, 0.00307, 0.01501, -0.02153, -0.01442, 0.00809, -0.03464, 0.03523, 0.02438, 0.02721, -0.00983, 0.00311, 0.028, -0.03339, -0.01871, -0.01179, -0.0422, -0.01161, -0.04083, 0.02646, -0.05458, -0.02746, -0.01896, -0.01944, 0.04646, -0.0232, -0.04357, 0.02466, 0.00096, -0.03232, -0.01657, 0.01514, 0.00058, 0.01149, -0.00166, 0.00797, 0.02447, -0.01402, -0.01141, -0.03964, 0.00886, 0.02665, -0.00846, -0.038, -0.00278, 0.01595, -0.02959, -0.00416, -0.00655, 0.0199, -0.02571, 0.00688, 0.02303, -0.00571, -0.03078, 0.02453, 0.00573, 0.01891, -0.01039, -0.00931, -0.01185, -0.02318, -0.01346, 0.00039, 0.01912, 0.00995, -0.02005, -0.00853, -0.00357, 0.0086, -0.01247, 0.01877, -0.02909, 0.00701, -0.01196, -0.0042, -0.02673, -0.0026, 0.00077, -0.02283, 0.00127, 0.04309, -0.00665, -0.0033, -0.02262, -0.0066, 0.00361, -0.02493, 0.01349, 0.00214, 0.00432, -0.0059, -0.01386, -0.00603, 0.00053, -0.00786, -0.00394, 0.02816, 0.02295, 0.04048, -0.02988, 0.00535, -0.08157, 0.01268, -0.00185, -0.03228, 0.02336, 0.00325, 0.03303, 0.03402, -0.02668, -0.03472, -0.04016, 0.03836, 0.02918, 0.00751, -0.00216, 0.0528, -0.01443, -0.00312, -0.00684, -0.02223, -0.00458, 0.01112, -0.09676, -0.01341, 0.01431, -0.01081, -0.00348, -0.02858, 0.02251, -0.01581, 0.01653, -0.0107, 0.00083, -0.02649, -0.04525, -0.01293, -0.01415, 0.02607, -0.00601, -0.02325, -0.03818, -0.01133, -0.00657, 0.005, 0.01189, 0.03816, -0.00519, 0.02327, -0.0042, -0.04966, -0.00538, 0.00172, 0.02207, -0.0048, -0.01825, 0.00034, 0.00193, -0.0004, 0.00191, 0.00435, -0.00153, -0.00977, 0.0095, 0.00127, 0.00416, -0.00631, 0.00531, 0.00612, -0.0016, -0.00289, 0.01197, -0.00089, -0.00628, 0.00761, -0.00347, -0.00191, 0.00895, -0.00434, 0.00224, -0.01132, -0.00187, -0.01714, -0.00333, -0.00529, 0.00069, -0.00107, 0.00536, 0.0056, 0.00215, 0.00832, 0.02316, 0.0258, -0.00544, -0.01755, -0.00064, 0.02428, 0.00989, -0.01107, 0.03645, -0.00484, -0.0301, -0.00578, -0.02125, 0.00205, -0.01393, 0.00109, 0.01355, -0.007, -0.00767, 0.01089, 0.03181, 0.00735, 0.01735, 0.00444, 0.03824, 0.0193, -0.01688, -0.00442, -0.00479, 0.0281, 0.02554, -0.02416, 0.03115, 0.00636, 0.00187, -0.01767, -0.03764, -0.00305, -0.02118, -0.03345, 0.02762, 0.00485, 0.00015, -0.00937, 0.00025, -0.00257, 0.03028, -0.02265, 0.01412, 0.02192, 0.00131, 0.00038, 0.02495, 0.01841, 0.00207, 0.01154, -0.04548, 0.00583, -0.01598, 0.0031, -0.04176, 0.01898, -0.00142, 0.01373, -0.00794, 0.03807, 0.00529, -0.00107, -0.00836, -0.00741, -0.01886, 0.0238, 0.00064, -0.03741, -0.02144, 0.00544, -0.03387, -0.01576, 0.01147, -0.00658, -0.00734, 0.01853, -0.02416, -0.0076, 0.00859, -0.01548, -0.03391, 0.02383, 0.00638, 0.00924, 0.00463, -0.01599, -0.01072, -0.01671, -0.01738, 0.04928, 0.00049, -0.02131, -0.02822, -0.01771, 0.00615, 0.0148, -0.04089, -0.01207, 0.00378, 0.01654, 0.03794, -0.00036, 0.02197, -0.02747, 0.03231, 0.03102, 0.0058, -0.00523, 0.01505, 0.00103, -0.00483, -0.00954, -0.01373, -0.00314, 0.00477, -0.0172, -0.0064, -0.01886, 0.01072, -0.01645, 0.02443, -0.00823, -0.01351, 0.01677, -0.01896, -0.0504, 0.00382, 0.01608, -0.00806, -0.01036, -0.00803, 0.02007, 0.03621, -0.05203, 0.01757, -0.02016, -0.00163, 0.00527, -0.0074, 0.01553, 0.02877, -0.02692, -0.00483, 0.01058, -0.00408, -0.03925, 0.00069, -0.00865, 0.00404, 0.00538, -0.03869, 0.00065, -0.02167, -0.0075, 0.01997, -0.01274, 0.00685, 0.01428, -0.02176, -0.00764, -0.00666, 0.03729, -0.01279, -0.04885, 0.00686, -0.00651, 0.06012, -0.01103, 0.02342, -0.03537, 0.02863, 0.03129, -0.00396, -0.00614, 0.00406, -0.03483, 0.00039, 0.03936, -0.02479, -0.00691, 0.01445, 0.01403, -0.02434, -0.01328, -0.01773, -0.03265, -0.01526, -0.00013, 0.00982, -0.01445, 0.00299, -0.01782, 0.02466, -0.00604, 0.01472, -0.01088, 0.01542, 0.02379, 0.0197, 0.00319, 0.00951, -0.01088, -0.00905, 0.00977, 0.0177, -0.00459, -0.0113, 0.00767, -0.02085, -0.03123, -0.02186, 0.00702, 0.00541, 0.01794, 0.00829, 0.02467, -0.00204, -0.01558, 0.00874, 0.02477, -0.00983, 0.00127, -0.01442, -0.00477, -0.03194, 0.00306, 0.0306, 0.02987, 0.01635, 0.00805, -0.0129, 0.01604, -0.01656, 0.0002, -0.00538, 0.0024, 0.01105, -0.00594, 0.01243, 0.00768, -0.01675, -0.00707, 0.02448, -0.01615, -0.00547, 0.01188, -0.03277, 0.02282, 0.01214, -0.05412, 0.01691, -0.04072, -0.00246, -0.03448, -0.02591, 0.02081, 0.00767, 0.00787, -0.02315, 0.00145, 0.01292, 0.00626, 0.02307, 0.03049, -0.00258, -0.02086, -0.03182, 0.00103, -0.0229, 0.01634, 0.00443, 0.03645, 0.00207, -0.0351, -0.01337, 0.00304, -0.00786, 0.01521, 0.00397, 0.0329, 0.00826, -0.01271, 0.00892, 0.01808, -0.00671, 0.01416, -0.01812, -0.00148, 0.01589, -0.01604, -0.0114, -0.01804, -0.00994, -0.01103, -0.01927, -0.00215, 0.01877, -0.00078, 0.00139, 0.00311, 0.01517, 0.01938, -0.03569, 0.01082, 0.01591, -0.00667, -0.02038, 0.00492, 0.00308, 0.02081, -0.00457, 0.013, 0.04136, -0.02685, -0.01392, 0.02222, -0.01623, -0.05893, -0.00548, 0.00854, -0.03932, -0.05983, 0.01934, 0.03125, -0.02897, 0.0009, -0.03204, -0.00115, -0.01573, 0.01071, 0.00618, 0.0091, 0.01172, -0.01415, -0.00662, 0.02716, -0.01676, -5e-05, -0.02335, 0.01038, 0.00169, 0.00084, -0.03379, -0.00172, -0.0021, 0.00432, 0.00617, -0.03158, 0.00025, 0.00383, -0.03244, -0.02835, 0.03342, -0.02095, -0.01575, 0.00721, -0.01167, -0.01713, -0.03797, 0.01949, 0.01157, 0.03142, -0.00777, 0.01515, 0.01691, 0.04156, 0.00138, 0.01213, 0.00226, 0.02244, 0.03512, -0.04017, -0.02362, -0.01856, 0.00514, 0.01771, -0.00528, -0.01228, -0.00081, -0.01064, 0.02099, -0.0057, 0.00063, 0.00016, 0.00785, -0.01226, -0.00649, -0.00399, 0.00079, 0.01043, 0.0493, -0.00958, -0.0118, 0.00361, -0.00461, -0.01377, -0.01077, 0.01305, 0.00279, 0.01723, -0.00089, 0.00496, -0.03219, 0.00644, 0.0014, 0.01937, 0.00828, 0.00558, 0.00023, 0.06247, 0.019, -0.02754, 0.01737, 0.01101, 0.00693, -0.00287, -0.0123, -0.00889, -0.02047, -0.00739, -0.01157, 0.00169, 0.02641, -0.01057, -0.0302, 0.03363, -0.00131, 0.01949, 0.01767, 0.00038, -0.00647, -0.00513, -0.00185, 0.0083, -0.00594, -0.02134, 0.0042, 7e-05, -0.01903, -0.01311, 0.00287, 0.02964, 0.00424, -0.01204, -0.01627, -0.03282, -0.01135, -0.00194, -0.03184, 0.01066, 0.01476, -0.01394, 0.01074, 0.00058, -0.00656, 0.01638, -0.03288, 0.04618, -0.03799, -0.02231, -0.01733, -0.01975, 0.01421, 0.001, 0.01082, -0.00805, 0.0043, -0.01944, -0.00778, 0.02215, -0.00094, -0.01131, 0.02585, -0.01592, 0.00338, 0.01232, -0.02852, -0.00339, -0.00987, -0.01464, -0.0027, -0.00821, -0.00699, 0.01795, 0.02308, 0.01981, -0.02184, -0.01096, 0.02001, 0.02016, 0.01051, -0.0395, 0.0221, 0.00914, -0.02823, -0.00745, 0.04101, 0.00391, 0.02731, 0.01921, 0.02259, -0.06136, -0.00769, -0.04525, 0.00012, 0.02117, -0.00106, -0.00339, -0.00806, -0.01078, -0.00465, -0.00386, -0.00694, -0.00369, -0.0087, -0.02678, 0.00836, -0.01269, 0.02265, 0.00253, 0.0071, -0.01342, 0.00535, 0.03809, 0.00246, -0.00488, -0.02744, -0.01579, -0.00867, 0.00024, -0.00775, -0.02905, -0.00016, -0.0295, -0.00856, -0.01141, 0.00034, -0.00057, 0.00945, -0.02103, -0.00112, 0.02323, -0.02548, 0.00443, 0.03436, 0.01598, -0.01386, -0.01736, 0.01212, 0.01207, -0.00882, -0.01049, 0.02923, -0.00195, 0.01176, 0.0089, 0.01018, -0.00719, -0.00504, 0.00434, 0.02697, 0.04655, 0.00373, 0.01579, 0.01247, -0.00696, 0.02295, 0.00393, 0.01475, -0.00547, 0.01019, -0.01221, 0.01653, 0.02577, -0.00402, -0.0202, 0.03241, 0.00232, -0.014, -0.03363, 0.01639, -0.0076, 0.01349, 0.01327, -0.00209, -0.01057, 0.01112, 0.00633, -0.00491, 0.00012, -0.00413, 0.00097, -0.00177, 0.02199, -0.02259, 0.00408, -0.00594, -0.00436, 0.00571, 0.01252, 0.00333, 0.00078, -0.00368, -0.01163, 0.00069, -0.0439, -0.00411, 0.01006, 0.00702, -0.00906, -0.00362, 0.01118, -0.00476, -0.02032, 0.02315, -0.01393, 0.00189, -0.0291, -0.00834, 0.02517, -0.00116, -0.00415, 0.00148, 0.01762, 0.00566, -0.00662, -0.0068, 0.00254, 0.0145, 0.02438, 0.00893, 0.01483, 0.03677, 0.01052, 0.01696, -0.02803, -0.03288, -0.00233, 0.01125, -0.05346, -0.01653, 0.02304, 0.00797, 0.00031, 0.04388, -0.00793, 0.03439, -0.01664, -0.00609, -0.01647, -0.01139, -0.00269, -0.01553, 0.05039, -0.00752, 0.01719, 0.05155, -0.01349, -0.0061, 0.07835, 0.01694, 0.00266, 0.00308, -0.01529, 0.00825, 0.01226, -0.01722, -0.00321, 0.0253, -0.00477, 0.00123, -0.00455, -0.02942, 0.01796, 0.00663, 0.01134, 0.01726, -0.03647, -0.00082, -0.01547, 0.02059, 0.00466, 0.01051, -0.00249, -0.00385, 0.0052, -0.0035, -0.01813, -0.00873, -0.00528, -0.03338, 0.00507, -0.01072, -0.04333, -0.05066, -0.02191, 0.00166, -0.03418, 0.01079, 0.04132, -0.00779, -0.03312, 0.00632, -0.01287, -0.00963, -0.00558, -0.03757, -0.01245, -0.02872, -0.03847, -0.00661, -0.00914, -0.00241, 0.01388, -0.0178, -0.02051, -0.00356, 0.01025, 0.04155, -0.01959, -0.00013, 0.00445, -0.00395, -0.00323, -0.00146, -0.0116, 0.02608, -0.01733], "b": [-0.00887, -0.14722, -0.11704, 0.01478, -0.18186, -0.03026, -0.1153, -0.09749, 0.08549, -0.1495, -0.1606, 0.07845, 0.05559, 0.14132, 0.00608, -0.11065, -0.02367, 0.00134, 0.13036, -0.19073, 0.01242, 0.09586, -0.07932, -0.08817, 0.10568, -0.17462, 0.03683, -0.13289, 0.08211, -0.16652, 0.10564, -0.17589], "in": 32, "out": 32}, {"w": [-0.02812, -0.0083, 0.00283, -0.02018, -0.01829, 0.00905, -0.00362, 0.0173, -0.01779, -0.02408, 0.0054, -0.01533, 0.01219, -0.01515, -0.00567, -0.01239, 0.00804, -0.01063, 0.01459, 0.0222, -0.02547, 0.00565, 0.00412, 0.02285, -0.01243, 0.01994, 0.01777, -0.01838, -0.01343, 0.02829, -0.01413, 0.01347, 0.0103, -0.0045, 0.01635, 0.00161, 0.00938, 0.00035, 0.00963, -0.01868, -0.01586, 0.00163, -0.01452, -0.00707, -0.0116, 0.00377, -0.00052, 0.00965, 0.01381, 0.00198, 0.02787, -0.00643, 0.01439, -0.01949, 0.00648, -0.02075, 0.00781, -0.03304, 0.03782, -0.04194, -0.00972, 0.00053, 0.00329, -0.00123, -0.01462, -0.00778, -0.02101, -0.01132, -0.01779, -0.00046, -0.00037, 0.01596, 0.01997, -0.00835, 0.0231, -0.00338, 0.01977, -0.01395, 0.00981, -0.02559, 0.00334, -0.02213, -0.03028, 0.01315, -0.01119, 0.03109, -0.01402, 0.02984, -0.01286, 0.0213, -0.00962, 0.00986, -0.00451, 0.00145, -0.00087, -0.00609, 0.02637, 0.01462, 0.02032, 0.00742, 0.00846, 0.00942, -0.00477, -0.01685, 0.00801, -0.00398, -0.01934, 0.00706, -0.01942, 0.00706, -0.01082, 0.02526, 0.01407, 0.01079, 0.02503, -0.00518, 0.02713, 0.01252, 0.02162, -0.03885, 0.01426, -0.01236, 0.03064, -0.01601, 0.00783, 0.00238, -0.01082, 0.01095, -0.00653, -0.02599, -0.00191, 0.00657, 0.00722, -0.02048, 0.00736, 0.01117, -0.00658, 0.00894, 0.00423, -0.00165, -0.01022, 0.00961, 0.0175, 0.00041, -0.03013, 0.0194, 0.0162, -0.00761, -0.00906, -0.04082, -0.01751, 0.00683, -0.00026, -0.00973, -0.01782, 0.00785, -0.01359, 0.00025, 0.00462, 0.00811, 0.00071, 0.01699, 0.01015, -0.01196, -0.02818, 0.03103, -0.0186, -0.0099, -0.01374, -0.02567, -0.00038, -0.01289, -0.00556, -0.00309, -0.01655, -0.01395, 0.01297, -0.02068, 0.0127, 0.00357, -0.01203, 0.02085, 0.02996, -0.01002, -0.01337, 0.01517, 0.01983, 0.00709, 0.02369, 0.02938, -0.02641, 0.00433, 0.00427, 0.00993, 0.02538, -0.00576, 0.00083, 0.03557, -0.01305, -0.00679, -0.01383, -0.02415, -0.00247, -0.00877, 0.00152, 0.00041, -0.0197, 0.01718, 0.0351, -0.00893, 0.02869, 0.0039, -4e-05, 0.0083, 0.02641, 0.01586, -0.01302, 0.02176, 0.03333, 0.0012, 0.01628, 0.00154, -0.02374, 0.00396, 0.00938, -0.03868, 0.04273, 0.02652, -0.02698, -0.00857, 0.03119, -0.00986, -0.06393, 0.02512, -0.01879, 0.02398, -0.04085, 0.04915, -0.00037, 0.01186, 0.00417, 0.03015, 0.03699, -0.03124, 0.0223, 0.03458, 0.02342, -0.02864, 0.03218, 0.00559, 0.03211, -0.03584, -0.02186, -0.0033, -0.01011, -0.02591, -0.01029, 0.01464, 0.00364, -0.01179, 0.00195, 0.00816, -0.01429, -0.00607, -0.00093, -0.02313, -0.00188, -0.02432, -0.00595, -0.00722, -0.01354, 0.00064, 0.0092, -0.00838, -0.0097, 0.00533, 0.00747, 0.03251, 0.0136, -0.01766, -0.00298, 0.00895, 0.02194, 0.00498, 0.01308, 0.0024, 0.01015, 0.02085, -0.01437, -0.02005, -0.01582, -0.00102, 0.00956, -0.03391, 0.01536, 0.01319, -0.01615, 0.02356, 0.00951, 0.00235, -0.00227, 0.00926, 0.01761, -0.01952, -0.03294, 0.01086, -0.01447, -0.00585, -0.01945, -0.06368, -0.03457, 0.01919, 0.00345, -0.02652, -0.03749, 0.01096, -0.02552, -0.00273, 0.01659, -0.00542, 0.01526, -0.018, 0.0235, -0.01027, -0.04224, 0.04411, -0.01928, -0.01692, -0.00532, -0.02749, -0.00925, -0.00781, -0.00202, -0.02972, -0.05752, 0.01137, 0.06088, -0.02356, 0.02129, 0.00721, 0.01832, 0.02669, 0.04229, 0.01071, -0.03844, 0.04134, 0.05047, -0.01746, 0.02081, 0.01731, -0.05879, 0.00095, 0.00679, -0.00052, 0.00559, 0.0038, 0.01385, -0.01442, 0.0159, -0.01306, -0.01653, 0.01906, -0.01171, 0.00844, -0.01348, 0.01463, 0.00324, 0.01013, -0.00306, 0.0201, 0.00356, -0.00478, 0.00599, -0.03675, -0.00984, -0.01112, 0.01592, -0.03808, -0.00777, -0.00565, -0.01303, 0.00101, 0.01656, -0.00711, 0.02235, 0.01597, -0.00211, 0.01708, 0.01948, 0.01299, 0.00072, -0.01112, 0.01931, 0.00644, -0.03084, 0.02912, -0.01553, 0.02515, -0.00896, 0.01126, 0.00707, 0.00204, -0.00398, -0.00764, 0.01894, -0.00669, 0.00341, -0.01473, 0.04324, -0.02526, 0.01707, 0.01187, -0.00705, 0.01694, -0.00593, -0.00453, 0.01197, 0.01841, -0.0221, -0.01686, -0.01305, 0.03063, 0.00032, -0.0102, -0.03306, -0.0205, 0.00841, -0.02716, -0.01141, -0.02303, -0.0373, 0.00814, 0.00118, -0.02771, 0.02962, 0.0155, -0.01168, 0.01152, 0.02795, -0.00141, -0.00989, 0.00594, 0.02065, -0.02081, -0.03468, 0.01614, -0.02686, 0.02288, 0.01413, 0.01909, 0.0037, -0.00052, -0.01203, 0.01036, -0.01766, 0.00226, 0.0777, -0.01158, 0.0111, 0.00482, 0.00872, -0.00951, -0.01512, 0.01717, 0.02457, -0.00551, -0.03052, 0.00057, 0.0053, 0.08312, 0.01228, -0.01266, -0.01163, 0.03314, 0.01132, 0.01963, 0.03762, -0.00276, -0.02225, 0.00297, -0.02841, 0.01815, 0.00466, 0.01032, -0.02811, 0.05458, 0.00403, 0.03294, -0.0373, -0.00928, 0.00833, -0.02743, -0.00613, -0.01376, 0.00148, -0.02994, -0.02424, -0.03885, 0.00694, 0.04182, -0.04058, -0.02308, 0.03639, -0.01655, -0.00845, -0.00408, -0.00513, -0.02053, -0.01483, -0.00435, 0.00202, -0.00461, -0.01832, 0.00558, -0.0117, -0.01237, 0.00029, 0.00858, -0.01776, 0.00249, -0.01867, -0.0166, 0.01364, -0.01456, 0.01182, -0.01553, -0.00568, -0.02518, -0.01169, -0.0155, -0.01121, 0.01688, -0.00916, -0.01457, -0.00336, -0.00037, -0.02294, 0.01774, 0.00192, 0.01873, 0.00098, 0.0043, -0.00496, 0.01625, -0.01244, -0.01564, -0.00286, -0.00901, -0.0048, -0.02483, -0.00173, 0.03605, 0.034, 0.0084, 0.00475, 0.03874, -0.00132, 0.04302, 0.0205, -0.0236, -0.03528, 0.00384, 0.00482, 0.0179, 0.01351, -0.02259, -0.02412, 0.0136, 0.03942, -0.0177, 0.00425, 0.00193, -0.0089, -0.01338, -0.00034, -0.00078, -0.06796, -0.04673, -0.0018, 0.00479, 0.01979, 0.00412, -0.04326, 0.02368, -0.08301, -0.02452, 0.03103, -0.02031, 0.01626, 0.00862, -0.01236, -0.00619, -0.01312, 0.01122, 0.00629, 0.01184, 0.01892, 0.02158, -0.04672, 0.03391, -0.01702, 0.00118, 0.02647, 0.00249, -0.04176, 0.02521, 0.00664, 0.05444, -0.02835, 0.00194, -0.00398, -0.0362, -0.03736, 0.04162, -0.01909, 0.02167, 0.01446, -0.04348, 0.02039, -0.02234, 0.01872, -0.01612, -0.01013, -0.03389, 0.02237, -0.04191, 0.00165, 0.03944, -0.04139, 0.02373, 0.00656, 0.0331, -0.03018, 0.03059, 0.02286, 0.02172, 0.01822, 0.02213, -0.04379, 0.02281, -0.01587, 0.00786, -0.01022, -0.03347, -0.02233, 0.01935, -0.01545, 0.01815, 0.01261, -0.01685, 0.01536, -0.01042, 0.00255, -0.01388, -0.00263, -0.00955, 0.01849, -0.0319, -0.03807, 0.02397, -0.01631, 0.01536, 0.00251, 0.01663, -0.0047, 0.00831, 0.0023, 0.0272, 0.01072, -0.00884, -0.00885, -0.00554, -0.01296, 0.00332, 0.00376, -0.01212, -0.02155, 0.00897, -0.00233, 0.00713, -0.05629, -0.01474, 0.00479, -0.02947, 0.01927, -0.01274, -0.00933, -0.01549, 0.00794, -0.02068, 0.02752, 0.00872, -0.0087, -0.00727, 0.0076, 0.01848, -0.00874, 0.01665, 0.01471, -0.01031, -0.00651, 0.00079, -0.00223, -0.00038, -0.02159, 0.00344, 0.02947, -0.01267, -0.05008, 0.0587, 0.00335, -0.03571, -0.06265, -0.01883, 0.00827, -0.00549, -0.00028, -0.00269, -0.02456, 0.00675, 0.04574, -0.0331, 0.05032, 0.01667, 0.03374, 0.00946, 0.01825, -0.04935, -0.03855, 0.02619, 0.04964, -0.03615, -7e-05, 0.01485, -0.04158, 0.02872, -0.02707, 0.04003, -0.02399, -0.00602, 0.02117, -0.04093, -0.01297, 0.03593, -0.02321, 0.04419, 0.01441, -0.00017, -0.01196, -0.01939, 0.04764, -0.03245, -0.02769, 0.03065, -0.0317, 0.00912, 0.01124, -0.02612, -0.05235, -0.00284, 0.01107, -0.03427, -0.04359, 0.05362, -0.05727, -0.004, 0.01412, -0.00539, -0.03674, 0.01248, -0.02853, -0.01356, -0.02266, 0.01333, -0.00248, 0.00984, -0.01267, -0.01514, 0.0217, -0.02468, 0.01276, -0.04461, 0.02899, -0.05778, -0.02953, -0.00883, -0.00512, 0.06076, 0.02286, 0.00581, -0.01848, 0.01621, -0.03556, 0.01583, -0.00382, 0.05337, -0.06275, 0.02351, 0.01422, 0.03294, 0.01798, 0.00052, 0.01141, 0.00352, 0.0081, -0.01286, 0.02042, -0.00523, -0.00922, 0.01497, -0.02068, 0.01148, -0.01737, 0.01323, 0.0031, 0.01671, -0.0037, 0.01309, 0.00706, -0.00144, 0.01878, -0.00169, -0.00265, -0.02664, 0.03079, -0.02899, 0.00158, -0.01335, -0.01411, -0.00382, 0.01709, 0.00044, 0.01643, -0.01486, 0.00866, 0.01949, 0.01439, -0.00829, -0.0054, 0.01133, -0.04686, 0.00979, -0.02063, 0.00475, -0.02151, 0.01275, -0.0202, 0.01923, 0.00669, 0.02087, 0.04903, -0.03854, 0.0028, 0.018, 0.01513, -0.00961, 0.02318, -0.02327, 0.01784, -0.04735, -0.02421, -0.00918, -0.01083, -0.01311, -0.00033, 0.00872, -0.0101, -0.00513, -0.01104, 0.00432, -0.01143, 0.01229, 0.0636, -0.00639, 0.01979, 0.00533, 0.00816, -0.00922, -0.00334, 0.00447, 0.00811, -0.00308, -0.03903, 0.00636, -0.00316, 0.05693, -0.00471, 0.00181, -0.00922, 0.02742, -0.01227, 0.03651, 0.02359, -0.0001, -0.01178, 0.00015, 0.02725, -0.02519, 0.01274, 0.01954, 0.03699, -0.06262, 0.0354, -0.04529, -0.06764, 0.01086, -0.01957, 0.01437, -0.01231, 0.02099, -0.03413, -0.00688, -0.03095, 0.01916, -0.01481, -0.01366, -0.00121, 0.02123, -0.00436, -0.00159, 0.02324, -0.03082, -0.02913, 0.01562, 0.01523, -0.00523, 0.02046, 0.00197, -0.0342, -0.01152, -0.0249, 0.00575, -0.00951, -0.00131, -0.01654, 0.01812, -0.0173, -0.01564, 0.04301, -0.02432, 0.02723, -0.00114, -0.00488, -0.03581, -0.02332, -0.01502, -0.00035, -0.02201, -0.00113, 0.01742, 0.00616, 0.01767, -0.00699, 0.00983, -0.02444, -0.01343, 0.00424, -0.00515, 0.01399, 0.00839, -0.00087, -0.01436, -0.01765, 0.003, 0.0187, -0.02221, 0.00766, -0.00192, 0.03906, 0.01603, 0.00574, 0.02835, -0.02004, 0.01439, 0.01873, -0.00211, -0.02073, 0.01973, -0.03651, -0.01049, -0.00636, -0.01781, -0.01845, 0.00274, 0.01516, -0.02298, -0.03182, 0.01941, -0.00988, -0.00062, 0.00438, -0.00011, -0.02303, -0.01583, -0.01026, -0.01461, -0.01435, -0.00887, 0.00065, 0.0114, -0.07124, -0.00701, 0.01495, -0.02071, 0.01688, -0.00601, 0.00843, -0.03005, -0.00461, -0.01981, 0.0171, 0.0093, -0.01507, -0.02745, -0.01542, 0.02877, -0.00842, 0.0023, -0.00025, -0.01097, -0.02682, -0.00054, 0.00627, -0.00399], "b": [0.15001, -0.00129, -0.08934, 0.01591, 0.02021, -0.01055, 0.11307, -0.19175, -0.05237, 0.07261, 0.01685, 0.02499, 0.05815, -0.0918, -0.02741, 0.05852, -0.10438, -0.10976, 0.04612, 0.04168, -0.01073, -0.13048, -0.06463, -0.11472, 0.09822, -0.1345, 0.13905, 0.12579, -0.12594, 0.14643, -0.23208, -0.06598], "in": 32, "out": 32}, {"w": [-0.32316, -0.3045, -0.34087, -0.2888, 0.09451, 0.24776, -0.1911, -0.30422, -0.01436, -0.29082, 0.24787, 0.1832, 0.29748, -0.21495, -0.28344, 0.23021, -0.30789, 0.24423, 0.26644, 0.30552, 0.35365, 0.34579, -0.24612, 0.25314, -0.26221, 0.33373, 0.29453, -0.28937, 0.24331, -0.28789, 0.04482, -0.19283, -0.28336, -0.17841, -0.24625, -0.06999, -0.0139, 0.25284, -0.19607, -0.27912, 0.09788, -0.17652, 0.21765, 0.01544, 0.21388, -0.2216, -0.14368, 0.19899, -0.23404, 0.2257, 0.23182, 0.24952, 0.24275, 0.24059, -0.22271, 0.231, -0.23178, 0.24764, 0.24761, -0.13853, 0.21532, -0.20622, -0.08722, -0.0691, -0.35929, 0.20396, 0.23231, 0.39906, -0.45043, 0.32622, -0.45526, -0.3538, 0.3743, 0.38643, 0.24776, -0.68383, 0.16909, -0.32115, 0.32588, 0.1686, 0.0766, 0.25274, 0.25876, 0.24526, 0.08782, -0.37063, -0.25778, 0.28262, -0.25361, -0.03612, 0.23459, 0.54751, 0.23567, -0.16244, -0.43134, 0.34435], "b": [0.13839, -0.15505, -0.27593], "in": 32, "out": 3}], "psnr": 22.71}