{"hidden": 32, "omega0": 30.0, "layers": [{"w": [-0.28886, 0.35366, 0.11613, 0.12478, 0.37254, -0.45107, 0.36306, 0.14522, -0.3443, 0.1408, -0.13441, -0.19028, -0.0354, -0.19989, 0.41424, 0.39578, -0.09954, -0.43711, -0.04573, 0.06225, 0.30408, -0.00026, 0.19254, 0.12947, -0.26885, -0.29545, -0.40719, -0.02852, 0.14981, -0.03429, 0.46574, -0.0798, -0.34251, 0.07191, -0.13493, -0.04869, 0.49262, -0.01132, 0.44597, 0.10015, -0.16698, 0.36091, -0.26984, -0.0149, 0.10367, 0.2444, -0.44146, 0.01656, -0.14472, 0.34203, 0.19655, 0.19434, 0.26761, -0.108, -0.03559, 0.41324, -0.40858, -0.33919, 0.02498, -0.19891, 0.00239, 0.45162, -0.07788, -0.38994], "b": [0.39577, -0.09818, 0.03368, 0.16298, 0.44389, 0.68095, -0.55438, -0.23784, 0.26967, 0.60569, 0.58326, 0.63233, 0.14121, -0.61, 0.07236, -0.43015, -0.65224, 0.62088, 0.52505, -0.71055, 0.12657, -0.1185, -0.10598, -0.34799, 0.2766, -0.44619, 0.24824, 0.36078, 0.50815, 0.27172, -0.71993, -0.4662], "in": 2, "out": 32}, {"w": [0.00594, -0.01628, 0.00237, -0.0006, 0.02543, -0.00167, -0.03605, 0.01944, 0.00783, 0.03063, -0.00417, 0.00065, -0.02331, -0.00395, -0.01089, -0.009, 0.00136, 0.02342, -0.0224, -0.02111, -0.0113, -0.03103, -0.02472, -0.00229, -0.01906, 0.0441, -0.00709, -0.01821, 0.00067, 0.00765, 0.02642, -0.00198, 0.01897, -0.0261, -0.00315, -0.01489, -0.02631, 0.03027, 0.01022, -0.00162, 0.00847, 0.02085, 0.00924, -0.01542, -0.02421, -0.01399, 0.01196, -0.01363, 0.0176, -0.0088, -0.02109, -0.02902, -0.0022, 0.01617, -0.01055, 0.00873, 0.0031, 0.00201, -0.01736, -0.00529, -0.01775, 0.00438, 0.00933, 0.00313, 0.00641, 0.02183, -0.00833, 0.00884, 0.00431, -0.00557, -0.00055, 0.00048, -0.00056, -0.01627, 0.00995, -0.01282, 0.00409, -0.00626, -0.00038, -0.0036, -0.01245, 0.00131, 0.00656, 0.01178, 0.00525, -0.01848, 0.01068, -0.01037, 0.00291, -0.01589, 0.01499, -0.00871, 0.01642, 0.00181, 0.02122, -0.00975, 0.01517, -1e-05, 0.01084, -0.00369, 0.00052, -0.01147, -0.00907, 0.00853, 0.00603, 0.01115, -0.00698, -0.03182, 0.00372, -0.01015, -0.02359, 0.00526, -0.00364, -0.00308, -0.00801, -0.0159, -0.00238, -0.00913, -0.00841, -0.01076, -0.00592, -0.00171, 0.00221, -0.02468, 0.00429, -0.00358, 0.0178, -0.01153, -0.00762, 0.00166, 0.00145, 0.00926, 0.00185, -0.00807, -0.01527, -0.01684, 0.00018, -0.01136, 0.01769, -0.00392, 0.01475, -0.00066, -0.04046, 0.00902, 0.01249, 0.02393, -0.01635, -0.00245, 0.00942, -0.01861, -0.03003, 0.00374, 0.00615, -0.00103, -0.00589, 0.00738, 0.00877, 0.00145, 0.00097, 0.01136, -0.00336, -0.00149, -0.00426, -0.00221, -0.0011, -0.02288, 0.0324, -0.02592, 0.01776, -0.02581, -0.02289, 0.00799, -0.0166, 0.0111, -0.01737, 0.02027, 0.02643, 0.00081, 0.02101, 0.01835, 0.00703, -0.01362, -0.00793, -0.00305, 0.02127, 0.00378, 0.00296, 0.02973, -3e-05, 0.00434, -0.02393, 0.01656, -0.02192, -0.01887, 0.00873, 0.02162, -0.0073, 0.03182, -0.00599, 0.00924, 0.01048, -0.00583, 0.02368, 0.01415, -0.0138, -0.02155, 0.00716, 0.01619, 0.01247, 0.00454, 0.01988, 0.01434, -0.01959, 0.01758, 0.02743, 0.00793, 0.00995, 0.00347, 0.0205, 0.01605, 0.00539, -0.01497, -0.00841, 0.0195, 0.00856, 0.03073, 0.02874, -0.00361, -0.03067, 0.00846, -0.01103, 0.02301, -0.0201, -0.01098, -0.00078, -0.00771, -0.00258, 0.03331, -0.00023, 0.0212, -0.02458, -0.03396, -0.00433, 0.01816, -0.00681, 0.02294, -0.00597, -0.00251, -8e-05, -0.0308, -0.00221, 0.00275, -0.00827, 0.01102, 0.0101, 0.01473, -0.01836, 0.00727, 0.00387, 0.00882, -0.02073, 0.01441, 0.01012, -0.01103, -0.00226, 0.00438, 0.03563, -0.01299, 0.02531, -0.01127, 0.03442, -0.00904, -0.00617, -0.01213, 0.01751, 0.00997, -0.01089, 0.0223, 0.00754, 0.00573, 0.03445, -0.00219, 0.00079, 0.02222, 0.00393, -0.03137, -0.00916, 0.0255, -0.00238, 0.00676, -0.00565, 0.00931, 0.00829, 0.01272, -0.00778, -0.00651, 0.00492, -0.01245, -0.01531, 0.00454, 0.00427, 0.01265, 0.00534, -0.00433, -0.00042, 0.01843, 0.00054, 0.009, 0.01476, -0.0012, -0.00237, 0.00145, 0.00591, 0.00307, 0.00466, -0.00112, 0.00354, 0.00233, 0.00408, 0.00683, 0.02983, 0.00227, -0.00506, 0.01951, 0.00552, 0.02159, -0.01083, 0.00717, 0.02152, -0.00898, 0.01746, -0.00778, 0.01163, 0.01022, -0.01086, -0.04472, 0.02712, 0.00821, 0.02504, 0.01439, -0.0177, -0.03163, 0.02457, -0.02426, -0.02491, -0.01937, -0.02208, 0.01552, -0.01862, -0.01369, -0.00869, 0.01422, 0.00815, 0.01563, 0.00479, 0.00235, -0.0107, -0.01036, 0.01041, -0.00469, -0.01228, 0.00672, -0.00141, -0.00034, -0.01861, -0.01127, -0.02225, 0.00197, 0.01282, -0.01563, 0.00063, -0.00377, -0.01128, 0.01941, -0.00046, -0.00241, -0.02219, -0.00909, -0.00253, 0.00377, -0.00061, -0.01122, 0.00846, -0.00283, 0.00109, -0.01933, 0.0011, 0.00121, -0.00511, -0.00237, 0.01217, -0.01137, -0.01081, -0.00613, 0.01601, -0.01209, 0.00207, -0.00846, -0.00061, -0.00428, 0.01737, 0.00465, -0.0036, -0.0083, -0.00451, 0.00829, 0.01113, 0.01662, -0.00282, -0.03429, 0.01875, 0.0095, 0.02112, 0.02039, -0.01264, -0.01636, -0.00216, -0.00699, -0.0064, 0.01149, -0.01351, -0.00199, -0.01468, -0.01155, 0.00783, -0.03551, 0.00748, 0.01396, 0.00732, 0.00474, 0.00994, 0.00152, -0.02213, 0.01838, 0.01229, 0.02327, -0.02076, 0.0205, -0.01537, -0.00688, 0.0053, 0.02209, 0.01172, -0.01077, -0.01837, -0.02466, -0.04098, -0.01167, -0.00387, -0.036, 0.00303, 0.0071, 0.01688, 0.02364, -0.02395, 0.00195, -0.00595, 0.03002, -0.01047, 0.00367, -0.00142, -0.00227, 0.03021, -0.01517, 0.01656, 0.00782, -0.00038, -0.00805, 0.00274, -0.01682, -0.01277, 0.0036, 0.00424, 0.02164, -0.02314, -0.00201, -0.00771, 0.03276, 0.00286, -0.00254, 0.02327, -0.03175, 0.0091, -0.0164, 0.026, 0.00801, 0.01525, 0.00016, -0.00173, 0.01082, 0.02856, 0.00517, 0.01267, 0.01061, -0.04257, 0.01042, -0.01527, -0.03724, -0.00809, -0.02677, 0.00499, 0.02015, 0.00496, -0.00105, -0.01837, -0.00062, -0.01538, -0.01719, -0.03233, -0.00677, -0.01162, -0.00855, 0.00016, 0.01042, 0.00267, 0.01093, -0.00438, -0.01995, -0.04019, 0.00545, 0.01011, 0.0061, -0.00297, -0.0077, -0.00243, 0.0177, -0.01576, 0.00479, -0.00316, 0.01099, 0.00809, 0.00229, -0.00166, 0.01186, 0.00831, 0.00135, -0.01035, 0.00421, 0.00397, -0.00616, -0.00045, 0.00853, 0.00325, 0.01425, 0.01053, -0.00183, 0.00182, -0.00875, -0.00864, 0.01507, -0.00317, 0.01266, 0.00127, -0.00284, 0.00906, -0.00715, -0.00974, 0.0022, -0.01181, 0.00705, 0.01542, 0.00127, 0.00386, -0.00292, -0.01614, 0.01165, 0.00818, 0.00178, -0.00534, -0.00618, -0.00792, -0.00819, -0.00499, -0.02655, 0.00152, 0.00488, 0.00574, 0.02135, 0.00987, -0.01512, 0.00655, -0.01195, -0.00732, 0.00676, -0.01796, -0.01329, -0.01759, -0.0059, -0.02211, 0.00891, -0.03235, -0.01898, 0.00468, -0.03492, -0.00434, -0.00602, 0.01456, -0.01562, -0.00656, 0.01284, -0.00986, -0.00687, -0.02009, 0.01716, 0.00119, 0.0068, -0.00491, 0.00679, -0.00821, 0.01068, 0.00526, 0.0163, -0.00576, -0.0254, 0.01883, -0.00834, -0.001, 0.01867, 0.02735, -0.01285, 0.00218, -0.00251, -0.01065, -0.01936, -0.01378, 0.00358, -0.01003, -0.00087, -0.01381, 0.01591, -0.00358, -0.0227, 0.00406, -0.00301, 0.00075, 0.01818, 0.00201, -0.00619, -0.00406, 0.00462, 0.00536, -0.01396, 0.00833, -0.00638, -0.00168, 0.02258, -0.01974, -0.00049, 0.00501, -0.01163, -0.00489, 0.00872, 0.00041, -0.01869, 0.0035, 0.01054, -0.00615, -0.00754, -0.00391, -0.01944, 0.0091, 0.00379, -0.00562, 0.00539, -0.01384, 0.00525, -0.00518, 0.00492, -0.00234, -0.01916, -0.00606, 0.00302, -0.001, -0.02691, -0.02026, 0.01359, 0.03222, -0.01209, -0.05467, -0.00849, 0.02207, -0.02581, -0.00819, 0.02321, 0.00522, 0.01927, -0.00544, 0.00163, 0.01385, 0.02805, 0.01451, 0.0091, 0.00283, -0.02826, 0.01027, 0.02824, 0.00828, 0.01694, 0.0271, 0.00648, 0.01147, 0.03105, -0.00912, -0.01431, 0.00083, 0.02394, -0.01843, 0.01125, -0.00704, 0.00575, 0.00828, 0.01967, 0.02688, 0.01118, -0.00399, 0.03136, -0.01816, -0.014, 0.04376, -0.04908, 0.02058, -0.01041, 0.00162, 0.01094, 0.02436, 0.01837, -0.01806, -0.00699, 0.02873, -0.0325, -0.00903, -0.00865, 0.00292, -0.00179, -0.01075, -0.01561, 0.01321, 0.00924, -0.00845, -0.00475, -0.01265, -0.01303, -0.00662, 0.00126, 0.01751, 0.01599, 0.00846, 0.00645, 0.01275, 0.0018, -0.01149, -0.00418, -0.00437, 0.00608, 0.01424, 0.02128, 0.0086, -0.00284, -0.00551, 0.00095, -0.01093, -0.00912, -0.01989, -0.00064, 0.02269, -0.00408, -0.00855, 0.00444, 0.00513, 0.00936, 0.01975, 0.01909, 0.00419, -0.00363, 0.00296, 0.01793, -0.01101, -0.00701, -0.01719, 0.01368, 0.00816, -0.01083, -0.0031, -0.01145, 0.01837, -0.00702, 0.01797, -0.0017, -0.01227, 0.01529, 0.01981, -0.0064, -0.00872, -0.00254, 0.00654, -0.00183, -0.00671, -0.03415, 0.01801, 0.02299, 0.00775, 0.01124, -0.00207, 0.01064, 0.00107, 0.01098, -0.00909, 0.00827, -0.0052, -0.01937, 0.00488, -0.0219, 0.00141, 0.00093, 0.02971, -0.01368, 0.00797, -0.01358, 0.00705, 0.0219, 0.00616, -0.0086, 0.00415, -0.00543, 0.00261, -0.00953, 0.01047, -0.00391, 0.00259, 0.00506, -8e-05, -0.01571, 0.00157, 0.02459, 0.00079, 0.00539, 0.01989, 0.02685, -0.01063, 0.01421, 0.00642, 0.00535, -0.00975, -0.0023, -0.01755, -0.02056, -0.0214, -0.01527, 0.02504, 0.02167, 0.00392, 0.00375, -0.00137, -0.0266, 0.03113, 0.01549, -0.00271, 0.03046, 0.01352, -0.01131, 0.01181, -0.01562, 0.01138, -0.0054, 0.01512, -0.00184, 0.0046, -0.03045, 0.00283, -0.01114, 0.00965, 0.00317, -0.00169, 0.03071, -0.01008, 0.00203, 0.01258, 0.0205, 0.02484, 0.00526, -0.01867, -0.01846, 0.01591, 0.00435, -0.01168, 0.00253, -0.00275, -0.00303, -0.01903, -0.00382, 0.01441, -0.01364, -0.02437, 0.00986, -0.01792, -0.00252, 0.00351, 0.00989, -0.0184, -0.02013, -0.02984, -0.03437, -0.00114, -0.0275, -0.01697, -0.01171, -0.02637, -0.00083, 0.01936, 0.00848, 0.02382, -0.00792, 0.0001, -0.02255, 0.00739, 0.018, 0.00835, -0.00796, 0.00061, -0.00173, 0.01801, -0.02358, -0.00196, 0.01411, 0.00186, -0.0101, 0.01839, 0.0035, 0.00324, 0.01001, -0.00186, -0.00678, 0.00117, 0.01802, 0.01173, -0.00094, -0.00809, 0.01491, 0.00774, -0.00866, -0.00856, -0.01381, -0.01408, -0.0058, -0.01608, -0.00889, -0.00194, -0.01181, -0.00012, 0.00992, -0.00524, 0.00571, 0.007, 0.01822, -0.00571, -0.00246, -0.00474, -0.0092, -0.00454, -0.00182, 0.00381, 0.00537, 0.00192, -0.00662, -0.01853, -0.0086, 0.00911, -0.00551, 2e-05, 0.01983, -0.01527, -0.04237, -0.01257, 0.00348, 0.02061, 0.01246, 0.017, -0.01624, 0.00822, -0.00298, 0.04026, -0.00541, -0.01623, 0.01474, -0.00356, -0.01394, 0.00502, 0.01742, 0.00867, 0.02525, 0.00398, -2e-05, -0.01544, 0.03261, -0.01255, 0.00528, -0.00023, 0.00341, -0.01995, -0.00475, -0.01243, -0.01588, -0.03408, -0.01304, -0.00627, 0.02542, 0.0437, -0.01611, 0.02808, 0.01731, 4e-05, 0.00754, -0.01034, -0.0106, 0.02172, 0.00456, 0.02267, 0.0023, 0.02477, 0.00908, -0.0042, 0.00639, 0.00333, 0.00739], "b": [-0.02365, -0.19579, -0.10115, 0.01185, -0.1384, -0.03323, -0.10183, -0.11211, 0.05487, -0.13877, -0.10804, 0.09446, 0.03083, 0.16929, -0.05107, -0.09549, -0.0204, -0.0117, 0.14797, -0.16558, -0.01907, 0.09222, -0.12539, -0.09795, 0.08805, -0.17869, 0.06002, -0.14108, 0.09767, -0.14555, 0.09345, -0.17575], "in": 32, "out": 32}, {"w": [-0.01145, -0.02004, 0.01388, -0.00835, -0.00125, 0.03396, -0.00751, -0.01135, -0.02189, -0.04701, 0.00433, 0.01785, 0.01092, -0.0303, 0.00905, 0.00601, 0.03039, -0.00041, 0.01242, -0.02936, -0.00581, 0.00261, 0.00468, 0.03164, -0.02144, -0.00047, -0.02425, 0.00855, -0.02427, 0.03335, -0.01661, -0.04595, 0.01125, -0.00809, 0.03159, 0.04236, -0.0017, 0.0113, -0.01717, 0.00588, -0.00837, 0.00973, -0.00742, -0.02382, -0.01809, 0.02003, 0.03301, 0.01341, -0.05357, -0.02458, -0.0051, 0.00016, -0.01092, -8e-05, -0.00554, 0.03029, 0.01625, 0.00302, -0.00133, 0.00248, 0.00454, 0.00796, -0.00049, -0.0015, -0.00037, -0.00989, -0.01627, -0.01887, -0.02947, 0.02776, -0.0071, -0.01408, -0.03466, -0.01548, -0.00911, -0.00955, -0.02629, -0.00539, 0.01546, 0.00691, -0.01895, -0.00469, 0.00529, 0.01019, 0.00383, -0.02719, 0.00071, 0.01569, 0.0099, 0.00742, -0.0193, -0.0235, -0.0143, -0.04462, 0.0007, -0.01918, 0.00143, -0.00116, 0.01752, 0.00365, -0.02778, 0.02255, -0.03765, 0.00375, -0.02571, -0.00155, -0.00285, 0.0002, -0.01762, -0.03268, 0.01719, 0.02184, -0.00745, -0.05502, 0.00305, -0.04156, -0.01584, 0.00828, -0.01117, 0.03953, -0.0208, 0.00545, -0.01778, 0.00958, -0.0266, 0.01047, -0.00314, -0.02725, -0.00503, -0.00285, -0.01352, -0.01227, 0.01428, 0.00929, 0.0227, 0.00585, 0.00318, 0.01286, 0.01385, 0.0133, -0.00104, 0.00201, -0.04807, 0.00407, 0.02263, 0.00704, 0.0023, -0.01425, -0.01642, -0.00064, -0.00318, 0.00128, -0.00779, 0.02069, 0.00804, 0.00858, -0.0158, -0.01134, 0.00213, 0.00515, -0.01563, 0.01742, -0.06171, -0.03688, -0.02409, -0.02293, 0.02454, 0.02443, 0.02186, 0.01081, 0.0169, -0.01116, 0.00062, 0.02293, -0.02746, -0.01753, 0.03477, 0.03208, 0.00743, 0.00404, 0.02289, 0.01826, 0.02382, -0.03247, -0.01802, 0.00736, 0.00255, -0.02035, 0.02127, -0.00516, 0.01913, 0.01427, -0.0075, -0.00644, 0.00549, -0.02416, -0.00889, 0.02551, -0.02174, -0.00692, -0.01416, 0.01679, -0.00407, -0.00377, -0.00026, -0.00825, 0.0165, -0.01184, 0.00693, 0.01147, 0.01093, 0.00164, -0.00451, -0.02724, -0.01039, 0.00522, -0.02259, 0.00052, -0.00311, -0.02211, -0.01825, -0.00827, -0.01642, -0.01502, -0.03675, -0.0036, 0.01329, 0.00527, -0.0241, 0.00803, -0.02476, 0.01875, -0.04772, -0.05026, -0.00479, 0.03905, 0.00515, 0.00848, 0.04942, 0.01494, -0.03769, 0.01649, 0.01325, -0.0166, -0.00799, 0.03672, -0.01384, 0.02863, -0.01818, -0.0015, -0.01286, 0.00718, -0.02228, 0.01543, 0.01114, -0.02274, -0.05224, -0.00073, 0.01481, -0.03158, -0.01125, 0.01235, 0.012, 0.0059, -0.00519, -0.00649, 7e-05, -0.02992, -0.00411, -0.02014, -0.01092, -0.00123, 0.01805, 0.02437, -0.00963, -0.01348, 0.03223, -0.01583, -0.00845, 0.0042, -0.02395, 0.02, 0.00639, 0.01486, -0.01581, 0.0161, -0.02408, -0.01952, -0.02645, 0.01412, -0.00998, 0.00679, 0.00887, 0.00188, 0.00245, 0.01962, -0.0033, 0.02596, 0.00807, -0.04122, -0.00306, 0.01383, 0.01598, -0.03262, -0.0524, -0.01715, 0.00236, -0.01232, 0.01286, 0.01483, 0.00977, -0.01674, 0.01119, -0.00475, 0.02334, -0.00207, 0.02032, 0.01262, 0.00754, 0.01255, 0.03859, -0.03006, 0.04585, 0.04005, 0.00157, 0.02916, -0.0262, -0.01953, -0.01299, 0.00132, -0.01348, 0.00747, -0.00746, -0.01624, 0.00662, 0.0429, 0.00517, -0.01428, -0.02451, -0.00102, -0.03073, -0.03157, -0.02121, 0.02665, 0.01484, -0.01109, -0.03813, 0.01444, -0.02421, 0.0045, -0.03482, -0.01722, -0.00884, -0.00465, 0.05289, 0.04844, -0.01782, 0.01062, 0.00225, -0.00219, 0.00578, -0.06398, -0.00784, -0.0328, -0.02096, -0.01414, 0.02972, 0.01122, -0.01604, 0.00359, 0.00513, 0.00606, 0.01021, -0.00251, -0.01851, -0.04029, -0.00283, 0.01551, -0.01244, 0.00786, -0.00601, -0.02298, -0.02726, 0.01627, 0.00475, -0.01304, 0.02712, -0.00413, -0.02727, 0.01661, -0.0401, -0.01957, -0.02792, 0.05287, -0.01955, 0.0474, -0.00988, -0.00851, 0.03921, -0.01706, -0.01215, -0.00341, -0.01878, 0.00158, 0.03437, -0.02123, 0.00386, 0.00042, -0.01904, -0.0228, -0.00439, -0.01138, -0.01046, -0.02939, -0.0312, -0.02355, -0.01603, 0.02429, 0.00451, -0.02314, -0.01531, 0.00623, -0.00711, -0.00494, -0.0159, -0.04716, -0.00166, -0.00872, 0.00079, -0.02644, -0.00913, -0.00701, -0.00093, 0.00697, -0.00964, -0.00658, 0.01066, 0.01123, -0.01172, -0.00522, -0.01432, 0.03391, 0.01255, 0.01369, -0.01475, -0.00907, -0.00959, -0.01651, 0.01021, -0.03477, 0.02994, -0.06485, 0.03216, 0.0234, 0.00078, 0.00934, 0.02263, 0.02246, 0.03074, -0.00966, 0.02265, -0.04548, -0.03446, -0.02809, 0.04265, 0.00891, -0.00626, -0.02924, -0.03875, 0.00226, -0.00368, -0.00919, -0.03785, 0.02781, 0.00421, 0.01379, -0.01594, -0.02117, 0.0066, -0.03537, 0.02547, -0.00075, 0.04164, 0.04003, 0.01587, -0.01834, 0.00403, 0.01752, 0.02184, 0.04376, -0.00595, 0.02898, 0.02093, 0.01309, -0.03138, -0.00519, -0.00737, 0.02212, -0.03207, 0.00996, 0.00105, 0.01527, 0.00933, 0.02199, 0.00547, 0.02131, 0.00532, 0.01961, 0.02495, 0.00751, 0.00811, 0.03628, -0.0063, 0.01927, -0.01833, -0.02833, 0.03865, -0.00378, -0.00521, -0.00361, 0.0005, 0.04848, 0.00502, 0.00731, 0.01649, 0.01455, 0.00772, -0.01981, -0.00929, -0.01191, -0.01614, 0.00186, 0.00867, 0.00492, 0.01068, -0.00909, -0.00177, 0.00617, 0.03052, -0.00059, -0.00294, 0.00669, 0.02271, 0.01856, -0.01547, 0.02818, -0.03257, -0.0159, -0.01012, -0.02436, 0.04302, -0.00651, 0.03529, -0.02033, 0.00995, -0.06148, 0.01088, 0.00257, -0.02686, -0.03314, 0.001, -0.0087, -0.01341, -0.00166, 0.01353, 0.01584, 0.01699, -0.0401, 0.0006, 0.0051, 0.03032, -2e-05, 0.03408, 0.02466, 0.01681, 0.00991, 0.00698, -0.02556, 0.0018, 0.01991, -0.02854, 0.01307, -0.02115, -0.00156, -0.0268, -0.05902, -0.00113, -0.01677, -0.00132, 0.01007, 0.02999, 0.02212, -0.03485, -0.00673, 0.02139, 0.01043, -0.03602, 0.00071, -0.01164, 0.05234, -0.00518, 0.00018, -0.01413, 0.00591, -0.00341, -0.02856, 0.00635, 0.00623, -0.02711, 0.04201, 0.00306, -0.06491, -0.01363, 0.03496, 0.04131, 0.0067, -0.01205, -0.01057, 0.01134, -0.04548, 0.00234, 0.00347, -0.01202, 0.00376, -0.04901, 0.00615, -0.01805, -0.03643, -0.02408, 0.03176, -0.01935, -0.0309, 0.0369, 0.01793, 0.02081, 0.01401, -0.02851, -0.01518, -0.03027, -0.0014, -0.01436, -0.00357, 0.00014, -0.01016, -0.00384, 0.00542, -0.0035, -0.00062, 0.00062, -0.00079, 1e-05, -0.00121, -0.00259, -0.00707, 0.01446, -0.00145, 0.00317, -0.00499, 0.01002, -0.00218, -0.01225, 0.00124, -0.00039, -0.01426, 0.00374, -0.0061, 0.0018, 0.00242, -0.00379, -0.03004, -0.00481, 0.00338, -0.01126, 0.0097, 0.02054, -0.0204, 0.0217, 0.00056, -0.03444, 0.00343, -0.01175, 0.02874, 0.02194, 0.0002, 0.01959, -0.02523, -0.00704, -0.00123, 0.04516, -0.01583, -0.01241, -0.0037, -0.00179, 0.01474, 0.0001, 0.01161, -0.04518, 0.01177, 0.01499, 0.04235, -0.01902, 0.03103, -0.02673, -0.01438, 0.00124, -0.0047, -0.02666, 0.00918, -0.02709, -0.00079, 0.01759, 0.00386, 0.00141, -0.01684, -0.00353, -0.02689, -0.01445, 0.00271, 0.02698, 0.00581, 0.01596, -0.04426, 0.02094, -0.00594, -0.01633, 0.0026, 0.00122, 0.01524, 0.00773, -0.02638, 0.00842, 0.00813, -0.0093, -0.03775, 0.00609, -0.01491, -0.00931, 0.00042, -0.01962, -0.01005, 0.00918, -0.01082, -0.00265, 0.00403, -0.00665, 0.05408, 0.0198, 0.02034, 0.01492, 0.01288, -0.00056, -0.0164, -0.0014, 0.03978, -0.0276, 0.00097, 0.02768, 0.01168, 0.01403, -0.01947, 0.01211, -0.00334, 0.00075, 0.00123, -0.00731, -0.00305, 0.01609, 0.00922, -0.01086, -0.01953, -0.03836, -0.03187, -0.02662, -0.00904, -0.02222, 0.00672, 0.01419, -0.01088, 0.03029, 0.00407, -0.00843, -0.01419, -0.03256, -0.01449, 0.03804, 0.04455, 0.01636, -0.04708, -0.03929, 0.01671, -0.01424, -0.00337, -0.02702, -0.04699, -0.00991, -0.00098, -0.02103, 0.08463, 0.0436, -0.05817, -0.01358, -0.00182, -0.02936, -0.03163, 0.00207, -0.04409, 0.02533, 0.03304, 0.03076, 0.03244, 0.02201, -0.01059, 0.01489, 0.00764, 0.00547, -0.03704, 0.01513, -0.00411, -0.01949, 0.01103, -0.00831, 0.03744, 0.02235, -0.0266, -0.02145, 0.02272, 0.03451, -0.0057, 0.01429, -0.00747, 0.0218, -0.00823, 0.00577, -0.01682, 0.00356, 0.02937, 0.01953, -0.02176, 0.00931, 0.0085, -0.02727, -0.02135, -0.00339, 0.00442, -0.01711, 0.02186, -0.00366, 0.01912, -0.02248, 0.01611, 0.01873, 0.00239, -0.00225, 0.00822, -0.01945, 0.00786, 0.05336, -0.04515, -0.02993, 0.00538, 0.01364, 0.03948, 0.0112, 0.01816, 0.00075, 0.0155, 0.03157, 0.02185, -0.01967, -0.01669, 0.01326, -0.03063, -0.00766, -0.016, -0.00734, -0.03473, -0.02548, 0.01023, 0.01734, -0.00116, -0.01758, -0.01003, -0.01367, 0.01383, 0.03889, -0.01499, -0.01144, -0.02512, 0.00272, 0.02584, 0.01216, -0.01327, 0.00367, -0.02685, 0.00021, 0.01719, -0.02272, 0.00116, -0.00265, -0.00497, -0.00019, -0.01068, -0.01542, 0.01685, 0.00998, 0.01949, 0.00612, 0.02277, 0.02098, 0.00569, 0.00836, -0.0195, -0.03212, 0.01813, -0.03463, 0.03829, 0.03268, 0.02934, -0.00036, -0.02922, -0.01052, 0.02149, 0.01657, -0.00772, -0.00168, 0.007, 0.0075, 0.02175, 0.00287, 0.01443, 0.00799, 0.02038, 0.00474, 0.00613, -0.0112, -0.01011, -0.00455, 0.08951, -0.01253, -0.00164, 0.01639, -0.01082, 0.01369, 0.001, -0.01677, -0.03877, -0.01205, -0.02845, -0.006, -0.00671, -0.00736, 0.00648, 0.00537, -0.02944, 0.01129, 0.01109, -0.00389, 0.01078, -0.01774, -0.00661, -0.00291, 0.0041, -0.02396, -0.02233, 0.02376, -0.00163, 0.02412, -0.00509, 0.01744, 0.00402, 0.01052, -0.00902, 0.02566, 0.01437, 0.00478, -0.01922, -0.00338, 0.04519, 0.0012, -0.03663, 0.00711, -0.01575, 0.02038, -0.00629, 0.00358, -0.01235, 0.01436, 0.0063, 0.01422, -0.00765, -0.00109, -0.00306, -0.01125, 0.00199, -0.03697, -0.02735, 0.00804, -0.00853, 0.00255, 0.01124, 8e-05, -0.0177, 0.00697, -0.02386, -0.01254, 0.00425, -0.00228, -0.01972, 0.02943, -0.00048, 0.01693, -0.0052, 0.01044, -0.00141, 0.0035, -0.02889, 0.00284, 0.01928, -0.01473, -0.00211, -0.0066, 0.00346, 0.01434, 0.00768], "b": [0.09763, -0.06502, -0.08472, -0.04836, 0.06239, -0.02023, 0.08293, -0.1282, -0.05847, 0.10814, 0.00634, 0.00604, 0.01156, -0.04864, -0.0663, 0.05336, -0.05585, -0.07527, -0.03764, 0.09414, -0.03279, -0.11285, -0.08803, -0.08627, 0.07362, -0.127, 0.17085, 0.07147, -0.14243, 0.07358, -0.1448, -0.01531], "in": 32, "out": 32}, {"w": [-0.09726, -0.03593, -0.1669, 0.1164, -0.15349, 0.15146, -0.15932, -0.15594, 0.14918, 0.0331, 0.09246, 0.16688, 0.05569, 0.16119, 0.12971, 0.05297, 0.10102, 0.10828, 0.11372, -0.11829, 0.16116, 0.15429, 0.14535, 0.05585, -0.1159, 0.0583, 0.15272, -0.18281, -0.03508, -0.09534, -0.11614, 0.00263, -0.17674, 0.11438, -0.21042, 0.1737, -0.05751, 0.15553, -0.12728, -0.16345, 0.16377, 0.12987, 0.16841, 0.11053, -0.08701, 0.15536, 0.14285, 0.15084, -0.10512, 0.16627, -0.04617, -0.10486, -0.00579, 0.15805, -0.05714, 0.16322, -0.13832, 0.13062, 0.13544, -0.14281, 0.12412, 0.12933, -0.14084, 0.08748, -0.12955, 0.17176, -0.10937, 0.10124, -0.09952, 0.12705, -0.12512, -0.07087, 0.08733, 0.13643, 0.14041, 0.01925, -0.12795, 0.04955, 0.10272, 0.11621, -0.16163, 0.15473, -0.14203, -0.06073, 0.11992, 0.12842, -0.17789, 0.20209, -0.1008, 0.13394, 0.10054, -0.04107, 0.15543, 0.2169, -0.14913, 0.17996], "b": [-0.2544, -0.17184, -0.02628], "in": 32, "out": 3}], "psnr": 30.11}