{"hidden": 32, "omega0": 30.0, "layers": [{"w": [-0.24333, 0.30409, 0.11262, 0.08183, 0.36061, -0.41353, 0.37455, 0.11401, -0.30223, 0.1356, -0.13201, -0.18445, -0.03965, -0.17438, 0.38979, 0.36536, -0.0318, -0.41034, -0.06667, 0.02723, 0.32843, -0.02418, 0.17206, 0.13003, -0.23661, -0.30087, -0.39741, 0.01471, 0.15678, -0.01619, 0.45323, -0.12918, -0.30677, 0.11325, -0.11073, -0.04872, 0.4519, -0.01871, 0.39779, 0.05668, -0.13701, 0.33254, -0.29606, 0.03579, 0.09928, 0.2315, -0.39713, 0.05945, -0.09158, 0.29265, 0.15341, 0.18134, 0.2642, -0.12889, -0.00855, 0.33709, -0.36829, -0.31031, 0.00288, -0.15513, 0.03649, 0.41835, -0.04788, -0.38585], "b": [0.37956, -0.07477, 0.02022, 0.16395, 0.4349, 0.67912, -0.53684, -0.22952, 0.2689, 0.60151, 0.60522, 0.62015, 0.10688, -0.58979, 0.06547, -0.42585, -0.64786, 0.62467, 0.53752, -0.74068, 0.14806, -0.14391, -0.11898, -0.31227, 0.27978, -0.41868, 0.27161, 0.35715, 0.51225, 0.2644, -0.69562, -0.45306], "in": 2, "out": 32}, {"w": [0.0135, 0.02934, 0.00209, 0.00996, 0.00415, 0.00498, 0.00622, -0.00814, -0.00899, -0.00474, -0.01328, 0.00562, 0.00456, -0.01346, 0.00351, 0.00805, -0.00417, -0.0118, 0.00146, 0.01082, -0.00245, -0.00784, -0.00146, -0.00464, -0.01242, 0.01313, -0.01127, -0.00484, 0.00714, -0.04697, -0.00827, 0.00717, 0.00233, -0.01031, -0.00563, 0.00086, -0.01036, 0.03886, 0.01612, -0.00593, 0.01912, 0.00095, 0.01327, 0.00343, 0.0035, -0.01418, 0.00429, 0.00187, -0.00219, -0.02818, -0.00808, 0.00551, -0.01442, 0.02594, -0.00435, -0.01147, -0.01504, 0.00518, 0.01982, -0.01816, 0.00489, 0.01679, 0.01176, 0.01759, 0.00161, -0.01349, 0.00303, -0.00649, -0.00914, -0.0136, 0.00336, 0.00594, -0.00601, -0.02803, -0.00738, -0.01789, 0.00581, 0.00201, 0.00939, -0.00189, -0.00117, -0.01061, 0.01887, 0.00151, -0.00894, 0.00815, -0.02439, 0.02001, -0.00729, 0.01303, -0.00017, -0.0075, -0.00031, 0.01987, -0.00986, 0.00492, -0.01227, -0.0405, -0.00168, 0.00449, -0.00468, -0.03203, -0.02595, 0.00135, -0.00343, 0.02503, 0.00336, -0.03196, -0.01521, -0.00028, -0.01872, 0.01096, -0.00085, -0.00675, 0.00246, -0.0038, 0.01547, -0.00424, 0.0113, -0.0079, 0.0207, 0.01275, -0.00031, 0.01367, -0.0086, 0.01487, -0.00125, 0.00359, -0.00581, 0.01638, 0.00128, -0.00744, 0.01075, -0.01713, -0.01263, 0.00289, 0.0099, 0.00427, -0.00898, -0.00404, -0.00966, -0.00097, 0.01651, -0.00223, -0.00132, 0.0087, -0.00638, 0.01765, 0.00474, -0.01007, 0.00305, -0.01567, -0.01275, -0.01101, -0.0085, 0.01782, -0.00771, -0.00982, -0.00177, 1e-05, 0.00461, 0.027, 0.00018, -0.0011, 0.00642, 0.00297, 0.00521, 0.00487, -0.00557, -0.01044, 0.00497, 0.01108, -0.00242, 0.00772, -0.02152, -0.00294, -0.01798, -0.02051, -0.00221, -0.02204, 0.00379, 0.00796, 0.00662, 0.00714, -0.00639, -0.00342, -0.00427, 0.00184, -0.01526, 0.02266, -0.01037, 0.01186, -0.01633, 0.0064, 0.00146, -0.00358, 0.02095, -0.01077, -0.00942, 0.00533, 0.00092, -0.00301, -0.00694, 0.00619, 0.0061, 0.0011, -0.03487, -0.00089, -0.0189, -0.01695, -0.00116, -0.0058, -0.00091, -0.01862, 0.0113, 0.00105, -0.00143, -0.00548, 0.00422, 0.00526, -0.00931, -0.02315, -0.00335, -0.01211, 0.00419, 0.02328, -0.00089, -0.00316, 0.01043, 0.01699, -0.02965, -0.00709, -0.01602, -0.01734, -0.02887, -0.01937, 0.0026, -0.01073, -0.01011, -0.00635, 0.04565, -0.03393, -0.00257, 0.02313, 0.00595, -0.01174, -0.00481, 0.00272, -0.00433, -0.01012, 0.00917, 0.01286, 0.0148, -0.01151, -0.00445, -0.00084, -0.00355, 0.00923, -0.00158, 0.00366, -0.01328, -0.01674, -0.0138, 0.00234, 0.00104, -0.02133, 0.0018, 0.02315, -0.00013, -0.00458, 0.01334, 0.00204, 0.00685, 0.02954, 0.00603, 0.00023, -0.00199, 0.01223, 0.00149, 0.00535, -0.0046, -0.0072, 0.01047, 0.00675, 0.00581, -0.00931, -0.00432, 0.00772, 0.00291, -0.01636, -0.00353, 0.01168, -0.00862, 0.00098, 0.00665, 0.00252, -0.00381, 0.00181, 0.02104, 0.0067, 0.00209, 0.0, 0.00084, 0.01162, 0.01109, 0.00308, -0.00748, -0.00086, 0.00721, 0.00288, -0.01198, -0.01754, 0.01062, -0.01438, -0.00897, -0.00337, -0.00314, 0.01974, -0.00088, 0.00442, -0.00747, 0.02165, -0.00662, 0.02132, 0.01359, 0.01411, -0.02525, -0.00025, -0.00338, 0.01668, 0.01861, 0.00847, -0.00556, -0.00545, 0.01395, 0.00418, 0.00067, -0.02213, -0.00582, 0.01541, 0.0029, -0.01679, 0.0062, -0.0341, -0.00785, -0.00205, -0.03173, -0.00588, 0.00273, 0.00863, 0.00726, -0.01607, -0.00063, 0.00447, 0.00217, 0.01867, -0.03752, -0.00096, 0.01949, 0.00492, -0.01167, -0.01036, -0.00578, -0.00725, -0.00056, -0.02131, -0.0118, 0.01572, 0.01382, -0.00346, -0.01463, -0.00589, -0.01322, 0.01592, 0.01099, 0.00529, 0.00297, -0.01062, 0.02959, -0.02145, 0.00282, -0.01087, -0.00092, 0.01062, 0.00096, -0.01596, -0.00255, 0.00272, 0.03281, 0.02344, 0.0033, 5e-05, 0.00539, 0.02725, 0.01892, 0.01326, 0.01799, 0.01069, -0.01081, -0.00698, -0.01644, -0.01173, 0.01909, -0.00588, -0.00236, 0.0017, -0.00165, 0.00848, -0.01231, -0.00951, -0.01283, 0.00078, -0.00057, -0.00347, -0.00156, 0.00405, 0.01243, -0.00403, 0.00324, 0.00513, -0.00149, -0.01523, -0.01091, -0.00441, 0.00049, -0.0047, 0.00021, -0.01394, -0.01216, -0.00623, -0.02499, 0.00809, -0.01233, -0.01755, -0.00077, 0.00635, -0.00082, -0.00332, 0.00434, -0.0012, 0.00077, -0.02443, -0.02273, -0.0008, -0.00173, -0.00307, 0.0035, 0.01201, -0.00891, -0.01275, 0.00212, -0.01443, -0.00442, 0.01614, 0.0217, 0.00097, 0.00772, -0.01626, -0.00027, 0.00534, 0.00127, 0.0041, 0.01857, -0.00393, 0.00665, 0.01343, 0.00791, -0.00933, -0.01097, 0.00247, -0.00722, 0.00953, 0.00176, -0.01613, -0.00298, -0.02279, -0.00881, 0.00668, 0.0093, 0.00393, 0.00997, 0.00462, -0.00012, 0.00094, 0.01671, 0.01026, -0.00573, 0.00047, 0.00669, 0.01812, -0.00738, 0.00271, 0.0057, 0.00094, -0.0413, -0.00251, -0.01401, 0.00288, 0.00829, -0.00214, -0.00143, -0.01787, 0.00667, 0.0165, -0.0078, -0.02146, 0.0047, 0.01229, 0.0059, -0.00096, 0.00259, 0.00319, -0.00164, -0.01225, -0.00047, 0.00147, 0.00484, 0.01199, -0.02056, -0.00714, 0.00519, -0.00353, 0.00033, 0.03901, -0.00349, 0.00154, -0.00082, -0.00283, -0.00697, -0.01839, 0.00779, 0.00293, 0.0011, -0.02104, -0.01438, 0.00925, -0.01615, -0.00713, -0.01869, 0.00348, 0.00249, -0.0112, 9e-05, 0.00203, 0.00218, 0.00739, 0.00268, -0.01298, 0.01136, 0.0187, -0.03469, -0.00116, 0.02464, 0.00858, -0.00668, -0.00629, 0.00186, -0.0042, 0.02595, -0.01461, 0.02889, 0.00209, 0.00298, 0.00932, -0.0022, 0.02203, -0.01916, 0.00684, -0.00011, -0.01528, 0.00919, -0.01052, -0.01782, -0.00926, -0.00404, 0.00113, 0.00022, 0.02829, 0.00347, 1e-05, -0.00224, -0.0264, -0.00447, -0.0033, 0.00339, -0.00585, 0.01692, 0.00344, -0.00063, -0.00893, -0.01614, -0.00971, -0.01013, -0.02286, 0.00475, -0.01383, 0.0028, 0.00922, 0.01382, 0.01201, -0.00015, 0.00855, 0.00235, 0.0034, 0.00881, 0.0102, 0.00366, -0.00291, -0.00077, 0.03581, 0.00221, 0.00634, -0.00898, -0.00289, 0.02369, 0.00173, 0.009, 0.00268, 0.021, -0.01587, 0.00282, -0.00064, -0.02811, -0.00238, -0.0213, 0.01047, -0.00396, -0.01374, -0.00637, 0.0054, 0.00877, 0.00734, 0.00059, 0.00601, -0.0049, -0.00261, 0.00019, 0.01703, -0.00202, 0.00662, -0.00683, 0.01637, -0.00415, -0.01081, 0.00117, 0.01173, 0.00749, 0.00115, 0.00891, 0.00456, 0.00437, 0.01627, -0.00042, -0.0022, -0.04609, 0.00251, 0.007, 0.04125, -0.01739, 0.0027, 0.00021, -0.00244, -0.00311, -0.01327, -0.00106, -0.0295, 0.00203, 0.00667, -0.00448, -0.01759, 0.00867, -0.00255, -0.00412, -0.02477, 0.00044, -0.00222, -0.00448, -0.00068, -0.0032, -0.00527, 0.00755, -0.01576, 0.01541, 0.01951, -0.00539, 0.0066, -0.02347, -0.00316, -0.01213, 0.00759, -0.00399, -0.00194, -0.00109, 0.00441, -0.00611, 0.00998, -0.00953, 0.0086, 0.00791, 0.00508, 0.00597, -0.00192, -0.00227, 0.00242, -0.00086, 0.00762, -0.00106, -0.00027, -0.01462, -0.02373, -0.01483, 0.00202, -0.00171, 0.00334, 0.02499, -0.01166, 0.00449, 0.00387, 0.00411, -0.0051, 0.01537, 0.03269, 0.00121, -0.00529, 0.00632, 0.0178, -0.02806, 0.00309, 0.00788, -0.01619, 0.00638, 0.00677, -0.00164, 0.01368, -0.00976, 0.00375, 0.01177, 0.04063, 0.0027, -0.01353, -0.02727, -0.01013, -0.02234, -0.00186, -0.012, 0.00818, -8e-05, -0.00692, 0.00332, 0.01271, -0.04104, 0.00737, 0.00131, 0.00125, -0.01607, -0.00193, -0.00819, -0.00735, -0.03861, -0.00142, -0.01035, -0.01081, -0.01551, 0.00528, 0.01501, 0.00147, -0.00378, -0.00607, 0.00076, -0.01159, 0.00123, 0.00189, 0.00611, -0.01096, -0.01189, -0.00284, 0.01081, -0.02221, -0.01786, -0.00386, 0.00437, 0.01215, -0.03107, 0.00639, -0.0028, 0.02098, 0.00318, -0.00638, -0.01378, 0.00979, -0.01186, 0.00087, 0.01261, 0.00425, -0.00122, -0.00203, -0.00245, -0.02009, 0.0071, -0.00111, -0.01274, 0.01065, -0.00095, 0.00114, -0.00439, -0.01447, 0.00976, 0.00513, -0.00865, -0.00018, 0.01626, 0.0128, 0.00723, 0.00085, -0.01969, -0.00083, -0.00356, 0.00672, -0.0079, 0.00377, -0.00093, 0.00856, 0.01311, -5e-05, 0.00591, -0.01511, -0.00111, 0.00025, -7e-05, -0.02641, -0.0091, -0.01425, 0.00442, 0.00277, 0.00217, 0.00013, 0.00253, 0.00914, 0.00323, 0.00691, 0.00391, 0.00861, -0.01162, 0.00236, -0.00087, -0.0143, -0.00716, 0.00495, 0.00323, -0.00019, -0.00213, -0.00725, 0.00702, 0.00918, 0.00554, 0.00055, 0.0076, 0.00613, -0.00358, -0.00371, -0.00254, 0.01451, 0.01037, -0.00795, 0.0008, 0.00822, -0.00461, -0.01546, 0.01327, 0.01408, 0.00557, 0.00596, -0.00225, 0.0206, -0.01679, -0.01193, 0.00752, -0.0081, 0.01719, 0.01635, 0.00191, 0.02658, -0.01166, 0.01295, -0.00048, -0.01499, -0.0011, -0.01869, -0.00315, -0.0057, -0.0032, -0.00373, -0.01339, 0.03312, 0.01094, -0.01525, 0.00201, -0.01662, 0.00452, -0.01069, 0.01214, 0.00914, -0.01448, -0.00232, -0.00762, -0.01664, -0.03469, 0.00979, -0.00293, -0.01444, 0.03006, 0.0011, 0.00257, -0.03882, -0.00135, 0.01258, 0.00391, -0.00681, 0.00698, -0.00041, 0.0112, 0.00549, -0.01117, -0.00178, 0.01077, 0.00533, 0.01106, -0.00856, 0.00238, 0.01248, -0.00791, -0.00348, -0.00608, 0.00263, 0.01882, 0.00459, 0.0022, -0.00923, 0.02063, -0.03774, 0.00928, 2e-05, 0.03968, -0.0088, 0.00681, 0.02788, -0.01307, -0.00324, -0.00052, -0.00857, 0.03367, 0.00739, 0.01369, 0.01334, 0.00334, 0.00652, 0.00081, 0.01125, -0.01556, 0.00869, -0.00355, 0.01857, -0.00028, -0.00897, 0.00244, -0.00712, -0.00457, 0.00751, -0.00723, 0.00251, 0.00788, 0.01195, -0.00302, 0.00934, 0.00077, -0.00757, 0.00421, -0.01881, 0.00494, -0.00662, -0.00732, 0.00184, -0.00027, 0.01586, -0.01391, -0.00842, -0.01498, 0.01378, -0.00095, -0.04372, -0.00159, -0.00841, -0.00994, -0.0259, 0.00196, -0.01089, 0.01816, 0.02364, -0.01144, -0.00418, 0.00103, -0.0268, -0.01045, -0.00793, -0.00133, 0.01236, 0.01599, -0.01189, -0.01223, -0.01298, 0.01054, -0.01329, -0.0006, 0.01319, 0.00358, 0.02617, 0.01943, 0.02425, -6e-05, -0.00375, 0.00171, -0.00177, -0.00161, 4e-05], "b": [-0.05129, -0.1469, -0.09923, 0.00856, -0.17464, -0.02329, -0.08943, -0.11169, 0.07888, -0.12665, -0.14975, 0.10132, 0.04395, 0.16822, -0.05819, -0.09283, -0.00763, 0.00367, 0.12438, -0.14652, -0.00639, 0.0885, -0.09076, -0.07747, 0.08389, -0.17585, 0.04673, -0.14765, 0.08194, -0.15953, 0.10351, -0.16163], "in": 32, "out": 32}, {"w": [-0.00259, 0.01065, 0.00634, 0.00347, 0.00495, -0.00646, -0.00523, -0.00546, -0.00501, 0.00739, 0.00693, 0.00287, 0.00111, -0.00026, -0.00835, -0.01496, 0.00547, 0.00037, 0.00294, -0.00922, -0.0039, 0.01045, -0.00783, -0.00456, -0.01216, -0.00276, 0.0108, 0.017, -0.00337, 0.00349, -0.00424, 0.00752, 0.00946, -0.00768, -0.00533, 0.0021, -0.00215, -0.00224, 0.00311, -0.00127, 0.01312, 0.00469, -0.00605, 0.00436, 0.00472, 0.00077, 0.01313, 0.01386, -0.0115, -0.00084, 0.00745, 0.00081, 0.00536, -0.00891, -0.00506, 0.00081, -0.0011, -0.00173, -0.00069, 0.00319, -0.00256, 0.00407, -0.0068, -0.01399, -0.01213, 0.00949, -0.00402, -0.0019, -0.02637, 0.02151, -0.00333, 0.01076, -0.00074, -0.00046, -0.00769, -0.0207, 0.01294, -0.01837, -0.01528, 0.00088, -0.01072, -0.01122, -0.02316, 0.02687, 0.00347, -0.00277, -0.01751, 0.0063, 0.01633, 0.0213, 0.02496, -0.00385, -0.01506, 0.00886, 0.03626, -0.00714, 0.01143, -0.01272, 0.01181, -0.00613, -0.00107, 0.00694, 0.00398, -0.00678, 0.00981, -0.00269, -0.00347, -0.00085, 0.01118, -0.00026, 0.01187, 0.02076, -0.0035, 0.00642, 0.00508, 0.00191, 0.01131, 0.00266, 0.00797, -0.00075, -0.00781, 0.00432, 0.01107, -0.00362, -0.0083, 0.00452, 0.01237, 0.00651, 0.00434, -0.00331, 0.02211, -0.00889, 0.00288, -0.00589, 0.01398, 0.00411, -0.02011, 0.0151, 0.00749, 0.00284, -0.00487, -0.00616, -0.0052, -0.00081, -0.00219, -0.00214, -0.01572, 0.00714, 0.01487, 0.00342, 0.01246, -0.00434, -0.01706, 0.00022, 0.01384, 0.00316, 0.01457, 0.00718, 0.01489, 0.00227, -0.02902, 0.02099, 0.0014, 0.01769, 0.00499, 0.00108, -0.00431, -0.00236, 0.00548, 0.011, 0.00644, -0.00089, 0.00944, -0.01837, -0.02114, -0.00758, -0.00501, -0.0097, -0.01117, 0.0084, -0.00597, 0.01849, -0.01758, 0.00185, 0.00711, 0.00861, 0.01657, 0.0115, -0.01312, 0.00338, 0.01529, -0.00291, -0.00648, 0.00493, 0.01162, 0.01492, -0.00417, -0.002, -0.00176, 0.00466, -0.00645, 0.00445, 0.00145, 0.00306, -0.00095, -0.01287, -0.0078, -0.01532, 0.00862, -0.00272, -0.00732, 0.00857, -0.01376, 0.01046, -0.01293, -0.00676, -0.00426, 0.00547, 0.0137, 0.00691, -0.00421, 0.00046, -0.00386, 0.00637, 0.00457, -0.00549, -0.00498, -0.00318, -0.00579, 0.00228, 0.00215, -0.00273, 0.00739, -0.02886, -0.01247, -0.00898, -0.01282, 0.00595, 0.00899, 0.00946, 0.01405, 0.00701, 0.01822, -0.0194, -0.00649, -0.0077, -0.00067, -0.00639, 0.00277, -0.0079, -0.01369, -0.00297, -0.01126, -0.01116, -0.00052, -0.00915, -0.01613, 0.00616, -0.0099, 0.00449, -0.00196, -0.00148, 0.01038, -0.01036, 0.02146, 0.00239, 0.00122, -0.00052, 0.00448, 0.00038, 0.01423, -0.00249, -0.0081, -0.0061, 0.00044, -0.0022, 0.00306, 0.00698, 0.01431, 0.00707, 0.01186, 0.01927, -0.00401, -0.00795, 0.00805, -0.00756, 0.00784, -0.00111, -0.0032, 0.00666, 0.01339, -0.00311, 0.00533, -0.00351, 0.00225, 0.00107, -0.01096, 0.00041, 0.00968, -0.0016, -1e-05, -0.00108, 0.00226, -0.01616, 0.00334, 0.00319, -0.00417, 0.00731, 0.00371, 0.01598, -0.00405, 0.00012, -0.00379, -0.01028, -0.00411, 0.01222, 0.01542, -0.00186, -0.01008, -0.00822, 0.0344, -0.01769, 0.0156, -0.02801, -0.00597, -2e-05, -0.00219, 0.00889, -0.04043, -0.01159, -0.00167, 0.00308, -0.01442, 0.01076, 0.00663, -0.00304, 0.0173, 0.00881, 0.00142, -0.00706, 0.01698, -0.01361, 0.01442, -0.00617, -0.01903, -0.02089, -0.01799, 0.00464, 0.02011, 0.00029, -0.01084, 0.00853, 0.00338, 0.00373, -0.0038, 0.00625, 0.00375, 0.0061, -0.0103, -0.00642, -0.01075, -0.00403, -0.00353, 0.00658, -0.01128, 0.0032, 0.00413, -0.01046, 0.01946, -0.00133, 0.00105, 0.00131, -0.00711, -0.00113, 0.01534, 0.00031, -0.01319, -0.0021, -0.00421, 0.01284, 0.01009, -0.001, -0.01353, 0.02499, 0.00263, -0.01348, -0.00772, 0.00316, 0.02362, -0.01743, -0.00723, -0.00902, 0.02047, -0.0054, -0.00279, 0.00762, -0.00884, 0.02218, 0.0116, 0.00018, 7e-05, 0.01085, 0.0211, -0.01773, -0.014, -0.00919, 0.00625, -0.0033, -0.00926, 0.00309, 0.0052, -0.00689, -0.00759, -0.0077, -0.02498, 0.00361, -0.01883, 0.00352, -0.00837, 0.00531, 0.00567, 0.00889, -0.01815, -0.00222, 0.01556, 0.0035, -0.00128, 0.00682, -0.00101, 0.01173, 0.00624, -0.02819, 0.00756, -0.00369, -0.00404, 0.01578, 0.03404, -0.01527, 1e-05, -0.00772, -0.0113, 0.00326, 0.01499, -0.0062, -0.01075, -0.00393, -0.00688, -0.00613, -0.00441, 0.00203, -0.00112, -0.00274, -0.00212, -0.00068, -0.00515, 0.00108, -0.00767, -0.00287, 0.00227, 0.002, -4e-05, 0.00906, 0.00351, -0.00786, 0.00168, 0.00101, 0.00109, -0.00292, -0.00975, 0.00359, 0.00369, -0.0088, -0.00303, 0.01482, 0.00228, -0.00934, -0.00551, -0.00297, -0.00999, 0.01329, 0.01202, -0.00515, 0.00791, -0.01467, 0.00099, 0.01272, 0.00805, -0.00341, -0.0299, -0.00368, 0.00441, 0.00175, -0.02426, 0.0028, 0.01306, -0.00492, 0.01276, 0.00078, -0.00413, -0.00477, 0.01082, -0.00129, 0.02851, -0.00469, -0.01647, -0.0085, -0.01215, 0.01374, 0.02393, -0.00677, -0.00159, 0.01181, -0.00272, 0.00413, 0.00369, -0.00544, -0.00617, -0.00123, -0.0014, 0.00173, 0.01641, -0.00685, -0.00442, -0.01333, 0.01555, -0.00953, -0.0066, 0.01339, -0.00329, -0.00077, 0.00608, 0.00945, -0.01963, -0.00581, -0.01819, -0.0001, 0.02023, 0.00371, 0.00755, -0.02101, -0.01836, 0.01531, 0.00058, -0.01821, -0.00513, 0.00432, -0.00332, 0.00271, 0.00176, -0.00126, 0.00459, 0.0022, 0.00061, 0.004, -0.00134, -0.0018, -0.00047, -0.00546, 0.00716, -0.01134, -0.00107, 0.00741, -0.00038, 0.00271, 0.00143, 0.00375, 0.00534, -0.00526, 0.00421, -0.0035, 0.02291, 0.00075, 0.00171, -0.00626, -0.00814, -0.00318, 0.01183, 0.00142, -0.00539, 0.00153, -0.03377, 0.03332, -0.00329, 0.00138, -0.01827, -0.00609, 0.00661, -0.00471, 0.00452, 0.00112, -0.00305, -0.00484, -0.01891, -0.00246, -0.0175, 0.02234, -0.00569, -0.02468, 0.01005, 0.00238, 0.00224, 0.01222, -0.00334, 0.00378, 0.0092, 0.00191, 0.00167, 0.00095, -0.01197, 0.01588, 0.01185, 0.0035, 0.01129, -0.00031, 0.00662, -0.00213, -0.00295, -0.0014, -0.00362, 0.00044, -0.01231, 0.00163, -0.00463, -0.0044, 0.01337, -0.00285, -0.01356, -0.00042, 0.00378, 0.00594, -0.00535, -0.0001, -0.00665, -0.01449, 0.00228, 0.00513, 0.00012, -0.00364, 0.00606, 0.0035, -0.01299, 0.01333, 0.00696, -0.00131, -0.00543, 0.00561, -0.00731, 0.00211, -0.00654, 0.00433, 0.00878, -0.00046, 0.0088, -0.01171, -0.01599, -0.00544, 0.00116, -0.00867, -0.00648, 0.01307, -0.00699, 0.00982, -0.01025, 0.0017, 0.00035, 0.0116, 0.01104, -0.00083, -0.00621, 0.01122, 0.00557, 0.00234, 0.01067, -0.00065, -0.00945, -0.00667, 0.00101, -0.01162, -0.00417, 0.00448, 0.01489, -0.00018, -0.00876, 0.00028, 0.00483, 0.00564, 0.01358, 0.00693, -0.01079, 0.00323, 0.00092, 0.00331, 0.00738, -0.002, -0.00418, -0.00325, 0.0062, 0.00352, -0.00976, -0.00568, -0.0071, 0.0003, -0.00084, 0.0035, 0.01406, -0.00558, -0.01047, 0.0127, -0.00813, 0.0172, -0.0038, -0.00925, 0.0122, -0.01522, -0.00746, 0.00473, -0.0169, 0.01806, 0.01006, 0.01362, 0.01766, -0.00216, 0.01204, -0.01816, -0.01387, -0.0193, 0.0042, -0.00982, 0.00506, -0.01812, -0.00876, -0.01143, -0.00465, -0.01187, -0.01364, -0.00853, -0.00046, 0.00054, -0.00841, 0.00981, -0.00751, -0.0039, 0.00561, 0.00359, 0.00449, 0.01393, -0.00214, -0.01091, -0.00763, -0.00582, 0.00519, -0.00414, 0.0031, 0.00301, -0.01087, -0.00803, -0.01013, 0.01356, 0.00533, 0.00203, 0.00697, 0.00957, 0.01772, -0.00717, 0.00557, -0.00762, -0.00173, 0.00928, -0.00204, -0.00454, 0.01674, -0.0123, 0.00446, -0.00261, -0.01415, 0.00046, 0.00176, -0.00898, 0.00459, 0.0072, 0.00589, 0.01212, -0.01795, 0.00833, -0.00038, -0.00155, 0.00893, 0.00348, -0.0013, -0.00772, -0.0074, 0.00919, -0.01619, -0.01313, -0.02021, -0.00057, 0.00319, 0.00105, 0.00738, -0.00231, 0.00681, -0.00274, 0.00142, -0.005, -0.00481, 0.00406, 0.00854, -0.00358, 0.01514, -0.00094, -0.00464, 0.00964, 0.00973, 0.00018, 0.01115, 0.01154, -0.00436, 0.00185, 0.00573, 0.00752, 0.0068, -0.00127, 0.00471, 0.01522, 0.00413, -0.00615, -0.0032, -0.01553, 0.0097, 0.00697, 0.0034, -0.00603, -0.00526, 0.00272, -0.01853, 0.01355, 0.0032, -0.00036, -0.01156, -0.00537, 0.01902, -0.0084, -0.01428, -0.0078, 0.00597, 0.0063, -0.00565, 0.00487, -0.00076, 0.00177, 0.01274, -0.01338, -0.01096, -0.00247, -0.0178, -0.00434, 0.00654, 0.00231, -0.00406, -0.00875, -0.01987, -0.00502, 0.00366, -0.01335, 0.01065, 0.00405, 0.00725, -0.0181, 0.00902, -0.00742, -0.0037, 0.00538, -0.01092, 0.01472, 0.01339, 0.01465, -0.00193, -0.00645, -0.0052, -0.01184, -0.00421, -0.00553, -0.01105, 0.00229, -0.00142, 0.01055, 0.01953, 0.00842, -0.01127, 0.00814, -0.00357, 0.00458, 0.011, 0.01169, -0.01242, 0.00608, -0.01929, 0.01197, -0.01145, 0.00878, -0.00427, -0.00074, -0.00451, -0.00467, 0.03434, 0.00444, 0.00723, -0.00081, 0.01652, -0.00388, 0.00514, -0.00196, -0.01373, -0.00858, 0.01009, 0.01408, -0.00967, 0.00555, -0.00909, -0.00362, 0.01073, 0.01349, 0.00263, -0.00021, -0.02329, 0.00645, -0.00455, -0.00619, -0.00676, 0.00393, 0.00559, 0.00354, 0.00117, 0.00684, -0.00964, 0.00485, -0.0126, -0.00241, -0.00138, -0.00183, -0.00794, -0.00275, -0.01562, -0.01433, 0.00933, 7e-05, -0.0026, 0.00175, -0.00538, 0.01109, -0.00175, -0.00072, -0.00237, 0.00105, 0.00354, 0.00604, -0.00194, -0.00544, 0.00466, 0.01087, -0.01522, 0.00222, -0.00629, 4e-05, 0.00045, 0.00394, 0.01017, -0.00506, 0.01137, 0.01894, 0.00117, -0.00548, -0.01126, -0.00472, 0.01087, -0.0059, -0.01022, -0.00135, -0.00492, -0.00867, -0.00943, 0.0136, 0.00829, 0.00312, 0.00632, 0.00761, 0.003, 0.00109, -0.00792, -0.00496, -0.00228, 0.00345, -0.011, 0.00316, 0.01391, 0.00921, 0.00127, 0.00549, 0.01112, 0.00334, 0.00579, -0.00104, -0.00783, -0.00824, -0.00127, -0.01902, -0.00367, 0.00868, 0.01537, -0.00033, 0.00353, -0.0018, -0.0101, 0.00488, -0.0103, -0.00327, 0.01155, -0.01806, 0.0135, -0.00029, -0.00384, 0.00808, 0.01627, -0.02522], "b": [0.10761, -0.02997, -0.05405, -0.03657, 0.07185, 0.01375, 0.11314, -0.15403, -0.078, 0.12018, -0.00697, 0.02208, 0.08273, -0.01429, -0.06451, 0.03232, -0.0157, -0.07758, 0.04377, 0.04272, -0.0035, -0.14203, -0.04285, -0.07952, 0.07385, -0.11937, 0.13345, 0.07353, -0.12264, 0.13334, -0.18292, -0.00133], "in": 32, "out": 32}, {"w": [-0.14171, -0.13122, -0.13108, -0.12794, -0.13852, 0.16604, -0.14543, -0.13491, 0.05824, -0.13635, 0.05938, 0.13429, 0.13474, 0.12355, -0.11037, 0.13318, -0.14207, -0.09051, 0.13606, 0.13538, 0.14532, 0.14551, 0.1381, -0.04792, 0.05629, 0.13421, 0.14227, -0.1375, 0.13332, -0.13592, 0.01004, -0.12838, -0.08346, -0.03942, -0.05365, -0.00926, -0.08741, 0.09622, -0.03995, -0.118, 0.17552, -0.03772, 0.16387, 0.06074, 0.01136, 0.1147, 0.077, 0.06836, -0.10953, 0.1768, 0.07972, 0.02456, 0.01748, 0.05185, 0.10101, 0.2033, -0.18667, 0.05748, 0.06065, -0.08139, 0.12569, -0.0385, -0.18655, -0.08028, -0.03922, -0.02449, 0.09332, -0.06022, -0.00863, 0.16691, -0.09063, 0.06165, 0.07214, 0.01238, 0.17068, 0.001, 0.00485, 0.01835, 0.1161, -0.01346, 0.05564, 0.13108, -0.10252, 0.08182, 0.08885, 0.1197, -0.08148, 0.12378, -0.06992, 0.02756, -0.02839, 0.07744, 0.05605, -0.04001, -0.12834, 0.20147], "b": [-0.06887, -0.22474, 0.0145], "in": 32, "out": 3}], "psnr": 46.32}