{"hidden": 32, "omega0": 30.0, "layers": [{"w": [-0.25151, 0.36502, 0.11488, 0.09547, 0.37434, -0.46448, 0.36798, 0.16687, -0.35808, 0.10181, -0.12026, -0.1968, -0.06705, -0.20228, 0.40529, 0.46218, -0.05144, -0.41018, -0.01096, 0.09233, 0.34768, 0.0143, 0.12738, 0.07189, -0.34138, -0.31478, -0.41582, -0.02073, 0.11985, -0.02021, 0.45786, -0.10817, -0.29974, 0.07691, -0.19896, -0.09107, 0.48938, -0.02867, 0.41379, 0.05955, -0.16121, 0.36949, -0.262, 0.00183, 0.12186, 0.24276, -0.4661, 0.00049, -0.14245, 0.35862, 0.18148, 0.18647, 0.27349, -0.11117, -0.05069, 0.39693, -0.41754, -0.34624, 0.02993, -0.18303, 0.03659, 0.43282, -0.08062, -0.45074], "b": [0.39818, -0.06993, 0.02933, 0.17767, 0.44341, 0.66161, -0.53528, -0.26682, 0.28745, 0.5752, 0.60745, 0.60582, 0.12942, -0.60069, 0.05714, -0.43903, -0.65236, 0.60469, 0.54532, -0.72954, 0.1089, -0.15527, -0.14665, -0.29951, 0.29109, -0.40594, 0.25912, 0.35257, 0.46682, 0.25428, -0.72403, -0.45668], "in": 2, "out": 32}, {"w": [0.02311, 0.00397, -0.00261, 0.06122, 0.02295, 0.05784, -0.05676, 0.01386, 0.03579, 0.00174, 0.00935, -0.02286, -0.01094, 0.0078, 0.00758, -0.02179, -0.0099, -0.00017, 0.00181, 0.01016, -0.00492, 0.0046, -0.01277, -0.00903, -0.01351, -0.0242, 0.0194, -0.04527, -0.00901, 0.02316, 0.01429, 0.01817, -0.02105, -0.00734, -0.0039, -0.00564, -0.01877, -0.01181, -0.03296, 0.01009, 0.00735, -0.0084, 0.01566, -0.01831, -0.03433, 0.00719, 0.02196, 0.0066, 0.02664, 0.01892, -0.01403, -0.0157, 0.00634, 0.01759, -0.01016, -0.00905, 0.04377, 0.00179, 0.02029, -0.03554, -0.00268, -0.00878, -0.02885, -0.00549, -0.00215, 0.0095, -0.01042, 0.00512, -0.02432, -0.01476, 0.00037, -0.02181, -0.02372, -0.02748, 0.02115, 0.01041, -0.00726, -0.02682, -0.00114, -0.00081, 0.01188, -0.00249, -0.00392, 0.01096, -0.0639, 0.00974, -0.0077, 0.01401, 0.03804, -0.01489, -0.01436, 0.01057, -0.03476, 0.01637, -0.00332, 0.02334, 0.00242, -0.00475, -0.03187, 0.01034, -0.04973, -0.00219, -0.01031, 0.00464, 0.00931, 0.01404, 0.0081, 0.00564, -0.0056, -0.02173, 0.00497, 0.00368, -0.00019, -0.01133, -0.02331, 0.0176, 0.02133, -0.01325, 0.00647, 0.00177, -0.01556, 0.01685, -0.0153, -0.02247, 0.02554, 0.01586, 0.03347, -0.00337, 0.00888, 0.02929, -0.0236, 0.00016, 0.02098, 0.0047, 0.01316, -0.04238, 0.02314, -0.01129, -0.0295, 0.0126, -0.01464, -0.0127, -0.04084, -0.01359, -0.00452, 0.01474, -0.00586, 0.02276, -0.03317, -0.01969, -0.00676, -0.01389, 0.00128, 0.02391, -0.01536, 0.00447, -0.01596, 0.0109, 0.00908, 0.01049, 0.00602, 0.01739, 0.02781, -0.00819, -0.01764, -0.01248, -0.01211, -0.01834, -0.0497, -0.00864, -0.0133, -0.01131, -0.00275, 0.00016, -0.0191, 0.01353, 0.00798, -0.01327, 0.02442, 0.00108, 0.01765, -0.04516, -0.0014, 0.02397, -0.02741, -0.02599, -0.00198, 0.02507, -0.00427, -0.0015, 0.01902, -0.00511, 0.01493, -0.0359, -0.01686, -0.00843, 0.01029, -0.01696, -0.007, 0.0243, -0.01311, -0.00233, 0.00269, 0.02292, 0.00171, -0.03791, 0.00245, 0.01922, -0.01565, -0.00621, -0.01773, 0.0263, 0.01785, -0.04454, 0.00889, 0.05214, -0.04045, 0.04029, 0.0087, 0.00496, -0.03551, 0.0116, -0.00996, -0.0178, 0.00344, 0.02066, 0.00225, 0.00475, 0.00565, -0.0011, -0.01843, -0.00974, -0.03013, -0.00718, -0.00385, 0.01434, -0.0007, 0.0085, -0.01818, 0.00182, -0.01037, -0.01331, -0.0054, -0.01876, -0.0127, -0.02251, 0.00054, -0.01728, 0.00283, 0.00213, -0.00087, 0.02769, 0.00363, -0.01044, -0.00568, 0.01113, -0.01356, -0.02107, -0.00611, -0.01301, -0.00046, -0.01395, 0.02126, -0.00781, -0.02939, -0.00425, -0.00205, 0.00462, -0.00245, -0.01739, 0.01939, 0.02732, -0.00588, -0.00121, -0.00267, -0.00468, 0.0123, -0.01866, 0.01745, -0.0092, 0.01618, -0.00522, -0.02424, 0.03044, -0.01234, 0.00092, 0.00692, 0.01752, 0.00673, -0.03119, -0.00361, -0.00388, -0.00647, -0.02564, -0.0055, -0.00087, -0.00903, -0.03309, -0.00566, 0.00791, 0.01071, -0.00827, 0.02691, -0.00682, -0.00525, 0.0108, 0.00463, 0.01044, 0.02755, 0.00531, 0.03059, -0.00892, -0.00338, 0.00721, 0.00373, -0.02728, 0.02133, -0.02092, -0.00126, -0.00286, 0.00651, -0.00439, 0.00308, 0.00504, -0.01892, -0.00397, 0.01306, 0.01021, 0.00736, -0.01154, 0.01113, -0.0074, 0.02755, -0.02856, -0.00383, 0.00641, -0.00813, -0.00062, 0.02701, 0.01014, -0.03435, -0.01292, -0.01658, 0.01204, 0.02545, -0.0171, -0.00869, -0.01898, -0.00649, -0.00361, 0.01047, -0.01301, 0.02061, 0.02313, 0.03592, -0.00354, -0.03966, -0.01757, -0.0149, 0.01513, -0.01374, 0.00398, -0.00543, 0.00251, 0.0041, -0.0255, 0.01848, 0.03408, -0.00672, -0.01954, -0.01019, 0.00377, 0.03613, 0.02722, 0.01068, 0.03398, -0.06163, -0.02898, -0.00038, -0.01011, -0.02439, -0.01322, 0.01373, 0.01197, -0.04139, 0.01946, -0.01577, 0.00387, 0.01839, 0.04263, -0.0169, -0.02717, 0.02859, 0.00532, 0.00812, -0.00775, 0.0373, 0.00617, -0.01565, 0.00568, -0.00979, 0.00978, 0.00056, 0.02405, 0.01982, -0.00522, -0.01481, 0.03206, -0.00787, 0.00694, 0.0269, -0.01127, 0.00176, 0.00328, 0.01592, 0.00084, 0.00313, 0.01847, 0.01593, -0.03007, -0.02262, -0.02324, -0.01124, 0.00155, 0.0137, 0.04424, 0.02535, -0.00717, 0.04025, 0.02747, -0.0215, 0.03602, -0.02846, -0.00072, -0.01441, 0.02973, -0.00261, -0.0178, -0.0015, 0.03655, 0.03765, -0.00706, 0.00561, -0.0316, 0.00041, -0.05394, 0.00595, 0.0167, 0.01063, -0.0113, -0.0116, -0.03494, 0.03622, -0.00581, 0.01066, 0.01539, -0.03552, -0.01172, -0.04511, -0.00214, -0.01116, 0.00459, 0.02631, -0.00964, 0.02334, -0.00173, 0.0074, -0.02141, 0.02059, -0.01236, -0.0023, -0.01745, -0.02209, -0.00119, 0.01766, 0.00577, -0.02823, -0.00231, -0.01973, 0.00043, -0.00827, 0.00629, 0.02247, 0.0013, 0.01579, 0.02215, -0.00267, 0.00981, 0.00987, 0.01637, -0.0328, 0.00896, 0.00579, 9e-05, -0.00893, 0.03218, -0.00679, -0.01906, 0.01973, -0.00201, 0.01823, -0.02341, 0.00795, -0.00186, -0.02384, -0.02306, -0.02203, 0.01679, 0.03489, -0.02447, -0.00957, -0.01714, 0.01028, -0.01817, -0.00468, 0.01808, 0.01178, 0.02412, -0.03192, 0.00416, 0.02334, -0.03205, 0.01932, -0.00319, 0.02298, -0.00563, 0.00485, -0.02269, -0.00678, -0.0154, -0.00195, -0.01693, 0.03107, 0.00353, -0.00692, 0.00217, -0.02887, -0.00395, 0.01351, 0.01313, 0.00676, 0.01676, 0.0098, 0.00897, -0.00333, -0.01089, 0.02936, 0.00133, 0.05045, 0.00811, -0.04783, -0.03398, -0.03382, -0.0201, -0.00266, -0.01131, -0.00639, 0.02432, 0.00814, -0.01215, 0.00173, -0.01148, 0.00045, -0.03743, -0.05441, 0.01025, 0.03726, 0.01578, 0.04427, -0.01699, -0.02874, -0.02189, -0.0082, 0.00177, 0.00235, -0.00704, -0.04096, -0.00971, -0.0008, -0.01797, 0.00164, 0.0414, -0.03627, 0.05701, 0.0005, -0.00877, 0.02017, -0.01591, 0.00568, 0.02916, -0.00467, 0.03027, -0.01099, -0.02438, 0.0169, 0.02063, 0.02432, -0.00371, 0.03942, 0.05867, 0.00482, -0.03283, 0.03747, -0.03553, -0.00377, 0.01426, 0.00533, 0.02758, -0.02787, 0.00903, 0.01078, 0.01054, -0.04393, -0.01222, 0.05007, -0.00387, -0.0243, -0.0036, 0.01538, -0.01062, -0.0187, -0.00964, -0.00602, 0.00166, 0.00152, -0.00844, -0.0038, 0.02029, 0.01577, -0.00153, -0.02217, -0.01957, 0.00464, -0.00393, -0.03145, 0.00705, 0.01354, 0.00544, -0.00222, 0.01154, 0.01466, 0.02842, -0.02179, 0.02804, -0.02563, 0.01606, 0.0159, 0.00639, 0.02408, 0.00317, -0.0419, -0.03469, -0.01547, 0.0067, -0.01745, -0.03355, 0.02292, -0.00316, 0.00035, 0.00984, -0.01156, -0.05357, -0.06058, -0.05649, -0.00625, -0.03575, -0.03481, -0.01163, -0.01971, -0.00809, -0.02396, 0.01919, -0.00447, 0.00462, 0.00557, 0.02742, 0.00479, 0.03097, -0.00243, 0.0108, -0.01341, -0.02581, -0.00166, -0.02171, -0.00311, 0.00208, 0.03903, -0.01741, 0.01203, 0.00367, -0.00877, -0.01912, -0.01643, 0.01772, -0.01353, -0.02341, 0.01204, 0.00788, 0.01251, -0.00155, -0.00801, 0.0145, 8e-05, -0.00026, -0.00499, 0.02575, -0.02261, 0.00063, -0.03778, 0.00548, 0.01167, 0.01321, 0.00931, 0.00861, -0.05363, -0.0142, 0.00941, -0.01637, 0.00841, 0.01039, -0.01633, 0.01087, 0.02127, -0.02054, 0.02529, -0.05381, 0.00456, -0.03235, -0.021, -0.01133, -0.03508, -0.02994, 0.00093, -0.01448, 0.00152, 0.00941, -0.0202, 0.00789, -0.01486, -0.01566, -0.00296, 0.00818, 0.01158, -0.02016, -0.03407, -0.02843, -0.02416, 0.00899, -0.01248, 0.01083, -0.01581, -0.02233, -0.00852, 0.00707, -0.02198, -0.02075, 0.02092, -0.01231, -0.0376, -0.03859, -0.00386, -0.01215, -0.00913, 0.0228, -0.00518, -0.0049, -0.01761, -0.02194, -0.02307, 3e-05, 0.01036, 0.00126, 0.04135, -0.04047, -0.01951, -0.03576, -0.00925, -0.01463, -0.08274, -0.01632, 0.02061, 0.00128, -0.02722, 0.01392, -0.00535, -0.00716, -0.01045, -0.0174, 0.01928, -0.03319, -0.00322, -0.00866, -0.00341, -0.01473, 0.01602, 0.01749, 0.00775, 0.01249, 0.01557, 0.00057, 0.01745, 0.02137, 0.00415, 0.00305, -0.018, -0.00955, -0.00679, 0.01923, -0.00779, 0.00422, 0.00312, 0.00482, -0.01336, 0.01608, -0.01613, 0.0182, 0.0197, 0.00756, -0.00496, -0.00691, 0.00243, -0.00823, 0.00053, 0.02567, -0.00709, 0.00616, 0.00373, 0.01716, -0.02445, 0.00672, -0.00827, 0.00011, -0.00258, -0.00589, 0.01405, -0.02325, -0.02396, 0.03598, 0.03297, 0.03012, -0.03196, -0.00916, 0.02, -0.03763, -0.00918, 0.01985, 0.01351, -0.01908, 0.01305, -0.00481, 0.02152, 0.01515, 0.03421, 0.01497, -0.00087, 0.00585, -0.03095, 0.00521, 0.00974, 0.02387, -0.02772, 0.0256, -0.02701, 0.00653, 0.00315, -0.02806, 0.00152, 0.01261, -0.00838, -0.00128, 7e-05, -0.00304, -0.02113, -0.02564, -0.01945, -0.00664, 0.01617, -0.02545, 0.02921, 0.00623, -0.00915, 0.01163, -0.01013, 0.00708, 0.00147, -0.0201, 0.01576, -0.01621, -0.00795, 0.00416, -0.01508, 0.00713, 0.01648, 0.01981, 0.01631, -0.00609, -0.02131, -0.00928, -0.00963, 0.00955, 0.03018, 0.00221, 0.02713, -0.0064, 0.03623, -0.02139, 0.01444, -0.03804, 0.03099, 0.02977, 0.02153, -0.04292, 0.0054, 0.01261, -0.01927, -0.01523, 0.02504, -0.00043, -0.01514, 0.0095, -0.01054, -0.01974, 0.0091, -0.0153, -0.00372, 0.00524, -0.0071, -0.05356, 0.00969, 0.02934, 0.03117, -0.00543, 0.00341, 0.02133, 0.05784, -0.0144, 0.01456, 0.00867, 0.01866, -0.02957, -0.01033, 0.03646, 0.01899, -0.0145, -0.01277, 0.01282, -0.00418, -0.00287, -0.02769, 0.00884, 0.00971, 0.00574, 0.02887, 0.00274, -0.01646, -0.01928, 0.02958, 0.01754, 0.00135, 0.00463, 0.00521, -0.01422, -0.00906, -0.00063, 0.03291, 0.01074, -0.01479, 0.02519, 0.00894, -0.00195, 0.00699, -0.00584, 0.01791, 0.01854, -0.01124, -0.00804, 0.00347, -0.00607, -0.01128, -0.00896, -0.00133, 0.02417, 0.00665, 0.02228, -0.00583, -0.00068, 0.0113, -0.01055, -0.00917, 0.00047, 0.01676, -0.0042, 0.00143, -0.01837, -0.00534, -0.00376, 0.00173, -0.00342, 0.02759, 0.00502, -0.03052, -0.00749, -0.00348, 0.01166, -0.00505, 0.02065, 0.01494, -0.00047, -0.00451, -0.00633, 0.01529, 0.00348, -0.01329, 0.00755, 0.0018, 0.00785, 0.00259, 0.02821, -0.0126, 0.01685, 0.01414, 0.00794, -0.00905, -0.01362], "b": [-0.04871, -0.14353, -0.09604, 0.01428, -0.16886, 0.00098, -0.09543, -0.11203, 0.07196, -0.09701, -0.14382, 0.08948, 0.0294, 0.14472, -0.02548, -0.12121, -0.00223, -0.01598, 0.13578, -0.19678, 0.00558, 0.0733, -0.08303, -0.09928, 0.09941, -0.15727, 0.01897, -0.12391, 0.0976, -0.16958, 0.10293, -0.15506], "in": 32, "out": 32}, {"w": [0.0044, 0.00819, 0.00976, 0.00964, -0.02118, -0.02934, -0.00394, -0.04868, 0.02271, 0.02741, -0.02395, 0.05224, 0.02997, -0.00522, 0.0202, -0.02742, -0.01993, -0.05495, -0.01524, 0.00759, 0.00625, 0.04269, 0.03416, 0.02308, -0.02932, 0.00112, 0.0303, 0.01107, 0.0204, -0.03124, -0.00023, 0.01344, 0.01897, -0.00686, 0.03338, -0.05575, 0.00764, 0.00455, 0.04727, -0.00833, 0.03673, -0.03192, 0.02168, 0.0403, -0.02335, 0.01435, 0.03723, -0.00012, -0.03271, -0.01364, 0.00414, -0.01655, -0.01012, -0.01911, -0.00801, -0.01747, -0.02453, -0.01657, 0.02199, 0.04131, -0.012, -0.07109, -0.01919, -0.01288, -0.02653, -0.02044, -0.03775, 0.04585, -0.00068, 0.03591, 0.01087, 0.02808, -0.06968, 0.03462, 0.01037, -0.02976, 0.01147, -0.01751, -0.0171, -0.02383, 0.03818, 0.01893, -0.02881, 0.02375, 0.01894, -0.00781, -0.01784, 0.01889, 0.05095, 0.00922, -0.01882, -0.02509, -0.00902, 0.05361, 0.01303, 0.01836, 0.02598, -0.00864, -0.00076, -0.00211, 0.00361, 0.04182, -0.0083, -0.00912, -0.00333, -0.00913, -0.0408, 0.01538, -0.01137, 0.00822, 0.01202, 0.00828, 0.0151, 0.00502, 0.00949, -0.0164, -0.0223, 0.05733, -0.00602, -0.02097, -0.01291, -0.04427, -0.01067, -0.00234, -0.03748, -0.02177, 0.01532, 0.01748, 0.00428, -0.00864, 0.00463, -0.01574, -0.00932, 0.01129, -0.00201, 0.0045, 0.01327, -0.01836, 0.00367, 0.00945, -0.00696, -0.00399, -0.0074, 0.00068, 0.03298, 0.03255, -0.00416, 0.01512, -0.00315, -0.03178, -0.02685, 0.01935, -0.00191, 0.02242, 0.00075, -0.00451, -0.00043, 0.01447, 0.00164, -0.00182, -0.02905, 0.02218, -0.00102, 0.00054, 0.01401, -0.01341, 0.01377, 0.0061, 0.00683, 0.04301, 0.0103, 0.00781, 0.02223, -0.02183, -0.01107, 0.00489, -0.00695, -0.00364, -0.01481, 0.013, 0.00812, 0.00698, 0.0059, -0.00384, 0.00383, 0.0045, 0.00333, 0.00246, 0.01438, -0.01001, -0.0275, 0.00871, 0.01224, 0.00347, 0.00749, -0.00127, 0.01134, -0.00369, -0.00655, -0.02267, -0.01654, 0.00824, 0.0071, 0.00389, -0.01389, -0.01866, -0.01839, 0.00494, -0.0116, -0.02525, -0.00679, 0.01043, 0.01266, -0.00454, 0.03539, 0.03538, 0.00347, 0.02948, 0.01248, 0.0165, 0.04114, 0.02422, -0.01774, 0.02497, 0.00016, -0.01452, -0.00551, 0.0121, -0.01291, 0.01439, 0.00118, 0.02919, -0.02052, -0.0083, -0.00509, -0.00126, 0.00065, -0.01141, 0.01682, 0.01277, 0.00622, 0.00629, 0.0015, -0.00323, 0.00571, -0.00295, -0.01824, 0.0046, 0.01597, -0.01009, -0.00954, -0.02947, -0.00409, 0.0099, 0.01044, -0.01373, 0.00368, 0.04413, 0.00176, 0.01278, 0.00809, -0.02017, 0.01481, 0.05463, -0.02755, 0.02085, 0.07698, 0.05295, 0.04624, -0.06054, -0.04066, 0.00189, -0.00854, 0.00531, -0.03209, -0.02512, 0.05799, -0.03036, -0.0221, -0.01132, -0.0372, 0.05382, 0.04501, 0.00864, 0.08634, 0.03094, -0.04214, 0.02227, -0.01255, 0.03677, -0.02947, 0.02992, -0.00841, -0.00373, -0.01502, 0.00169, -0.01262, 0.03274, -0.01134, -0.00711, 0.01679, -0.00791, -0.01957, -0.03784, -0.00379, -0.0062, -0.02477, 0.01559, 0.01134, 0.02754, 0.00155, -0.0045, -0.00058, -0.0169, -0.00957, -0.01601, 0.0076, 0.01271, -2e-05, 0.00823, -0.02324, 0.0018, -0.00454, 0.00655, -0.00034, -0.02159, 0.00382, 0.0079, 0.01086, 0.00568, 0.00887, -0.00575, 0.01465, -0.01922, 0.00068, -0.0057, 0.00686, -0.00097, -0.00435, 0.02084, 0.00136, -0.00575, -0.00458, -0.0019, -0.01044, 0.00597, -0.00031, -0.01435, -0.0043, -0.01296, -0.01803, -0.00337, -0.00153, 0.02725, -0.01115, 0.02706, 0.01611, -0.0206, 0.00484, -0.05469, 0.00717, 0.00603, -0.01032, 0.01326, -0.00371, -0.02418, -0.00592, -0.02974, -0.02413, -0.02246, -0.01718, 0.01085, 0.00559, 0.04197, 0.02346, 0.00776, -0.01949, -0.03193, 0.02831, 0.01884, 0.01649, -0.01713, -0.01529, -0.01502, 0.04918, 0.02197, 0.03359, -0.00963, 0.0486, 0.04953, 0.01139, 0.00983, -0.0179, 0.0083, -0.04858, 0.00903, -0.06049, 0.03632, 0.04482, 0.0014, -0.02752, -0.00099, -0.00461, -0.05502, 0.0024, 0.02521, 0.00357, -0.04367, -0.04405, -0.01876, 0.00866, 0.02575, -0.02763, -0.02931, -0.02191, 0.01747, -0.0168, -0.00145, 0.00477, 0.00627, -0.00426, -0.00145, 0.00552, -0.00518, 0.00404, -0.00953, -0.0025, -0.00863, -0.00379, 0.00112, -0.0062, -0.00019, -0.0091, -0.00507, 0.00143, -0.00223, -0.00867, -0.00112, 0.00301, -0.0017, 0.00273, -0.00569, -0.01295, 0.01384, 0.00178, -0.00673, 8e-05, -0.01497, 0.04291, -0.01088, 0.0566, -0.05519, 0.08218, -0.03193, 0.04204, 0.03857, 0.03548, 0.00721, 0.05344, 0.03987, 0.01549, 0.01243, -0.01847, 0.04982, 0.05044, 0.01246, -0.03281, -0.04872, 0.01757, 0.06113, 0.02932, -0.05167, -0.02581, 0.07474, 0.0319, 0.03458, 0.02126, 0.05363, 0.03665, 0.03835, 0.0414, -0.00621, -0.01227, -0.01869, 0.00911, -0.02124, 0.01473, 0.01373, 0.0097, 0.00752, 0.02085, -0.01649, -0.00521, -0.0098, 0.00872, 0.0066, -0.01455, -0.00998, 0.00407, -0.02694, 0.01503, -0.02641, 0.0003, -0.0019, 0.00085, 0.02137, 0.03276, 0.00298, 0.02319, 0.02796, -0.0158, -0.00652, 0.01662, -0.01287, -0.03237, 0.02982, -0.01884, 0.03553, 0.00085, 0.00362, -0.03926, 0.03017, -0.00791, 0.01373, -0.01517, 0.00048, -0.03509, -0.02098, -0.00747, -0.00288, 0.00557, 0.00138, 0.01435, -0.03091, 0.00067, 0.02417, -0.01391, 0.00897, -0.03028, 0.00052, 0.02046, 0.02535, -0.0011, 0.0362, 0.00323, -0.02568, 0.00925, -0.01099, -0.01016, 0.02505, -0.01274, 0.01337, -0.01084, -0.01439, -0.00356, 0.00158, -0.00587, 0.0258, 0.02736, -0.00735, 0.01402, -0.01226, -0.00811, 0.0186, -0.04378, -0.00137, -0.04155, 0.00865, 0.02106, 0.00087, -0.02793, -0.01985, -0.02619, -0.00878, 0.01292, -0.02957, -0.03089, -0.00126, -0.03711, 0.02868, -0.03178, 0.00193, -0.0128, 0.01136, -0.03234, 0.03992, 0.00393, -0.03901, 0.03099, -0.01988, -0.01884, -0.02444, 0.01247, 0.00993, -0.01993, 0.03725, -0.00817, -0.00105, 0.01748, 0.03378, 0.02776, 0.01873, -0.02119, -0.04095, 0.01197, 0.04329, 0.00178, -0.01641, 0.01937, 0.00308, 0.00532, 0.00909, -0.00527, -0.00906, -0.02092, -0.00094, -0.01561, -0.00454, -0.0031, -0.00359, -0.00304, -0.0049, -0.00819, -0.01675, -0.01093, -0.02435, -0.00762, -0.00934, 0.01171, 0.00191, 0.00271, -0.00928, -0.01003, 0.00163, -0.00965, 0.00261, 0.00494, -0.00105, 0.00037, 0.01343, -0.01534, -0.00385, 0.02346, 0.02898, 0.02938, 0.00274, -0.00497, -0.01486, -0.00797, 0.03904, 0.0288, 0.03674, -0.00757, -0.01886, -0.01024, -0.05557, -0.02735, 0.03034, -0.01811, 0.00083, 0.01911, -0.01833, 0.01367, -0.02038, 0.00743, 0.02944, 0.02862, -0.022, 0.00138, 0.00689, -0.07147, 0.03889, -0.02402, 0.03951, -0.01756, 0.03304, -0.0242, 0.00752, -0.04201, 0.03917, -0.03351, 0.04984, -0.00466, 0.00715, 0.0443, -0.03847, -0.02515, -0.00716, 0.03407, -0.01569, 0.00018, 0.00638, -0.00385, 0.02068, 0.0081, 0.03261, 0.0302, -0.0368, -0.02697, -0.05634, 0.00049, 0.0191, -0.0027, -0.00618, 0.0082, 0.00467, 0.00825, -0.00263, 0.00254, -0.00175, 0.01001, -0.00511, -0.00058, 0.01462, 0.00413, -0.00169, 0.00436, -0.01184, 0.01609, -0.01598, -0.00593, -0.00168, -0.00307, 0.02518, 0.00337, 0.03179, 0.00545, 0.01683, 0.00362, -0.00747, 0.00465, 0.01272, -0.00374, 0.00073, 0.00462, -0.01924, 0.0175, 0.00518, 0.01357, -0.01514, 0.00819, 0.00086, 0.0126, -0.00552, 0.01067, -0.01616, -0.0038, 0.01772, -0.01306, 0.01462, 0.0172, 0.00586, -0.00311, -0.00686, -0.00208, -0.01226, -0.01567, 0.00836, -0.00567, -0.00973, -0.02185, -0.01631, -0.00091, 0.0126, -0.02392, -0.02007, 0.00972, -0.02819, -0.01407, 0.03402, -0.03598, 0.04952, 0.00151, -0.01876, 0.00483, -0.00433, 0.01047, 0.08423, -0.01549, 0.00732, 0.01298, -0.01999, -0.04903, -0.00844, 0.02671, -0.00405, -0.05236, 0.03622, 0.03278, 0.04879, -0.0071, -0.00658, -0.00611, -0.01331, 0.00738, 0.00529, 0.04344, -0.01049, -0.03814, -0.02376, 0.02433, -0.01256, -0.01686, 0.01273, -0.00505, 0.03167, -0.01245, 0.01688, -0.01008, -0.00694, 0.01038, -0.0219, -0.01495, 0.01329, 0.00531, 0.02463, 0.04169, 0.01693, 0.01819, 0.00469, -0.00995, 0.00757, -0.00926, 0.00111, 0.02379, -0.01496, -0.03715, -0.0234, -0.00392, 0.01545, 0.02747, 0.01079, -0.02289, -0.01818, -0.02715, -0.00024, -0.01316, 0.00909, -0.03319, -0.009, 0.00633, 0.00664, -0.0074, -0.04669, -0.0298, 0.02919, 0.02971, -0.02955, 0.00515, 0.00164, 0.02755, 0.00471, 0.00073, -0.02856, -0.01546, 0.00799, 0.01928, -0.03872, -0.04087, -0.0237, -0.03838, -0.00111, 0.02899, -0.02379, -0.00182, 0.01387, 0.00082, -0.00353, -0.00493, -0.00185, -0.00151, -0.00232, 0.01261, -0.00228, 0.00256, -0.00467, 0.00694, 0.00803, -0.00067, -0.00426, 0.00503, 0.00266, 0.00387, -0.00404, 0.00102, -6e-05, -0.00039, -0.00201, -0.00382, 0.0082, -0.00319, 0.00253, 0.00041, 0.00586, -0.00042, -0.00176, 0.00992, -0.01657, 0.00669, -0.00086, 0.01171, -0.00112, 0.01617, -0.00196, 0.00902, -0.00561, 0.01747, 0.01994, -0.02472, 0.00138, 0.00606, -0.00439, 0.00273, 0.01828, -0.00042, -0.02386, -0.00942, -0.00812, 0.00617, -0.00572, -0.01401, 0.00943, -0.00782, 0.02654, -0.00127, -0.01425, 0.01204, 0.02005, 0.01677, 0.00392, -0.00071, -0.01466, 0.0211, 0.00902, -0.01807, -0.03056, 0.01055, -0.01841, 0.00845, 0.00809, -0.00926, -0.0298, 0.0011, -0.04191, -0.01337, 0.01051, -0.01796, 0.04546, 0.01491, 0.0058, 0.02124, 0.02755, -0.00802, -0.02206, 0.03793, 0.02318, -0.03454, 0.01672, -0.02208, 0.04824, -0.03039, -0.02607, -0.01079, -0.00737, -0.03175, -0.01571, -0.04132, 0.04092, -0.04669, 0.02324, 0.05092, 0.01419, 0.00123, -0.0269, -0.05132, -0.03487, 0.06675, 0.06792, -0.02136, -0.06293, -0.00722, -0.03744, 0.03263, 0.04462, -0.05455, 0.02218, -0.03114, 0.05906, 0.00129, 0.01004, -0.05465, -0.06819, 0.00583, -0.00026, -0.004, 0.00196, -0.00419, 0.0016, 0.0016, 0.00107, 8e-05, -0.00446, 0.00147, 0.00175, -0.00396, 0.0007, 0.00573, -0.00367, 0.00085, 0.00117, 0.00024, 7e-05, -0.00039, -0.00234, -0.00224, 0.00266, -0.0003, 0.0006, -0.00085, -0.00228, -0.00063, 0.00181, 0.00228, -0.00278], "b": [0.09039, -0.04575, -0.04286, -0.03984, 0.09188, -0.01754, 0.10092, -0.19809, -0.0524, 0.12026, 0.0454, 0.00987, 0.06783, -0.04489, 0.00353, 0.04538, -0.04949, -0.07101, 0.05487, 0.04155, -0.02199, -0.13527, -0.06538, -0.11144, 0.09819, -0.1143, 0.13997, 0.04431, -0.19035, 0.11076, -0.18955, 0.06071], "in": 32, "out": 32}, {"w": [-0.20093, -0.21025, -0.19656, -0.18563, 0.19937, 0.26054, -0.22111, -0.3367, 0.22102, -0.26657, 0.19488, 0.22655, 0.2119, -0.13763, -0.29869, 0.19029, -0.17809, 0.2172, 0.22688, 0.17619, 0.20039, 0.20472, -0.17135, 0.21403, -0.19472, 0.21224, 0.1953, 0.12076, 0.18054, -0.18246, -0.33882, 0.1519, -0.18346, -0.19425, -0.18076, -0.17278, 0.18459, 0.23935, -0.20311, -0.30417, 0.20261, -0.24422, 0.18713, 0.20845, 0.1944, -0.15926, -0.27448, 0.17598, -0.16744, 0.20044, 0.21027, 0.16974, 0.18445, 0.18845, -0.17032, 0.19839, -0.17757, 0.19539, 0.17988, 0.16726, 0.17238, -0.16655, -0.3107, 0.22032, -0.1213, -0.13754, -0.12457, -0.12365, 0.13279, 0.15815, -0.14015, -0.18853, 0.13926, -0.163, 0.16274, 0.14324, 0.13375, -0.21238, -0.19119, 0.1243, -0.12792, 0.13725, 0.14863, 0.16025, 0.12803, 0.12829, -0.17669, 0.1427, -0.1171, 0.13379, 0.1244, 0.26041, 0.15506, -0.11362, -0.21417, 0.40192], "b": [-0.09073, -0.03429, 0.31917], "in": 32, "out": 3}], "psnr": 22.25}