{"hidden": 32, "omega0": 30.0, "layers": [{"w": [-0.30601, 0.33168, 0.16715, 0.10038, 0.30629, -0.48025, 0.33493, 0.17495, -0.33999, 0.12585, -0.12419, -0.16977, -0.0228, -0.24834, 0.3631, 0.48077, -0.12767, -0.38577, 0.00649, 0.07866, 0.3038, 0.03157, 0.14463, 0.13432, -0.25108, -0.29707, -0.49027, -0.05195, 0.16795, -0.04605, 0.48312, -0.11412, -0.28151, 0.08453, -0.08815, -0.0752, 0.4963, -0.05739, 0.38253, 0.06066, -0.16637, 0.35443, -0.30128, -0.02833, 0.04946, 0.21258, -0.4484, -0.02474, -0.13168, 0.30094, 0.18254, 0.21414, 0.27575, -0.18209, -0.00019, 0.36515, -0.3639, -0.33332, 0.00897, -0.1576, 0.03579, 0.48978, -0.05804, -0.44163], "b": [0.36832, -0.06439, 0.05157, 0.15789, 0.46212, 0.69004, -0.57041, -0.26026, 0.26496, 0.57463, 0.58064, 0.62045, 0.16635, -0.58324, 0.06417, -0.45001, -0.68345, 0.60987, 0.55198, -0.6847, 0.15101, -0.12108, -0.1101, -0.33581, 0.27749, -0.36934, 0.25778, 0.36575, 0.46917, 0.26503, -0.67886, -0.41207], "in": 2, "out": 32}, {"w": [-0.01614, -0.006, 0.00093, -0.00657, 0.00586, -0.01213, 0.00246, 0.01027, 6e-05, 0.01288, -0.02078, 0.01271, -0.00603, 0.00201, -0.00293, 0.01556, -0.00091, -0.00383, 0.00256, -0.00857, -0.00162, -0.02411, 0.00942, -0.00042, 0.00878, 0.01239, 0.00234, -0.00691, -0.00258, 0.0032, 0.01452, 0.00712, -0.00769, 0.01916, -0.01863, 0.01706, -0.0032, -0.01052, -0.00017, -0.01544, 0.02246, -0.00104, -0.00873, 0.0097, 0.0137, -0.00291, -0.00686, 0.00427, -0.02681, 0.00349, -0.0053, 0.002, 0.01949, -0.00138, 0.00194, -0.00468, 0.02395, -0.01796, -0.0022, -0.01695, 0.013, 0.0123, -0.00907, -0.00677, 0.04949, 0.01605, -0.03422, -0.0251, -0.02678, -0.03257, 0.05329, -0.00669, 0.01345, -0.02056, -0.00498, -0.01038, -0.01316, -0.00876, 0.02296, -0.0024, 0.01499, 0.01166, -0.00397, 0.04252, 0.02278, 0.00684, -0.01231, 0.02773, -0.00817, 0.01454, -0.00513, 0.00352, 0.04517, 0.01449, 0.00605, 0.00742, -0.00785, 0.00988, 0.00408, 0.03384, -0.02483, -0.00953, 0.02239, 0.01105, -0.00671, 0.03206, 0.00913, -0.01163, 0.0047, 0.00592, 0.008, -0.00524, 0.02305, -0.00865, -0.01891, 0.02806, -0.01888, -0.00949, -0.00648, -0.00131, -0.0167, 0.00904, -0.00078, 0.02345, 0.00337, 0.03076, 0.0252, 0.0046, -0.01028, -0.00167, 0.02, 0.01367, 0.01551, -0.00591, 0.01083, 0.01714, 0.0294, -0.00573, 0.00672, -0.0018, 0.00817, -0.00328, -0.00469, 0.00041, -0.00016, 0.00144, -0.00143, -0.00304, -0.00432, 0.00368, 0.00513, -0.00022, 0.00418, 0.00947, 0.00544, -0.01548, -0.02346, -0.01179, -0.01076, 0.00396, 0.01214, -0.01356, -0.01395, -0.00615, -0.00502, -0.01738, 0.01915, -0.00273, -0.00829, -0.0207, -0.02772, -0.0178, 0.00081, -0.00197, 0.00415, 0.0101, 0.01432, -0.0057, 0.01429, -0.0064, 0.00404, 0.00449, -0.01544, 0.00593, -0.00844, -0.00294, -0.02393, 0.00644, 0.00469, 0.02558, 0.00198, 0.00739, -0.05236, -0.00941, 0.01665, -0.00239, -0.01815, 0.01763, -0.01467, 0.02694, 0.01376, -0.0038, -0.00477, 0.01542, -0.00866, -0.04335, -0.01693, 0.04333, -0.02161, 0.0183, 0.02481, 0.0144, -0.00787, -0.0093, 0.00466, -0.00145, 0.01028, 0.00283, 0.04343, -0.00773, -0.03492, -0.0446, 0.00878, -0.00087, 0.06547, -0.00507, -0.05154, -0.02147, -0.0083, 0.02781, -0.0075, -0.0213, -0.01483, -0.01693, -0.01586, -0.00979, 0.01175, 0.00631, -0.00914, -0.0042, -0.01864, -0.00316, -0.00492, -0.04746, 0.0258, -0.00121, 0.00129, -0.00431, -0.02174, -0.03097, -0.00562, 0.05439, -0.01924, -0.01797, -0.00173, -0.00095, 0.01682, -0.00205, -0.01238, 0.02184, -0.00022, 0.0205, 0.00445, -0.00129, 0.00381, -0.01188, -0.00811, -0.00586, -0.01251, -0.01232, -0.00196, -0.00084, -0.00072, -0.03016, -0.00801, 0.00318, -0.03733, -0.0071, -0.00614, 0.03891, -0.01416, 0.00205, 0.00308, -0.00947, 0.00038, 0.00111, 0.00623, 0.00764, -0.03945, 0.01088, 0.03389, -0.00517, 0.00619, 0.00706, -0.02636, 0.0109, -0.01987, 0.00981, -0.02144, 0.00783, 0.0255, 0.04626, 0.00949, -0.00189, 0.00718, 0.00202, -0.01135, -0.03161, 0.00239, 0.0022, -0.00903, 0.0037, -0.01906, -0.02994, 0.00642, 0.01332, -0.0156, 0.00472, 0.00601, 0.00252, -0.01959, -0.02197, -0.00706, 0.02015, -0.01565, -0.00987, -0.02526, -0.01847, 0.03021, 0.01066, 0.07036, -0.02261, 0.01369, 0.04927, -0.02795, 0.00037, 0.03489, -0.01047, 0.01296, 0.01845, -0.02576, -0.03941, 0.01573, 0.00139, 0.00601, -0.00562, -0.00604, 0.03744, -0.00479, 0.00517, 0.01856, -0.01025, -0.00014, 0.00514, -0.00022, 0.02599, -0.0221, -0.00473, -0.02273, -0.02667, -0.0314, 0.00118, 0.01328, -0.02972, -0.02187, -0.01001, -0.0283, -0.01259, 0.04221, -0.01188, -0.00585, 0.01271, 0.00835, -0.01062, -0.01457, 0.00748, -0.01141, -0.01128, -0.00741, 0.03107, 0.03422, 0.01745, 0.02848, 0.00466, 0.01305, -0.0137, -0.01125, 0.00888, -0.00478, 0.01923, 0.00499, -0.00674, -0.0125, -0.01661, 0.00953, -0.02304, -0.00823, 0.01297, -0.01163, 0.01233, 0.00308, -0.00194, -0.00528, -0.01341, -0.01316, -0.00466, 0.01686, -0.03504, 0.0196, 0.01945, 0.00619, 0.03397, 0.01779, 0.01604, -0.00129, -0.00198, -0.01854, -0.00608, 0.01139, 0.00438, 0.01822, -0.01194, -0.02081, -0.02008, 0.01269, -0.02009, -0.00175, 0.01067, 0.03079, 0.00141, 0.00576, 0.0004, -0.02313, 0.00478, 9e-05, 0.00278, 0.00016, -0.00233, 0.00114, -0.00631, -0.00423, 0.02683, 0.02047, 0.02396, -0.00502, -0.01381, -0.00895, 0.00574, 0.02059, 0.01669, -0.00459, 0.00014, 0.06371, -0.00769, -0.00124, -0.01369, -0.00789, 0.02845, 0.01734, -0.03555, 0.02376, 0.05002, 0.0026, -0.07752, -0.00071, 0.01018, 0.02816, -0.02955, 0.01299, 0.00984, -0.01775, -0.02979, 0.00728, 0.00635, 0.01071, 0.01227, -0.00834, 0.0256, 0.02218, 0.03179, 0.03025, 0.00909, 0.01601, 0.0065, 0.03177, 0.00054, -0.02391, 0.00589, 0.02444, -0.00845, 0.00887, 0.01188, 0.00884, 0.00135, -0.01033, 0.00245, -0.02531, 0.01356, -0.00442, 0.00336, 0.03009, -0.00098, 0.00314, -0.00896, -0.00762, 0.01955, -0.03294, -0.04269, -0.00991, -0.02475, -0.04044, 0.00179, -0.0043, -0.00395, -0.0088, -0.03246, 0.0125, 0.02385, -0.02234, 0.01167, -0.00783, 0.00656, -0.00625, 0.02036, 0.0279, -0.00419, 0.01261, -0.00719, -0.02265, -0.00516, -0.0031, -0.02942, -0.01185, 0.01548, 0.01216, -0.00992, 0.03322, -0.0122, 0.04283, -0.02572, -0.00445, -0.02243, -0.00901, 0.00247, -0.01948, 0.01124, 0.02968, 0.008, -0.00702, 0.02353, 0.01151, 0.01413, -0.00205, -0.01908, -0.0228, 0.01731, 0.00209, 0.01468, -0.01459, -0.00377, -0.01847, 0.01763, -0.00752, 0.00535, -0.01104, -0.01102, -0.00619, 0.00327, 0.0077, -0.00945, -0.01234, 0.0043, -0.02149, 0.00036, -0.02486, -0.00972, 0.03544, -0.00372, -0.03881, -0.03989, -0.01304, -0.00408, 0.03277, -0.01273, 0.00754, 0.00404, -0.03639, -0.00354, -0.00874, -0.00338, 0.00694, -0.01048, -0.05315, -0.00528, -0.00355, 0.00113, 0.00652, 0.00386, 0.00084, -0.00527, -0.00857, 0.02901, 0.02132, -0.02186, 0.02956, 0.02512, -0.00834, 0.00269, 0.0158, -0.01282, 0.00564, 0.00882, -0.0268, 0.00027, -0.05197, 0.0435, 0.00248, -0.01743, 0.04371, -0.00195, -0.01192, -0.03536, -0.0111, 0.00542, 0.00359, 0.005, 0.01543, 0.02409, -0.009, 0.00521, -0.01626, 0.00065, 0.01214, 0.01131, -0.00703, 0.03417, -0.01964, -0.02755, 0.02707, -0.00041, -0.00612, -0.00881, 0.01305, -0.02616, 0.02055, 0.02117, -0.02084, -0.01309, -0.00064, -0.01147, 0.00866, 0.00618, -0.00733, -0.01519, 0.00279, 0.0134, -0.012, 0.00235, 0.01593, -0.0233, 0.00464, -0.00168, 0.00502, -0.00827, 0.00417, -0.00139, -0.00227, -0.01678, 0.00423, -0.01351, -0.01014, -0.01018, -0.02171, 0.01093, 0.03941, 0.01038, 0.03176, -0.02219, -0.00663, -0.00935, 0.00338, -0.02165, -0.02665, 0.01906, -0.00057, -0.00482, 0.03495, 0.01029, -0.03551, 0.01399, -0.02339, -0.00797, -0.00286, -0.01637, 0.03164, 0.02564, -0.03876, 0.03069, 0.00787, -0.01165, 0.01327, 0.00549, -0.01076, -0.03993, -0.00483, 0.01322, -0.00907, 0.00918, -0.00973, 0.01284, -0.01705, 0.03313, -0.0075, 0.02594, -0.02119, 0.01031, 0.04152, -0.00062, -0.01372, 0.01345, -0.04265, 0.00762, -0.00255, -0.03594, 0.00826, 0.00793, -0.00747, -0.003, -0.0252, -0.03687, 0.03427, -0.00831, -0.05923, -0.01437, 0.00097, 0.00165, -0.01346, 0.00701, -0.0295, 0.01117, 0.06599, -0.01433, -0.00885, -0.01466, 0.00997, -0.02179, -0.01779, 0.0344, -0.00306, 0.02524, 0.0008, 0.00313, 0.00385, 0.02555, -0.00368, -0.05389, -0.04174, -0.00656, 0.00178, 0.02722, 0.00341, -0.00284, -0.00982, 0.02427, 0.03888, -0.009, 0.02632, -0.00814, -0.02527, -0.02164, 0.04162, -0.05015, 0.03299, 0.04622, -0.05525, -0.02254, 0.01587, -0.00953, 0.00569, 0.06465, 0.02384, -0.00529, 0.00987, 0.02976, -0.07424, 0.01739, 0.01502, -0.06227, -0.00451, -0.01117, 0.03177, -0.02263, 0.0201, 0.00852, 0.00875, -0.03674, -0.01884, -0.04082, -0.01858, -0.01135, -0.04207, -0.00986, 0.05035, -0.00572, 0.00966, 0.02766, 0.00958, 0.00147, 0.00483, 0.01467, -0.01368, 0.0009, -0.00328, -0.00194, -0.01596, -0.0086, -0.01095, -0.00011, 0.00787, -0.02647, -0.00525, -0.03334, -0.0055, -0.00553, 0.05326, 5e-05, 0.00125, -0.0279, 0.00908, 0.01936, -0.03175, -0.01818, -0.02029, 0.02524, 0.00914, 0.01163, -0.01033, 0.00369, 0.01797, 0.01438, 0.02397, 0.03434, 0.03008, -0.00707, -0.0051, -0.00448, -0.00447, -0.00688, 0.03077, -0.01285, -0.00734, 0.02191, -0.0353, -0.00362, 0.01121, -0.01606, -0.0047, 0.01369, 0.00501, -0.00995, -0.0214, -0.00602, -0.01341, 0.00068, -0.03683, 0.03119, 0.01427, 0.02173, -0.00834, 0.01269, -0.02885, -0.00377, -0.00354, 0.03377, 0.01811, 0.0053, 0.00702, 0.01314, -0.00224, 0.00926, -0.00885, -0.00294, -0.00741, 0.00994, -0.0157, -0.0043, -0.01044, 0.00129, 0.00534, -0.01035, 0.02719, 0.0109, -0.02364, -0.01749, -0.00128, -0.01216, -0.00765, -0.00045, 0.00054, 0.00298, -0.01592, -0.01631, 0.02338, 0.00531, -0.00481, 0.01182, -0.02906, -0.00957, 0.00114, 0.00786, 0.01431, -0.00598, 0.00264, -0.00681, -0.01267, 0.02547, -0.00925, -0.00041, -0.00701, 0.00426, -0.01751, 0.01059, 0.00918, 0.01848, 0.01423, 0.03225, 0.01817, 0.00603, 0.01146, 0.00236, 0.00042, 0.02948, -0.00351, 0.00897, 0.00075, -0.01608, 0.02155, 0.01519, 0.01985, -0.00871, 0.0032, 0.0188, -0.00838, -0.00772, 0.02385, -0.00294, -0.01184, 0.01367, 0.00412, -0.00371, 0.00183, -0.00033, -0.01454, 0.00808, -0.02446, -0.02777, 0.01052, 0.00589, -0.01345, 0.00021, -0.01062, -0.00455, -0.0216, 0.00031, -0.02257, -0.00223, 0.02995, -0.00983, -0.02746, -0.00171, 0.00593, -0.003, -0.01454, -0.01593, 0.00339, -0.00191, 0.03104, -0.00514, 0.00299, 0.00227, -0.02184, -0.00069, -0.00175, 0.01772, 0.00527, -0.02894, 0.02169, 0.0323, 0.01391, 0.04709, 0.03222, 0.00247, 0.00354, 0.01629, 0.01829, 0.04679, 0.02362, 0.00285, -0.00362, -0.03785, 0.00902, 0.00921, 0.03019, 0.01172, 0.02617, 0.00745, 0.00085, -0.00932, 0.00542, 0.00592, 0.00603, 0.02088, 0.02609, -0.01113, 0.006, 0.00167, -0.00897, 0.01509, -0.00963, 0.01912, -0.00528, 0.03058, -0.00872, -0.00034], "b": [-0.05248, -0.13928, -0.09803, 0.00229, -0.15751, -0.00838, -0.09747, -0.13011, 0.0424, -0.12903, -0.11741, 0.09959, 0.04643, 0.19664, -0.02313, -0.08553, 0.02044, -0.01157, 0.1634, -0.19121, -0.00043, 0.11094, -0.10064, -0.10503, 0.10116, -0.17755, 0.05871, -0.13889, 0.11384, -0.1543, 0.09605, -0.19938], "in": 32, "out": 32}, {"w": [-0.00392, -0.01895, 0.01792, -0.04079, 0.01063, 0.00295, -0.00494, -0.00208, -0.01744, 0.00964, 0.00766, -0.00869, -0.00673, 0.03388, 0.01947, 0.02141, 0.0248, 0.0008, 0.0165, -0.02183, -0.01218, -0.01881, -0.03152, -0.01409, 0.00656, -0.01073, -0.00847, -0.00845, -0.04687, -0.01902, 0.00254, -0.02389, -0.01609, -0.00028, -0.00509, -0.00126, -0.00731, -0.00708, 0.00244, 0.00489, 0.00911, 0.00423, 0.00212, -0.00105, 0.0081, -0.00326, -0.00075, 0.0141, 0.00949, -0.00787, 0.0179, -0.00462, -0.00799, 0.00308, -0.00393, 0.01433, -0.00055, 0.01128, -0.00593, 0.00227, 0.00363, -0.00918, 0.01551, -0.00213, -0.0093, -0.02668, 0.0147, 0.03415, -0.01005, -0.00664, -0.01998, -0.01421, -0.0294, 0.00064, 0.00437, -0.01134, -0.01157, 0.02535, -0.00842, 0.02381, 0.00899, -0.01557, 0.04642, -0.0225, -0.01733, -0.00767, -0.0103, -0.00698, 0.01463, -0.00619, -0.00553, 0.01147, 0.01372, -0.03074, 0.01014, -0.0294, 0.00248, 0.00209, -0.0066, -0.00018, -0.00497, -0.00679, 0.00148, -0.00059, -0.00016, -0.0007, -0.0043, 0.00121, 0.00357, -0.00779, -0.00798, 0.00128, -0.00523, 0.00133, -0.00231, 0.0059, 0.00108, -0.00074, -0.00315, -0.00186, -0.00627, -0.00584, -0.0018, -0.00303, 0.00028, -0.00786, -0.00273, 0.00497, 0.01937, -0.02322, -0.00855, -0.03346, 0.03296, 0.0275, 0.01372, -0.03372, -0.02196, 0.02342, 0.00535, 0.00661, -0.01106, 0.03972, 0.00517, -0.00627, -0.00114, -0.0088, 0.03598, -0.02611, 0.03977, -0.01436, -0.02591, -0.01076, -0.00496, -0.01483, -0.01243, 0.02059, -0.07499, 0.03781, -0.00311, -0.042, 0.02078, -0.00722, 0.01104, 0.00167, -0.01673, 0.00994, -0.00207, -0.00184, -0.00043, -0.00818, 0.00333, -0.00922, 0.00399, 0.00087, -0.0004, 0.0131, 0.01297, -0.01214, -0.02169, -0.00117, -0.00828, -0.00376, 0.00724, 0.00184, 0.00048, 0.00048, 0.007, -0.01422, 0.00945, -0.01946, 0.02501, 0.00081, -0.00521, -0.02294, 0.00305, -0.03104, -0.00826, 0.00583, -0.00363, -0.00685, -0.00866, 0.00703, 0.00955, -0.01581, -0.00486, 0.02456, 0.01237, -0.00935, 0.01165, 0.01001, 0.02699, -0.02461, 0.01579, -0.01954, -0.00998, 0.0054, -0.00146, -0.01781, -0.01107, 0.01077, -0.0527, 0.00262, -0.01708, -0.02502, -0.00798, -0.01744, -0.0037, -0.01281, 0.02991, 0.0048, -0.01649, -0.00675, -0.00915, -0.00266, -0.00199, -0.00978, -0.0058, 0.02366, 0.00514, 0.01688, 0.00147, 0.00242, 0.03397, -0.02316, -0.0257, -0.01068, -0.01034, -0.00467, 0.00043, 0.00256, -0.00479, 0.00839, -0.00583, -0.03017, 0.00407, -0.01241, -0.00418, 0.01571, -0.00307, 0.00033, -0.00214, -0.00464, -0.00193, 0.00909, 0.0108, 0.00682, -0.00897, 0.00406, -0.00173, -0.01228, -0.0112, -0.00527, -0.00337, -0.00108, -0.00552, 0.00695, -0.01317, -0.00074, 0.00818, -0.00385, 0.00141, 0.00223, 0.01121, -0.00912, 0.01372, 0.01269, -0.00037, 0.0091, 0.0165, 0.01079, -0.00487, -0.02766, -0.01639, 0.01997, 0.00571, 0.00779, -0.00331, 0.00925, 0.00585, 0.01511, 0.00257, -0.00864, -0.00708, -0.02166, 0.0016, 0.01442, 0.00838, -0.00252, 0.03338, 0.00355, -0.00292, -0.01937, -0.00731, -0.01355, -0.00366, -0.01775, -0.04215, 0.03463, -0.0286, 0.01065, 0.0187, -0.00662, 0.00076, 0.0289, -0.01278, 0.00053, -0.00674, -0.00236, -0.00885, -0.0103, -0.00822, -0.00399, -0.00271, -0.00999, 0.00619, 0.0011, -0.00197, -0.00228, 0.00349, 1e-05, -0.02641, 0.00755, -9e-05, -0.00066, -0.00243, 0.00244, -0.00996, -0.00148, 0.05248, -0.01657, 0.0009, 0.00308, -0.00187, -0.01336, 0.00403, 0.00083, 0.00901, 0.00136, 0.01029, -0.00872, -0.00917, -0.02557, 0.00186, 0.00403, -0.00189, 0.00868, 0.00024, 0.02264, 0.00884, -0.00354, -0.01056, -0.00748, 0.00636, -0.00554, -0.01145, 0.01177, -0.00895, 0.00156, -0.02142, 0.00553, -0.01247, -0.03363, 0.00993, -0.00326, 0.05148, -0.02417, 0.04724, 0.0299, -0.02018, -0.04008, -0.065, 0.01974, -0.02401, -0.02546, 0.05395, 0.02828, -0.03998, 0.05421, -0.00583, -0.0001, 0.00256, 0.03291, 0.00703, -0.02195, 0.05079, -0.01929, 0.03818, 0.03941, -0.05447, -0.03906, 0.0535, -0.03169, 0.03969, 0.0229, -0.00581, -0.05455, -0.01019, 0.0005, 0.01109, -0.00414, -0.00259, -0.00924, -0.00404, -0.02666, -0.01831, -0.01374, -0.00665, -0.01165, -0.00912, 0.00069, 0.00394, 0.01432, -0.00866, -0.00348, 0.01419, 0.00408, 0.01346, -0.01051, -0.00675, -0.00023, -0.0072, 0.00417, -0.00776, 0.01151, -0.01464, -0.02316, 0.00451, 0.00691, -0.00969, 0.00379, 0.01278, 0.00908, 0.00388, 0.00753, 0.00274, 0.00877, -0.00972, -0.00559, -0.00831, -0.00156, -0.00847, 0.00367, 0.00977, -0.00244, 0.00664, -0.00091, -0.00672, -0.00334, 0.00223, -0.00165, -0.00403, 0.00533, 0.0006, -0.00261, 0.0046, 8e-05, -0.00961, 0.00263, 0.00259, 0.00065, 0.00074, 0.01072, -0.01117, -0.00312, 0.02212, -0.01669, -0.02155, 0.02168, 0.00452, 0.0098, 0.01734, 0.01527, 0.00576, -0.00366, -0.02017, -0.03433, -0.03877, 0.00484, -0.01239, -0.02249, -0.01906, 0.01724, 0.00539, -0.00096, 0.00273, -0.01431, 0.00395, 0.01085, 0.0151, 0.03524, -0.04296, 0.01921, 0.00036, 0.00623, -0.0101, 0.00541, 0.02383, 0.00036, -0.01127, 0.02501, 0.00821, 0.00896, -0.00524, 0.01168, -0.00468, -0.01179, -0.0148, -0.03532, -0.00099, 0.01294, -0.00745, -0.00116, 0.00233, 0.01154, 0.00153, -0.01261, 0.00349, -0.00472, 0.01405, -0.00798, 0.00336, 0.01797, -0.02944, 0.01329, -0.00333, -0.00071, -0.00336, -0.00043, 0.00689, 0.00477, 0.00072, -0.00292, 0.0018, -0.00255, -0.00058, 0.00194, 0.00247, -0.00087, 0.00056, 0.00432, 0.00037, 0.00329, 0.00248, -0.00219, -0.00288, -0.00167, 0.00275, -0.00077, -0.0011, -0.00222, -0.00135, -0.00086, 0.00491, 0.00205, 0.00347, 0.00023, -0.01608, -0.03462, 0.00323, 0.00069, -0.06437, 0.03142, 0.00778, -0.02459, -0.04304, 0.02652, 0.03539, -0.05052, -0.04529, -0.02515, 0.00667, -0.02793, -0.01063, -0.02079, 0.03835, -0.05184, -0.09008, -0.01262, -0.00108, 0.02302, 0.02339, -0.00299, -0.00383, -0.03499, -0.00211, 0.01059, -0.04051, -0.00706, -0.04378, 0.02711, -0.04582, -0.0136, -0.02205, 0.06685, 0.07509, -0.02673, 0.02699, -0.00295, -0.04446, -0.01976, 0.04157, -0.01664, -0.00649, -0.02838, -0.01528, -0.07993, 0.02216, 0.06539, -0.05432, 0.03585, -0.07132, -0.05129, 0.04285, 0.05005, -0.01923, 0.08528, -0.00159, -0.01073, -0.03031, 0.03758, -0.00549, -0.0151, 0.01095, -0.01392, -0.01354, 0.00438, -0.01098, -0.01178, -0.01363, -7e-05, -0.0043, -0.00045, -0.0013, 0.01033, 0.0059, 0.01675, 0.01362, -0.00581, 0.00569, -0.00963, 0.01224, -0.00175, 0.00179, -0.0012, -0.00582, -0.00981, -0.00359, -0.00925, -0.03472, -0.01354, 0.01191, -0.0195, -0.00742, 0.00905, -0.00028, -0.01448, 0.02634, -0.02595, -0.00788, -0.01969, -0.00207, -0.01743, -0.00406, 0.00438, 0.00215, -0.00343, -0.00284, 0.00304, -0.00558, 0.00045, 0.00947, 0.01951, 0.00559, 0.00437, 0.0068, -0.00147, -0.00774, 0.00701, 0.0149, 0.01747, -0.02041, 0.0219, 0.01101, 0.01311, -0.01127, -0.05548, 0.01174, 0.01905, -0.0335, 0.03206, -0.00365, -0.05735, -0.03683, 0.0446, 0.0377, -0.05713, -0.05831, -0.02876, 0.05455, -0.00642, -0.05217, -0.01166, 0.04405, -0.00969, -0.07189, -0.03328, -0.01145, 0.01532, 0.05737, -0.03031, -0.05428, -0.05879, 0.01367, 0.00037, -0.02287, 0.017, -0.02072, -0.00071, -0.00178, -0.01531, 0.00334, -0.0001, 0.00578, -0.00369, 0.0053, -0.00563, 0.00831, 0.0031, 0.00355, 0.00711, -0.00076, 0.00803, 0.00253, 0.0002, -0.00634, 0.00703, -0.00223, -0.00128, 0.00251, -0.00203, 0.00634, 0.00549, 0.00075, 0.0084, -0.00535, 0.0026, 0.00923, -0.00076, 0.00296, -0.00472, 0.00017, -0.00055, -0.00118, -0.00129, -0.00221, -0.00149, -0.00115, -5e-05, -0.00044, -0.00405, -0.00136, 0.00093, 0.0006, 0.00017, -0.00241, 0.00107, -0.00148, -0.00205, -0.00067, 0.00061, -0.00071, 0.00163, 0.00083, 0.00063, -0.00136, 0.00156, 0.00263, 0.00288, 0.00045, -0.00065, -0.02441, 0.01604, -0.00475, -0.00269, 0.00937, -0.01789, 0.01289, 0.00829, 0.00534, 0.01194, 0.00112, 0.00651, 0.00587, -0.01475, -0.00933, -0.01009, -0.01381, 0.00237, -0.00185, 0.01335, -0.02073, 0.01235, 0.01333, -0.00348, -0.00166, -0.00365, 0.01873, -0.00186, 0.023, 0.02263, -0.01135, 0.009, -0.00616, 0.00408, 0.00351, 7e-05, -0.01105, 0.00085, -0.00579, -0.0007, -0.00027, 0.0094, -0.00457, 0.00772, 0.00336, -0.0016, -0.00328, -0.00504, 0.00201, -0.00257, 0.00803, 0.00229, 0.00315, -0.00074, 0.00577, -0.00357, 0.002, 0.00181, 0.0107, -0.00342, -0.01338, 0.00159, -0.00117, -0.00402, -0.03719, -0.01527, 0.06182, -0.00839, -0.01145, -0.00329, -0.00779, -0.06271, -0.02643, -0.0392, -0.03357, -0.00524, 0.00569, 0.01774, 0.0214, 0.00721, 0.00935, 0.01067, 0.0199, 0.00699, 0.01346, -0.0121, -0.0157, 0.01001, 0.00851, 0.01154, -0.00737, 0.00777, -0.03639, -0.04068, 0.00194, 0.02978, -0.01001, 0.02399, -0.01041, 0.01262, 0.02918, -0.00968, 0.00575, 0.01244, 0.01237, 0.00116, -0.00561, 0.01561, 0.00811, -0.01598, -0.00672, -0.0131, -0.0057, -0.00206, -0.02073, 0.02615, -0.01728, 0.01268, 0.01063, 0.00216, 0.00349, 0.00462, 0.00801, -0.00578, 0.03667, 0.02167, -0.01443, 0.01543, -0.0011, 0.00334, 0.00354, -0.00064, 0.00565, 0.00048, -0.00099, -0.00021, -0.00227, -0.00417, 0.00563, 0.00391, -0.00853, -0.00102, 0.00368, -0.00066, 0.00451, 0.00154, 0.00495, -0.00019, -0.00333, -0.00382, 0.005, -0.00234, -0.00639, -0.00248, 0.00235, 0.00478, 0.00013, -0.00643, -0.00258, -0.00147, -0.00732, -0.0001, -0.00253, 0.00213, -0.00117, -0.0021, 0.00464, -0.00119, 0.00447, 0.00668, -0.00326, -0.00078, 0.00054, 0.00346, -0.00085, 0.0023, -0.00524, 0.00366, 0.00053, -0.00219, 0.01013, 0.00455, -0.00412, -0.00274, 0.00353, -0.00448, -0.00666, -0.00108, -0.00476, 0.01127, -0.00229, -0.00146, 0.02758, -0.0165, 0.0007, -0.02397, 0.00343, 0.03748, 0.00201, -0.01721, -0.00037, 0.00835, -0.00222, 0.00823, -0.0067, 0.00022, 0.01239, -0.03094, 0.02195, 0.01017, 0.00257, -0.01857, 0.04447, -0.01925, -0.01899, -0.00036, 0.00836, 0.00571, -0.01217, -0.00882, -0.06516, -0.00189, -0.02835, -0.01159], "b": [0.08264, -0.05468, -0.10375, -0.04987, 0.05796, -0.01548, 0.08974, -0.13931, -0.07836, 0.17819, -0.01221, -0.02565, 0.01293, -0.03382, -0.05722, 0.09444, 0.0107, -0.05564, -0.06814, 0.09666, -0.01912, -0.11008, -0.06096, -0.07439, 0.05521, -0.11074, 0.15405, 0.05314, -0.12944, 0.16018, -0.16569, -0.00529], "in": 32, "out": 32}, {"w": [-0.19905, 0.12425, -0.23487, 0.11832, -0.18334, 0.15133, -0.19116, -0.16639, 0.14661, 0.10159, 0.1514, 0.25586, -0.38576, 0.20673, 0.11594, 0.20867, -0.22565, 0.12761, 0.3321, -0.33491, 0.23314, 0.14506, 0.36233, 0.1362, -0.12653, 0.22034, 0.13191, -0.21933, 0.15694, 0.16698, -0.13296, 0.1539, -0.1379, 0.17545, -0.14823, 0.17719, -0.11199, 0.15739, -0.12619, -0.16244, 0.16679, 0.12761, 0.13112, 0.13094, -0.249, 0.15966, 0.17779, 0.12495, -0.15823, 0.19828, 0.22729, -0.22921, 0.13168, 0.12616, 0.23292, 0.16585, -0.18517, 0.12013, 0.17529, -0.141, 0.12486, 0.24385, -0.17846, 0.1055, -0.10318, 0.11892, -0.0097, 0.08026, -0.10347, 0.12741, -0.13081, -0.05258, 0.06979, 0.17149, 0.16885, -0.03486, -0.07681, -0.00984, 0.10714, 0.09264, -0.08682, 0.0942, 0.04248, -0.06072, 0.07718, 0.17444, 0.06092, 0.13263, -0.07967, 0.07501, 0.09172, -0.01629, 0.17521, 0.09864, -0.10474, 0.15892], "b": [-0.28109, -0.31894, 0.02604], "in": 32, "out": 3}], "psnr": 27.86}