{"hidden": 32, "omega0": 30.0, "layers": [{"w": [-0.30792, 0.38712, 0.14997, 0.08807, 0.40714, -0.52575, 0.41157, 0.21851, -0.373, 0.14082, -0.14378, -0.28575, -0.0746, -0.22501, 0.42741, 0.56433, -0.02277, -0.51615, 0.00817, -0.02472, 0.32135, 0.02114, 0.1145, 0.07985, -0.29488, -0.31138, -0.4628, -0.01165, 0.15143, -0.0033, 0.5741, -0.09728, -0.28892, 0.07059, -0.18893, -0.12407, 0.44211, -0.04909, 0.41742, 0.12817, -0.17431, 0.43875, -0.30789, 0.02586, 0.1505, 0.19289, -0.47276, 0.07646, -0.15394, 0.40119, 0.13287, 0.2335, 0.35272, -0.14666, -0.05226, 0.37107, -0.44679, -0.38675, -0.01332, -0.20045, 0.06775, 0.46435, -0.05414, -0.43311], "b": [0.36615, -0.12453, 0.05692, 0.1973, 0.44838, 0.65659, -0.53641, -0.25675, 0.27707, 0.59737, 0.63414, 0.65622, 0.14366, -0.59282, 0.04706, -0.46684, -0.64993, 0.60992, 0.50296, -0.67195, 0.11803, -0.15883, -0.12478, -0.33912, 0.26497, -0.38823, 0.24533, 0.36565, 0.47676, 0.25926, -0.72602, -0.46834], "in": 2, "out": 32}, {"w": [0.03652, 0.01503, -0.01467, -0.06208, -0.03094, -0.00902, 0.00259, -0.06076, 0.01672, 0.0217, 0.00309, -0.01001, -0.05407, -0.00996, -0.01739, 0.01962, -0.02356, -0.00603, -0.01861, 0.02819, 0.00627, -0.02137, -0.00627, 0.01911, 0.00806, -0.01439, -0.00025, -0.06183, 0.00839, -0.01803, -0.00108, -0.0213, 0.06827, 0.01614, -0.02644, 0.03474, -0.01981, 0.01951, -0.00716, -0.02048, 0.03581, -0.00131, 0.01624, -0.00436, -0.00678, 0.05353, -0.00443, -0.03364, 0.01305, 0.02608, 0.02992, 0.00891, -0.03175, -0.02349, -0.01791, -0.03215, -0.01033, 0.04177, 0.02847, -0.00776, 0.02081, 0.0128, 0.01613, -0.0068, -0.02794, 0.00953, 0.00573, 0.0101, -0.01129, -0.01603, 0.00938, -0.01096, -0.00221, -0.0025, -0.00871, -0.00019, -0.01533, 0.01728, -0.005, 0.00982, 0.00497, 0.0011, -0.00152, -0.00379, -0.0134, -0.00731, -0.02777, -0.00905, 0.01774, 0.01799, -0.02339, -0.00164, -0.00734, 0.01162, 0.0138, 0.01984, -0.04808, 0.00435, 0.06584, -0.00254, -0.02944, -0.0444, 0.07196, -0.00969, 0.01485, -0.00883, 0.01135, 0.00205, -0.01553, -0.02192, -0.00046, 0.06909, 0.01369, 0.03604, -0.00628, -0.04425, 0.01648, -0.04545, -0.01344, -0.04391, 0.09495, 0.00229, -0.03347, -0.00857, -0.05779, 0.02984, 0.0325, 0.01952, -0.00206, 0.00309, 0.00823, 0.00531, 0.00195, -0.00719, 0.00438, -0.0069, 0.00171, -0.01552, 0.00142, -0.00435, -0.00894, 0.00452, 0.00368, -0.00499, -0.00677, -0.00749, 0.00085, -0.01423, -0.01152, -0.00244, -0.00832, 0.00701, 0.00366, 0.00868, -0.00648, -0.00099, 0.00618, -0.00012, 0.01246, -0.00415, 0.03239, -0.02277, -0.00784, -0.00323, -0.02801, 0.01036, 0.01533, 0.00246, 0.00889, -0.02085, -0.0524, 0.02088, -0.01636, 0.04571, -0.02022, 0.01346, 0.0294, -0.00248, 0.00899, -0.03284, -0.00168, -0.01635, 0.01155, -0.02396, -0.00759, -0.02905, 0.00746, 0.00674, 0.01898, -0.01611, -0.0108, -0.00799, 0.06885, -0.00215, -0.04641, -0.01698, 0.04601, 0.04457, -0.04688, 0.04057, 0.00405, 0.02326, 0.02029, -0.04434, 0.03756, -0.05211, 0.01027, -0.03097, -0.02931, 0.02895, -0.00372, -0.02775, 0.01321, 0.00626, 0.02491, -0.0014, -0.03781, -0.00457, 0.04774, -0.03788, 0.0182, 0.04509, -0.02978, -0.00704, -0.03957, 0.02375, -0.01596, 0.06133, 0.02376, -0.04312, 0.03216, 0.00167, -0.00691, -0.02088, -0.02222, -0.00871, 0.00948, 0.03365, 0.01533, -0.07592, 0.02917, 0.03844, 0.04718, -0.0201, -0.0559, 0.00934, -0.04488, -0.02964, -0.00623, -0.01469, -0.02129, 0.01468, -0.01869, -0.01678, 0.01181, 2e-05, -0.01936, -0.0012, 0.00872, 0.09574, -0.00713, -0.03805, -0.01773, 0.03004, 0.02243, -0.02788, 0.00315, 0.0178, -0.01294, -0.01201, 0.00504, -0.01761, 0.0094, 0.0392, 0.01988, 0.018, -0.01595, 0.00206, 1e-05, 0.04318, 0.04311, -0.00638, -0.00177, 0.01683, -0.0172, 5e-05, 0.03808, -0.01624, -0.02585, 0.0076, 0.08252, -0.08561, 0.02193, -0.01241, 0.0174, -0.03171, -0.01652, -0.02823, 0.01869, 0.00628, 0.03865, -0.00868, 0.02266, 0.01671, -0.01995, 0.03366, -0.03369, -0.00077, 0.05378, -0.00937, 0.0427, 0.02175, 0.01893, -0.01161, 0.0141, 0.02854, -0.00455, -0.0209, 0.00351, 0.00791, -0.0175, -0.00747, 0.00565, 0.03572, 0.00953, 0.00822, 0.00486, 0.02064, 0.04345, 0.03375, -0.03303, -0.00186, 0.01229, 0.00417, -0.00651, -0.05486, -0.00783, 0.04435, 0.03825, 0.06388, 0.00767, 0.02097, -0.03269, 0.04413, -0.03243, 0.02164, 0.03572, 0.01144, -0.02264, -0.02128, 0.04349, -0.01524, -0.01641, -0.06055, 0.03432, 0.02645, 0.03414, -0.05654, 0.01214, 0.03451, -0.03572, 0.00998, -0.0457, 0.00699, 0.02969, 0.04462, -0.02907, 0.02034, 0.01614, 0.00082, 0.00274, -0.00651, -0.0275, 0.0119, -0.02828, -0.04703, 0.05014, 0.01752, -0.03357, -0.03675, -0.00844, -0.03851, 0.04079, 0.01655, 0.05666, -0.01316, -0.06939, -0.00861, -0.01777, 0.02257, -0.04221, 0.0621, 0.00435, -0.00252, -0.01358, -0.01764, 0.0324, 0.0027, -0.02361, 0.00269, 0.00176, -0.03139, 0.00277, -0.00209, -0.00864, 0.01887, -0.00543, -0.00058, -0.05026, 0.00172, 0.04845, -0.05511, 0.02467, 0.02769, -0.02036, -0.01691, 0.01135, 0.01027, -0.02806, -0.01084, 0.02201, 0.03832, -0.0135, -0.03323, -0.00309, -0.00153, 0.01528, -0.02639, -0.03009, -0.03974, -0.00468, -0.01118, -0.01819, 0.00173, -0.03084, 0.02671, 0.01419, -0.04165, 0.00361, 0.03929, -0.0079, -0.02647, -0.03994, -0.00451, 0.02458, 0.03424, -0.02076, -0.0114, 0.00851, -0.00992, 0.0091, 0.00347, 0.00196, 0.00389, 0.01083, -0.00449, -0.00363, 0.00643, 0.00555, -0.00367, 0.01944, -0.01022, -0.00747, 0.00575, -0.00271, -0.00688, 0.01138, -0.01049, -0.01201, -0.00936, -0.00817, -0.00136, 0.00593, -0.00517, 0.00897, 0.02612, 0.00837, -0.01078, 0.01538, 0.00839, 0.0469, -0.01805, 0.01836, -0.04496, 0.05146, -0.00038, -0.02195, -0.0049, -0.0007, 0.0151, 0.01323, -0.02446, 0.01653, -0.01924, -0.01708, -0.0037, -0.02456, -0.02013, -0.03151, -0.01, 0.02871, -0.01766, 0.03124, 0.00376, -0.0374, -0.01986, -0.00626, -0.01825, 0.05814, 0.04255, -0.03016, -0.0049, 0.06417, -0.04191, -0.02655, -0.03852, 0.05402, 0.02498, -0.02044, 0.03885, -0.00706, -0.00065, 0.00769, 0.02203, 0.0448, -0.02033, 0.00147, -0.03139, -0.03809, 0.0003, -0.00167, -0.00725, 0.03726, 0.01152, 0.05554, 0.02252, -0.06091, -0.05141, 0.03855, 0.00568, 0.05007, -0.03204, -0.02508, -0.04972, 0.00815, -0.00294, -0.00705, -0.0845, 0.04398, 0.01404, -0.06345, 0.09995, 0.01134, -0.00298, -0.00918, -0.04131, 0.05897, -0.0131, -0.01615, -0.02768, 0.03395, -0.01005, -0.01646, -0.01344, 0.02004, 0.02194, 0.03223, -0.02011, -0.03679, -0.03252, 0.07385, -0.02013, -0.00191, 0.02769, 0.01645, -0.02585, 0.01232, 0.00253, -0.04604, 0.04365, -0.01994, 0.0058, -0.02156, -0.0709, -0.03469, 0.00747, -0.02176, -0.00672, -0.03418, 0.07347, -0.00359, -0.04196, -0.01283, 0.00324, -0.00073, 0.02063, 0.07792, -0.0032, 0.02713, -0.01885, -0.02517, -0.02816, -0.00502, 0.06893, 0.04333, 0.01455, -0.02032, 0.02553, -0.00153, 0.01213, -0.0512, 0.04982, -0.00425, -0.02386, -0.00777, 0.04872, -0.00072, 0.01315, -0.0727, 0.02219, -0.05277, 0.03078, -0.00856, -0.02181, -0.04659, 0.0152, -0.02797, 0.02797, -0.12355, -0.04397, -0.04164, 0.00642, -0.0097, 0.02191, -0.00951, -0.03993, -0.02512, 0.0559, 0.04633, -0.02644, -0.05121, 0.034, 0.01637, 0.04836, -0.06554, 0.02226, 0.04586, -0.00673, 0.00966, 0.00504, -0.01129, 0.05577, -0.00993, 0.01811, -0.06259, 0.06404, 0.0306, -0.02698, 0.01488, 0.02918, 0.02361, 0.001, -0.03125, 0.00983, 0.00842, -0.01336, -0.00592, 0.00668, -0.02154, -0.0167, 0.04845, -0.03311, -0.00843, 0.01246, 0.00165, -0.01032, 0.00269, -0.00103, -5e-05, -0.00873, 0.00183, 0.01288, -0.00142, 0.01105, -0.00306, 0.00024, -0.00388, -0.01104, 0.0015, -0.00328, 0.00992, 0.00225, -0.00064, -0.00013, -0.0038, -0.0044, 0.01018, 0.00044, -0.00089, 0.00022, 0.01007, -0.00126, 0.00281, -0.01456, -0.02915, -0.01392, 0.03754, 0.00817, 0.0053, -0.0142, 0.01963, -0.02747, -0.01998, 0.00807, 0.00648, 0.00751, -0.02566, -0.02749, 0.00494, 0.04793, -0.01221, -0.01047, -0.00095, 0.02691, 0.05164, -0.02186, -0.04208, 0.01034, -0.02029, 0.03263, -0.01657, -0.02501, 0.05541, 0.02335, -0.05484, -0.01519, -0.09747, -0.04043, 0.03374, 0.02206, -0.01823, -0.04025, 0.03358, 0.04406, -0.00465, 0.00962, 0.01579, 0.02583, 0.01215, -0.01307, -0.00695, 0.06071, 0.02492, -0.0131, 0.01509, -0.07703, -0.02135, -0.0342, -0.05957, -0.02646, 0.03915, -0.02785, -0.02084, -0.0152, -0.02751, -0.00098, 0.01933, 0.00961, -0.02407, 0.00633, 0.00596, 0.07883, -0.03435, -0.02363, 0.02551, -0.07344, 0.01052, -0.00289, -0.03294, 0.04422, -0.10136, 0.06571, -0.01173, -0.00086, 0.03209, -0.01258, 0.02473, 0.0288, -0.00584, -0.03765, -0.02007, -0.01228, 0.04223, 0.01759, -0.05275, 0.02487, 0.00842, -0.05614, 0.04135, 0.03786, 0.02356, -0.01116, -0.01473, -0.00184, -0.01543, 0.00776, 0.02114, -0.00662, -0.0078, -0.01041, -0.03231, -0.00507, -0.0079, 0.01321, -0.01105, -0.01921, 0.00901, -0.02197, 0.01099, 0.00393, -0.00142, -0.00831, 0.01535, -0.00021, 0.01442, -0.01533, 0.00868, 0.03817, -0.0256, -0.03164, 0.00228, -0.02896, 0.07437, 0.04814, -0.06949, -0.01227, 0.06757, 0.01462, 0.00436, 0.01068, -0.01213, -0.01639, -0.00673, -0.03028, 0.00257, -0.02012, 0.00219, -0.00676, -0.0428, -0.04156, -0.02976, -0.01942, -0.05318, 0.00569, -0.00591, 0.0093, 0.01372, 0.02973, 0.03029, -0.01878, 0.00688, -0.00718, 0.01187, 0.02792, 0.02266, -0.02044, -0.04496, -0.05958, -0.00181, 0.02115, -0.00662, -0.01286, 0.02522, -0.01457, 0.05014, -0.01457, 0.0294, -0.04023, -0.00337, 0.00842, 0.00595, 0.00436, -0.04223, -0.05034, -0.03342, 0.00699, 0.01884, -0.05951, -0.03212, -0.00647, 0.00625, -0.05315, -0.0256, 0.01707, 0.04374, -0.03059, -0.03239, 0.00347, 0.00414, 0.02033, 0.04267, 0.00578, -0.01976, 0.00475, 0.00494, 0.00926, -8e-05, -0.02522, 0.05308, 0.0222, 0.04332, -0.02508, -0.01515, -0.02576, 0.01742, 0.01286, 0.00081, 0.01955, 0.0099, 0.01988, -0.00404, -0.03965, -0.00488, 0.01141, 0.04367, -0.02956, -0.00678, -0.00217, 0.04226, 0.00205, 0.01205, -0.01855, 0.09345, 0.00149, -0.04554, -0.0438, -0.01699, 0.03836, 0.00404, -0.00122, 0.03402, -0.00366, -0.01011, -0.06847, -0.01411, -0.00792, -0.0171, -0.00444, 0.02266, -0.00697, -0.00661, 0.01047, 0.02118, 0.01475, -0.00861, -0.01038, 0.02378, -0.00201, -0.04299, 0.01125, 0.03342, -0.0107, -0.00612, -0.03519, 0.01983, 0.03927, -0.03538, 0.00185, -0.01091, 0.02055, -0.01311, 0.00743, 0.0247, -0.0308, -0.02112, -0.02678, -0.05195, -0.01379, -0.00672, 0.01874, 0.08649, -0.0278, 0.0615, 0.01214, -0.01538, -0.03146, 0.03798, 0.01107, 0.04444, 0.01554, -0.04802, -0.04156, -0.0019, 0.00208, 0.01192, 0.01372, 0.00919, -0.00253, 0.00068, 0.01252, -0.00528, 0.00016, -0.00907, 0.00195, 0.00506, 0.01254, -0.00304, 0.0028, 0.00531, 0.00256, -0.00024, -0.00734, -0.00359, 0.01555, 0.00507, -0.00332, 0.00306, 0.00714, -0.00098, 0.0013, -0.0008, 0.00472, -0.00243, -0.00755], "b": [-0.05922, -0.15564, -0.10559, 0.01624, -0.1693, -0.01648, -0.09514, -0.09101, 0.08368, -0.10449, -0.14382, 0.10365, 0.01138, 0.16764, -0.04812, -0.10531, -0.00948, -0.00815, 0.12324, -0.20945, -0.00548, 0.06021, -0.10222, -0.09188, 0.07864, -0.15615, 0.05939, -0.1519, 0.08658, -0.17271, 0.08614, -0.16023], "in": 32, "out": 32}, {"w": [0.00477, -0.00614, 0.00264, -0.00171, 0.00855, -0.00222, 0.00053, -0.00192, -0.00492, -0.00218, -0.0006, 0.00103, 0.00235, 0.00103, -0.00393, 0.00088, 0.00332, 0.00145, 0.0057, -0.00174, 5e-05, 0.01829, -0.00239, 0.00268, -0.00032, 0.00268, 0.00039, -0.00114, -0.00092, 0.00346, 0.00135, 0.01314, -0.00389, 0.00467, -0.00283, -0.00033, -0.0023, 0.00204, 0.00051, 0.00188, 0.00291, 0.00215, 0.00079, 0.0005, -0.00048, -0.00136, 0.00061, -0.00151, -0.00228, 0.00026, -0.00425, 0.00262, 0.0017, -0.00891, 0.0026, -0.00274, 0.00012, -0.00092, 0.00081, 0.00153, 0.00031, -0.00143, 0.00021, -0.00931, 0.00316, -0.00307, 0.00129, -0.00012, 0.00186, -0.0021, 0.00196, -0.00185, -0.00483, -0.00137, 0.00057, -0.00076, 0.00182, 0.00026, -0.0021, 0.00076, 0.00293, 0.00084, 0.00365, 8e-05, 0.00116, 0.01095, -0.00024, 0.00109, 3e-05, 0.00231, 0.00305, -0.00163, 0.00029, 0.00256, 0.00172, 0.00388, -0.00433, 0.00573, -0.00378, -0.00037, -0.00282, 0.00219, 0.00131, 0.00159, 0.00293, 0.00158, 0.00067, 0.00027, -0.00045, -0.00173, -0.00053, -0.00107, -0.00244, 0.00049, -0.00443, 0.0039, 0.00289, -0.00792, 0.0034, -0.00338, -0.00024, -0.00035, 0.00214, 0.00193, 0.00058, -0.00085, 0.00096, -0.00948, -0.01289, 0.01109, -0.006, -0.01235, 0.01599, 0.01533, 0.01061, 0.01173, 0.00705, 0.01063, 0.00878, 0.01069, 0.00806, -0.01058, -0.00517, -0.01357, 0.00263, 0.01294, -0.01364, 0.00832, 0.01237, -0.00032, 0.01582, -0.0116, -0.00875, 0.00688, 0.0101, 0.01036, -0.00895, 0.00764, 0.01032, -0.01546, -0.00223, 0.00069, -0.00085, -0.00558, 0.01589, 0.00687, 0.0086, 0.00058, 0.00854, 0.00113, 0.00195, 0.00162, 0.01043, -0.00537, -0.01263, -0.00355, 0.0093, 0.00504, 0.00224, 0.00646, 0.00901, 0.03713, 0.0053, -0.00444, -0.01126, 0.01175, 0.01138, 0.00746, 0.00107, 0.01076, 0.00684, 0.02576, 0.00317, -0.00351, 0.00045, -0.00139, 0.00696, -0.00191, 0.00105, -0.00104, -0.00207, -0.00317, -0.00055, 0.00081, 0.00121, 0.0002, -0.00555, 0.00194, 0.0024, 0.00042, 0.00352, -0.00044, 0.0007, 0.01172, -0.00125, 0.00178, -0.0013, 0.00303, 0.0012, 0.0004, -0.00068, 0.00342, 0.00189, 0.01885, 0.00421, -0.00231, 0.00116, -0.00046, -0.02709, -0.00825, -0.00974, 0.00048, -0.01343, -0.00225, -0.00514, 0.00247, -0.01063, 0.00755, 0.02021, 0.00526, -0.00999, -0.00579, -0.0036, -0.01059, -0.01021, -0.03786, -0.00566, 0.00535, 0.0137, -0.01383, -0.01255, -0.01186, 0.00029, -0.01056, -0.00798, -0.03435, -0.01302, 0.00844, -0.00522, -0.01461, 0.01419, 0.01548, 0.01289, 0.01049, 0.00622, 0.01126, 0.0091, 0.00959, 0.00751, -0.00906, -0.00852, -0.0123, 0.00544, 0.0078, -0.01142, 0.01124, 0.01174, 0.0099, 0.01344, -0.01004, -0.00917, 0.01, 0.01146, 0.01054, -0.0068, 0.01101, 0.01186, -0.00648, 0.00147, -0.00272, 0.00096, -0.00131, 0.00248, -0.00069, 0.00075, 0.00074, -0.0017, 0.00022, 0.00165, 0.00098, 0.00155, -0.00079, -0.00184, -0.001, 0.00188, 0.00117, 0.00226, -0.0008, -0.00031, 0.00715, -0.00025, 0.00123, -0.00037, 0.0021, 0.00102, -0.00017, -0.00089, 0.00176, 0.00133, 0.00674, -0.01026, 0.00728, -0.0047, -0.01124, 0.00562, 0.01172, 0.01047, 0.01213, 0.00446, 0.00932, 0.01013, 0.0088, 0.009, -0.00907, -0.00975, -0.0095, 0.00498, 0.00834, -0.00821, 0.00969, 0.0098, 0.00633, 0.01224, -0.00718, -0.00903, 0.00969, 0.00983, 0.00838, -0.00488, 0.00954, 0.00951, 0.00112, 0.00489, -0.00461, 0.00334, 0.00166, 0.00277, -0.00275, -0.00059, -0.00384, -0.0043, -0.00291, -0.00145, -0.00168, -0.00028, 0.00248, 0.00057, 0.00252, 0.00203, -0.00097, 0.00489, -0.00273, -0.00192, 0.00938, -0.00308, 0.00318, 0.00062, 0.00023, -0.00077, -0.00262, 0.00039, 0.00104, -0.00105, 0.00561, -0.00103, 0.00202, -0.0013, 0.0007, -0.00087, 0.00015, -0.00027, -0.0011, 0.00128, -0.00114, -0.00184, -0.00045, -0.00122, 0.00062, -0.00063, 0.00132, -0.00137, -0.00075, -0.00105, 0.00127, 0.00085, -0.00209, 6e-05, -0.00088, -5e-05, -0.00085, -0.00035, 0.00072, 0.00044, -0.0004, -0.00038, -0.00128, -0.01286, 0.01, -0.00656, -0.00793, 0.00033, 0.01157, 0.00798, 0.01276, 0.00582, 0.01026, 0.0103, 0.00678, 0.00679, -0.01084, -0.00485, -0.01038, 0.00219, 0.01106, -0.00943, 0.00727, 0.00767, -0.00822, 0.01373, -0.00812, -0.00556, 0.00634, 0.00772, 0.00851, -0.00551, 0.00529, 0.00559, -0.01701, -0.0094, -0.0039, -0.00047, -0.00036, 0.03227, 0.014, 0.0096, -0.01624, 0.0123, -0.0058, -0.01076, 0.00059, 0.00148, -0.0027, -0.00796, 0.00357, 0.01104, 0.01508, 0.00749, 0.01047, 0.01119, 0.06275, 0.01145, -0.00318, -0.01024, 0.01264, 0.00272, 0.00568, 0.00024, 0.00256, 0.00675, 0.05836, -0.01066, 0.00792, -0.00555, -0.008, -0.00248, 0.00942, 0.00687, 0.01302, 0.00449, 0.00969, 0.00933, 0.00722, 0.00746, -0.00975, -0.00589, -0.00871, 0.00212, 0.00968, -0.0082, 0.00646, 0.00761, -0.00464, 0.0118, -0.00653, -0.00597, 0.00634, 0.00789, 0.00722, -0.00468, 0.0053, 0.00574, -0.00637, -0.01312, 0.00963, -0.00596, -0.00908, 0.00367, 0.01256, 0.0085, 0.01351, 0.00593, 0.01072, 0.00931, 0.00871, 0.00781, -0.01076, -0.00647, -0.01129, 0.00228, 0.01224, -0.01026, 0.00768, 0.00934, -0.00361, 0.01468, -0.00839, -0.00688, 0.00678, 0.0082, 0.00921, -0.00672, 0.00689, 0.00696, -0.01423, 0.00349, -0.00318, 0.00059, 0.00348, -0.02205, -0.00927, -0.01104, -0.00286, -0.00999, -0.00468, -0.00601, -0.00097, -0.01521, 0.00768, 0.01966, 0.00716, -0.01175, -0.00654, -0.00073, -0.01205, -0.00985, -0.03147, -0.00594, 0.00565, 0.01388, -0.0144, -0.01338, -0.01144, -0.0004, -0.01191, -0.00924, -0.02482, -0.0114, 0.0087, -0.00538, -0.01352, 0.01238, 0.01396, 0.01117, 0.01138, 0.00598, 0.01096, 0.00924, 0.01022, 0.00935, -0.00867, -0.01023, -0.01071, 0.00545, 0.00865, -0.01098, 0.01054, 0.01142, 0.0085, 0.0134, -0.00901, -0.00962, 0.01018, 0.01092, 0.0096, -0.00611, 0.01061, 0.0109, -0.0002, 0.00594, -0.00457, 0.00351, 0.00401, 0.00243, -0.00434, -0.00344, -0.00649, -0.00266, -0.00583, -0.00534, -0.00295, -0.00342, 0.00505, 0.00177, 0.00568, -1e-05, -0.00392, 0.0047, -0.00388, -0.00373, 0.00459, -0.00582, 0.00414, 0.00175, -0.00247, -0.00456, -0.00291, 0.00115, -0.00119, -0.00354, 0.00841, 0.00251, -0.00397, 0.00085, -0.00173, 0.00541, -0.00161, 0.00118, -0.00065, -0.00232, -0.00235, 0.00019, 0.00097, 0.00194, -0.00035, -0.00356, 0.00092, 0.00266, 0.00081, 0.00364, -0.0006, 0.0007, 0.01301, -0.00083, 0.00157, -0.00119, 0.00287, 0.00189, 0.0002, -0.00078, 0.00338, 0.00192, 0.01657, -0.00407, 0.00503, -0.00113, 0.00244, -0.00652, 0.00312, -0.00385, 0.00198, 0.00702, 0.00257, 0.00117, 0.0002, -0.00452, -0.0001, 0.00329, -0.00136, -0.00547, -0.00132, -0.00465, -0.00127, -0.00459, -0.0194, 0.00023, 0.00032, 0.00052, -0.00394, -0.0064, 0.00201, -0.00083, -0.00427, -0.00367, -0.01207, 0.01231, -0.00905, 0.00533, 0.01548, -0.01801, -0.01568, -0.01345, -0.00921, -0.00652, -0.01133, -0.00911, -0.0092, -0.00795, 0.00859, 0.00861, 0.01223, -0.00604, -0.00724, 0.01176, -0.01122, -0.01181, -0.01102, -0.01257, 0.01078, 0.00925, -0.01064, -0.01258, -0.01056, 0.00635, -0.01136, -0.01241, 0.00577, 0.00616, -0.00721, 0.00352, 0.01131, -0.01664, -0.01015, -0.01162, -0.0074, -0.00496, -0.00762, -0.00934, -0.00722, -0.01406, 0.00691, 0.01514, 0.00699, -0.01008, -0.00523, 0.00586, -0.01128, -0.00928, -0.01979, -0.00876, 0.00805, 0.01082, -0.01306, -0.01298, -0.00796, 0.00067, -0.01288, -0.01107, -0.01059, -0.00668, 0.00805, -0.00396, -0.01255, 0.02134, 0.011, 0.01224, 0.00727, 0.0063, 0.00843, 0.00922, 0.00732, 0.01485, -0.00702, -0.01433, -0.00766, 0.01074, 0.00491, -0.00649, 0.01215, 0.0096, 0.02164, 0.0091, -0.00885, -0.01101, 0.01372, 0.01402, 0.00886, -8e-05, 0.01365, 0.01216, 0.00876, 0.00884, -0.00689, 0.00394, 0.0122, -0.01187, -0.01096, -0.01179, -0.00892, -0.00366, -0.00889, -0.01065, -0.00759, -0.01032, 0.00826, 0.01073, 0.00913, -0.00667, -0.00628, 0.00725, -0.01022, -0.00929, -0.01456, -0.0106, 0.00816, 0.00837, -0.01077, -0.01143, -0.00768, 0.00273, -0.01162, -0.01056, -0.00021, 0.00305, -0.0022, 0.00077, 0.00361, -0.02256, -0.0084, -0.00975, -0.00109, -0.01074, -0.00266, -0.00394, -0.00044, -0.01203, 0.00684, 0.0161, 0.00531, -0.01074, -0.00581, -0.00211, -0.00922, -0.0096, -0.03482, -0.00595, 0.00503, 0.01294, -0.0135, -0.01246, -0.01025, -0.00061, -0.01157, -0.0079, -0.02736, 0.01352, -0.00842, 0.00507, 0.01403, -0.01273, -0.01599, -0.01251, -0.01126, -0.00665, -0.01151, -0.00835, -0.0104, -0.00741, 0.00972, 0.00921, 0.01312, -0.00492, -0.00905, 0.01201, -0.01116, -0.01206, -0.00836, -0.01443, 0.00998, 0.00939, -0.00955, -0.01106, -0.01077, 0.00804, -0.01073, -0.01162, 0.00841, 0.01242, -0.00912, 0.00585, 0.00957, -0.00393, -0.01231, -0.00884, -0.01304, -0.00572, -0.0103, -0.00936, -0.00859, -0.0079, 0.01034, 0.00685, 0.01092, -0.0026, -0.01143, 0.00997, -0.00803, -0.00947, 0.00172, -0.01392, 0.00821, 0.00721, -0.00701, -0.00832, -0.00893, 0.00643, -0.00717, -0.00748, 0.01138, 0.00512, -0.00471, 0.00308, 0.00198, 0.00249, -0.00308, -0.00173, -0.0041, -0.00265, -0.00472, -0.00336, -0.00155, -0.00139, 0.00319, -0.00024, 0.00409, 0.00137, -0.0022, 0.00474, -0.0031, -0.00241, 0.00761, -0.00426, 0.00344, 0.00021, -0.00044, -0.00256, -0.00192, 0.00034, 0.00077, -0.00159, 0.01209, 0.00699, -0.01436, 0.14619, -0.02021, -0.07596, 0.0001, 0.0191, 0.02853, 0.02157, 0.01245, 0.02852, 0.02278, 0.01938, 0.00397, -0.05991, -0.03425, 0.05934, 0.01035, -0.00614, 0.02598, 0.01609, -0.00464, 0.00713, -0.00039, -0.01173, 0.01353, 0.05753, 0.02529, -0.05123, -0.00718, -0.01062, 0.02868, 0.00197, -0.00469, 0.00254, -0.00218, 0.00246, -0.00029, 0.00037, 0.00285, -0.00229, 0.00264, 0.00403, 0.00166, 0.00272, -0.00173, 0.00054, -0.00311, 0.00295, 0.00172, 0.00236, -0.00287, -0.00205, 0.00546, -0.00028, 0.00189, -8e-05, 0.00206, 0.0005, -0.00107, -0.00131, 0.00104, 0.00108, 0.00528], "b": [0.12491, -0.03643, -0.06681, -0.03722, 0.04726, -0.017, 0.12614, -0.17027, -0.0714, 0.14357, 0.03569, 0.03901, 0.05564, -0.03767, 0.0299, 0.05793, -0.04673, -0.08158, 0.02984, 0.04207, 0.02434, -0.12588, -0.02909, -0.11042, 0.10692, -0.12954, 0.12961, 0.06803, -0.15888, 0.14039, -0.14797, 0.0422], "in": 32, "out": 32}, {"w": [-0.1843, -0.18503, -0.19188, -0.18032, 0.09494, 0.16275, -0.1905, -0.12333, -0.13049, -0.20232, 0.14396, 0.18124, 0.19025, -0.13011, -0.19948, 0.15562, -0.12782, 0.09901, 0.11528, 0.17586, 0.18943, 0.18101, -0.10217, 0.1218, -0.09926, 0.13961, 0.13091, 0.11045, 0.13475, -0.18175, -0.13739, 0.23832, -0.11055, -0.10516, -0.11603, -0.10122, 0.18816, 0.1534, -0.10331, -0.1898, -0.20238, -0.10414, 0.15423, 0.10942, 0.09634, -0.14469, -0.23329, 0.13723, -0.1595, 0.18509, 0.17655, 0.10474, 0.10218, 0.12467, -0.17006, 0.17421, -0.1928, 0.15163, 0.16413, 0.19331, 0.15396, -0.10662, -0.30532, 0.11712, -0.12312, -0.11364, -0.11209, -0.11742, 0.13572, 0.1466, -0.12963, -0.13621, -0.16916, -0.11043, 0.1443, 0.1113, 0.11463, -0.13635, -0.19426, 0.12749, -0.13146, 0.14784, 0.13482, 0.1216, 0.12535, 0.13034, -0.15082, 0.15334, -0.13694, 0.13822, 0.14566, 0.17004, 0.14108, -0.11486, -0.23619, 0.15244], "b": [-0.00233, -0.06379, 0.2053], "in": 32, "out": 3}], "psnr": 35.6}