{"hidden": 32, "omega0": 30.0, "layers": [{"w": [-0.36861, 0.31256, 0.12008, 0.12281, 0.41775, -0.43362, 0.42002, 0.23714, -0.3387, 0.11632, -0.10704, -0.22132, -0.02723, -0.22129, 0.43242, 0.48215, -0.07908, -0.445, -0.02934, 0.02103, 0.31233, 0.07761, 0.14647, 0.07876, -0.25897, -0.35326, -0.40869, -0.03875, 0.1361, -0.00577, 0.51569, -0.02487, -0.27347, 0.05535, -0.16768, -0.0666, 0.47867, -0.03, 0.45064, 0.13332, -0.26491, 0.33391, -0.28807, 0.00908, 0.06021, 0.19651, -0.47759, -0.05804, -0.11297, 0.3151, 0.16103, 0.17365, 0.34453, -0.08076, -0.11695, 0.43874, -0.39813, -0.33583, 0.08879, -0.22035, -0.01736, 0.39138, 0.00613, -0.47193], "b": [0.37929, -0.07756, -0.00979, 0.13747, 0.45627, 0.67255, -0.5384, -0.23884, 0.31894, 0.55827, 0.63456, 0.61746, 0.11269, -0.5943, 0.02188, -0.37377, -0.63902, 0.59449, 0.51018, -0.70404, 0.1, -0.07829, -0.13069, -0.32327, 0.25355, -0.4065, 0.23267, 0.36706, 0.47661, 0.23995, -0.73265, -0.45966], "in": 2, "out": 32}, {"w": [-0.00188, 0.0026, 0.00106, -0.02789, 0.00032, 0.01287, -0.00683, 0.01457, 0.01397, 0.01655, 0.02257, -0.00043, 0.01394, -0.00443, -0.00532, 0.03685, 0.01681, -0.03177, 0.00551, 0.01521, -0.00825, 0.02236, 0.01366, 0.0168, 0.02533, -0.03636, 0.03552, -0.01565, -0.02782, -0.01081, -0.01266, 0.02488, -0.03872, 0.0137, 0.02809, 0.0066, -0.04061, -0.02588, -0.00713, 0.01499, 0.02317, 0.00749, -0.01521, 0.04703, -0.00348, 0.01279, -0.02389, -0.04908, 0.01488, 0.02888, 0.02967, 0.01338, 0.01878, 0.00445, 0.01232, 0.00095, 0.03303, -0.00999, 0.00288, 0.00476, 0.0508, 0.06899, -0.02021, 0.02791, -0.00492, 0.01026, 0.00868, 0.01474, -0.00878, -0.01648, -0.00955, 0.00567, -0.0138, -0.01106, 0.02301, -0.00361, 0.01867, 0.01096, -0.04264, 0.00216, 0.0195, -0.04431, 0.02738, 0.04939, -0.00604, 0.00875, -0.00451, -0.01722, 0.02837, -0.00448, -0.01104, -0.0143, -0.00498, 0.0172, -0.00514, 0.01553, 0.07095, 0.04019, 0.02924, 0.09432, 0.03274, -0.03047, 0.00711, 0.0197, -0.07123, 0.00428, 0.05866, 0.00577, 0.0357, 0.04242, -0.03712, -0.01972, -0.08006, 0.02006, 0.04049, -0.00252, -0.10647, -0.03152, -0.07241, -0.08961, 0.1312, 0.01003, 0.02405, -0.00993, -0.0632, -0.01024, 0.08139, 0.04978, -0.00301, 0.00947, -0.0034, -0.00395, 0.00088, -0.00817, 0.0042, -0.00293, -0.00205, 0.0029, -0.00585, -0.00219, 0.00159, -0.00258, -0.0044, -0.00625, 0.00035, 0.00325, 0.00263, 0.00446, -0.01104, 0.00413, -0.0003, 0.00398, 0.00801, 0.00303, -0.0065, -0.00811, 0.01111, -0.00537, -0.00832, 0.00135, -0.00826, 0.00299, -0.01807, 0.00241, -0.01078, -0.0368, -0.03715, 0.01992, 0.00533, -0.01104, -0.00161, -0.01499, -0.05441, -0.01723, 0.01168, 0.01928, 0.03847, 0.00072, 0.03601, -0.00141, 0.05604, 0.03834, 0.05403, 0.01816, -0.03768, 0.0013, 0.01473, -0.00544, -0.01964, 0.03663, -0.04993, -0.02731, -0.00082, -0.06567, -0.08693, -0.0717, 0.0131, 0.02422, -0.02649, -0.03008, 0.03753, -9e-05, 0.00649, 0.01835, -0.06025, -0.02154, 0.05468, 0.08143, -0.01346, 0.00397, -0.08677, -0.0296, 0.04032, 0.04286, 0.01437, 0.07618, -0.06157, -0.02527, 0.00935, 0.03556, -0.00519, -0.03459, -0.10683, -0.06875, 0.0365, 0.05673, 0.01038, 0.06723, 0.01768, -0.03879, 0.00259, -0.05668, -0.01826, 0.00172, 0.00307, -0.025, 0.04468, 0.00662, -0.0037, -0.02762, -0.00963, 0.0377, 0.04873, 0.03332, -0.05513, -0.02027, -0.05905, -0.06484, 0.07573, -0.02203, 0.01403, 0.03547, -0.08087, -0.00714, 0.01672, 0.03513, 0.02163, -0.01341, 0.03387, 0.07119, -0.01139, -0.02784, 0.05779, 0.10219, -0.02556, -0.03086, 0.05831, 0.02758, -0.06493, 0.03245, -0.01172, -0.00536, -0.07811, -0.04593, 0.05657, 0.06528, -0.07784, 0.00665, -0.04509, 0.02969, 0.05362, 0.03784, -0.00631, -0.07537, 0.08207, -0.02497, 0.01694, 0.07785, -0.00602, -0.01383, -0.06161, -0.07922, -0.01535, 0.0069, -0.04939, 0.02829, 0.0469, -0.01311, 0.03613, -0.01811, -0.01526, -0.01819, 0.02141, 0.00554, 0.00011, 0.02119, 0.00195, -0.025, 0.00791, 0.03389, 0.01451, -0.02527, -0.05437, -0.03824, -0.0198, 0.03471, -0.05219, 0.00787, -0.02283, -0.02254, -0.01194, 0.01047, -0.04445, 0.01267, -0.03636, 0.01643, 0.01064, 0.01711, 0.02632, -0.00467, 0.02523, 0.00079, 0.01744, -0.00277, -0.00859, -0.00209, 0.00305, -0.02081, 0.03453, -9e-05, 0.02394, -0.00618, 0.00413, 0.0086, -0.01957, -0.02301, -0.00064, 0.01067, 0.00756, -0.04367, 0.03277, 0.01222, 0.04233, 0.04094, -0.03003, 0.02804, 0.01148, -0.02936, -0.02191, -0.096, -0.03006, 0.01159, -0.00148, -0.02227, 0.07296, 0.00541, -0.03542, -0.01382, 0.02795, 0.01406, -0.02483, -0.07214, 0.03396, -0.03667, -0.01291, -0.03811, 0.05275, 0.01432, 0.01651, 0.02264, -0.06033, -0.00253, -0.008, -0.04893, 0.0133, 0.01471, -0.01558, -0.01187, 0.00576, 0.03235, 0.00565, 0.00412, -0.00418, 0.0048, -0.00472, 0.0005, -0.00833, -0.00752, -0.0255, -0.01432, 0.01706, -0.01593, 0.00325, -0.01481, 0.01798, 0.00227, 0.00136, 0.01744, -0.01984, 0.02413, 0.01766, -0.00291, -0.00205, 0.01057, 0.01993, -0.00548, 0.02532, -0.02821, 0.0748, -0.01557, -0.02857, -0.02122, 0.00463, 0.02552, 0.00109, 0.01517, -0.00045, 0.04603, -0.07215, -0.06808, -0.01027, 0.01754, -0.05109, -0.01361, 0.00286, 0.00877, -0.11671, -0.00303, -0.02337, -0.00504, 0.00014, 0.03796, -0.02401, 0.03195, 0.03244, 0.01583, -0.01859, 0.04319, -0.004, -0.01159, -0.01297, -0.00815, -0.00721, 0.00507, 0.01785, -0.0162, -0.00065, -0.001, 0.01144, 0.00353, 0.00451, -0.00065, -0.00297, 0.00594, 0.00694, 0.01005, 0.02035, -0.01422, -0.00418, 0.0091, 0.00684, -0.00346, -0.00449, -0.00645, -0.00596, 0.00828, 0.0082, -0.00588, 0.00163, -0.00534, -0.05202, -0.03156, -0.02701, -0.06099, -0.00712, 0.01162, -0.03427, -0.00457, 0.00483, 0.01806, -0.0047, 0.00921, 0.0266, 0.0079, 0.04332, 0.01514, 0.01987, -0.01129, -0.0333, -0.04562, 0.05742, 0.03259, -0.01803, 0.00844, -0.01271, -0.03376, 0.02263, 0.01273, 0.00078, -0.01757, 0.00049, -0.05845, -0.04258, -0.01686, -0.05416, -0.02647, -0.02085, 0.05058, -0.05783, 0.00655, -0.01601, 0.0137, 0.02604, 0.03414, -0.02464, -0.03586, 0.03261, 0.04497, -0.01374, -0.03435, -0.04776, -0.03107, 0.00864, 0.0146, 0.02503, 0.01406, 0.00423, -0.03191, 0.09693, -0.01912, 0.03457, -0.04526, -0.07304, -0.04242, -0.02646, 0.01684, -0.07399, 0.01164, 0.01418, 0.01893, -0.01744, -0.02654, 0.00176, -0.00014, -0.00683, -0.04416, 0.0713, 0.06454, 0.01416, -0.0178, 0.05334, 0.0141, -0.00638, -0.01618, 0.11555, 0.00309, 0.01669, 0.00133, 0.00761, -0.04487, 0.03008, -0.03658, -0.03217, -0.02204, 0.02406, -0.04562, -0.04208, -0.02519, -0.03893, -0.05574, -0.02666, 0.04121, -0.008, 0.00117, 0.02035, 0.03137, -0.01878, 0.03793, -0.02247, -0.00354, 0.04156, 0.04849, 0.02683, -0.02563, -0.05883, -0.03645, 0.00386, -0.01492, 0.01077, 0.05544, -0.07172, 0.00672, 0.0138, 0.00048, 0.02415, -0.07714, -0.05847, -0.04502, 0.01223, 0.00464, 0.01843, 0.00578, 0.00342, -0.02621, 0.02251, 0.00551, 0.00979, 0.00867, -0.01043, -0.00619, 0.00231, 0.012, -0.00699, -0.00995, 0.0126, 0.00977, 0.01029, 0.01199, -0.0012, -0.01133, -0.00311, -0.00429, -0.00073, 0.01381, -0.03393, 0.01715, -0.00443, 0.0225, 0.02457, 0.01329, -0.00436, -0.01609, 0.01072, 0.00699, -0.06206, -0.0053, 0.04766, 0.06848, 0.01624, -0.01574, 0.04407, 0.04028, -0.05129, -0.00306, -0.00998, 0.01688, -0.02132, -0.03279, -0.01792, 0.01323, -0.01108, -0.03715, -0.02879, 0.07412, -0.08497, 0.0239, -0.01093, -0.00997, 0.04833, -0.01107, 0.00923, 0.02664, 0.01308, -0.05922, -0.05994, 0.0027, -0.00203, 0.00233, 0.01382, 0.04181, 0.01156, 0.00343, 0.00097, -0.01795, -0.01988, 0.0493, 0.04132, 0.02598, -0.03899, -0.02031, 0.0145, -0.00654, 0.00034, 0.0064, -0.0431, 0.02259, 0.00245, -0.02616, 0.02221, -0.05555, 0.01627, -0.06068, -0.00284, 0.02864, 0.0552, 0.04152, 0.00321, 0.03191, -0.01341, -0.04442, -0.02265, 0.02113, -0.0129, 0.01573, 0.09054, -0.04939, -0.04387, 0.01546, -0.04733, 0.0123, -0.05934, 0.03207, 0.00229, 0.03763, -0.0595, 0.03175, -0.02008, -0.03654, 0.10644, 0.01519, 0.06476, -0.0454, -0.03393, 0.00212, 0.00976, -0.00264, 0.01816, 0.00604, 0.02269, 0.00983, 0.0057, -0.01512, 0.02529, -0.00427, 0.00329, -0.00853, -0.00436, -0.00668, 0.01675, 0.01471, -0.01603, -0.0184, 0.00604, 0.01065, 0.02213, 0.00976, -0.0014, -0.00271, -0.00798, -0.00489, -0.00458, 0.01318, -0.03384, 0.00241, -0.01462, 0.02269, 0.02706, 0.01618, 0.01354, -0.025, -0.00211, 0.05037, 0.00392, -0.03285, 0.00897, 0.0259, -0.00548, -0.02027, 0.03339, 0.00227, 0.02541, 0.04042, -0.03368, 0.01462, -0.02808, 0.01703, -0.02209, 0.06496, -0.07035, -0.0343, -0.03686, 0.01278, 0.04567, 0.01389, 0.00338, -0.04656, 0.04784, -0.04592, 0.02645, 0.02165, 0.00732, 0.00136, -0.00358, -0.00051, 0.00335, 0.00377, -0.00095, -0.00027, -0.00376, 0.00938, 0.00085, -0.00343, 0.00461, -0.00348, -0.00101, -0.00088, -0.00941, -0.00361, 0.00204, 0.00239, -0.002, 0.00185, -0.00296, -0.00409, 0.00176, -0.00156, 0.00509, -0.00355, 0.00426, -0.00289, 0.00213, -0.00341, -0.0197, 0.02008, -0.07875, 0.00079, -0.00646, 0.03917, 0.01581, 0.0401, 0.02243, 0.0004, 0.02188, -0.02035, -0.01476, 0.02867, 0.0028, 0.0188, 0.03691, -0.0099, 0.05242, 0.00678, 0.04314, -0.04956, -0.03046, 0.04726, 0.00553, -0.02888, 0.02696, -0.06201, -0.02469, -0.04368, 0.00931, -0.00346, -0.00204, -0.00711, -0.02127, -0.02168, -0.01586, -0.01757, 0.01236, 0.03802, -0.04383, -0.01048, 0.00204, 0.00663, 0.03669, -0.01234, -0.00824, 0.00117, 0.00483, -0.03302, -0.0239, 0.02703, 0.01461, -0.0061, -0.00296, -0.00528, -0.01242, -0.00699, 0.01336, 0.03701, 0.01223, 0.00958, 0.01914, -0.00689, -0.02623, -0.03498, -0.00564, -0.0347, 0.01515, 0.03344, -0.01708, -0.03895, 0.02253, 0.00672, -0.02544, 0.00376, 0.0183, -0.04426, 0.00733, -0.00012, -0.03538, -0.0069, -0.01065, 0.01409, 0.00472, -0.00788, 0.01185, -0.01099, -0.01029, -0.02048, 0.01735, 0.02404, -0.02885, 0.03487, 0.01546, 0.00765, -0.01932, -0.02052, -0.03371, -0.04392, 0.0073, 6e-05, 0.04116, 0.05879, -0.03648, 0.05534, 0.00255, 0.00119, 0.02314, 0.00641, 0.05368, -0.02441, -0.01509, -0.0095, 0.00522, 0.02307, 0.03894, 0.05718, -0.00952, 0.03937, 0.00654, -0.0137, 0.01946, -0.01934, 0.02187, -0.02146, 0.00127, 0.06375, -0.02349, -0.02297, -0.02458, -0.0109, -0.00295, 0.02399, -0.02496, 0.03768, 0.00175, 0.00679, 0.03131, 0.03094, -0.04118, -0.02357, 0.02211, 0.01222, -0.0168, -0.00703, -0.02105, 0.00946, -0.00225, 0.0115, 0.01994, 0.00924, -0.0052, -0.02834, 0.0148, -0.01999, -0.00218, 0.00102, -0.02062, 0.01646, 0.00789, -0.00843, -0.00706, 0.00768, 0.00203, -0.00071, -0.00186, -0.00044, -0.00229, -0.0016, 0.00201, -0.00599, 0.00291, -0.00688, 0.00045, -0.00866, 0.00532, 0.00859, 0.00976, -0.00855, 0.00735, 0.00105, 0.0013, 0.00041, -0.00311, -0.00352, -0.00281, -0.0099, 0.00206, -0.00514, 0.00937, 0.0098], "b": [-0.04505, -0.1698, -0.12554, 0.01094, -0.15566, -0.00155, -0.10915, -0.0939, 0.08262, -0.11513, -0.14577, 0.10054, 0.03066, 0.14461, -0.0542, -0.10173, -0.0374, -0.0212, 0.10823, -0.19088, 0.00089, 0.08057, -0.1077, -0.09608, 0.08173, -0.15242, 0.04253, -0.14458, 0.10101, -0.19072, 0.09749, -0.15736], "in": 32, "out": 32}, {"w": [-0.00448, 0.00368, 0.00528, 2e-05, 0.02525, -0.00111, -0.00598, -0.0011, -0.0025, -0.00234, -0.00404, -0.00658, 0.0014, -0.00263, -0.00223, 0.00816, -0.00674, 0.00141, 0.00302, -0.01031, 0.0039, -0.00261, -0.01017, -0.0073, -0.00066, 0.01382, -0.00459, 0.00396, -0.00506, 0.00202, -0.00341, 0.00377, -0.00245, 0.0023, 0.00303, -0.00107, -0.00028, -0.00273, -0.00281, 0.00192, -0.00073, -0.00188, -0.0012, -0.00349, 0.00215, -0.00265, 0.00134, 0.00376, -0.00254, 0.00156, 2e-05, -0.00584, -0.0009, 4e-05, -0.00468, -0.0056, 0.00113, -0.01017, -0.00162, 0.00238, 0.00025, 0.00111, -0.00125, -0.01126, -0.0014, 0.00149, -0.00075, -0.00333, 0.00224, -0.00239, 0.0, 0.00194, 0.00251, 0.00026, -0.00091, 0.0004, 0.00054, 0.00189, -0.00094, 0.00242, -0.00133, 0.00052, -0.0008, -0.00182, -0.00047, -0.00029, 0.00132, -0.0018, 0.00033, 0.01276, -0.00099, 0.00255, -0.00036, 0.00153, 0.00077, 0.00186, -0.00442, 0.00395, 0.00156, -0.00439, -0.00179, -0.00584, -0.00189, 0.00495, 0.00349, -0.00029, -0.00067, -0.00152, 0.00481, -0.0032, 0.00063, 0.00507, -0.00247, 0.00492, -0.00198, -0.0065, -0.00353, -4e-05, -0.00194, -0.00625, 0.00101, -0.01091, -0.00133, 0.00455, 0.00092, 0.00349, -3e-05, -0.01341, 0.00415, -0.00758, 0.00993, 0.00511, 0.00312, 0.01035, -0.009, -0.01266, -0.01589, -0.01201, -0.00829, -0.00495, -0.01061, 0.02556, 0.00872, 0.00812, -0.00478, -0.02383, 0.01114, -0.008, 0.0126, -0.00925, -0.01025, -0.01061, -0.00789, 0.00467, -0.01347, -0.00635, -0.00795, -0.0083, -0.01095, -0.00968, -0.00033, 0.0046, -0.01545, -0.00605, 0.01287, -0.00484, 0.0094, 0.00944, 0.0025, 0.00173, 0.01348, 0.00875, 0.00703, -0.01469, -0.01942, -0.01694, 0.00927, 0.01354, -0.00889, 0.01715, -0.00256, 0.0079, 0.01706, 0.02065, 0.00518, 0.00826, 0.00704, -0.00099, 0.00992, 0.00343, 0.00941, 0.02653, -0.00338, 0.00185, -0.00097, -0.00481, 0.01516, -0.00476, -0.00363, 0.00109, 0.00251, 0.00042, -0.00204, 0.00236, -0.00081, 0.00297, -0.00354, 0.00645, -0.00663, -0.00013, -0.00043, -0.00559, 0.00221, 0.00025, 0.00379, -0.00548, 0.00423, 0.01819, -0.00397, 0.00589, -0.00085, 0.00177, 0.00245, 0.01415, 0.01401, -0.01645, 0.00552, 0.01705, -0.03919, 0.01393, -0.00431, -0.01164, -0.00646, -6e-05, -0.00761, -0.00049, -0.01388, 0.01539, 0.01857, -0.00027, 0.00049, -0.01533, 0.00599, 0.00658, 0.0072, -0.01228, -0.00646, 0.0018, -0.01226, -0.01874, -0.00441, -0.0168, -0.01164, -0.00842, -0.01167, -0.02865, 0.00082, 0.00419, -0.01823, -0.00553, -0.01346, -0.00727, 0.00968, 0.00761, -0.00197, -0.00034, 0.01218, 0.00948, 0.00614, -0.01508, -0.01536, -0.01614, 0.01146, 0.01178, -0.0069, 0.02011, -0.00389, 0.00678, 0.01776, 0.01864, 0.00535, 0.00585, 0.00725, -0.00375, 0.01053, 0.00119, 0.00713, 0.0233, -0.00069, -0.0006, 0.00029, 0.00091, 0.0129, 0.00057, -0.00098, -0.00099, -0.00123, -0.0003, -0.00039, 0.00132, -0.00116, 0.00036, -0.00213, 0.00096, -0.00181, -0.00105, 0.00065, -0.00101, 0.00251, -0.00058, -0.00025, -0.00044, 0.00175, 0.00016, -0.00229, 0.0009, -0.00054, -0.0005, 0.00075, 0.00604, -0.0126, 0.01646, -0.00375, -0.01077, 0.00377, -0.01564, 0.00445, 0.01163, 0.00124, 0.00188, 0.00326, -0.00149, 0.01614, -0.0186, -0.00748, 0.00262, -0.00187, 0.01672, -0.00456, -0.00727, -0.0108, 0.00595, 0.003, -0.00511, 0.00872, 0.00809, 0.00584, 0.013, 0.00846, 0.00723, 0.00855, 0.00132, -0.00305, 0.00162, 0.00165, -0.00119, 0.00995, -0.00298, -0.00336, 0.0009, -0.00043, -0.0012, -0.00202, -0.00105, 0.0002, 0.00035, -0.00152, 0.0055, -0.00523, -6e-05, 0.00039, -0.00632, 0.00179, -0.00048, -0.00164, -0.00545, 0.00293, 0.00049, -0.00341, 0.00418, -0.00087, 0.00119, 0.00049, 0.00346, 0.00128, -0.00127, -0.00047, 0.00086, -0.00622, 0.00064, 0.00037, -0.00113, -0.00031, 0.00107, 0.00172, 0.0015, -0.00031, -0.0017, 0.00082, -0.00208, 0.00111, 0.00113, -0.00042, 0.003, -0.00042, 0.00125, 0.00178, 0.00312, 1e-05, -0.00551, 0.0021, -0.00148, 0.00061, -0.00058, 0.00053, 0.00255, 0.00239, -0.00576, 0.01065, 0.00658, 0.00682, 0.00943, -0.00759, -0.01088, -0.01425, -0.01084, -0.00932, -0.00622, -0.00899, 0.02541, 0.00922, 0.00978, -0.00555, -0.02474, 0.0108, -0.01034, 0.01212, -0.00883, -0.0109, -0.01326, -0.00551, 0.0071, -0.01267, -0.00415, -0.00848, -0.00728, -0.00953, -0.00679, -0.00096, 0.00084, 0.00032, -0.00205, 0.04388, 0.0017, 0.00123, -0.00048, 0.00057, -0.00074, -0.0035, -0.00032, -0.00298, 0.00415, -0.00434, 0.00253, -0.00122, -0.00272, 0.00254, 0.00066, 0.00085, -0.00355, -0.00052, -0.00084, -0.00092, 0.08205, -0.0015, 0.00228, -0.00494, -0.00036, 0.0, 0.01389, 0.00508, -0.00416, -0.00723, 0.00092, -0.01063, 0.00281, 0.00861, 0.00104, 0.00222, 0.00055, 0.00217, 0.00462, -0.00203, 0.00732, 0.00012, -0.00812, 0.00816, -0.00503, -0.00172, 0.01101, -0.00152, 0.00042, 0.01073, 0.00896, -0.0012, 0.00178, 0.00343, -0.00401, 0.00246, -0.00282, 0.00348, 0.01122, -0.00524, 0.0047, 0.00496, -0.00283, 0.00577, -0.00366, -0.00577, 0.00142, -0.00064, -0.00181, -0.00237, -0.00439, 0.00277, -0.00645, 0.00111, 0.00732, -0.00624, 0.00466, 0.00094, -0.0106, -0.00041, -0.00065, -0.00813, -0.00973, 0.00054, 0.00376, -0.00262, 0.00401, -0.00234, 0.00334, -0.00227, -0.01202, 0.00659, -0.00871, 0.01111, 0.01023, -0.01953, 0.00827, -0.00509, -0.00772, -0.0138, -0.00495, -0.01175, -0.01538, -0.00732, 0.02066, 0.01957, 0.01252, -0.00534, -0.02439, 0.01093, -0.0081, 0.00671, -0.01157, -0.00911, -0.01355, -0.0098, -0.01784, -0.00931, -0.00548, -0.01156, -0.01252, -0.01386, -0.0263, -0.00045, 0.00349, -0.01551, -0.00702, -0.00645, -0.00643, 0.00829, 0.00852, 0.00427, 0.00294, 0.01347, 0.00892, 0.00574, -0.0146, -0.01363, -0.01625, 0.00968, 0.01494, -0.00915, 0.01655, -0.00499, 0.00758, 0.0167, 0.01642, 0.00371, 0.00572, 0.00868, -0.00082, 0.00907, 0.0024, 0.00748, 0.01488, -0.01118, 0.01091, -0.0017, -0.0119, 0.00135, -0.0142, 0.0029, 0.00876, 0.00358, 0.00429, 0.00246, 0.00116, 0.01439, -0.01648, -0.00233, 0.00412, -0.0033, 0.01506, -0.00415, -0.00699, -0.00797, 0.00238, 0.00103, -0.00501, 0.00569, 0.00462, 0.00266, 0.00948, 0.00514, 0.00686, 0.00592, -0.00785, -0.00288, 0.00181, 0.00011, -0.00274, 0.02219, -0.0021, -0.00253, 0.00077, 0.00117, -0.00112, -0.00375, -0.00057, -0.00119, 0.00485, -0.00305, 0.00593, -0.00525, -0.003, 0.00116, -0.0061, 0.00286, -0.00176, 6e-05, -0.00601, 0.00213, 0.02389, -0.00502, 0.00473, -0.00222, 0.00099, 0.00084, 0.00987, 0.00807, -0.00888, 0.00783, 0.01165, -0.0035, 0.01186, -0.00379, -0.01093, -0.01441, -0.00516, -0.00828, -0.00761, -0.00934, 0.01507, 0.01097, 0.00371, -0.00266, -0.01619, 0.00993, -0.00137, 0.00849, -0.01232, -0.01055, -0.00224, -0.0105, -0.00145, -0.00957, -0.011, -0.00612, -0.00613, -0.0137, -0.01311, 0.00422, -0.00756, 0.00969, 0.00659, -0.00375, 0.00969, -0.00854, -0.01227, -0.0164, -0.01108, -0.00851, -0.00577, -0.00981, 0.02353, 0.00911, 0.00815, -0.00483, -0.02272, 0.01107, -0.00728, 0.01151, -0.00965, -0.01054, -0.00982, -0.00801, 0.00222, -0.01305, -0.00714, -0.00778, -0.00828, -0.01125, -0.01139, 0.00614, -0.00695, 0.01108, 0.01139, -0.00712, 0.00847, -0.00629, -0.00963, -0.01371, -0.00747, -0.01187, -0.01019, -0.00732, 0.01694, 0.01658, 0.01085, -0.00529, -0.0195, 0.00995, -0.00865, 0.00749, -0.01097, -0.0121, -0.01143, -0.00754, -0.0123, -0.01081, -0.00596, -0.00916, -0.00866, -0.01163, -0.01673, -0.00551, 0.00724, -0.01139, -0.01085, 0.00891, -0.00812, 0.00598, 0.00926, 0.01357, 0.00725, 0.01211, 0.0113, 0.00657, -0.01918, -0.01619, -0.01193, 0.00542, 0.0212, -0.00961, 0.01025, -0.00771, 0.01079, 0.01136, 0.0134, 0.00702, 0.01823, 0.01128, 0.00468, 0.01038, 0.00956, 0.01196, 0.01621, 0.01302, -0.01626, 0.00301, 0.01223, -0.0152, 0.01431, -0.00733, -0.01049, -0.00049, -0.00359, -0.00297, 0.00056, -0.0165, 0.02041, 0.00816, -0.00215, 0.00255, -0.01614, 0.00387, 0.00888, 0.00889, -0.00445, 0.00055, 0.00396, -0.00796, -0.01297, -0.00209, -0.01264, -0.00916, -0.00807, -0.00831, 0.00681, 0.01262, -0.01403, 0.00597, 0.01759, -0.02248, 0.01198, -0.00243, -0.00959, -0.01079, -0.00204, -0.00926, -0.00564, -0.00964, 0.01181, 0.01599, 0.00038, -0.00067, -0.013, 0.00606, 0.00271, 0.006, -0.01302, -0.00723, 0.00017, -0.01023, -0.02477, -0.00776, -0.01441, -0.00895, -0.00777, -0.01417, -0.01849, 0.00647, -0.0095, 0.00857, 0.00414, -0.0006, 0.01048, -0.00936, -0.01366, -0.01659, -0.01229, -0.0083, -0.00325, -0.01196, 0.02532, 0.01092, 0.00554, -0.0045, -0.02163, 0.01146, -0.00527, 0.01271, -0.00973, -0.00864, -0.00732, -0.00901, 0.00352, -0.01347, -0.00828, -0.00846, -0.00738, -0.01175, -0.00292, 0.01205, -0.01676, 0.0039, 0.01059, -0.00281, 0.01606, -0.00482, -0.01192, 0.00057, -0.00173, -0.00224, 0.00281, -0.01751, 0.0197, 0.00651, -0.00142, 0.00155, -0.01723, 0.00479, 0.00844, 0.0115, -0.00561, -0.00232, 0.00547, -0.00933, 0.00345, -0.00535, -0.0131, -0.01039, -0.00669, -0.00956, 0.0081, 0.00249, -0.00275, -0.00283, 0.00189, 0.00184, 0.00307, 0.00232, -0.00262, 4e-05, 0.00199, 0.00133, 0.00405, -0.00256, 0.00254, -0.00178, -0.00361, 0.00187, -0.00166, 0.00028, 0.00598, 0.00164, 3e-05, 0.00451, 0.00596, -0.00052, 0.00789, 0.00128, -0.00243, -0.00023, -0.00139, 0.00144, 0.01273, 0.00422, -0.00066, -0.00149, -0.00417, -0.07076, 0.00368, -0.02327, 0.0072, 0.01007, -0.0061, 0.00483, 0.0055, 0.00601, 0.01676, 0.02241, 0.00384, 0.04573, -0.02143, 0.00599, -0.06992, -0.0075, -0.00203, 0.00416, 0.0743, 0.0071, 0.07, -0.00314, 0.00472, 0.00551, 0.00295, 0.00527, -0.00212, 0.00082, 0.00575, -0.01614, -0.00648, 0.01219, -0.00413, 0.00936, 0.00895, 0.00131, 0.00114, 0.01371, 0.00841, 0.00753, -0.01491, -0.01843, -0.01803, 0.00977, 0.01288, -0.00832, 0.01774, -0.00226, 0.00736, 0.01668, 0.0208, 0.0046, 0.00149, 0.00612, -0.00194, 0.0106, 0.00241, 0.00925, 0.02548], "b": [0.12009, -0.03353, -0.06882, -0.03254, 0.06657, -0.00613, 0.1139, -0.16876, -0.08208, 0.14061, 0.02858, 0.04034, 0.06145, -0.04642, 0.03226, 0.05066, -0.05097, -0.08711, 0.02618, 0.04333, 0.00234, -0.12819, -0.02861, -0.11002, 0.10424, -0.12384, 0.12679, 0.06728, -0.15223, 0.13797, -0.16117, 0.00092], "in": 32, "out": 32}, {"w": [-0.17291, -0.18152, -0.19166, -0.17451, 0.0722, 0.10174, -0.18542, -0.09331, -0.07171, -0.20027, 0.11354, 0.17878, 0.18854, -0.0854, -0.27567, 0.16609, -0.16613, 0.07253, 0.10158, 0.13244, 0.18443, 0.10925, -0.07614, 0.09253, -0.08012, 0.11399, 0.10161, 0.0693, 0.10271, -0.18048, -0.1841, 0.09768, -0.10732, -0.10076, -0.10801, -0.0982, 0.17482, 0.17026, -0.09865, -0.17659, -0.2024, -0.09855, 0.15548, 0.10421, 0.09233, -0.15443, -0.11468, 0.11645, -0.11404, 0.17436, 0.16329, 0.12903, 0.0962, 0.15751, -0.16144, 0.16936, -0.17299, 0.14979, 0.15914, 0.1874, 0.15591, -0.10012, -0.23205, 0.19489, -0.10001, -0.08391, -0.07707, -0.09043, 0.13752, 0.15789, -0.10158, -0.13459, -0.17971, -0.07405, 0.14209, 0.08227, 0.08251, -0.14358, -0.083, 0.09841, -0.08914, 0.1525, 0.12967, 0.12248, 0.0964, 0.14804, -0.15479, 0.15197, -0.13416, 0.13597, 0.14607, 0.17924, 0.14165, -0.08373, -0.20481, 0.19446], "b": [-0.00362, -0.0677, 0.17555], "in": 32, "out": 3}], "psnr": 37.88}