{"hidden": 32, "omega0": 30.0, "layers": [{"w": [-0.24291, 0.33618, 0.17896, 0.1304, 0.40376, -0.47638, 0.35355, 0.19562, -0.3332, 0.10958, -0.11181, -0.19152, -0.07064, -0.25432, 0.43343, 0.45068, -0.08723, -0.46835, -0.02399, 0.04888, 0.32459, -0.01329, 0.1675, 0.14766, -0.29399, -0.33935, -0.44258, -0.01557, 0.14068, -0.03673, 0.47497, -0.10191, -0.33899, 0.07205, -0.12418, -0.06196, 0.48669, -0.026, 0.41844, 0.07519, -0.15589, 0.38758, -0.29986, 0.01924, 0.12396, 0.21929, -0.44104, 0.02378, -0.14076, 0.33589, 0.19034, 0.19333, 0.31206, -0.13205, -0.0313, 0.40778, -0.40276, -0.33456, 0.04716, -0.20288, 0.02685, 0.47052, -0.07022, -0.42475], "b": [0.36907, -0.0883, 0.0545, 0.14152, 0.4181, 0.69884, -0.56721, -0.23654, 0.28568, 0.57704, 0.60633, 0.61442, 0.16856, -0.61667, 0.07449, -0.46344, -0.66757, 0.62769, 0.53393, -0.68855, 0.13573, -0.11675, -0.09895, -0.33044, 0.27589, -0.42627, 0.231, 0.36047, 0.52068, 0.2491, -0.72746, -0.45133], "in": 2, "out": 32}, {"w": [0.01304, -0.01924, -0.01137, -0.01608, 0.0177, -0.01067, -0.03785, -0.01004, -0.02848, -0.00878, -0.02456, -0.01813, 0.0011, 0.01375, -0.0041, -0.01481, -0.01069, -0.00991, -0.02542, -0.00337, 0.00821, 0.00143, -0.01746, 0.00464, 0.00438, 0.04311, 0.01853, -0.01091, -0.01395, 0.04526, -0.00052, 0.00574, 0.01433, -0.00125, 0.04177, -0.01181, -0.02888, 0.00158, 0.00252, 0.00967, 0.0275, -0.00046, -0.01812, 0.05168, 0.00368, 0.01098, 0.01733, -0.02196, -0.03071, 0.00294, -0.00226, -0.00749, -0.00082, 0.02484, -0.01288, -0.00577, 0.01913, -0.02637, -0.03722, 0.01106, 0.00862, -0.01127, -0.00114, 0.01251, -0.02386, 0.04011, -0.02622, -0.00759, 0.04526, 0.02265, -0.00919, 0.01337, -0.00432, 0.02588, 0.03095, -0.00557, -0.02541, -0.05031, -0.02925, -0.0145, -0.007, 0.00172, 0.00022, 0.00026, -0.01787, -0.04577, 0.02273, -0.02476, -0.00839, 0.03983, 0.0416, 0.03127, -0.00525, 0.00226, 0.03264, 0.0072, -0.0025, 0.00805, -0.01404, 0.00678, -0.00161, 0.02022, -0.01947, -0.0012, -0.01121, 0.01559, 0.01166, -0.01443, -0.00701, -0.03583, -0.01875, 0.01366, -0.00697, -0.02644, -0.01367, 0.00102, 0.00598, -0.00965, 0.01954, -0.02645, 0.02061, 0.02338, -0.00621, -0.02063, -0.00974, 0.02381, 0.00749, -0.02694, 0.01059, 0.0091, 0.01012, -0.0111, -0.00588, 0.03145, 0.00127, 0.0001, 0.01704, 0.01723, 0.00534, 0.00461, -0.0169, 0.00217, -0.0136, -0.02112, -0.01958, -0.00042, 0.00401, 0.00517, -0.01761, -0.00732, 0.01724, 0.0052, -0.00132, -0.00307, -0.01333, -0.0074, 0.00175, 0.00486, -0.00048, 0.01723, -0.00374, -0.00542, 0.00849, -0.01537, -0.01696, 0.00506, 0.0346, 0.01662, 0.0047, -0.00573, -0.01368, -0.00042, -0.00983, 0.02554, -0.00852, -0.00909, 0.01689, 0.00155, -0.00872, 0.00409, -0.00096, 0.00998, -0.02074, -0.00414, 0.02796, -0.03301, -0.01853, 0.02736, -0.00638, 0.00424, -0.00493, 0.01398, -0.01636, 0.01368, -0.00179, -0.01788, 0.0139, 0.01586, 0.00412, 0.01336, 0.01301, 0.02034, 0.02342, 0.00811, -0.02251, -0.01888, -0.04601, -0.00267, -0.00164, 0.01992, -0.00292, 0.01676, 0.04213, -0.0001, 0.02231, -0.00142, 0.05449, 0.02038, 0.02207, 0.04403, -0.01478, -0.02573, -0.00898, 0.01665, 0.04743, 0.00485, 0.02151, 0.00299, -0.02612, -0.00625, -0.0062, -0.00404, -0.03209, -0.02632, 0.0053, -0.01783, 0.00786, -0.0096, -0.04073, -0.00168, 0.0214, -0.00572, 0.02893, -0.02133, -0.03958, 0.00879, -0.00665, 0.02282, -0.02007, 0.00334, -0.0235, 0.01259, -0.00857, 0.02436, -0.04059, -0.00612, -0.00891, -0.02065, -0.02698, -0.00382, 0.00465, -0.01425, 0.00788, -0.00594, 0.00858, 0.01845, -0.01845, -0.00559, 0.00333, -0.02088, 0.00238, -0.02032, -0.03029, 0.00886, 0.03234, 0.0004, 0.00671, 0.01441, -0.04779, -0.00711, 0.02156, 0.00359, 0.00027, -0.00437, 0.00553, -0.0005, -0.00748, 0.00596, 0.01307, -0.0211, 0.01899, 0.00863, 0.01876, 0.00094, 0.00731, 0.00551, 3e-05, 0.00497, 0.02754, -0.01874, 0.0048, 0.02541, -0.00826, -0.02671, -0.0176, -0.00826, -0.02278, -0.02004, 0.03795, -0.02711, 0.03204, -0.00873, 0.01247, -0.02536, 0.02345, -0.02467, -0.0303, -0.00609, 0.00995, -0.01113, -0.00844, -0.00366, 0.00317, 0.01749, 0.01232, 0.00751, -0.02366, 0.00637, -0.01094, 0.03164, 0.00464, -0.01022, -0.00468, 0.00664, 0.04141, -0.00569, 0.003, 0.01822, -0.00472, -0.00313, -0.00208, -0.05184, -0.00096, -0.01323, -0.01424, -0.0287, -0.02891, -0.0052, -0.02351, -0.02293, -0.00489, -0.02271, 0.00169, -0.00213, -0.00976, -0.00352, -0.05917, -0.01252, 0.00019, 0.00692, 0.00424, -0.00481, -0.02304, 0.00666, 0.00236, -0.00187, -0.02748, 0.01592, 0.02873, 0.00447, 0.00236, -0.03372, 0.00587, -0.01604, 0.02773, -0.00577, -0.00532, -0.02267, -0.02816, 0.00407, -0.00242, 0.01288, 0.01744, 0.01248, 0.03494, 0.0073, -0.00714, 0.01309, -0.0088, 0.02687, -0.00332, 0.00586, 0.00219, -0.03429, -0.00025, -0.00371, -5e-05, 0.0184, 0.00853, -0.0189, -0.00112, -0.01742, 0.00648, 0.01122, 0.04206, 0.01773, 0.02204, 0.00451, 0.01849, 0.00218, 0.00585, 0.01102, -0.00878, 0.0152, -0.01976, -0.01378, -0.00713, -0.01337, 0.00279, 0.00927, -0.02983, 0.00621, -0.03024, -0.00231, 0.0264, -0.00171, 0.03607, 0.00329, -0.01686, 0.02042, -0.00112, -0.02039, -0.00401, 0.01947, -0.01525, -0.01011, -0.00773, -0.00496, 0.02174, 0.00285, -0.00546, -0.00815, -0.01305, -0.0194, -0.01624, -0.00912, -0.0018, 0.02925, 0.00081, -0.02226, 0.01421, 0.01299, -0.01052, 0.03913, -0.00699, -0.0143, 0.0056, -0.00978, -0.01666, 0.02517, -0.03072, -0.00129, 0.0036, 0.03546, 0.02513, -0.00896, 0.00644, 0.01308, -0.02018, -0.01383, 0.01346, 0.00079, 0.01589, 0.00788, -0.0482, -0.0439, 0.01119, 0.00794, -0.01488, -0.03607, 0.02218, -0.00186, 0.04845, -0.00857, -0.00696, -0.01496, 0.01696, 0.00195, 0.00699, 0.02097, -0.00142, 0.00634, 0.02724, -0.0172, -0.00122, -0.00054, 0.01091, -0.03161, -0.00535, -0.00281, 0.00578, 0.00762, -0.03234, -0.03729, 0.00377, -0.00428, 0.00176, 0.00845, -0.00819, -0.02308, 0.01779, -0.00488, 0.01788, 0.01592, 0.00029, 0.00157, 0.01353, 0.02154, 0.01504, -0.00936, 0.01357, 0.00956, -0.03203, 0.0232, -0.01036, 0.01145, -0.03015, 0.00507, 0.00412, -0.00989, -0.00479, 9e-05, 0.00808, 0.0085, 0.0275, -0.00142, 0.00482, 0.01935, -0.0225, -0.03804, 0.00478, 0.03385, -0.01225, 0.01352, 0.00553, -0.04013, -0.00985, 0.00885, -0.01787, -0.01403, -0.02065, -0.00224, -0.0031, -0.00698, -0.0246, 0.01526, -0.01646, 0.01919, -0.00777, 0.00265, -0.0007, 0.01575, 0.00541, 0.00701, 0.00712, 0.04142, 0.00942, 0.01992, -0.02645, -0.0275, 0.00553, -0.00062, -0.00348, 0.00378, -0.00977, -0.01628, -0.00331, -0.01197, 0.03374, 0.00614, -0.0009, 0.01995, -0.02045, -0.00834, -0.01101, -0.00868, 0.00177, -0.01371, -0.00033, 0.01599, -0.00982, -0.01638, -0.01127, 0.00745, 0.00718, -0.00802, -0.00889, -0.00047, 0.00235, 0.00941, 0.03248, 0.00044, 0.01442, -0.01335, 0.01651, -0.00136, -0.04242, 0.00952, 0.00321, 0.0123, 0.02195, 0.00793, -0.03915, -0.02651, 0.01482, -0.01435, -0.00776, 0.00857, 0.02448, 0.0193, 0.00661, -0.03497, -5e-05, 0.03351, -0.01261, -0.00633, 0.00225, 0.00402, 0.02769, 0.0002, 0.00365, -0.01316, 0.01573, 0.0037, -0.01221, -0.02732, 0.00743, 0.00147, 0.01607, -0.00178, -0.00937, -0.01375, 0.00397, -0.01604, 0.01938, -0.0086, -0.01606, 0.00258, -0.00329, 0.01541, -0.01875, -0.02343, -0.01123, -0.00149, 0.01681, 0.0134, -0.03112, -0.00891, -0.00448, -0.00358, -0.00511, -0.00311, 0.01045, -0.01287, -0.01246, 0.03447, -0.01088, 0.02894, -0.00301, -0.02473, -0.02073, 0.00454, 0.02173, -0.02038, -0.00816, -0.01171, -0.01326, 0.00852, -0.00845, -0.00038, 0.02066, -0.01062, 0.02323, 0.01088, 0.01468, 0.01808, 0.01233, 0.00825, 0.00363, 0.00274, 0.01496, 0.01332, 0.02784, -0.03448, -0.01512, 0.02523, -0.00642, -0.00122, 0.01845, 0.00107, 0.01477, 0.02479, 0.00154, -0.04888, 0.03444, -0.03372, -0.01115, -0.01718, 0.01826, -0.00403, -0.0076, -0.01727, 0.00606, 0.01687, 0.02019, 0.00875, -0.01483, -0.02653, 0.03291, -0.00502, 0.0015, -0.0026, 0.01295, 0.0155, -0.01056, 0.00539, 0.02042, 0.00121, 0.00308, -0.02776, 0.00302, -0.02666, 0.01791, -0.00197, 0.01214, -0.01173, -0.0078, -0.00013, 0.00582, -0.01237, -0.00703, -0.01245, -0.00876, -0.01027, 0.01194, 0.01807, -0.03427, 0.05196, 0.00871, 0.00258, -0.03179, -0.00272, 0.00426, 0.02826, -0.0255, 0.0017, -0.00073, 0.05633, -0.0061, -0.02823, -0.01555, -0.01976, 0.01709, -0.00993, 0.00327, -0.00442, 0.00577, -0.01218, -0.03642, -0.05615, 0.04335, 0.00445, -0.00256, 0.02284, -0.0208, -0.0195, -0.01074, 0.01819, -0.02022, 0.02089, 0.01799, 0.01178, -0.03774, 0.00971, -0.01421, 0.00995, -0.01523, -0.02718, 0.0031, 0.0215, 0.03126, 0.00493, -0.00806, -0.03125, 0.00727, 0.01098, 0.01108, -0.00974, 0.01, -0.00443, 0.00746, -0.01136, -0.01063, 0.00346, -0.0067, 0.0103, -0.0128, 0.00485, 0.00943, 0.00633, 0.01331, -0.01796, 0.01071, 0.00026, 0.02328, 0.00173, 0.01483, -0.00613, -0.01147, -0.00983, -0.00958, -0.02173, 0.01514, -0.01355, 0.01653, -0.01667, -0.00239, -0.03049, -0.02577, 0.01619, 0.02067, 0.02066, -0.02124, 0.01, -0.0026, 0.00151, -0.00727, -0.01623, 0.00102, 0.01588, 0.01603, 0.0009, 0.01262, 0.01225, 0.00064, 0.00343, -0.00196, -0.01333, 0.0055, 0.00502, 0.00056, -0.01165, 0.00609, -0.06752, -0.02661, -0.01427, -0.01101, 0.03267, -0.00277, -0.02227, -0.0074, 0.01377, 0.00321, 0.0088, -0.00775, -0.02462, 0.001, 0.00275, -0.02178, 0.01419, -0.01164, 0.01085, -0.01185, 0.00656, -0.01121, -0.00925, 0.01686, -0.01128, 0.01249, -0.01223, -0.01696, -0.0042, -0.0159, -0.00178, 0.01375, -0.02185, 0.00636, -0.02282, 0.0088, -0.00526, -0.0194, -0.00032, 0.0014, 0.02329, -0.00017, -0.01879, -0.00649, 0.00726, -0.00208, -0.00018, 0.01468, -0.04593, 0.00303, -0.01263, -0.02569, -0.01233, 0.00448, -0.0221, -0.0143, 0.00187, 0.0233, -0.00803, 0.01723, 0.00219, -0.03423, -0.01714, 0.00151, 0.00568, -0.00893, 0.00275, -0.02655, 0.02046, 0.00688, 0.00737, 0.01243, -0.02544, 0.01065, -0.0232, 0.00608, 0.00148, -0.02731, 0.01541, 0.00311, -0.0087, -0.01654, 0.0065, 0.01113, -0.01417, 0.0378, 0.00653, -0.00615, -0.00139, 0.00541, 0.00585, -0.01946, 0.02457, 0.01328, -0.0211, -0.03794, -0.00059, -0.00225, 0.00836, -0.02605, 0.00078, -0.02541, 0.00479, 0.01138, 0.00989, -0.05085, 0.03592, 0.0239, 0.01538, -0.01679, -0.01503, -0.00558, -0.01445, -0.01565, 0.01132, 0.02676, 0.01812, 0.01078, -0.02911, 0.0003, -0.00654, -0.01401, 0.00047, 0.01194, -0.02712, 0.00169, -0.00404, 0.0091, -0.01489, 0.00889, 0.00974, 0.0372, 0.01398, 0.00506, -0.00815, 0.01051, -0.02636, -0.00153, -0.00108, -0.03664, 0.01047, -0.00111, 0.00773, -0.02319, 0.00534, -0.02346, -0.01019, -0.03655, -0.01033, -0.01258, -0.00135, -0.01192, -0.00442, -0.00587, -0.0083, -0.00294, 0.00938, 0.01252, 0.00084, -0.0377, 0.01689, 0.01816, 0.00236, 0.00897, 0.00488, -0.00346, 0.03743, -0.01594, -0.01757, -0.01086, 0.01852], "b": [-0.08186, -0.16593, -0.08451, 0.01274, -0.16627, -0.02865, -0.11771, -0.11722, 0.087, -0.13012, -0.13376, 0.0944, 0.02661, 0.18259, -0.03771, -0.08345, -0.00781, 0.01407, 0.14397, -0.17999, 0.00923, 0.08243, -0.09912, -0.0938, 0.08473, -0.18924, 0.07411, -0.14015, 0.09287, -0.16085, 0.10916, -0.16669], "in": 32, "out": 32}, {"w": [0.02554, -0.00923, -0.00415, -0.03411, -0.0266, -0.00371, 0.0167, -0.02396, -0.04261, 0.01587, -0.0281, 0.0117, -0.01519, 0.00446, 0.02289, 0.03098, 0.02142, -0.01002, 0.02986, -0.00329, 0.00907, -0.00109, -0.01352, 0.0132, 0.01584, -0.01888, -0.01319, 0.00937, 0.00721, -0.00234, -0.02478, -0.00974, 0.00624, 0.0348, -0.0258, -0.06539, -0.01966, -0.05649, 0.0238, -0.01135, 0.00304, -0.01847, -0.02665, 0.0127, -0.03192, -0.00902, -0.0272, 0.02944, -0.01796, -0.01919, 0.0003, -0.01406, -0.03743, 0.02294, -0.00572, 0.0071, -0.00209, -0.03148, -0.01283, 0.02164, 0.03631, -0.01201, -0.03016, -0.01494, 0.01237, -0.06914, -0.01021, 0.00864, -0.01097, 0.04828, 0.04154, 0.01569, -0.02454, -0.00127, -0.03819, -0.02553, -0.04219, -0.00995, -0.01408, -0.01993, 0.00582, 0.02591, 0.04476, 0.02088, -0.01297, -0.02426, -0.01404, 0.0386, -0.01421, 0.00277, -0.02796, -0.05048, 0.02072, -0.04305, -0.04895, -0.00651, 0.02297, 0.01981, 0.01323, -0.04158, -0.05506, 0.00481, -0.07443, -0.07007, -0.0449, 0.01418, -0.02498, -0.0208, 0.00507, 0.04431, 0.06262, 0.02877, 0.01932, -0.0694, 0.01445, -0.02927, 0.01093, 0.05736, -0.02308, -0.01754, 0.01608, 0.0142, -0.01289, -0.00462, 0.02591, 0.0127, -0.03438, 0.00371, 0.01243, 0.02896, -0.01183, 0.00706, -0.0276, -0.01129, -0.01869, -0.00852, 0.00311, -0.00418, -0.00658, -0.01713, 0.02133, 0.01816, 0.00439, 0.00943, 0.01702, -0.01927, 0.00242, 0.00318, 0.018, -0.00464, 0.02766, -0.02145, -0.01374, 0.00837, -0.00311, 0.0318, -0.01948, -0.00435, -0.01043, -0.01207, -0.02541, -0.01081, -0.0232, 0.02362, 0.01442, -0.01824, 0.01393, 0.04038, 0.01557, 0.00644, 0.01054, 0.01655, -0.01224, -0.03761, -0.01009, -0.00303, 0.00758, 0.04228, -0.00308, 0.02715, -0.01565, -0.02124, -0.00052, 0.00312, -0.00418, 0.00468, -0.00254, -0.02353, 0.00651, -0.04656, -0.00259, -0.00112, -0.00149, -0.00836, 0.00674, 0.03691, -0.00255, 0.0079, -0.0046, 0.02177, -0.00659, -0.03162, 0.00966, -0.00679, -0.00222, -0.02497, -0.01135, -0.00598, 0.01986, 0.00282, 0.01974, 0.01735, -0.01606, -0.01934, 0.01403, 0.02044, -0.01448, -0.01102, -0.00433, -0.02602, -0.00419, -0.02768, 0.00278, -0.0098, 0.02738, -0.01595, 0.03253, -0.02128, -0.03384, 0.02043, -0.04117, -0.04405, -0.01789, 0.00921, -0.02311, -0.00575, 0.04231, 0.0404, -0.00819, -0.01209, 0.01422, -0.04052, -0.00774, -0.01837, 0.04365, -0.00156, -3e-05, 0.00023, 0.00551, 0.04777, -0.00275, 0.01814, -0.01106, 0.01559, 0.00873, -0.01114, -0.0058, -0.01813, 0.02106, 0.02292, -0.01176, -0.00464, -0.03321, 0.00232, 0.00425, -0.0133, 0.03249, -0.00176, 0.03813, -0.01026, 0.01715, -0.01587, -0.01554, 0.01227, -0.01105, 0.00387, 0.03811, -0.01276, 0.02609, -0.01424, -0.03808, 0.03624, -0.01123, -0.00635, -0.00717, 0.02041, 0.00398, -0.00242, -0.0049, -0.00231, -0.00089, 0.02179, 0.01331, 0.01769, -0.00779, -0.00885, -0.00855, 0.0074, 0.00502, -0.00285, 0.02354, -0.00208, 0.01991, 0.00664, 0.00287, -0.01239, 0.00432, 0.015, -0.03594, -0.02253, -0.00329, 0.00572, -0.00816, 0.00905, 0.02131, -0.01382, -0.02428, 0.01649, -0.00936, 0.02047, 0.00868, -0.00439, -0.01728, -0.03603, -0.00636, -0.01203, 0.01187, -0.01469, -0.00282, -0.01114, -0.03256, 0.02943, -0.01534, 0.00546, -0.00085, 0.02229, 0.00566, 0.02714, 0.04366, -0.02197, 0.00501, -0.01804, -0.00611, -0.00759, 0.0212, 0.00792, -0.023, -0.00236, -0.01185, -0.02791, -0.03682, -0.03012, -0.00409, -0.00827, 0.00652, 0.0189, 0.02179, 0.0092, 0.00393, 0.0004, 0.00532, -0.00379, -0.00897, -0.00452, 0.00772, 0.00499, 0.00375, -0.00655, 0.00225, 0.01881, -0.00072, -0.00476, 0.0163, -0.01262, 0.00112, 0.00546, -0.00054, 0.00268, -0.00333, -0.00406, -0.0055, 0.00718, 0.0091, -0.0152, 0.00476, -0.0456, 0.03094, 0.01486, -0.01454, -0.02897, -0.02643, -0.02502, -0.04896, -0.03603, -0.02311, 0.02294, -0.01442, 0.01474, 0.01549, -0.03432, 0.03145, 0.04935, -0.00834, -0.04798, 0.03833, -0.01684, 0.02135, 0.02828, -0.00243, -0.05272, -0.04051, -0.02863, 0.06903, 0.01416, -0.01207, -0.00822, 0.02324, -0.01457, -0.00866, 0.01969, -0.01483, -0.0064, -0.05209, -0.01538, 0.00315, -0.03057, -0.0097, -0.00299, 0.01715, -0.01536, -0.00454, -0.00287, 0.0398, -0.05274, 0.01788, 0.01231, 0.04198, -0.02338, 0.02979, -0.02892, -0.02749, 0.02287, 0.00886, -0.01366, -0.00922, 0.00911, -0.01949, -0.02079, 0.01273, -0.0096, 0.00306, -0.03728, 0.02521, -0.02214, -0.01211, -0.02315, 0.00207, -0.00208, 0.00028, 0.00692, 0.0019, 0.02355, -0.00342, 0.01491, 0.00501, 0.02534, 0.04302, 0.00855, -0.00324, 0.04619, -0.03074, -0.02735, 0.00844, 0.00473, -0.0368, 0.0463, -0.00751, 0.011, -0.00614, 0.01981, -0.01124, -0.0143, 0.02214, -0.01311, 0.00771, -0.03719, -0.02039, 0.04003, 0.02482, -0.00525, 0.06223, 0.03094, 0.06093, -0.06227, -0.00468, -0.06445, -0.05612, 0.01235, -0.01283, 0.03298, -0.04508, -0.00456, -0.01252, -0.02702, -0.0032, 0.03298, 0.04265, 0.02397, 0.02222, -0.00941, 0.04673, 0.00053, -0.03603, 0.01077, 0.01788, 0.03675, 0.0168, 0.00351, -0.00198, 0.01482, 0.02839, 0.01566, 0.00674, -0.01002, 0.0081, -0.00194, -0.03631, -0.01185, -0.02706, 0.01122, -0.03735, 0.02099, 0.0223, 0.01033, 0.01406, 0.04498, -0.00637, 0.0006, 0.02726, -0.03779, 0.03305, 0.01427, 0.01876, 0.00451, -0.01851, -0.01403, 0.00639, 0.02522, -0.00726, 0.0384, -0.03228, 0.00344, 0.01569, 0.00465, 0.03503, -0.00732, 0.01914, -0.0025, 0.02741, -0.0043, 0.01578, 0.02938, -0.00264, 0.00252, 0.00291, -0.01108, 0.02399, -0.02534, -0.01153, 0.03746, 0.01089, 0.00873, -0.00653, -0.0071, -0.01147, 0.02577, 0.02829, -0.01762, -0.0211, 0.06156, -0.029, 0.0039, -0.05125, 0.02997, -0.06122, -0.04766, 0.02533, -0.05771, 0.04039, -0.05539, 0.04342, 0.02067, -0.00629, -0.01736, 0.02581, 0.00227, 0.0162, 0.05539, 0.06215, 0.024, -0.01423, -0.01605, -0.02622, 0.04119, -0.03845, 0.01479, 0.02546, 0.00357, -0.02625, 0.01702, 0.00724, -0.02614, 0.00917, -0.01283, 0.01904, 0.06756, 0.02791, 0.07268, 0.05445, 0.01243, 0.03757, 0.00282, 0.01966, 0.0082, -0.09078, 0.00636, -0.01364, 0.01287, -0.0444, 0.00375, -0.00645, -0.02987, 0.02464, 0.0345, 0.00554, 0.03924, -0.05727, -0.0006, -0.04195, 0.00856, 0.02046, 0.05727, -0.00857, 0.02159, -0.02381, -0.03813, 0.00977, 0.00462, 0.0143, 0.02645, -0.01812, 0.00659, -0.03362, -0.01651, -0.01193, 0.02176, -0.02958, -0.01999, 0.02287, 0.00083, -0.02192, 0.0123, 0.00203, 0.01813, 0.00603, -0.04449, -0.02912, 0.01993, 0.02424, -0.02246, 0.0044, -0.01826, 0.00566, 0.00137, 0.02306, 0.03378, -0.01257, 0.01925, -0.02159, -0.01284, 0.01276, 0.01448, 0.01999, 0.0158, 0.03202, -0.01155, 0.01298, -0.0102, 0.01371, 1e-05, -0.02088, 0.01772, 0.04408, -0.01265, 0.03013, -0.02715, 0.00209, 0.02966, 0.00388, 0.02829, -0.00071, 0.0284, -0.01013, 0.01467, 0.03641, 0.00039, 0.00033, 0.00721, -0.06837, -4e-05, -0.01138, -0.02713, -0.01071, -0.02342, 0.00137, 0.01606, 0.01536, 0.0147, 0.00178, 0.00568, 0.02302, 0.02654, 0.00824, -0.00188, -0.018, -0.00366, 0.01524, 0.02269, 0.01107, -0.01662, -0.00168, 0.00233, -0.01647, -0.01477, -0.0326, 0.00061, 0.01903, 0.02032, 0.00123, -0.02275, 0.04512, 0.00709, -0.00351, -0.00928, -0.02046, 0.01075, -0.00625, -0.0178, -0.01936, -0.01387, 0.00333, 0.01524, -0.01401, -0.02548, 0.02632, 0.00934, -0.00637, 0.01413, 0.00092, -0.01204, 0.01763, -0.0215, -0.02173, 0.02029, -0.01675, 0.00956, -0.00591, -0.00109, 0.0399, -0.0318, -0.04021, -0.06812, -0.02256, 0.00392, -0.00205, 0.00961, -0.05443, -0.01016, -0.02615, -0.02807, -0.01419, 0.03184, -0.00237, 0.03627, -0.01073, -0.06407, 0.01612, -0.02078, -0.01976, -0.01564, -0.06543, 0.03563, 0.01556, -0.03944, -0.01259, -0.01869, -0.00839, -0.01656, 0.00405, -0.04666, -0.04016, 0.02167, 0.03948, -0.01069, 0.00863, -0.03006, -0.01766, 0.00578, 0.03828, 0.00202, 0.02669, 0.01509, 0.01407, -0.02413, -0.01473, -0.00721, -0.01423, 0.01781, -0.01743, 0.02559, -0.00307, -0.01766, 0.00206, -0.0171, 0.0169, 0.01974, -0.01085, 0.02118, 0.02209, 0.0226, 0.00639, 0.04749, 0.01555, 0.00377, 0.00899, -0.00322, 0.00313, 0.02136, -0.02581, -0.04168, -0.02436, 0.02128, -0.01391, 0.02, 0.00541, 0.0269, 0.0282, -0.01517, 0.01434, -0.01679, -0.00779, -0.02608, 0.00675, 0.01543, -0.0202, -0.01052, 0.04939, 0.00313, -0.01061, -0.00451, 0.01396, 0.02183, 0.00102, 0.02413, -0.0069, -0.01109, -0.00345, 0.00794, 0.04258, 0.00034, -0.01257, 0.00224, -0.01183, 0.00658, -0.00763, -0.007, -0.00053, -0.02429, -0.00349, -0.00468, 0.02581, -0.01003, -0.01549, 0.00824, -0.0084, 0.01717, 0.02308, -0.01834, 0.00678, 0.01569, 0.01785, 0.00829, -0.00041, 0.01167, -0.00911, 0.00112, -0.01139, 0.01117, 0.01929, 0.00902, 0.02552, -0.02268, 0.00259, 0.02908, 0.0199, 0.02335, 0.03206, 0.02277, 0.0143, -0.01756, -0.00357, 0.0043, -0.03898, -0.00383, -0.02503, 0.02776, -0.00025, -0.00271, 0.01973, -0.01397, -0.00431, 0.01377, 0.03477, 0.01235, 0.01731, 0.00831, 0.02972, 0.03752, 0.00709, -0.00545, 0.01143, -0.00475, 0.00075, 0.00398, -0.00438, 0.00445, 0.00598, 0.01576, -0.00257, 0.02038, -0.02148, 0.00898, -0.00603, -0.00321, -0.02963, 0.00951, -0.00483, 0.00296, -0.00891, 0.01981, -0.01, 0.00158, 0.01402, 0.01634, 0.01483, -0.00203, 0.02008, 0.01692, -0.0143, 0.00685, 0.01199, -0.00351, 0.0079, -0.02275, -0.00106, -0.00255, -0.0063, -0.03169, 0.01706, 0.05075, -0.0058, 0.04599, -0.00867, 0.01992, -0.00781, 0.00571, -0.01565, 0.00339, -0.01315, -0.01068, -0.02026, 0.02709, 0.00815, -0.03128, 0.02599, -0.00507, -0.00116, 0.02828, -0.01113, 0.00488, -0.00802, 0.01584, -0.00693, 0.01819, 0.00301, 0.00061, 0.00228, -0.00988, 0.0, 0.00078, 0.00488, 0.00809, 0.01639, 0.01001, -0.01688, -0.00675, 0.00798, 0.00449, 0.00385, -0.00751, 0.00521, 0.01602, -0.00929, -0.01425, 0.0019, 0.01245, 0.00533, -0.00212, 0.00069, -0.02699, -0.00818, 0.00749, -2e-05, -0.01166], "b": [0.07992, -0.03515, -0.0675, -0.01553, 0.02903, -0.0302, 0.0874, -0.15708, -0.08897, 0.13629, -0.00171, 0.04383, 0.03031, -0.04928, -0.08178, 0.08204, 0.00557, -0.06272, -0.07588, 0.08905, -0.05093, -0.09036, -0.10358, -0.07209, 0.11651, -0.1208, 0.14298, 0.11874, -0.12376, 0.1582, -0.18579, -0.04581], "in": 32, "out": 32}, {"w": [-0.16629, 0.14781, -0.25552, 0.18629, -0.28669, 0.2498, -0.29556, -0.25499, 0.25164, -0.01188, 0.14646, 0.17968, -0.20557, 0.25238, 0.11055, 0.15165, -0.16814, 0.18578, 0.1567, -0.17961, 0.23464, 0.25812, -0.02293, -0.00974, -0.21086, 0.24448, 0.22547, -0.15888, 0.16838, 0.06204, -0.16337, -0.00662, -0.18293, 0.25503, -0.2771, 0.21734, -0.13369, 0.27976, -0.1906, -0.24126, 0.24969, 0.11431, 0.23002, 0.05043, -0.27996, 0.27014, 0.19313, 0.20792, -0.26278, 0.27692, 0.2047, -0.19312, 0.1917, 0.25674, -0.19282, 0.12658, -0.23103, 0.26001, 0.28799, 0.03302, 0.25494, 0.23073, -0.18499, 0.1058, -0.21622, 0.15727, -0.21847, 0.14784, -0.14367, 0.16525, -0.15005, -0.17596, 0.16852, 0.22949, 0.21116, -0.23112, -0.20428, 0.16393, 0.18028, 0.19711, -0.1674, 0.1596, 0.15846, -0.13965, 0.1646, 0.21117, -0.21838, 0.25526, -0.15551, 0.1461, 0.19312, 0.18188, 0.25128, 0.27772, -0.19686, 0.24484], "b": [-0.2143, -0.14215, -0.10262], "in": 32, "out": 3}], "psnr": 22.33}