{"hidden": 32, "omega0": 30.0, "layers": [{"w": [-0.31067, 0.33797, 0.1491, 0.12137, 0.36688, -0.41066, 0.34883, 0.20628, -0.33527, 0.12496, -0.14252, -0.21579, -0.07563, -0.24187, 0.43981, 0.42764, -0.02363, -0.45855, -0.0786, 0.03407, 0.34489, 0.01437, 0.17308, 0.11458, -0.26316, -0.30848, -0.43409, -0.01793, 0.14304, -0.06143, 0.46605, -0.11419, -0.33785, 0.07369, -0.12612, -0.04636, 0.46844, -0.01904, 0.42624, 0.0688, -0.16859, 0.37304, -0.2834, -0.01287, 0.1025, 0.21904, -0.42685, 0.02539, -0.11907, 0.33419, 0.1733, 0.20981, 0.2775, -0.11604, -0.01887, 0.40218, -0.38835, -0.35163, 0.02741, -0.21979, 0.06302, 0.44875, -0.08714, -0.42549], "b": [0.38566, -0.08332, 0.01801, 0.1516, 0.4172, 0.68572, -0.54986, -0.26149, 0.2794, 0.57457, 0.61686, 0.61636, 0.13695, -0.61634, 0.07102, -0.44452, -0.67246, 0.61655, 0.50116, -0.70963, 0.12125, -0.11061, -0.12545, -0.31141, 0.2799, -0.42044, 0.23306, 0.33596, 0.50043, 0.25153, -0.72338, -0.46586], "in": 2, "out": 32}, {"w": [0.00386, 0.0213, 0.01106, 0.01058, 0.00718, 0.00211, 0.01478, -0.00437, -0.00084, 0.00203, 0.0125, 0.01542, -0.01351, -0.00957, 0.01891, 0.01016, -0.01814, -0.04065, 0.01366, 0.00019, -0.00439, -0.02065, 0.02734, -0.00251, -0.00111, 0.00025, 0.00308, 0.00124, 0.00208, 0.01512, -0.00495, 0.00553, 0.0157, -0.01343, 0.00076, 0.00041, -0.00524, -0.00887, -0.03262, -0.01595, 0.0156, 0.00714, -0.0111, 0.00487, -0.01068, -0.00919, -0.02056, -0.00613, 0.01746, 0.02844, -0.00168, -0.00292, 0.00348, 0.01169, 0.00232, -0.00022, -0.02051, 0.01406, -0.00638, 0.02619, -0.01923, -0.00225, 0.01009, 0.00225, 0.00828, -0.00814, 0.00712, -0.00509, 0.011, 0.01281, 0.0187, 0.00158, -0.01346, -0.0036, 0.00089, -0.04084, 0.00832, -0.03402, -0.00604, 0.04409, -0.00812, 0.01252, 0.00867, -0.00584, -0.03615, -0.021, -0.01347, 0.04336, -0.00519, -0.02465, -0.00589, -0.00543, -0.03121, 0.02911, -0.01331, 0.02076, 0.00556, -0.03581, 0.01415, 0.00596, -0.01228, 0.01288, -0.02145, -0.00584, -0.03796, 0.02178, 0.00094, -0.02242, 0.00771, 0.00762, -0.0055, 0.00991, -0.01011, -0.03057, -0.0081, -0.0152, -0.01073, -0.01012, 0.00056, 0.0056, 0.0123, -0.00073, -0.00889, -0.01237, -0.00981, 0.02124, -0.0192, -0.00684, 0.00863, 0.00552, 0.00565, 0.00678, 0.00787, -0.00621, -0.01881, 0.00455, 0.00867, 0.00522, 0.01364, 0.01713, -0.01684, -0.01318, 0.00089, -0.01323, -0.01018, -0.0226, -0.00015, -0.00801, -0.01338, -0.02276, 0.00198, -0.02169, 0.0097, 0.0109, -0.02797, 0.00551, -0.02178, -0.01589, -0.00878, 0.01282, -0.01184, 0.02387, 0.00128, -0.00561, 0.02171, -0.01574, 0.00563, -0.00031, 0.01418, 0.01202, 0.00303, -0.00499, -0.00366, 0.00215, -0.03174, 0.00055, 0.0025, 0.01793, -0.00792, -0.00282, -0.003, 0.01542, -0.0036, -0.01053, 0.00844, -0.02697, 0.01564, -0.00715, -0.00229, -0.02942, 0.00809, 0.00516, 0.01588, -0.00031, 0.01213, -0.02386, -0.01101, 0.00156, 0.00885, 0.00737, 0.00201, 0.03622, 0.00411, 0.00475, 0.01438, 0.01108, 0.03618, 0.0229, -0.01835, 0.0173, -0.00447, 0.01186, -0.00098, -0.02828, -0.01022, 0.00698, 0.00494, -0.01693, 0.00654, 0.01718, -0.00382, -0.02971, -0.00641, 0.00474, 0.00233, 0.01059, 0.00873, 0.01578, -0.01211, 0.032, -0.0224, -0.00859, 0.00235, 0.01642, 0.01583, 0.02798, 0.01576, -0.01558, -0.02074, -0.01863, 0.00922, -0.02045, 0.00887, -0.00812, 0.00672, 0.01507, -0.03091, 0.01245, 0.0022, -0.00306, -0.01176, 0.02243, -0.00527, -0.00502, -0.01401, -0.00459, -0.00621, -0.02321, -0.00016, 0.00309, -0.01932, -0.00177, -0.00456, -0.01054, 0.00384, -0.03586, 0.00051, -0.01669, -0.00675, -0.01449, -0.01219, 0.00437, 0.01526, -0.02979, 0.02783, 0.01914, 0.01356, -0.02854, 0.00416, 0.03143, -0.00986, -0.00304, -0.04385, 0.00207, 0.00096, -0.01761, -0.00084, 0.00303, 0.00766, -0.0462, 0.01492, -0.01077, -0.00582, -0.00131, -0.00989, 0.00349, 0.0047, -0.02159, 0.02065, -0.02106, 0.00738, 0.0016, -0.01057, 0.00671, -0.00399, 0.00425, -0.00472, -0.00096, 0.01359, -0.01609, 0.0267, -0.00226, 0.01616, -0.01778, 0.0037, 0.00185, 0.00958, 0.01881, -0.00607, 0.00156, 0.00752, -0.03111, 0.00571, 0.02893, 0.01464, 0.04098, 0.02109, -0.0132, 0.016, 0.01474, 0.01681, 0.00409, -0.01195, 0.00928, 0.01085, 0.00648, 0.02123, 0.03135, -0.0166, -0.00431, 0.00709, -0.01917, -0.03238, 0.00365, 0.00055, -0.03739, -0.01226, 0.00033, -0.01951, -0.0266, 0.01614, 0.00132, -0.00501, -0.01381, -0.00086, 0.01069, 0.0327, -0.0192, 0.01155, -0.02806, -0.03735, 0.0283, -0.01417, -0.0183, 0.00711, 0.00309, 0.02529, 0.00822, 0.01365, -0.01327, -0.0052, -0.00744, 0.0059, 0.00902, -0.00614, 0.01205, -0.01838, -0.01481, 0.01342, -0.02273, -0.00496, -0.02037, -0.0266, -0.0207, 0.01122, -0.025, 0.00337, -0.01164, 0.00021, 0.01336, -0.01603, -0.00263, 0.01128, 0.01867, -0.01507, 0.01783, -0.00637, -0.00444, -0.01208, -0.00421, 0.00134, 0.00545, 0.017, -0.00741, 0.00928, 0.01292, -0.00437, 0.02345, 0.01065, -0.02979, 0.02126, -0.00202, -0.003, -0.00537, 0.02393, -0.02094, 0.0184, -0.02277, 0.01307, -0.01099, 0.02916, -0.00632, 0.02194, 0.01287, 0.0175, -0.01409, 0.0129, 0.00873, -0.00902, -0.01257, -0.027, 0.01615, 5e-05, 0.01319, -0.00118, -0.00133, -0.01434, -0.01391, -0.00549, -0.02046, -0.00467, 0.005, 0.02148, 0.0191, -0.00364, -0.00408, -0.00873, 0.00526, -0.02575, -0.02502, 0.02975, -0.00419, 0.05642, 0.01914, -0.00971, -0.00378, 0.00958, -0.00271, -0.01705, -0.01509, -0.00135, -0.01139, 0.00956, 0.01239, -0.00152, 0.00693, 0.00265, -0.00578, -0.01572, 0.0222, 0.00196, -0.01534, -0.00759, -0.00228, 0.03448, -0.03793, -0.01127, -0.00301, -0.02203, -0.01343, 0.01145, 0.02281, 0.01282, 0.00618, 0.01623, 0.03683, 0.01625, -0.0096, 0.05651, -0.01637, -0.02231, -0.00247, -0.00798, -0.01653, -0.00432, 0.0245, -0.00638, -0.00548, -0.00732, -0.00978, -0.02856, -0.00793, 0.01957, -0.00682, -0.02959, -0.04855, -0.0103, 0.03197, -0.01684, 0.02899, 0.03083, 0.04749, -0.0006, 0.00104, 0.00382, -0.00157, 0.02239, -0.03164, 0.01131, 0.01508, 0.0088, -0.01656, 0.01222, 0.01039, -0.00781, 0.00189, -0.01846, -0.00536, 0.04051, 0.00036, -0.00582, 0.01039, 0.00362, 0.02368, 0.01846, -0.0069, 0.005, -0.00251, -0.00139, 0.00877, 0.00062, -0.00188, 0.00162, 0.00844, 0.01732, 0.00499, 0.01644, 0.00226, -0.01829, 0.01415, 0.01613, 0.01123, -0.01202, -0.00886, -0.01317, -0.01816, -0.00112, -0.00309, -0.0268, 0.00882, 0.0013, 0.02263, -0.01323, -0.00342, 0.00974, 0.04563, 0.0344, -0.00384, 0.00303, -0.01224, -0.01386, -0.00982, 0.00443, 0.00465, 0.0141, -0.0101, -0.02681, 0.0272, 0.0053, 0.0004, -0.00728, 0.02311, -0.02652, 0.00556, 0.04833, 0.02674, -0.02221, -0.0215, 0.01718, -0.01116, 0.00947, 0.01244, -0.03665, 0.02087, -3e-05, 0.00667, 0.02921, -0.01435, -0.03514, -0.01156, -0.0352, -0.02777, 0.00997, 0.00444, 0.00907, 0.00205, 0.04342, 0.01122, 0.00382, 0.03104, -0.00453, -0.00589, 0.00392, -0.0332, -0.00366, 0.00504, -0.00632, -0.01492, -0.00537, -0.01789, 0.02096, -0.02265, -0.04115, -0.00012, 0.00464, -0.01167, 0.00524, 0.01202, -0.01321, 0.00209, -0.00413, 0.00806, 0.00676, 0.00108, 0.00483, -0.00253, 0.00624, 0.00584, 0.01141, 0.0067, -0.00321, 0.03658, -0.00151, -0.03253, 0.01254, 0.02944, 0.0115, 0.02344, 0.03719, -0.02471, -0.01555, 3e-05, -0.01187, -0.01372, -0.01669, 0.01717, -0.00608, 0.00431, -0.00768, 0.00018, -0.02535, 0.01712, -0.00913, -0.0234, 0.02368, -0.01516, 0.00264, 0.02675, 0.00848, 0.02083, 0.00915, -0.00204, -0.00526, 0.03103, -0.00293, 0.00377, 0.00702, -0.02446, -0.03444, 0.00015, 0.00213, -0.02338, -0.01086, -0.02551, -0.01008, 0.01385, -0.02076, -0.01624, 0.0121, -0.00539, -0.00633, -0.01225, 0.0022, 0.00666, 0.00686, 0.01942, 0.01161, -0.00257, 0.01044, -0.00424, 0.01908, 0.01632, 0.00752, -0.00453, 0.00184, 0.01284, 0.00536, -0.01256, 0.01663, 0.01407, 0.00734, 0.00922, 0.01414, 0.01723, 0.01693, 0.03441, 0.0018, 0.03533, 0.03375, 0.00908, -0.01342, 0.04271, -0.02036, -0.01814, 0.00061, -0.00818, 0.02241, -0.01223, -0.00495, -0.02523, 0.01288, 0.00588, -0.00702, 0.02566, 0.01323, 0.01473, 0.00186, -0.0067, -0.00688, -0.00102, -0.03285, -0.02057, 0.02261, 0.00741, -0.00553, 0.01414, -0.01028, 0.02942, 0.0019, -0.01635, -0.00959, 0.0072, -0.01164, -0.03125, 0.00422, -0.00713, -0.00247, 0.02502, 0.00874, -0.01976, 0.00882, 0.01391, -0.02506, -0.00803, 0.01797, -0.00063, -0.01373, -0.01173, 0.01064, 0.00396, -0.00926, 0.00742, -0.00015, -0.01982, -0.0217, 0.0238, 0.02586, -0.02644, 0.01731, -0.00376, 0.0131, 0.00663, 0.00178, 0.01128, -0.00743, -0.00311, 0.00258, 0.00291, -0.03386, -0.01524, 0.01371, -6e-05, 0.01666, 0.00931, 0.01468, 0.0477, -0.00232, 0.00904, 0.03161, -0.01333, 0.02116, -0.00275, 0.00134, -0.01794, -0.02176, 0.01123, 0.00245, 0.00336, -0.00598, 0.00461, -0.03815, 0.00037, -0.00196, -0.02691, 0.01482, -0.00683, 0.00936, -0.00221, 0.02783, 0.02516, 0.0001, 0.028, 0.02438, -0.01678, 0.01784, 0.01277, 0.002, 0.00806, 0.00315, 0.00763, 0.00141, 0.00839, -0.01323, -0.02141, -0.01176, -0.00226, 0.00621, -0.00928, 0.01562, 0.00924, -0.01512, -0.02544, -0.01419, -0.00945, 0.01352, -0.0383, -0.02208, -0.01448, 0.00247, -0.00345, 0.04936, 0.01921, -0.00135, -0.00119, 0.00115, 0.00929, 0.01249, 0.02718, 0.01669, -0.00847, 0.00589, 0.01448, -0.01392, 0.01412, -0.00867, -0.00307, 0.00094, -0.00434, 0.00788, 0.01249, 0.00233, 0.01076, 0.02138, 0.01541, -0.02172, 0.00508, 0.01096, -0.01069, 0.00613, -0.00162, -0.02111, -0.04002, -0.00405, 0.00632, 0.00697, 0.01786, -0.01774, -0.00409, -0.01177, -0.00316, -0.00426, -0.00978, 0.0095, 0.01841, 0.02501, 0.01037, 0.02005, 0.01119, 0.02444, -0.00879, 0.00705, 0.01689, -0.02879, -0.01025, -0.00401, -0.00402, -0.0078, -0.01084, 0.00685, -0.01604, 0.03599, -0.00724, 0.00736, -0.01418, 0.01305, -0.01014, -0.02236, -0.02349, -0.01149, 0.01474, 0.05548, -0.00734, 0.0056, 0.02808, -0.01779, -0.0141, -0.01442, 0.0045, 0.01192, -0.00984, 0.00531, 0.00965, -0.01178, 0.01416, 0.00277, 0.00698, -0.00714, 0.0151, 0.00886, -0.00288, -0.00135, -0.0216, 0.05011, 0.00327, -0.02621, -0.02026, 0.01925, -0.00589, -0.02416, -0.00934, -0.00157, 0.00368, 0.02513, 0.00057, 0.01181, -0.00715, -0.01503, 0.03824, 0.00154, -0.01053, 0.00706, -0.00704, -0.01454, -0.00762, 0.00954, 0.00695, -0.0711, -0.00905, -0.00099, 0.02876, 0.01079, 0.00775, 0.00789, 0.00406, 0.00476, 0.00304, 0.01701, -0.02102, 0.00602, -0.00715, 0.0093, -0.00431, -0.0352, 0.00722, -0.00608, -0.00387, 0.00977, 0.00927, 0.01006, -0.03146, 0.01119, -0.01711, -0.00957, -0.01798, -0.0021, -0.01052, 0.00136, -0.02002, 0.0154, 0.00542, -0.05311, 0.01995, 0.00928, 0.00532, 0.01376, -0.01096, 0.0198, 0.00514, -0.00773, 0.00622, 0.01612, 0.00917, 0.00901, -0.01384, 0.00948, -0.00863, -0.0143, 0.0061, -0.00851, -0.04662, -0.00811, -0.00756, 0.01083, 0.00774], "b": [-0.04625, -0.16671, -0.1101, 0.04558, -0.17813, -0.02826, -0.11697, -0.10616, 0.07805, -0.14797, -0.15294, 0.09145, 0.01372, 0.16487, -0.04118, -0.08825, 0.00477, 0.00453, 0.12774, -0.17246, 0.02588, 0.07896, -0.08903, -0.10457, 0.10413, -0.16248, 0.02966, -0.14394, 0.08263, -0.14736, 0.10491, -0.17477], "in": 32, "out": 32}, {"w": [-0.01747, 0.03501, 0.0322, -0.01344, -0.02203, 0.01469, -0.00824, -0.02841, 0.01976, 0.02753, -0.0092, -0.02057, 0.01842, -0.03015, -0.0123, 0.00267, -0.01775, -0.04394, 0.02645, 0.01955, 0.01023, 0.02712, 0.01745, 0.00146, -0.00501, -0.01586, 0.0034, -0.01162, -0.01603, -0.00478, 0.00322, 0.03935, -0.04, 0.00261, -0.00746, -0.05225, -0.0342, -0.05353, -0.00465, 0.0077, -0.01305, 0.03199, -0.00126, 0.02689, -0.04602, 0.03715, -0.00025, 0.00753, 0.00631, 0.03316, -0.00461, 0.00683, 0.05607, 0.02934, -0.0261, -0.09029, -0.0309, -0.04686, 0.0069, 0.01739, 0.00144, -0.00757, -0.02028, -0.05716, 0.01708, 0.00545, 0.00811, 0.0155, -0.00717, 0.00417, -0.00639, 0.00183, -0.00061, 0.00921, -0.00812, -0.01226, 0.01655, -0.00498, -0.00396, 0.0006, -0.0102, -0.00369, -0.00106, 0.0219, -0.00465, 0.01159, 0.00295, -0.00209, -0.0017, 0.02126, -0.00563, -0.01601, -0.00123, -0.01325, -0.00497, 0.00394, 0.01498, -0.02049, -0.01716, -0.02784, 0.00832, -0.05421, 0.0266, 0.0164, -0.00861, -0.01768, 0.02553, 0.01489, -0.0329, 0.00393, 0.00955, -0.0158, -0.02886, 0.0392, 0.00358, -0.02464, -0.00496, -0.00165, -0.00522, -0.00996, -0.00084, -0.01954, 0.03146, 0.03893, 0.00505, 0.03093, 0.01826, -0.01208, 0.00555, 0.00694, -0.00326, 0.00247, -0.02709, 0.01474, -0.01014, 0.01114, -0.01849, -0.01892, 0.00398, 0.00842, -1e-05, -0.00108, -0.0071, 0.00253, -0.02211, 0.00991, -0.00015, 0.00418, 0.00696, -0.00793, 0.01832, 0.00703, 0.00436, 0.00946, -0.00459, -0.01843, 0.00871, 0.0075, 0.00914, -0.00655, -0.02588, 0.02071, 0.0391, -0.01334, -0.01899, 0.00374, -0.01713, -0.02635, 0.02201, -0.01534, -0.01737, 0.0064, 0.00657, -0.0338, -0.01579, 0.01124, 0.01933, -0.02576, 0.0219, -0.006, 0.00393, 0.01993, 0.00935, 0.01177, -0.00795, 0.02573, -0.01422, 0.0043, -0.00128, -0.02441, -0.029, 0.03251, -0.02885, 0.03529, -0.01563, -0.02953, -0.03385, -0.00797, 0.00814, -0.01622, 0.02578, -0.01089, 0.01604, -0.0297, 0.00488, -0.03081, 0.01157, -0.00515, 0.01539, -0.00898, 0.01726, 0.04085, 0.02738, -0.01714, -0.04868, -0.02139, 0.01409, -0.0028, -0.01231, -0.04626, -0.01925, 0.01392, 0.00562, 0.00682, 0.02633, -0.01947, -0.00172, -0.00874, -0.05436, 0.02371, -0.0174, 0.00185, -0.01582, -0.03328, -0.02135, 0.00346, -0.00591, 0.03669, 0.00167, 0.01445, 0.02612, 0.00404, -0.00905, -0.04511, 0.01589, -0.0234, 0.03747, 0.00043, -0.01983, -0.0115, 0.01542, -0.00735, 0.00917, -0.01219, -0.00205, -0.0079, -0.05245, 0.01146, 0.01795, -0.02093, -0.02585, -0.00859, -0.00319, -0.03027, -0.01116, 0.03151, 0.03132, 0.0334, 0.02292, -0.04559, -0.01861, -0.00255, -0.04009, -0.01983, 0.00599, 0.02213, 0.02629, 0.02941, -0.02489, -0.02626, 0.00562, 0.03278, -0.01936, -0.01506, -0.00759, -0.02694, 0.01009, 0.02218, -0.00797, 0.01521, 0.00181, -0.0144, 0.01239, -0.01797, 0.00953, 0.00275, 0.01073, 0.00552, 0.01316, 0.02568, 0.00727, 0.00024, -0.00136, -0.00611, -0.01319, 0.00212, -0.00776, -0.01051, 0.00246, 0.0114, 0.01078, -0.01818, -0.00328, -0.00366, 0.00984, -0.00178, 0.00041, 0.00546, 0.01418, 0.00213, -0.0254, -0.00076, 0.00784, 0.00741, -0.0261, 0.03339, -0.01374, -0.0018, -0.01935, -0.01648, -0.01906, -0.04398, 0.01144, -0.01458, -0.01412, 0.02819, 0.00364, -0.04107, 0.00801, 0.0077, 0.00025, -0.0178, 0.01971, -0.00664, 0.00069, -0.01261, -0.00118, -0.01333, 0.00962, 0.00641, -0.00696, 0.02924, -0.02778, 0.0431, 0.01379, -0.04425, -0.01947, -0.02239, 0.00633, -0.03493, 0.0374, 0.02292, -0.02295, -0.01167, -0.02523, -0.00179, -0.02605, 0.01432, 0.0028, -0.00663, 0.01902, -0.00614, 0.02974, 0.03678, -0.00644, -0.05618, -0.0489, 0.01095, -0.03299, 0.02278, -0.02143, -0.00131, -0.06642, 0.01193, -0.05369, 0.01532, 0.00324, -0.00665, -0.00664, -0.05526, 0.01935, 0.01778, 0.02721, -0.01832, 0.03091, 0.02885, -0.05198, -0.00132, -0.02982, -0.00198, 0.03182, 0.02464, -0.02718, -0.0322, 0.0411, -0.00499, -0.04158, -0.01152, -0.02971, -0.01501, 0.00707, 0.0288, 0.00967, -0.0033, -0.01282, -0.03028, 0.04657, -0.03195, -0.01001, 0.0575, 0.00054, 0.02007, -0.06378, 0.00885, -0.04158, -0.02248, 0.0189, -0.00401, 0.00884, -0.00013, -0.0101, 0.01315, 0.04642, -0.02306, 0.02383, -0.05796, -0.00094, -0.01114, 0.0251, 0.02226, -0.00061, -0.01829, -0.00461, -0.06958, -0.00351, -0.03911, 0.00068, 0.00563, 0.01073, 0.00029, 0.00286, -0.00579, 0.00058, 0.03128, 0.00617, 0.01586, 0.01079, 0.01562, 0.00547, 0.0006, 0.01177, -0.00526, 0.00422, 0.00234, 0.02012, 0.01216, -0.0006, 0.00923, -0.01039, -0.00631, -0.00064, 0.01866, 0.00284, 0.0088, 0.00479, 0.01837, 0.01673, 0.01689, -0.01115, 0.00182, 0.05081, -0.04058, -0.03606, 0.02587, 0.02431, 0.01277, 0.01745, 0.02009, -0.00821, 0.02221, 0.0507, 0.01915, 0.00127, 0.04028, 0.03944, -0.03129, 0.0013, 0.01919, -0.03322, 0.01184, -0.01615, -0.01629, 0.0152, 0.01675, 0.01795, -0.00703, 0.0201, 0.01307, 0.01789, 0.01487, 0.03848, -0.01608, 0.00067, 0.00263, 0.01481, 0.00372, -0.01886, 0.03172, -0.0261, -0.01124, -0.04004, 0.02099, -0.03621, -0.02778, 0.01348, -0.00594, 0.00188, 0.04204, -0.00589, -0.01382, 0.039, 0.02561, -0.01832, 0.00131, 0.01861, -0.00203, 0.02018, 0.02326, -0.00947, 0.00436, -0.0084, -0.01034, -0.00257, 0.01169, -0.0164, 0.00072, 0.00625, 0.00658, 0.00495, -0.02368, -0.00112, 0.009, -0.00123, 0.00905, 0.00244, -3e-05, 0.035, -0.01376, -0.0036, 0.00223, -0.0126, 0.0102, 0.01157, 0.0064, -0.00572, -0.00202, 0.00241, -0.00321, -0.0089, -0.01641, 0.0055, -0.00773, -6e-05, -0.02149, 0.0058, -0.00287, -0.01725, -0.00054, 0.01675, -0.02788, -0.01178, 0.03379, -0.00272, -0.02054, 0.00964, 0.01756, -0.00827, -0.0164, 0.00542, -0.01469, 0.00119, 0.00241, 0.01961, -0.00767, 0.01431, 0.02339, 0.00678, 0.01495, 0.02062, 0.00442, -0.00424, 0.0022, -0.03014, -0.00099, -0.04596, 0.01456, -0.01424, -0.00518, -0.01256, -0.01238, 0.00134, 0.00347, -0.04443, 0.0746, 0.00155, -0.03431, -0.03929, -0.01605, -0.00928, 0.0178, 0.01196, 0.01246, -0.0128, 0.01115, 0.0029, -0.01378, 0.01745, -0.02535, 0.00726, 0.00397, 0.01785, 0.00784, -0.00181, -0.00663, -0.00706, -0.0227, -0.03203, 0.00295, 0.00274, 0.00654, -0.05056, 0.01884, 0.03132, 0.00455, -0.02065, -0.00556, -0.0243, -0.02003, -0.01503, -0.01072, -0.00478, 0.02383, 0.00585, -0.03519, -0.02726, 0.0122, -0.04042, -0.02031, 0.00603, -0.01052, 0.01468, 0.03412, -0.02162, -0.02131, -0.01001, 0.01462, -0.02249, 0.00073, 0.00432, -0.03106, 0.00168, 0.02439, 0.03388, 0.02908, -0.00349, -0.05866, 0.0318, 0.00703, 0.02248, 0.01433, 0.05559, 0.03974, 0.00433, -0.04348, 0.02752, -0.03268, 0.00765, -0.03307, 0.01134, 0.04457, -0.00353, 0.02204, 0.01141, 0.00657, -0.02743, 0.02541, 0.01722, 0.02619, -0.01005, 0.00817, -0.01344, 0.03432, 0.03834, 0.01786, -0.01687, 0.00093, 0.00414, 0.0199, -0.02943, 0.02263, -0.01611, -0.0304, -0.05287, -0.02179, -0.04418, -0.00576, -0.01672, -0.01864, -0.0151, 0.0364, -0.01609, -0.03393, 0.03364, -0.02534, -0.00702, 0.00083, 0.00817, -0.00996, -0.00519, -0.01729, -0.02429, -0.03055, -0.01068, -0.00686, -0.00031, 0.01436, 0.04416, -0.00137, -0.00554, 0.04017, 0.00866, 0.01374, 0.0211, 0.03036, 0.03103, -0.00903, -0.01099, 0.01548, -0.03361, 0.01602, 0.04253, 0.01649, 0.00466, 0.04492, -0.02707, -0.03236, -0.0554, -0.00933, 0.0289, 0.00984, 0.01148, -0.03801, 0.03955, -0.0044, 0.01728, 0.0404, 0.00801, -0.03468, -0.03558, 0.01339, 0.00453, -0.0113, -0.01344, -0.01146, -0.01341, -0.0178, 0.02594, 0.0148, 0.00377, 0.00131, 0.00556, -0.01748, -0.00129, 0.00367, 0.00252, 0.01139, 0.00377, 0.00556, 0.0066, 0.00622, -0.03036, -0.00141, -0.01139, 0.01222, -0.00338, 0.01211, 0.00844, -0.01158, -0.00781, 0.00375, 0.04066, -0.02949, -0.01724, 0.04305, -0.00288, 0.04725, -0.02273, 0.004, -0.01345, -0.00086, 0.01383, 0.01013, -0.03934, -0.00287, 0.02351, 0.00412, -0.00102, -0.0172, 0.00934, -0.01774, -0.04109, 0.00577, 0.05748, 0.08911, 0.03589, -0.00186, 0.03846, 0.00941, -0.02182, 0.02736, 0.05231, -0.00329, 0.02086, -0.02289, -0.01389, 0.00597, -0.00517, -0.02051, 0.03735, 0.01379, 0.00222, -0.05005, -0.01289, -0.01352, -0.03604, 0.03025, 0.01429, -0.00569, 0.01025, 0.01253, -0.02671, -0.00257, -0.0372, -0.02149, 0.02843, 0.01711, 0.0261, -0.02324, 0.03128, -0.01129, -0.00578, 0.03482, 0.01862, -0.01242, 0.00937, -0.05175, 0.01381, 0.03225, 0.00629, 0.01787, -0.00149, -0.0091, -0.01978, 0.01836, 0.0086, 0.00421, 0.07122, 0.00188, 0.00305, -0.01985, 0.00594, 0.00781, 0.01141, 0.0105, -0.04171, -0.00192, 0.00795, 0.04044, 0.0051, 0.03671, -0.02099, -0.02367, 0.01695, 0.00383, 0.0015, 0.00942, 0.021, -0.02128, -0.02037, -0.00282, 0.02819, 0.00462, 0.00985, -0.00093, 0.01424, 0.01079, 0.02011, -0.01733, -0.00336, 0.02045, 0.03012, -0.01441, -0.00821, -0.0077, -0.02829, -0.00078, 0.01065, -0.0001, 0.02188, 0.00166, -0.00164, 0.00752, 0.05208, 0.0182, 0.01101, 0.00775, 0.03413, -0.02549, -0.00738, 0.01456, 0.00391, -0.0071, -0.0066, 0.00197, -0.01372, -0.03668, 0.00478, 0.02476, -0.02729, 0.00218, 0.01418, -0.01577, 0.00335, 0.00781, -0.01508, -0.02752, 0.01144, 0.0109, 0.00109, -0.00303, 0.00069, -0.0043, 0.00415, 0.00559, -0.02671, 0.00969, -0.00189, -0.01185, 0.0019, -0.00204, 0.03555, 0.02401, -0.01682, -0.03671, -0.02414, 0.03828, -0.01109, 0.0053, 0.04248, 0.02149, 0.0087, -0.01615, 0.01095, -0.02086, 0.01595, -0.02001, 0.01108, 0.03698, 0.00835, 0.06301, 0.01689, 0.00954, -0.02546, 0.01212, 0.03256, 0.02195, -0.01819, -0.00961, -0.00781, 0.04164, -0.00916, 0.01176, -0.00982, 0.00535, 0.00068, -0.01048, 0.00751, -0.00947, -0.00335, 0.00599, -0.00559, -0.02388, -0.01629, 0.0008, -0.01485, -0.00545, -0.00286, -0.00457, -0.00766, -0.00905, -0.00378, -0.00954, -0.00857, -0.00493, 0.011, -0.01031, -0.0005, 0.00121, 0.01499, -0.01553, -0.00519, 0.01248, -0.00927, -0.00548], "b": [0.09837, -0.0366, -0.0787, 0.00249, 0.07406, -0.0037, 0.09652, -0.19427, -0.05851, 0.11537, 0.04798, 0.03454, 0.08971, -0.06378, -0.07523, 0.0379, -0.10145, -0.05706, 0.00978, 0.03499, -0.01635, -0.08126, -0.04427, -0.08833, 0.15258, -0.15054, 0.15961, 0.1313, -0.13779, 0.10816, -0.1873, -0.00766], "in": 32, "out": 32}, {"w": [-0.19421, -0.19806, -0.23404, -0.20468, 0.0655, 0.19302, -0.18683, -0.21169, 0.16459, -0.09296, 0.17148, 0.21772, 0.19563, -0.19016, -0.09362, 0.20635, -0.2045, -0.066, 0.21775, 0.1747, 0.21151, 0.17292, -0.20146, 0.14988, -0.16582, 0.23339, 0.22962, -0.16938, 0.19819, -0.2418, -0.19371, -0.14483, -0.19279, -0.18493, -0.11802, -0.15088, -9e-05, 0.15402, -0.17444, -0.1719, 0.16607, 0.01396, 0.16821, 0.17754, 0.15255, -0.17623, -0.00099, 0.17633, -0.16863, 0.0262, 0.17018, 0.15618, 0.19105, 0.16216, -0.19135, 0.14195, -0.06463, 0.20108, 0.18672, -0.13272, 0.16233, -0.15034, -0.18075, -0.02878, -0.18794, -0.16088, 0.09619, -0.12184, -0.12234, 0.14482, -0.16341, -0.12271, 0.1591, 0.17275, 0.17334, 0.16002, 0.14399, -0.16174, 0.13664, 0.17545, -0.15105, 0.17341, 0.12938, 0.14327, 0.19548, 0.1451, -0.21009, 0.13389, 0.09604, 0.19122, 0.1686, -0.09946, 0.14976, -0.11796, -0.17561, 0.18041], "b": [-0.12642, -0.04534, 0.00987], "in": 32, "out": 3}], "psnr": 26.72}