{"hidden": 32, "omega0": 30.0, "layers": [{"w": [-0.30975, 0.31443, 0.14183, 0.115, 0.39571, -0.44127, 0.35685, 0.11552, -0.30375, 0.11996, -0.14328, -0.22261, -0.05283, -0.22525, 0.40534, 0.35468, -0.06527, -0.45318, -0.07726, 0.03133, 0.31103, 0.00147, 0.17308, 0.10514, -0.26297, -0.2726, -0.41552, 0.02459, 0.12998, -0.03293, 0.44755, -0.12214, -0.29068, 0.10545, -0.12708, -0.06268, 0.48002, 0.01735, 0.44387, 0.06749, -0.15705, 0.34358, -0.24906, 0.01841, 0.10068, 0.2184, -0.46973, 0.0633, -0.12026, 0.29117, 0.18664, 0.18247, 0.26911, -0.14324, -0.05597, 0.40552, -0.36871, -0.3369, 0.03136, -0.1682, 0.02327, 0.45441, -0.06736, -0.39177], "b": [0.36906, -0.07311, 0.01669, 0.16234, 0.43877, 0.66985, -0.54155, -0.25684, 0.23957, 0.60134, 0.61246, 0.61653, 0.14461, -0.59229, 0.08638, -0.4372, -0.65648, 0.64249, 0.52771, -0.69526, 0.1142, -0.13439, -0.12408, -0.35524, 0.28029, -0.39761, 0.26897, 0.35131, 0.53586, 0.25212, -0.70345, -0.45009], "in": 2, "out": 32}, {"w": [-0.00095, -0.00119, -0.00092, -0.01295, -0.00396, -0.00168, -0.02268, -0.00575, -0.00105, 0.02092, 0.00093, -0.00062, -0.00313, -0.00343, 0.01769, -0.00227, 0.0017, 0.0152, 0.00024, 0.01078, -0.00605, -0.01353, 0.01073, -0.00039, -0.00316, -0.00937, -0.00887, 0.00476, 0.00484, 0.01203, -0.00813, 0.01346, 0.00309, -0.01138, -0.01036, 0.01026, 0.00093, -0.01567, 0.01862, 0.00551, 0.00371, 0.00012, -0.01388, 0.00738, 0.00514, 0.00169, -0.01394, -0.00766, 0.00996, 0.02622, -0.0038, -0.01536, 0.02751, -0.00811, 0.0332, 0.00033, -0.00936, 0.00337, 0.0053, -0.00297, -0.00147, 0.00984, 0.01766, -0.00471, 0.00686, 0.03229, -0.00054, -0.00093, 0.0036, -0.01177, -0.00716, 0.00049, -0.0016, -0.03813, 0.00341, 0.01716, -0.01324, -0.00336, 0.02886, 0.006, 0.00923, -0.02208, -3e-05, 0.00375, 0.00536, -0.01004, 0.00927, 0.00147, -0.00951, -0.00025, -0.01067, -0.00771, 0.00572, -0.00566, -0.0067, -0.00106, 0.01087, 0.01308, -0.00479, -0.01167, -0.00922, -0.00903, -0.00499, 0.00342, 0.00431, 0.02724, -0.01552, 0.00484, 0.00905, -0.02516, -0.04819, 0.00571, -0.00051, -0.03804, -0.00739, 0.00525, 0.00499, 0.00049, 0.0021, 0.00176, -0.0067, -0.01319, 0.02534, 4e-05, -0.00318, 0.00588, 0.00233, -0.00383, 0.00148, 0.0183, 0.00071, -0.02059, 0.0034, -0.02896, -0.01675, 0.00893, -0.01174, 0.0132, 0.00705, 0.01812, 0.00264, 0.00207, 0.01405, -0.0084, 0.00525, 0.00698, 0.01116, -0.01409, -0.02243, -0.00922, -0.01428, -0.00694, 0.00541, 0.02709, 0.00961, 0.00216, -0.01302, -0.0138, 0.00294, -0.00516, 0.01691, 0.01432, 0.00809, -0.00652, 0.01254, -0.03712, 0.02275, 0.00065, -0.0014, 0.00975, -0.01743, 0.02049, 0.01123, -0.00928, 0.00463, 0.00514, -0.01422, -0.00329, 0.00856, 0.00073, -0.01112, -0.02781, 0.00799, -0.0116, 0.00993, -0.00638, -0.0008, 0.01723, 0.00432, -0.00253, 0.0048, 0.00442, 0.00411, 0.00679, -0.00144, 0.00197, -0.00553, -0.01249, -0.00581, 0.01218, -0.00275, 0.00649, 0.01396, 0.00123, -0.00497, -0.01845, 0.02374, 0.01581, 0.00538, -0.01217, -0.0035, -0.0032, -0.00781, -0.02397, 0.02039, 0.02017, -0.00556, 0.01706, -0.01718, 0.01177, 0.00345, 0.04563, -0.01346, 0.01114, -0.00843, 0.00707, 0.01049, 0.01669, 0.0325, 0.02771, 0.02883, -0.00632, -0.02085, -0.04332, -0.00813, -0.02461, 0.00388, 0.0125, -0.00272, -0.02045, -0.00211, -0.02196, 0.00538, -0.02823, -0.03161, 0.01745, 0.01513, 0.01814, 0.01635, -0.01959, -0.01019, -0.02033, 0.00029, -0.01043, 0.01375, 0.01402, 0.00731, -0.01107, -0.004, -0.01131, -0.01089, -0.01657, -0.01984, 0.00237, 0.00516, 0.02237, 0.02805, 0.01584, 0.00266, -0.00974, 0.01721, 0.01954, -0.00492, 0.01737, -0.00519, 0.00829, 0.00536, 0.04484, 0.02779, -0.00711, -0.01082, 0.00266, 0.014, -0.00105, 0.00811, 0.01667, 0.00438, 0.00404, -0.01179, -0.01678, 0.00181, 0.02054, -0.02498, 0.01576, 0.01491, -0.01382, 0.00926, 0.01386, 0.02048, -0.0101, 0.01152, 0.03285, 0.00213, -0.02987, -0.01798, -0.01651, 0.01261, -0.00259, 0.01179, -0.03224, -0.00582, -0.01289, 0.00696, -0.0296, 0.03095, -0.01178, 0.01344, 0.02998, 0.00848, -0.00166, -0.00568, 0.01706, 0.00847, 0.03148, -0.00249, 0.03106, -0.00715, -0.00043, 0.00776, 0.00077, -0.01144, -0.01457, 0.02078, -0.0093, 0.00145, -0.00808, -0.00704, -0.0221, 0.00243, -0.01428, -0.0011, -0.00276, -0.00524, 0.0092, -0.00588, 0.01594, -0.01296, -0.00674, -0.01761, -0.00663, 0.00871, 0.00301, 0.00853, 0.00256, -0.00516, 0.00107, -0.01994, 0.01345, 0.00669, -0.01072, -0.01778, 0.02527, -0.00276, 0.00377, 0.00557, -0.00424, 0.00339, 0.00614, 0.02122, 0.01608, -0.02269, 0.01138, 0.02302, -0.02118, 0.00199, 0.00423, -0.00496, 0.00755, 0.02278, 0.01292, -0.00082, -0.00291, -0.01388, -0.00406, 0.01116, 0.00447, 0.01023, 0.0092, 0.00909, -0.00391, -0.01785, -0.00076, -0.00336, -0.02909, 0.01131, -0.01037, 0.01646, -0.00771, -0.00521, -0.00208, -0.01098, -0.00906, -0.0039, 0.00245, 0.00707, -0.01611, 0.0133, -0.00502, 0.02474, 0.00054, 0.00369, 0.0048, -0.00091, -0.02442, -0.01927, 0.00051, 0.00801, 0.01969, 0.00108, 0.00437, 0.00562, -0.00849, -0.01512, -0.00656, -0.00123, 0.00118, 0.00878, 0.01114, -0.00589, -0.0133, -0.00854, 0.01084, -0.0075, -0.01333, -0.01974, 0.02462, -0.01973, -0.0099, -0.00215, -0.00587, -0.01556, 0.00378, -0.0088, -0.0038, -0.00111, 0.01805, 0.0063, -0.00312, 0.01564, -0.0159, 0.00399, 0.00196, 0.00635, 0.03355, -0.02161, -0.00737, -0.00044, -0.00759, 0.01566, -0.00128, 0.0197, -0.00336, 0.01789, -0.01013, -0.00743, -0.0048, 0.01037, -0.00246, -0.00713, -0.00903, -0.0418, -0.00718, 0.00448, -0.01819, -0.01195, -0.01148, 0.02246, -0.01359, 0.01484, 0.00404, 0.00687, -0.00881, -0.00317, -0.00253, 0.01626, 0.00663, -0.01427, 0.00289, 0.0007, -0.01181, -0.01138, 0.00362, 0.00533, 0.00585, 0.01416, -0.00341, 0.01121, -0.02703, 0.00722, -0.01593, -0.01065, -0.03265, 0.00877, 0.00488, -0.01099, 0.00624, 0.00369, 0.00283, 0.00383, -0.00855, 0.0018, -0.00104, -0.00751, -0.00569, -0.00076, 0.00889, 0.01376, -0.00392, 0.0071, 0.00723, -0.00664, -0.00187, -0.02976, 0.02416, 0.01622, -0.02237, 0.04998, 0.03119, 0.03932, 0.02374, -0.01461, -0.00093, -0.02466, -0.00606, 0.0175, 0.02392, -0.00982, 0.00939, -0.01439, -0.00842, 0.00757, 0.02598, 0.00267, 0.0367, -0.01793, -0.00384, 0.01841, -0.00739, 0.0133, 0.01678, 0.02761, 0.00164, -0.01241, -0.0024, -0.0331, -0.04887, 0.00804, 0.0091, 0.01232, 0.01496, -0.04128, 0.02234, 0.00712, -0.02278, -0.02114, 7e-05, 0.01322, 0.01316, 0.01758, -0.03341, -0.00588, -0.00017, 0.00111, -0.04662, -0.0183, -0.00863, -0.03117, 0.01379, -0.00383, 0.00761, 0.03934, -0.00617, -0.01084, 0.00381, 0.02562, -0.00724, -0.01946, -0.02925, -0.00036, 0.01344, -0.03137, -0.00231, -0.00204, -0.02197, 0.00123, 0.00571, -0.00543, 0.05649, -0.01121, -0.00522, 0.00665, -0.00791, -0.01063, 0.00055, -0.01132, 0.00628, 0.008, -0.01483, 0.03045, 0.02529, 0.00759, -0.00021, -0.01831, -0.00424, -0.00073, 0.00471, -0.0061, -0.00467, 0.026, -0.01564, -0.00901, -0.00028, -0.02691, 0.00761, 0.01014, 0.00387, 0.00977, -0.01082, 0.01407, -0.01732, -0.01762, 0.01577, 0.04151, 0.01304, -0.01861, 0.01162, 0.00624, -0.00685, -0.01727, -0.00497, -0.02129, -0.02178, 0.00203, -0.00853, 0.01056, 0.00187, -0.00755, 0.00816, -0.00031, 0.00622, -0.00981, 0.00626, -0.01125, -0.03172, -0.00502, 0.01679, -0.02133, -0.03232, -0.01683, 0.02225, -0.02336, 0.02934, -0.00936, 0.00035, -0.01036, -0.01719, -0.01144, 0.01057, -0.00399, -0.01034, -0.00044, 0.00536, 0.01036, -0.01835, 0.00076, 0.01475, 0.01462, 0.01026, -0.01866, -0.01864, -0.00213, -0.0175, 0.01623, 0.02278, 0.00833, -0.01868, 0.01935, 0.00175, -0.01995, -0.00484, -0.00366, 0.00106, -0.00458, -0.0062, -0.02506, 0.01356, 0.01231, -0.00561, 0.00033, 0.00013, 0.019, 0.02406, 0.00174, 0.01127, -0.00674, 0.01081, 0.00014, 0.00057, 0.0018, 0.01509, 0.00359, 0.00548, 0.00376, 0.02087, -0.00011, 0.02697, 0.00921, -0.01226, 0.04183, 0.00845, 0.02218, 0.0332, -0.00384, -0.00996, -0.01469, -0.00824, -0.02484, 0.00541, 0.00103, 0.0117, -0.004, 0.00276, -0.00562, 0.01009, -3e-05, 0.00765, 0.01623, -0.00213, -5e-05, 0.01314, 0.02889, 0.00724, -0.01825, 0.00094, 0.00822, -0.00471, -0.01004, 0.036, 0.01112, 0.00423, -0.00907, 0.01521, -0.00997, 0.02083, -0.0123, -0.00806, 0.02924, 0.0374, 0.0357, -0.00216, -0.00198, 0.00632, -0.02605, 0.00519, -0.00577, 0.02018, 0.01078, 0.00833, 0.00018, -0.01287, 0.00305, 0.00054, 0.00213, 0.00377, -0.0062, 0.0059, 0.01235, 0.00119, -0.0152, -0.00179, 0.00872, -0.00824, -0.02127, 0.00997, -0.00224, 0.02137, 0.01774, -0.01839, -0.00275, 0.00875, -0.02191, 0.0052, -0.00724, -0.0145, 0.03682, -0.00792, 0.00542, 0.01214, 0.00264, 0.01276, -0.00262, 0.01228, 0.00546, -0.00495, 0.01447, -0.02056, 0.04238, 0.00822, -0.01978, 0.02079, 8e-05, -0.007, 0.00723, 0.02192, 0.00425, 0.00717, 0.00603, -0.01704, -0.01241, 0.00443, -0.01929, 0.02878, 0.01743, -0.00154, 0.01033, 0.01273, -0.02304, 0.00825, -0.00102, 0.01838, 0.00219, -0.00458, 0.01386, 0.00756, 0.01084, -0.00972, -0.00969, 0.00849, -0.01966, 0.00369, -0.02308, -0.00475, 0.00554, -0.01668, -0.00375, 0.02424, -0.032, -0.02103, 0.04556, -0.00857, 0.02106, -0.00735, 0.01097, -0.01811, -0.02496, -0.02184, 0.00106, 0.02141, 0.00545, -0.01049, -0.0098, 0.01488, -0.0053, 0.01294, -0.00528, -0.00441, -0.00859, -0.00283, 0.00921, 0.01777, -0.02869, 0.00116, -0.00504, 0.02592, -0.0218, -0.00085, -0.00694, 0.00164, 0.01482, -0.00277, -0.00301, -0.0333, 0.00976, -0.00818, -0.01165, -0.01826, -0.00013, -0.01164, -0.02099, -0.02256, -0.00546, -0.00537, -0.01126, 0.01704, -0.00763, 0.00627, 0.01361, -0.0299, 0.00311, -0.01274, -0.02951, -0.00323, 0.00082, 0.00771, 0.00247, -0.01559, -0.00381, 0.0002, -0.00482, -0.00059, 0.03683, 0.00628, 0.03454, 0.02185, -0.00111, 0.0049, -0.00585, 0.00016, -0.00086, -0.01341, 0.01339, -0.00775, -0.00155, -0.01085, -0.00191, -0.03563, 0.00236, -0.01047, 0.01854, -0.01487, 0.01199, -0.00982, -0.0225, 0.03529, 0.02872, 0.00576, -0.00355, 0.02801, 0.02212, -0.01665, -0.00449, 0.0019, 0.02029, -0.00769, -0.01931, -0.02954, 0.00721, -0.01277, 0.00796, -0.00514, -0.03767, 0.00086, 0.03277, -0.01644, -0.01783, 0.00424, 0.00798, 0.00285, 0.00494, -0.0006, -0.00629, -0.02311, -0.00122, -0.00108, 0.01134, 0.01521, -0.01761, -0.00068, -0.00409, 0.00667, -0.00345, 0.01772, -0.0128, -0.018, 0.05507, -0.00209, -0.00456, -0.01103, -0.00875, 0.012, -0.00398, -0.02052, -0.02008, 0.01095, -0.0024, -0.00883, -0.01126, 0.00141, -0.00611, 0.01866, 0.00038, 0.00529, 0.00306, 0.0102, -0.00081, -0.01301, -0.0236, -0.00716, 0.00246, -0.00789, -0.00217, -0.00715, -0.01667, 0.01981, 0.01292, 0.011, 0.02114, 0.00216, -0.00439, -0.00895, -0.00214, 0.00311, 0.01322, -0.01745, 0.00631, 0.00199, 0.00556, -0.00316, 0.00814, -0.00217, 0.01504, -0.00798, -0.00741, 0.00758], "b": [-0.0308, -0.17427, -0.07946, 0.01544, -0.13651, -0.01903, -0.10579, -0.10998, 0.06703, -0.15253, -0.13956, 0.09734, 0.05174, 0.14472, -0.04094, -0.0674, -0.02495, 0.00681, 0.15311, -0.15384, -0.01269, 0.08172, -0.07593, -0.09636, 0.11689, -0.15078, 0.03871, -0.15481, 0.0881, -0.14708, 0.09871, -0.1803], "in": 32, "out": 32}, {"w": [-0.00486, -0.00264, -0.00791, -0.0161, -0.01693, 0.00349, -0.00833, 0.00753, -0.01365, 0.00943, -0.00886, -0.00662, -0.00023, -0.01928, 0.02236, 0.00631, -0.01554, -0.01034, 0.02856, -0.00222, 0.01111, 0.01509, -0.02315, 0.00722, 0.02836, -0.00019, 0.0054, 0.00532, -0.01744, 0.00063, -0.01461, 0.00977, 0.00548, -0.00845, 0.02515, 0.01286, -0.00177, 0.00384, -0.01231, -0.00297, 0.00033, 0.00354, 0.00046, -0.00779, 0.01307, -0.00546, 0.02404, -0.01553, 0.00135, -0.00073, 0.01431, -0.00496, 0.00112, -0.00195, -0.00775, -0.01976, 0.01628, -0.00333, -0.00249, -0.00824, 0.00349, 0.00563, 0.02519, 0.02791, 0.03415, -0.0014, 0.00718, -0.00167, 0.00453, 0.02639, 0.00367, 0.01006, 0.02104, 0.01615, -0.00042, 0.0073, 0.00532, -0.01656, -0.01916, -0.02218, -0.00561, -0.00418, -0.0035, 0.00505, 0.01459, -0.00468, -0.02102, 0.00712, 0.01542, 0.02354, 0.00139, 0.01285, 0.00059, -0.01444, 0.04243, 0.00392, 0.02116, -0.00563, 0.01251, -0.02489, -0.01, 0.00828, -0.00579, -0.00157, -0.01786, 0.01703, -0.01425, -0.01151, -0.01042, 0.02226, -0.02426, 0.0259, 0.00865, -0.00672, 0.00527, -0.02413, 0.01358, -0.02689, 0.04023, -0.00083, 0.00669, 0.01231, 0.01877, 0.02066, -0.01208, -0.01112, 0.03218, -0.03481, 0.03544, -0.00389, 0.02467, 0.00646, -0.00052, -0.00223, -0.00425, -0.00111, 0.00525, -0.00549, 0.0175, -0.01056, 0.01285, 0.01617, 0.00551, -0.02028, -0.00026, -0.00322, -0.00303, 0.0046, -0.0074, -0.01371, -0.01866, 0.00015, 0.00395, -0.00345, -0.0019, -0.00361, 0.00096, -0.00129, -0.00312, -0.00137, 0.00557, 0.00807, -0.00613, -0.01035, -0.01321, -0.00377, -0.01287, 0.00818, -0.03504, -0.00139, -0.01286, -0.02432, 0.00664, 0.0019, 0.00521, 0.00339, 0.00059, 0.00456, 0.00889, -0.0077, 0.00556, 0.00187, 0.00543, 0.01092, 0.01572, -0.00519, -0.00121, 0.01883, -0.02242, -0.02026, -0.00315, 0.00475, -0.01435, 0.0016, 0.01001, -0.01957, -0.02549, 0.00801, -0.01649, 0.01167, -0.03306, -0.00277, -0.03058, 0.00788, -0.00425, -0.02634, 0.01414, 0.03487, 0.01738, -0.02269, 0.01488, -0.01879, 0.04385, 0.01366, 0.00639, 0.00055, 0.00532, 0.00844, -0.00024, 0.0296, 0.00356, -0.01547, -0.0387, -0.00257, 0.02436, -0.00979, 0.01483, 0.01079, -0.00078, 0.01454, -0.03007, -0.01297, 0.00989, -0.01115, -0.02713, -0.01991, 0.00625, 0.02667, 0.01928, -0.02013, -0.01259, 0.01325, 0.00829, 0.00837, -0.01646, -0.00099, 0.01472, -0.01281, -0.00269, -0.01145, -0.00985, -0.03633, -0.00277, 0.02591, 0.01164, 0.00751, -0.03423, 0.01167, 0.00771, -0.02812, 0.01414, -0.0268, -0.00756, 0.05019, -0.01664, 0.03034, -0.00392, -0.01668, 0.02236, 0.00599, 0.01015, 0.01799, 0.01479, -0.0469, 0.01746, -0.03576, 0.04298, -0.01481, -0.00653, 0.00834, 0.01345, 0.06763, 0.03483, 0.02755, 0.03221, -0.06516, 0.02123, -0.01137, -0.01775, 0.00317, 0.00189, 0.01424, 0.00518, -0.01714, -0.00122, -0.01196, -0.00764, 0.00117, -0.01917, 0.00389, 0.02413, -0.00287, -0.00092, 0.01515, -0.01109, 0.00669, -0.00308, 0.00109, 6e-05, 0.00308, 0.02301, -0.0053, 0.0092, 0.00355, -0.00952, 0.03677, 0.00054, 0.00889, -0.01432, -0.01082, -0.0109, 0.01351, -0.00699, -0.01536, -0.01335, 0.03523, 0.00405, 0.02617, 0.00022, 0.01656, 0.01207, -0.00908, -0.01813, -0.01096, 0.01165, 0.00855, 0.02814, -0.02476, 0.01559, -0.02174, 0.02864, 0.00062, 0.00097, 0.00761, 0.00474, 0.00132, 0.0231, 0.00019, -0.02242, -0.03025, -0.0276, -0.00412, 0.00397, -0.02048, 0.02059, -0.01685, -0.0058, -0.01551, 0.0064, 0.00634, -0.01136, 0.01235, -0.00113, -0.01452, 0.00367, -0.00465, -0.0013, 0.012, -8e-05, -0.0037, -0.00719, -0.00877, 0.02299, -0.00412, 4e-05, 0.00606, -0.01362, 0.00533, -0.00023, 0.03405, 0.00202, -0.00734, -0.02604, -0.02127, 0.01121, -0.01, 0.00631, -0.04728, 0.01532, -0.00173, 0.00911, 0.02375, -0.03025, 0.0235, -0.03567, -0.03812, 0.00925, -0.00531, -0.03551, 0.03804, 0.01976, -0.01542, -0.01081, -0.04448, 0.03947, -0.02674, 0.02829, 0.01119, -3e-05, 0.00551, 0.03085, 0.04527, -0.02901, -0.02027, 0.02588, -0.05758, -0.0313, -0.01004, -0.02183, 0.04067, 0.02393, -0.01575, -0.05549, -0.01137, -0.01517, -0.01489, 0.02208, -0.04053, 0.0029, 0.06216, -0.01286, -0.05932, -0.00837, 0.02182, 0.01932, 0.00886, 0.01248, -0.07129, 0.04596, -0.00051, -0.04424, 0.01609, 0.00266, -0.03294, -0.01992, 0.01998, -0.03528, 0.00023, -0.00671, -0.01877, 0.03864, 0.02619, 0.00859, -0.00127, 0.00106, -0.00169, 0.00483, 0.00184, 0.00139, -0.0084, 0.01848, 0.00215, 0.00632, -0.01398, -0.00036, 0.00826, -0.02901, 0.01067, 0.00323, 0.01101, 0.02768, -0.02231, -0.00276, -0.01477, -0.01809, -0.00573, 0.00643, 0.01862, 0.03094, -0.00225, 0.02033, 0.0257, -0.02586, 0.02806, -0.01762, -0.01276, -0.02223, -0.00786, 0.00794, -0.00314, 0.00676, 0.02625, -0.01827, 0.03603, 0.01733, -0.01974, -0.00888, -0.00211, 0.02461, 0.0038, -0.00868, -0.01974, -0.01032, -0.00397, -0.01976, 0.03058, -0.00474, 0.02062, 0.02065, -0.0048, -0.0089, 0.02734, -0.01101, -0.02178, 0.00616, 0.02006, 0.01271, 0.01657, -0.00996, -0.00223, 0.00674, 0.00577, -0.0136, -0.01471, 0.02183, 5e-05, 0.00607, -0.0216, -0.01517, 0.01491, 0.00665, 0.00876, -0.01223, 0.00272, 0.02535, -0.01456, -0.00768, 0.01807, -0.0226, -0.03035, 0.0199, 0.03824, 0.00339, -0.01079, 0.00146, -0.01774, 0.04331, -0.01883, 0.01648, 0.00548, 0.02139, 0.02099, -0.00036, 0.01595, -0.00835, -0.01397, 0.00612, -0.02676, 0.02265, 0.02734, 0.00384, -0.00616, -0.00551, -0.02446, 0.01634, 0.01569, 0.04003, -0.01561, 0.01896, -0.01142, -0.00428, 0.0187, 0.01467, -0.00962, 0.05036, -0.03183, -0.02944, 0.01799, 0.00847, 0.03864, -0.00109, 0.01552, -0.00494, 0.00445, 0.0125, -0.01996, 0.02898, -0.0197, 0.02059, -0.01379, 0.01082, -0.01647, -0.01123, -0.00025, -0.0008, -0.00059, -0.0295, 0.0147, -0.03347, 0.01092, 0.02936, -0.00718, -0.01501, -0.01669, 0.00287, -0.00841, 0.0077, 0.01691, -0.0146, -0.0249, 0.02118, 0.03956, 0.03049, -0.00945, 0.00637, -0.02266, 0.00194, -0.0287, -0.00886, 0.01977, 0.05589, 0.01605, -0.00831, -0.0572, -0.02402, 0.02759, -0.02032, 0.03009, -0.01966, -0.00029, 0.01741, -0.00984, -0.03629, -0.03208, -0.03078, 0.00836, -0.01428, 0.00649, -0.04703, 0.00119, -0.00938, -0.00554, -0.01724, -0.02497, -0.00579, 0.00539, -0.0036, 0.01127, -0.01497, 0.00967, 0.00108, -0.01161, -0.00567, -0.01767, -0.01897, 0.0229, 0.00957, -0.01147, 0.00401, -0.0164, 0.01785, -0.00681, 0.02881, 0.00415, 0.00877, 0.00153, 0.01245, 0.01605, -0.01362, -0.02243, -0.00396, -0.01496, -0.02179, 0.0152, 0.00052, 0.00908, -0.00752, -0.00803, -0.02374, -0.0081, 0.01493, -4e-05, -0.01362, -0.0181, 0.00855, -0.0186, -0.01531, -0.02485, 0.02196, -0.0071, 0.00862, 0.00572, 0.00151, 0.00746, -0.00479, 0.004, 0.00055, 0.00446, 0.00726, 0.00136, -0.01044, 0.0088, -0.02652, 0.00297, 0.0283, 0.04042, 0.0235, -0.05792, -0.02165, 0.00581, -0.04121, 0.02011, -0.02731, -0.00777, -0.0226, -0.02127, -0.01236, 0.00578, 0.04448, 0.00495, 0.01422, -0.01456, 0.03012, -0.02358, 0.03392, 0.00642, 0.02517, 0.00569, 0.02363, 0.01468, 0.02189, -0.01152, 0.04167, -0.02915, -0.01552, -0.03278, 0.01124, 0.01554, 0.01748, 0.02997, -0.00523, 0.00519, 0.00249, -0.00219, 0.02308, -0.00063, 0.00901, -0.00481, 0.00313, 0.0215, -0.00361, -0.02501, -0.00869, -0.00416, 2e-05, 0.00542, -0.00712, 0.01023, -0.00322, -0.02476, 0.00955, -0.01596, -0.00246, -0.006, 0.00178, 0.00645, 0.03321, -0.02021, 0.01401, 0.02507, 0.00633, -0.0011, -0.00392, -0.00637, -0.00546, 0.01634, -0.02104, -0.00807, 0.0204, -0.01787, 0.01522, 0.02429, 0.00271, 0.01457, 0.00769, -0.01198, 0.00494, -0.00473, -0.00392, -0.02333, -0.01028, 0.01868, 0.0087, 0.01941, 0.00813, 0.01517, 0.00586, -0.02454, -0.02881, -0.00679, 0.01936, 0.01234, -0.01423, 0.02181, 0.01188, -0.00975, -0.01856, -0.00599, 0.00962, -0.0355, -0.00608, 0.01866, 0.01474, 0.02991, 0.02919, -0.03012, -0.03273, 0.02461, -0.00258, 0.03028, -0.02422, 0.03032, 0.01577, -0.03068, -0.03689, -0.02212, -0.03104, -0.0391, -0.00847, 0.00901, -0.05051, 0.01346, 0.04107, 0.00373, -0.044, 0.02298, -0.02402, -0.00855, 0.00742, -0.03113, 0.01914, -0.01629, 0.01252, 0.02344, -0.0177, -0.00457, -0.01084, -0.01809, -0.00801, 0.04266, 0.01325, 0.04359, -0.03938, -0.01543, -0.0025, -0.0169, -0.05099, -0.03705, -0.02339, -0.02812, 0.02902, 0.01923, -0.0015, -0.02603, -0.00942, -0.01256, 0.01389, 0.02656, 0.01031, -0.01511, 0.01761, -0.00757, 0.02719, -0.01421, 0.01836, 0.0334, -0.01776, 0.01247, 0.01907, -0.03232, -0.02392, 0.01532, -0.01228, 0.02181, -0.01327, 0.03622, -0.01507, -0.01162, -0.01951, -0.00687, -0.01873, -0.00126, 0.01675, 0.02186, -0.0052, 0.03373, -0.02321, -0.03019, -0.01877, 0.02202, 0.0143, -0.00115, -0.00451, -0.01984, 0.02897, -0.01125, -0.01988, 0.00834, 0.01619, 0.00891, -0.00877, -0.01251, -0.01243, 0.02444, -0.03143, 0.01548, -0.01188, 0.0206, 0.02091, -0.0218, -0.02957, 0.00327, -0.02139, -0.01029, 0.01189, 0.04223, -0.00296, 0.01111, -0.00968, -0.00201, 0.00786, 0.03309, 0.00117, 0.01947, -0.01281, -0.00721, 0.02243, -0.00647, 0.01453, 0.01538, 0.02536, 0.00064, -0.00519, -0.02766, -0.00039, 0.00227, -0.00449, 0.01509, -0.00845, 0.00211, -0.01585, -0.02162, 0.00135, -0.00561, -0.02155, -0.01592, 0.00534, 0.01007, 0.00917, 0.02553, -0.00478, 0.04139, -0.02684, 0.00211, -0.02699, 0.02052, -0.02891, -0.00873, -0.00743, 0.00076, -0.0078, -0.01764, 0.02326, 0.01646, -0.06377, 0.00576, 0.01456, -0.0066, 0.00027, 0.00813, 0.01526, -0.03654, -0.02728, 0.00397, 0.00913, 0.02146, 0.03427, -0.00756, -0.0252, -0.00744, -0.01336, -0.01453, 0.00826, 0.01747, -0.0153, 0.00433, -0.00979, 0.00658, -0.01418, 0.00802, -0.01612, -0.00922, 0.01489, -0.01314, 0.01124, -0.00686, 0.002, -0.01316, 0.00436, -0.01718, 0.01621, -0.00097, 0.0057, -0.03412, -0.00544, 0.01428, 0.01966, 0.0172, 0.00083, -0.00677, -0.01026, -0.02105, -0.02053, -0.00062], "b": [0.0979, -0.03807, -0.08901, -0.0592, 0.02221, -0.01127, 0.09605, -0.16893, -0.03648, 0.13952, -0.00449, -0.0017, 0.02557, -0.04924, -0.07012, 0.05188, 0.00854, -0.08404, 0.03211, 0.07743, -0.01728, -0.06243, -0.06017, -0.0834, 0.12042, -0.08239, 0.14709, 0.117, -0.12099, 0.16863, -0.15487, -0.01075], "in": 32, "out": 32}, {"w": [-0.05653, -0.26521, -0.26216, -0.31246, -0.02673, -0.03714, -0.11544, -0.25093, 0.19516, -0.26591, 0.12066, 0.25649, 0.25543, 0.16903, -0.08264, 0.25402, -0.28314, -0.06523, 0.21218, 0.23134, 0.2133, -0.02325, -0.21579, -0.03693, -0.19538, 0.23826, 0.17807, -0.10234, 0.29627, -0.30855, -0.02291, -0.07822, -0.07466, -0.17313, -0.06598, -0.00804, 0.29381, 0.17258, -0.07792, -0.23457, 0.18483, -0.16476, 0.14497, 0.32944, 0.1613, 0.19396, 0.11935, 0.13105, -0.13593, 0.13372, 0.19531, 0.12287, -0.21397, 0.17093, -0.16801, 0.18775, -0.28077, 0.12307, 0.15234, 0.21907, 0.18161, -0.03234, -0.11087, -0.04874, -0.27797, 0.11491, 0.10126, 0.1221, -0.23804, 0.26202, -0.2403, 0.0666, 0.18695, 0.13005, 0.25422, -0.08711, 0.04095, 0.15575, 0.24955, 0.0187, -0.10618, 0.25825, -0.09405, 0.13996, 0.27273, 0.2427, -0.16939, 0.26212, -0.00875, 0.14257, 0.16751, 0.24753, 0.0931, 0.11491, -0.23037, 0.28516], "b": [0.06282, -0.03703, -0.02673], "in": 32, "out": 3}], "psnr": 28.11}