{"hidden": 32, "omega0": 30.0, "layers": [{"w": [-0.30155, 0.34355, 0.15108, 0.12576, 0.36499, -0.46272, 0.37362, 0.19467, -0.29902, 0.12368, -0.16227, -0.17232, -0.05201, -0.22079, 0.42216, 0.45084, -0.04261, -0.43123, -0.00424, 0.10287, 0.2752, 0.02215, 0.13919, 0.09456, -0.25585, -0.27504, -0.37803, -0.05293, 0.14803, -0.03754, 0.44095, -0.11926, -0.36403, 0.08277, -0.14218, -0.0217, 0.48264, -0.07719, 0.39161, 0.06027, -0.17322, 0.33347, -0.24966, -0.04097, 0.06713, 0.1669, -0.46084, -0.02829, -0.14146, 0.299, 0.2123, 0.18751, 0.2478, -0.10978, -0.04307, 0.35674, -0.3775, -0.31557, 0.05558, -0.16022, 0.02785, 0.46267, -0.08922, -0.3723], "b": [0.39023, -0.09542, 0.02626, 0.13031, 0.45413, 0.69943, -0.53133, -0.28295, 0.31333, 0.56903, 0.62572, 0.59003, 0.12699, -0.60382, 0.06193, -0.48017, -0.62901, 0.63296, 0.52492, -0.70825, 0.14464, -0.12734, -0.14705, -0.34204, 0.3027, -0.40306, 0.2364, 0.35412, 0.52654, 0.26632, -0.699, -0.47663], "in": 2, "out": 32}, {"w": [0.01707, 0.03034, 0.00424, -0.01221, 0.00084, 0.00825, 0.02917, 0.00071, -0.01081, 0.0583, -0.01101, 0.012, -0.00061, -0.01185, -0.01061, 0.00307, -0.00766, -0.0028, 0.01454, -0.01127, 0.023, -0.0132, 0.02567, -0.01028, -0.01202, 0.00741, 0.01562, -0.00379, -0.01014, 0.02525, 0.00335, 0.01472, 0.02104, -0.05979, 0.0074, -0.06591, -0.00273, -0.00393, 0.0064, 0.00338, -0.01781, -0.01348, 0.02853, -0.01593, 0.01071, -0.00791, 0.03941, -0.00151, 0.00955, -0.06052, 0.01509, -0.03736, -0.01107, 0.03862, -0.00269, -0.00297, 0.02507, 0.03815, -0.00735, 0.01266, 0.03426, 0.00172, -0.00646, 0.01097, 0.02648, -0.0092, -0.0144, -0.00288, 0.00616, 0.0087, 0.02265, 0.00702, -0.01118, -0.01289, 0.02365, 0.00995, -0.00887, 0.01406, -0.01855, 0.02698, 0.03728, -0.01868, 0.02031, -0.00471, -0.01758, 0.03469, -0.01977, -0.02799, 0.03391, 0.02188, 0.0499, -0.02564, 0.003, -0.03956, -0.0135, 0.01124, -0.03065, 0.0069, -0.00951, 0.02615, -0.0005, 0.00556, -0.01218, 0.006, 0.02816, 0.03177, 0.02887, 0.02556, 0.00132, -0.0092, -0.04025, -0.00378, -0.01213, -0.03288, -0.00671, 0.02447, -0.02116, -0.05549, -0.0181, -0.00083, 0.01451, -0.00773, -0.0122, -0.04391, 0.00941, -0.00036, 0.01352, -0.02851, -0.00105, 0.0282, 0.00214, 0.01224, 0.01102, 0.00797, -0.00702, 0.00048, 0.01341, 0.02867, -0.01206, 0.02174, 1e-05, 0.00086, -0.02087, -0.01406, 0.00067, 0.024, -0.00504, 0.00356, -0.00591, -0.01091, 0.00585, -2e-05, 0.00051, -0.00302, -0.00737, -0.00359, 0.00479, 0.00261, 0.0124, 0.00179, 0.01948, 0.00538, 0.0209, -0.00263, 0.00815, 0.00701, 0.01519, 0.00113, 0.00812, -0.01887, -0.00673, 0.0071, 0.01005, 0.01576, -0.02353, 0.00542, 0.01182, -0.02308, 0.00798, -0.01458, -0.03501, 0.0206, -0.0127, -0.00191, -0.00394, 0.0127, 0.02094, -0.02539, -0.00233, -0.02035, 0.00824, -0.00241, 0.0166, 0.00299, 0.00739, -0.02847, 0.00755, -0.00814, 0.03368, -0.00105, -0.01614, 0.03017, 0.0022, -0.01127, 0.00383, -0.01856, 0.01836, 0.01075, -0.01278, -0.00729, 0.00814, -0.02384, 0.02229, 0.01687, 0.03472, -0.00809, -0.00761, 0.01858, 0.02101, 0.00275, -0.00679, 0.01423, 0.00345, 0.00876, -0.01428, -0.02491, 0.01712, -0.01978, 0.04001, 0.01763, -0.00345, 0.00619, -0.00374, -0.0219, -0.00215, -0.00446, -0.00636, 0.03686, -0.01087, -0.02683, 0.02054, -0.02651, -0.02572, -0.00335, -0.00992, -6e-05, 0.00186, 0.01317, -0.01886, -0.00037, -0.02387, 0.02693, -0.00569, -0.03655, -0.02482, 0.01035, 0.0046, -0.00439, 0.00207, -0.00556, 0.0153, -9e-05, 0.01601, 0.00347, -0.00928, -0.02203, 0.00518, 0.00534, 0.0048, 0.0128, -0.01107, 0.00351, 0.0047, 0.01015, 0.0027, -0.01262, -0.01039, 0.01191, 0.00221, 0.00233, 0.00123, 0.02913, 0.0193, -0.00327, -0.00445, -0.01904, 0.0032, -0.00081, 0.01776, -0.02012, -0.01397, 0.02773, -0.00448, -0.01415, 0.02523, -0.01725, 0.01325, 0.00256, 0.01757, 0.0056, -0.0075, -0.01365, 0.02354, -0.00212, -0.02386, 0.02308, 0.01692, 0.02131, 0.01869, -0.00197, 0.00963, -0.00183, 0.03099, 0.03645, 0.03177, -0.01511, -0.01285, 0.02561, 0.03411, 0.01121, -0.01248, 0.00304, 0.008, -0.0134, 0.00389, 0.0023, -0.01475, 0.00531, 0.01043, -0.01075, -0.02398, -0.03905, 0.01209, 0.00221, 0.03132, -0.0165, -0.00126, 0.00616, 0.00447, -0.00056, 0.00305, -0.01043, -0.00396, 0.00778, -0.00088, -0.03158, -0.03967, 0.00411, 0.00585, 0.00431, 0.00778, 0.00304, -0.05591, -0.00046, -0.01342, 0.01896, -0.05308, -0.00919, 0.02247, -0.0005, -0.00725, 0.02374, -0.01876, 0.03803, -0.05788, 0.01125, -0.01196, -0.00416, 0.01309, -0.00856, -5e-05, 0.00128, -0.01359, 0.0749, -0.03447, -0.04202, 0.01602, 0.00426, 0.02734, -0.02009, -0.04709, -0.02263, 0.02718, -0.04649, 0.02196, -0.03266, 0.01599, -0.02237, -0.00434, 0.02208, 0.02047, -0.01432, -0.02573, 0.0129, -0.00458, 0.02569, -0.02153, 0.02109, 0.0039, 0.01956, 0.00648, -0.04035, 0.00025, -0.03599, -0.00343, 0.05668, -0.00102, -0.01249, -0.00533, 0.03983, 0.03777, -0.01378, 0.02084, -0.04373, -0.00601, 0.01083, -0.00997, 0.01431, -0.00956, 0.01296, -0.01185, -0.00654, -0.02425, 0.00188, -0.0112, -0.01802, 0.00369, 0.01271, -0.01536, 0.00247, -0.02238, 0.00204, 0.00217, 0.01426, 0.00435, 0.02004, -0.01362, 0.01684, -0.01686, -0.00831, -0.00305, 0.01317, 0.02627, -0.02245, 0.01546, -0.03517, -0.00669, -0.01067, -0.0191, -0.03073, -0.0068, -0.00329, -0.01845, 0.001, -0.05284, 0.0141, -0.00391, 0.02449, -0.01951, -0.0083, 0.00168, -0.01642, 0.00904, 0.00129, 0.0089, -0.02439, -0.01176, -0.00527, -0.02972, 0.01623, -0.02096, -0.00641, 0.04619, -0.0234, -0.01956, -0.03591, 0.00441, -0.04428, -0.04004, -0.02094, 0.00072, -0.01102, 0.00386, 0.03557, 0.02211, 0.01546, 0.03539, -0.01571, -0.00757, 0.02371, -0.0073, 0.02956, -0.01459, 0.01968, -0.02917, 0.00294, 0.00583, -0.01419, 0.00953, 0.01271, -0.0005, 0.02635, -0.03698, -0.01292, 0.00843, 0.02533, 0.00392, -0.00476, 0.01029, -0.0287, -0.00325, -0.00583, -0.0182, -0.00511, -0.01316, -0.00299, 0.04316, 0.0045, 0.01641, 0.00197, -0.00137, 0.02442, -0.00335, 0.03313, -0.00793, 0.01101, -0.01901, -0.02488, 0.00182, 0.01309, -0.03378, -0.01587, -0.03837, 0.01215, -0.00622, 0.01307, -0.03028, 0.0037, -0.01508, 0.00396, -0.02365, -0.00189, -0.0091, -0.00649, 0.00213, 0.00278, 0.00266, -0.00408, 0.00982, 0.00397, 0.00169, -0.00363, 0.00904, -0.02051, -0.0083, -0.00383, 0.01752, 0.01924, 0.00621, -0.0022, 0.01069, 0.02862, 0.00181, -0.0001, 0.04649, 0.02304, 0.04989, 0.00404, -0.0125, 0.00371, -0.01409, 0.03866, 0.01514, 0.04039, 0.01129, 0.02696, 0.00313, -0.00156, -0.00135, -0.00476, 0.00621, -0.00084, -0.0002, -0.00149, -0.00017, 0.01121, -0.00479, 3e-05, -0.00182, -0.00291, 0.0004, 0.00407, -0.00248, 0.00492, 0.00218, -0.00392, 0.00385, 0.016, 0.00748, -0.00115, -0.00297, 0.01513, 0.01014, 0.00209, 0.001, 0.0041, 0.00273, 2e-05, -0.01643, -0.00687, -0.01482, 0.01159, -0.04862, -0.01288, 0.0297, -0.00673, 0.00253, 0.01054, 0.00696, -0.00596, -0.02, 0.01416, 0.01812, -0.01232, 0.04306, 0.01759, -0.0138, 0.02846, 0.00339, -0.01466, 0.00663, -0.00379, 0.0047, 0.00742, -0.01657, -0.01771, 0.00076, -0.02527, 0.03649, 0.00968, -0.00997, -0.00165, 0.00064, -0.00654, 0.03847, 0.02424, -0.01215, 0.00021, 0.01025, -0.00687, 0.00435, 0.01098, -0.01614, 0.011, -0.04597, -0.01214, -0.00165, 0.01996, -0.01456, 0.00671, -0.00186, 0.02194, -0.02529, -0.00764, 0.00692, 0.00664, -0.00293, -0.00692, -0.00188, -0.02518, -0.00039, -0.01745, 0.02107, 0.01896, 0.01974, 0.00234, -0.00467, -0.02775, -0.02454, -0.01153, 0.02626, 0.00609, 0.01129, -0.01544, 0.01106, 0.01851, 0.02263, -0.01286, -0.02056, 0.00932, 0.01602, -0.00271, 0.01026, -0.0429, 0.0314, 0.00177, 0.00131, -0.00157, -0.01231, 0.00251, 0.02709, 0.03845, 0.01023, 0.01553, -0.03719, -0.02438, -0.01302, 0.01265, -0.04192, -0.02582, 0.01169, 0.00106, -0.02019, -0.04691, -0.03108, -0.01305, 0.01227, -0.0025, 0.07914, -0.02595, 0.0045, 0.03352, 0.01641, 0.0011, 0.02699, -0.01348, 0.01186, 0.00245, -0.04266, -0.0438, -0.02625, 0.06677, 0.01163, 0.03771, -0.02574, 0.03364, -0.02459, -0.01221, -0.01373, 0.01702, -0.01883, -0.03261, -0.01553, 0.00644, -0.004, 0.0564, -0.01648, 0.05609, -0.02969, -0.01235, -0.04724, -0.00139, -0.02102, 0.07437, -0.00912, 0.00923, -0.05516, 0.04616, -0.06598, -0.0042, 0.00137, 0.03464, 0.02554, -0.05585, -0.0234, -0.04353, -0.01456, -0.06425, 0.00179, 0.00914, 0.01112, 0.0706, 0.03555, -0.0131, -0.03805, -0.01263, 0.01823, -0.02115, -0.01581, 0.01743, 0.02206, 0.01555, -0.03276, 0.0095, -0.01638, 0.06373, -0.01389, 0.04107, 0.00064, -0.04806, -0.00266, 0.00933, 0.01364, -0.03454, 0.00963, -0.02972, 0.00457, -0.03245, 0.01675, 0.0026, 0.01195, 0.00505, -0.00664, 0.014, -0.01669, 0.0102, 0.00364, -0.00307, 0.01149, 0.03312, 0.02282, 0.02547, -0.01278, -0.00923, -0.01348, 0.01907, 0.00365, -0.00887, 0.00697, 0.00535, 0.00045, 0.01612, 0.00396, -0.0051, 0.01649, 0.00443, 0.02135, -0.01736, -0.00131, 0.00719, 0.00044, 0.00165, -0.00698, -0.04054, -0.01251, 0.02237, -0.0118, 0.01976, -0.00788, -0.00153, 0.00065, 0.01023, -0.00538, 0.00232, -0.01879, 0.01078, 0.01094, 0.01995, 0.01313, -0.02647, 0.00772, 0.01652, 0.03775, 0.03109, 0.01092, -0.01139, -0.00676, -0.0056, 0.0244, 0.03648, 1e-05, 0.00786, -0.00673, 0.00668, 0.0458, 0.00156, 0.00823, -0.01381, -0.01824, 0.01715, 0.0258, -0.00712, 0.00325, -0.04807, -0.02127, -0.07249, 0.02178, -0.0433, 0.04595, 0.02258, -0.01303, 0.01995, 0.01289, -0.01271, 0.03907, 0.03115, 0.03497, -0.01618, 0.01059, -0.02053, 0.02801, 0.02829, -0.00786, 0.08097, -0.00266, 0.01459, -0.02129, 0.003, -0.01599, 0.00265, -0.05528, 0.00503, 0.0081, 0.00339, 0.00194, 0.00549, 0.02355, -0.02726, -0.01587, -0.0081, -0.00836, -0.029, 0.06588, -0.02694, 0.00484, 0.02705, 0.02917, -0.02076, -0.00237, -0.01057, -0.01315, 0.01656, -0.03389, 0.01121, -0.01327, -0.03422, 0.03423, 0.00155, 0.00747, -0.01105, 0.00183, -0.01225, 0.037, 0.01297, 0.01629, 0.00221, -0.01339, -0.00146, -0.00096, 0.02573, 0.00668, 0.02009, -0.04131, 0.00633, -0.00464, -0.00421, 0.00656, -0.01448, -0.01931, 0.02705, -0.02179, -0.01255, 0.01898, 0.02933, 0.0088, -0.00098, -0.00172, -0.06425, -0.00344, -0.01595, 0.01289, -0.00336, -0.00025, -0.01638, 0.01538, 0.02019, 0.00498, -0.00153, -0.01121, 0.04389, -0.02464, 0.01704, 0.00741, -0.00145, -0.01326, 0.00847, -0.00823, -0.00481, 0.00218, -0.01783, 0.00767, 0.02941, 0.01024, 0.01149, 0.00418, 0.00866, 0.01489, -0.00303, 0.0137, 0.004, 0.01044, 0.0086, -0.04207, 0.0366, -0.03843, 0.01795, 0.02171, 0.04356, -0.00866, 7e-05, -0.02151, -0.01394, 0.0259, -0.01055, 0.00233, 0.00709, -0.00232, -0.04394, 0.02905, -0.02252, 0.01179, 0.03785, -0.00574, 0.00423, -0.02943, 0.00999, -0.00505, 0.01219, -0.0113, 0.00814, 0.01579, -0.03685, -0.02122, 0.01093], "b": [-0.02354, -0.17637, -0.09415, -0.00707, -0.16836, -0.00127, -0.12242, -0.12516, 0.10809, -0.09941, -0.17399, 0.09804, 0.03988, 0.18074, -0.03309, -0.07714, -0.00729, -0.00681, 0.15133, -0.18215, -0.00336, 0.06054, -0.11751, -0.11187, 0.11065, -0.19276, 0.04229, -0.13826, 0.11364, -0.12604, 0.10889, -0.18378], "in": 32, "out": 32}, {"w": [-0.00808, 0.01234, 0.01103, -0.00493, -0.02538, -0.00776, -0.02067, -0.01516, -0.04434, -0.00232, 0.03733, 0.01545, 0.0065, 0.02244, -0.01523, 0.00879, -0.00831, -0.03379, 0.01992, -0.01134, 0.00115, 0.00579, -0.01963, -0.01667, 0.01292, 0.02435, -0.02621, 0.01298, -0.01883, 0.03585, 0.01115, 0.00407, 0.02022, -0.01012, 0.0063, -0.00379, 0.02204, -0.0037, 0.02494, 0.00946, 0.00636, 0.01155, 0.0006, -0.00165, -0.00791, 0.00178, 0.01069, 0.0025, 0.00228, 0.00546, 0.00371, 0.01228, 0.00972, -0.00802, -0.00099, 0.00641, -0.00907, -0.00117, 0.00582, 0.00482, 0.01077, -0.01506, -0.00762, -0.0079, 0.0088, -0.00883, 0.00073, -0.01541, -0.00181, -0.01666, 0.01791, 0.00319, 0.00564, 0.00647, -0.00025, 0.00011, -0.01563, -0.00942, 0.01213, 0.01562, -0.00999, 0.00509, 0.01985, 0.00234, -0.00718, -0.01419, -0.01038, 0.00792, -0.00952, -0.02137, -0.00199, 0.01391, 0.00287, -0.00946, 0.0113, -0.01045, 0.02856, -0.01405, -0.0004, -0.03687, -0.01367, -0.04007, 0.0468, 0.00054, 0.00888, 0.01356, 0.00547, 0.00144, -0.03289, -0.0209, 0.02279, 0.03748, -0.02952, 0.01011, 0.01852, 0.0049, -0.01964, -0.0388, -0.02576, 0.01381, -0.0179, -0.04669, -0.0054, 0.03208, 0.00349, -0.02204, 0.03987, -0.02164, 0.00274, 0.00635, 0.00839, 0.00079, 0.00178, 0.00109, -0.00707, -0.00346, -0.01582, 0.00229, 0.01473, 0.00723, 0.0082, 0.01466, -0.00747, -0.00113, 0.00156, -0.0197, -0.00163, -0.00092, 0.01229, 0.00505, -0.00082, -0.01192, 0.003, 0.01477, -0.00732, 0.00566, -0.0033, 0.0125, -0.00679, 0.00102, 0.00398, -0.00661, -0.00564, -0.00197, 0.00797, -0.00473, 0.0133, 0.00714, 0.02142, 0.00251, -0.02012, -0.00669, -0.00981, -0.01043, 0.00754, 0.00391, -0.00204, 0.01984, 0.00911, 0.00784, -0.00677, -0.00569, 0.00266, 0.0115, -0.00808, -0.01529, 0.01101, 0.00364, 0.00705, -0.01942, 0.00254, -0.00673, -0.0008, -0.00533, -0.00557, -0.00271, -0.00517, -0.0061, 0.00491, 0.00582, 0.01964, 0.00179, -0.02049, -0.00558, -0.00596, -0.01082, 0.00736, 0.00498, -0.00485, 0.01607, 0.01746, 0.00118, -0.0047, -0.00752, -0.00126, 0.0089, -0.00559, -0.02269, 0.01049, 0.00105, 0.00298, -0.01447, 0.00191, -0.00394, 0.02042, 0.00352, 0.01935, 0.00948, 0.03023, 0.01382, 0.00117, 0.00496, -0.03041, 0.01109, 0.02577, 0.00638, 0.01513, 0.02784, -0.00542, -0.01842, 0.01754, -0.02318, -0.03906, 0.00914, 0.03178, 0.00886, 0.00706, -0.01975, 0.00548, 0.03804, 0.00049, -0.00906, 0.00248, 0.01244, -0.02481, 0.00731, 0.002, 0.00838, 0.00838, 0.00463, 0.00457, 0.00538, -0.01146, -0.00038, -0.02391, 0.00208, 0.0161, 0.00871, 0.00951, 0.01337, -0.00983, -0.00856, 0.00543, -0.01578, -0.0279, -0.00444, 0.01027, 0.0055, -0.00227, -0.01422, 0.01149, 0.01507, -0.00436, -0.00524, -0.00975, 0.01781, -0.00418, 0.0097, -0.06394, 0.02496, -0.01899, -0.00206, -0.07373, 0.00232, -0.05892, -0.02718, 0.00781, -0.02894, -0.01919, 0.0091, 0.00971, -0.01881, -0.02815, 0.0056, -0.01817, -0.00242, 0.02842, -0.0399, -0.04428, 0.01628, -0.01577, -0.00234, 0.02773, -0.01547, -0.0219, -0.00035, -0.03457, 0.03051, 0.02065, 0.01604, -0.02302, 0.00108, -0.01257, -0.00098, -0.02329, 0.00053, -0.01686, -0.00463, 0.01867, -0.01123, -0.0192, -0.0036, -0.00178, -0.01562, -0.001, 0.00438, -0.00426, 0.01296, 0.01889, -0.00977, -0.02069, 0.00229, -0.0008, 0.00845, 0.00261, -0.01694, 0.00314, -0.00206, -0.00695, 0.00024, 0.00516, 0.00156, 0.00991, -0.00886, -0.00137, 0.00577, 0.0255, 0.00481, 0.01328, 0.00371, 0.01442, 0.00411, -0.00799, -0.00845, -0.00308, 0.00087, 0.00766, -0.00451, 0.00617, 0.00932, 0.00048, 0.01207, 0.00874, -0.00025, 0.00702, 0.00644, -0.01059, 0.00632, 0.0102, -0.00314, 0.01375, -0.01809, -0.01229, -0.00496, 0.02364, -0.01173, 0.00416, -0.00062, 0.02067, -0.00211, 0.02444, 0.01138, 0.00194, 0.01119, 0.00494, -0.00294, -0.00386, 0.0049, 0.01258, 0.00162, 0.00416, 0.00168, -0.00279, 0.01679, 0.01441, -0.00939, 0.00539, 0.00252, -0.01531, -0.00063, 0.00756, 0.00516, 0.01532, -0.0153, -0.00791, -0.00865, 0.03784, 0.00295, 0.01071, 0.0037, -0.02418, 0.00866, 0.01636, -0.01946, -0.01625, -0.00166, -3e-05, 0.00158, 0.02032, 0.00314, 0.01268, -0.0297, 0.00852, -0.00169, 0.02893, 0.00311, 0.01809, -0.00622, 0.01151, -0.00437, 0.00606, 0.02542, 0.01832, -0.01959, 0.00438, -0.00653, -0.01326, 0.01095, 0.04038, -0.02179, 0.00052, -0.00492, 0.04435, -0.01402, 0.05161, 0.02771, 0.02205, 0.02058, -0.00527, -0.01609, -0.02094, -0.00413, 0.02496, 0.01043, 0.00571, 0.02203, -0.00334, 0.03021, 0.01569, -0.02189, 0.01238, 0.01581, -0.02637, -0.02112, 0.02241, 0.00487, 0.0276, -0.03607, 0.004, -0.01904, -0.01537, 0.00886, -0.00206, -0.02125, -0.0477, -0.02, -0.0092, -0.01929, -0.01409, -0.0071, 0.01275, 0.01555, -0.00966, -0.01298, -0.00811, 0.02338, -0.02652, -0.01321, 0.01432, -0.0215, -0.02777, -0.01005, -0.02533, -0.00497, 0.00904, -0.02399, -0.02588, 0.02205, -0.02122, 0.01941, 0.03976, -0.00217, 0.00848, -0.002, -0.00058, -0.01683, -0.0061, -0.01554, 0.01322, -0.00393, 0.0064, 0.00205, 0.00175, 0.00249, -0.01088, -0.00579, 0.01097, 0.0162, -0.01571, 0.00586, -0.01828, -0.00314, -0.01334, -0.01568, -0.01201, 0.00625, -0.0056, -0.02002, -0.00566, 0.0135, -0.0012, -0.00787, 0.01651, -0.00547, 0.00914, -0.00621, -0.00189, -0.02296, -0.00667, -0.02083, 0.02142, -0.00222, 0.00814, 0.00697, 1e-05, 0.0014, -0.01681, -0.01111, 0.00638, 0.02009, -0.01597, 0.00559, 0.01113, 0.00024, -0.01359, -0.01794, -0.01654, 0.00693, -0.00748, -0.02326, -0.00365, 0.01737, -0.0014, -0.01188, 0.01819, -0.01073, -0.0377, 0.01706, -0.00834, 0.0154, -0.01627, 0.02041, -0.04365, -0.01387, 0.00407, -0.01798, -0.01067, 0.00151, 0.01837, 0.00419, -0.02093, -0.01699, 0.00663, -0.00405, -0.01452, -0.01831, -0.00953, 0.02384, 0.00152, -0.00545, 0.02009, 0.02043, -0.00298, -0.01711, -0.01708, 0.01868, -0.0194, 0.01824, -0.02473, 0.01281, -0.00592, -0.00171, -0.01485, 0.00513, -0.02245, -0.02067, 0.00498, -0.0113, -0.00338, 0.00794, 0.00344, -0.00438, -0.01513, -0.00133, -0.00902, -0.00499, -0.02948, -0.01866, -0.01627, 0.00709, -0.01789, -0.00397, 0.01529, 0.00597, -0.01016, 0.00116, -0.01999, 0.00925, -0.00605, 0.0083, -0.0082, 0.00234, -0.00579, -0.01199, -0.016, -0.01229, -0.00012, -0.01123, 0.00362, -0.00392, 0.00126, 0.00403, -0.01179, -0.01404, -0.00242, 0.01172, -0.01396, 0.00313, -0.01536, -0.01277, -0.01987, -0.00959, -0.01612, 0.00099, 0.00248, -0.01707, -0.007, 0.00621, -0.01051, 0.00258, 0.01886, -0.00241, 0.02557, -0.00996, 0.01005, 0.01228, 0.04187, 0.01015, 0.01664, 0.0154, -0.00719, 0.01124, 0.00788, -0.008, 0.00501, 0.01854, 0.01, -0.01446, 0.01982, 0.00095, -0.00788, 0.02102, 0.02866, 0.00254, 0.01705, -0.00029, -0.01094, 0.02517, 0.01548, -0.01087, 0.01808, -0.00979, -0.02565, -0.0017, 0.03234, 0.0053, 0.01085, 0.01264, -0.01825, 0.01913, 0.00835, -0.01906, -0.01413, -0.00369, -0.00314, 0.00055, 0.02666, 0.00837, 0.00862, -0.03822, 0.01568, -0.00259, 0.02601, 0.00267, 0.02314, 0.00165, 0.01728, -0.00646, 0.0089, 0.03658, 0.0205, -0.02638, 0.00471, -0.00531, -0.02674, 0.01516, 0.0205, -0.00875, 0.00849, 0.0008, 0.02184, -0.00233, 0.01606, 0.00678, -0.01017, 0.0087, 0.00991, -0.00212, -0.00519, 0.00802, 0.01104, -0.00077, 0.00536, -0.00225, -0.0111, 0.01209, 0.01613, -0.00649, 0.00117, -0.00196, -0.00962, 0.0063, 0.0056, 0.00335, 0.00783, -0.00469, -0.00656, -0.00533, 0.0265, -0.01182, 0.00753, -0.00254, 0.0236, -0.00629, 0.02467, 0.00913, -0.00823, 0.01101, 0.01101, -0.00228, -0.00719, 0.00535, 0.01274, 0.00045, 0.00512, 0.00115, -0.00861, 0.01333, 0.01254, -0.00794, 0.00466, 0.00242, -0.01155, 0.00238, 0.00681, -0.00047, 0.01112, -0.01133, 0.00054, -0.00731, -0.02749, 0.0199, 0.00789, -0.01059, -0.05547, -0.00238, -0.03674, -0.02916, -0.042, -0.01309, 0.03072, 0.02268, 0.01043, 0.00573, -0.02209, 0.00661, -0.01652, -0.03575, 0.00226, -0.02981, -0.01797, 0.00837, -0.02275, -0.02157, 0.02316, 0.01166, -0.03606, 0.01015, -0.03153, 0.04541, 0.02182, 0.01118, -0.005, 0.0091, 0.01125, -0.00141, -0.01359, 0.00731, -0.01473, -0.00784, -0.02298, -0.00062, 0.01411, 0.01063, 0.01069, 0.01054, -0.01123, -0.00695, 0.00192, -0.0187, -0.01307, -0.0063, 0.00313, 0.00888, -0.00345, -0.01608, 0.0117, 0.01761, -0.01092, -0.00029, -0.01153, 0.01953, -0.00378, 0.00762, 0.00554, -0.00451, -0.00554, -0.01294, -0.00773, -0.0092, 0.01774, -0.00058, 0.01425, 0.00342, -0.00767, -0.00011, -0.0094, -0.01266, 0.00337, 0.01255, -0.01233, 0.00697, 0.00372, 0.00286, -0.00978, -0.01157, -0.01257, 0.00828, -0.00426, -0.01636, 7e-05, 0.01377, -0.00033, -0.01528, 0.00875, -0.00723, 0.01549, -0.00708, 0.00014, -0.01052, 0.00098, -0.01827, 0.02318, 0.00166, 0.00237, 0.00756, 0.00685, 0.00095, -0.01798, -0.00656, 0.0116, 0.01849, -0.01321, 0.00241, 0.00377, 0.00392, -0.00611, -0.01935, -0.0135, 0.00555, -0.00893, -0.01938, -0.00252, 0.01602, 0.00186, -0.0096, 0.01805, -0.01055, 0.01716, -0.01186, -0.00055, -0.01133, -0.00433, -0.01952, 0.02467, 0.01515, 0.00194, 0.01002, 0.00429, -0.00553, -0.01486, -0.0037, 0.01335, 0.01756, -0.00483, 0.00683, 0.02585, 0.0118, -0.00257, -0.01666, 0.00408, 0.00756, -0.01602, -0.02521, 0.0019, 0.01034, 0.01078, -0.00914, 0.02378, -0.01366, -0.01064, 0.00968, 0.00058, -0.00867, -0.02044, -0.00709, -0.01246, -0.01193, -0.01031, -0.00311, 0.00665, 0.01239, -0.00028, 0.00111, -0.01204, 0.00932, -0.01246, -0.01357, 0.01022, -0.01077, -0.0098, 0.00061, -0.01571, -0.00776, 0.00921, -0.00344, -0.0156, 0.01464, -0.01514, 0.01364, 0.0142, 0.00141, -0.01913, 0.00437, -0.00869, -0.00044, -0.01586, 0.00085, -0.01082, -0.00629, 0.02098, -0.01044, -0.02466, -4e-05, -0.00141, -0.01414, -0.00438, 0.00093, -0.00696, 0.01187, 0.0071, -0.01003, -0.01476, 0.00399, -0.0035, 0.00687, 0.00472, -0.01574, -0.00125, 0.00128, -0.00587, -0.00781, 0.0075, 0.00256], "b": [0.0834, -0.07329, -0.09952, -0.05369, 0.04289, -0.02929, 0.09144, -0.16811, -0.09182, 0.17614, 0.01169, 0.01081, 0.03049, -0.049, -0.06893, 0.05452, -0.02678, -0.11797, 0.02512, 0.14114, -0.00857, -0.12898, 0.02774, -0.09123, 0.12561, -0.10461, 0.13655, 0.09932, -0.12762, 0.12342, -0.20799, -0.00407], "in": 32, "out": 32}, {"w": [-0.12932, -0.06114, -0.1308, 0.14415, -0.14549, 0.15476, -0.1393, -0.16174, 0.13935, -0.0587, 0.06723, 0.12355, 0.12944, 0.09041, -0.00182, 0.0781, 0.09144, -0.09537, -0.05215, -0.10601, 0.09193, 0.07688, 0.09378, -0.0112, -0.07205, 0.11416, 0.1558, -0.11939, -0.06652, -0.10444, -0.13645, 0.10199, 0.0354, -0.00111, 0.12078, -0.15874, -0.01055, 0.11897, -0.02513, -0.13502, 0.09119, -0.08278, 0.05148, 0.12245, -0.04434, -0.0697, 0.05315, 0.23473, -0.12542, 0.13285, 0.16224, 0.14641, -0.16787, -0.1846, -0.07747, 0.01564, -0.03846, 0.1484, 0.16275, 0.08837, 0.12987, 0.07753, -0.12367, -0.05352, -0.03754, 0.16474, 0.17958, -0.12242, -0.04295, 0.07757, -0.09554, -0.02414, 0.02558, 0.17272, 0.17395, -0.04954, -0.19133, -0.09168, 0.15104, 0.12856, -0.04867, 0.12838, 0.05916, 0.13074, -0.04942, -0.00041, -0.09808, 0.17059, 0.158, 0.14475, 0.07966, 0.08591, 0.16319, 0.18799, -0.09534, 0.12508], "b": [-0.22601, -0.22624, -0.0004], "in": 32, "out": 3}], "psnr": 44.95}