{"hidden": 32, "omega0": 30.0, "layers": [{"w": [-0.26312, 0.40819, 0.09105, 0.16173, 0.4156, -0.41561, 0.42359, 0.00836, -0.30216, 0.16359, -0.10954, -0.20422, -0.05235, -0.14262, 0.4144, 0.41336, -0.00222, -0.43083, -0.01213, -0.01583, 0.40184, -0.00205, 0.12404, 0.17998, -0.30966, -0.24399, -0.41308, 0.00223, 0.09615, 0.00196, 0.42982, 0.00818, -0.31821, 0.01046, -0.15898, -0.03512, 0.47055, -0.00283, 0.47719, -0.00411, -0.04642, 0.41407, -0.30229, 0.01254, 0.08841, 0.19352, -0.42132, -0.00747, -0.15286, 0.29772, 0.07478, 0.18149, 0.25163, -0.01319, -0.05358, 0.41446, -0.41704, -0.41649, -0.00677, -0.25405, -0.01008, 0.40959, -0.01278, -0.40968], "b": [0.42223, -0.11134, 0.05246, 0.1692, 0.48492, 0.71481, -0.4865, -0.26305, 0.31626, 0.56589, 0.62661, 0.62774, 0.12082, -0.62481, 0.08112, -0.44329, -0.65689, 0.64137, 0.5859, -0.7662, 0.1763, -0.07273, -0.1324, -0.35531, 0.26956, -0.45385, 0.27263, 0.38072, 0.46844, 0.26024, -0.7354, -0.42225], "in": 2, "out": 32}, {"w": [-0.05618, 0.08595, 0.06516, 0.03314, 0.05792, 0.0276, 0.0283, 0.02794, -0.01873, 0.03425, -0.01824, -0.07973, -0.04504, 0.02047, 0.05869, -0.01065, -0.00185, 0.03251, 0.02845, 0.02785, -0.00777, -0.03517, 0.03594, -0.02344, 0.05631, -0.00865, -0.00429, 0.00679, -0.04019, -0.0812, -0.03385, -0.01132, -0.03228, 0.06643, -0.12947, -0.05216, -0.04272, 0.02961, -0.05171, -0.09443, -0.01994, -0.00719, 0.01307, -0.03801, 0.00517, -0.00056, 0.08333, 0.0442, 0.07238, 0.0503, 0.00954, -0.04182, -0.02096, 0.02953, -0.03347, 0.0165, -0.02167, 0.0569, -0.0412, -0.03981, 0.06258, 0.05005, 0.03739, 0.07799, 0.02291, 0.00395, -0.04611, -0.0464, -0.01363, -0.02049, -0.00565, 0.00912, 0.07931, 0.0, -0.05188, 0.00796, -0.03569, 0.02257, -0.11617, -0.05051, 0.02424, 0.10489, 0.01963, 0.0702, -0.0321, -0.00488, -0.04066, -0.05459, -0.00453, 0.02746, 0.00249, 0.05414, -0.02612, 0.05393, -0.01317, -0.05054, -0.00542, 0.02258, 0.02662, -0.05555, -0.06759, -0.00859, -0.05773, 0.0182, -0.06759, -0.05737, -0.02921, -0.03298, 0.04208, -0.00145, 0.04631, 0.0191, 0.01994, 0.01011, -0.00194, 0.03547, -0.02039, 0.01073, -0.00462, -0.02607, 0.0301, 0.00789, -0.06427, -0.05323, 0.00994, -0.02694, 0.11114, 0.05661, -0.00042, -0.00047, 0.00272, -0.01382, 0.00862, 0.01038, -0.0084, -0.00212, 0.01143, -0.01085, -0.02601, 0.01596, -0.00785, 0.02222, -0.00505, -0.02653, -0.02038, -0.00182, 0.01676, 0.01538, -0.02418, -0.02217, -0.02126, -0.01794, -0.02327, 0.00473, -0.02177, 0.01973, -0.01591, 0.01399, 0.00403, 0.01208, 0.02336, -0.01955, -0.03251, -0.01212, 0.01843, -0.04251, -0.03582, -0.02664, -0.05374, 0.0468, -0.03124, 0.0223, -0.04904, 0.04792, -0.00972, -0.03874, -0.01787, 0.00447, 0.03058, 0.02007, -0.03227, -0.01541, 0.02862, -0.01767, 0.0449, -0.00705, 0.00883, -0.03565, 0.02101, -0.01102, 0.06275, 0.04054, 0.0038, 0.02005, 0.01081, -0.00488, -0.00989, -0.00736, -0.00869, -0.01863, -0.04936, 0.00465, -0.02521, -0.00376, 0.0017, 0.01371, -0.00439, -0.03056, -0.01899, 0.00794, 0.033, 0.02474, 0.01108, 0.02237, -0.00277, -0.01542, -0.02281, 0.01554, 0.02161, -0.04021, -0.00498, -0.01635, 0.0493, 0.03178, -0.01797, 0.00845, 0.03127, 0.02348, 0.00737, 0.01829, 0.01439, 0.04521, 0.0267, -0.01941, 0.02715, 0.03175, -0.00587, -0.00856, 0.01937, 0.0368, 0.0159, 0.00377, -0.01943, -0.0273, 0.00058, 0.02337, 0.01111, 0.03208, -0.02174, -0.01235, 0.01597, 0.03212, -0.0103, -0.00851, -0.00165, -0.02765, -0.00031, -0.00088, 0.00075, -0.00147, -4e-05, 0.00021, 0.00183, -0.00121, 0.02208, -0.00862, -0.04192, -0.00113, -8e-05, 0.02419, -0.00197, -0.01857, -0.00282, 0.00175, 0.01933, 0.01801, -0.01147, 0.00322, -0.00132, -0.01583, 3e-05, -0.00247, 0.00033, 0.00802, -0.0018, -0.0001, -0.04491, -0.02385, 0.02453, -0.00147, -0.03091, -0.00531, 0.01175, 0.02444, -0.00849, -0.02485, 0.01813, -0.02563, -0.00596, 0.00931, -0.07319, 0.02087, 0.01767, -0.02983, -0.01177, 0.00018, 0.02082, 0.0182, -0.01673, 0.01012, -0.01777, -0.03709, 0.02257, -0.00737, -0.01115, -0.00298, 0.01646, 0.00749, 0.01634, 0.01531, 0.033, 0.05281, 0.07428, -0.00959, 0.05432, -0.00427, -0.01904, 0.03911, -0.03246, 0.07262, -0.06605, -0.01946, -0.04215, 0.05341, 0.06518, -0.03034, 0.05245, 0.0414, 0.04693, 0.03395, 0.02589, -0.02712, -0.03579, -0.06235, 0.01573, 0.04596, 0.01576, -0.07015, -0.02553, -0.03371, 0.09694, 0.0714, -0.00156, -0.01904, -0.03247, -0.00988, -0.03192, 0.01509, 0.03189, -0.02758, 0.00672, -0.00444, -0.01038, 0.02065, -0.00292, -0.00841, -0.04611, -0.0098, 0.02838, -0.01846, 0.00875, 0.01125, -0.02724, 0.04545, 0.01772, -0.01417, 0.02478, -0.00998, -0.02918, 0.00118, 0.01464, 0.00806, -0.00559, -0.02301, 0.00556, 0.03812, 0.11421, 0.00639, -0.03071, -0.05568, 0.01574, 0.05599, 0.05379, 0.04863, -0.02046, -0.02775, -0.04314, -0.00822, 0.04166, -0.01929, -0.03086, -0.0468, 0.02193, 0.03486, 0.0348, -0.07071, -0.01033, -0.04345, -0.07026, -0.02113, 0.04648, 0.04624, -0.02209, -0.01784, -0.03123, -0.04339, 0.02748, -0.0316, 0.00223, -0.00744, 0.08855, -0.02281, -0.00163, 0.01855, 0.04266, 0.02364, -0.05803, 0.03899, -0.00833, 0.03914, -0.03526, -0.01928, -0.03089, -0.069, 0.04709, 0.02604, -0.01389, -0.05291, -0.0439, -0.04688, 0.02022, 0.0508, 0.01647, 0.02178, -0.03505, -0.02017, -0.03257, -0.01616, -0.00143, -0.00393, 0.18347, -0.01485, -0.00042, 0.0015, -0.00319, 0.09792, 0.02336, -0.00266, -0.03605, -0.00469, -0.0011, 0.0225, 0.00091, -0.01733, -0.00076, 0.00144, 0.02511, 0.01796, -0.02259, 0.00073, 0.0057, -0.02074, 0.0013, 0.00698, 0.00063, 0.02193, -0.08549, -0.00062, -0.03963, -0.02382, -0.00218, 0.00125, 0.05667, 0.00938, -0.00428, 0.00363, 0.00137, 0.03842, 0.00372, 0.01514, 0.0197, 0.00449, 0.00234, 0.00888, 0.00736, 0.01138, -0.00522, -0.00234, -0.01719, -0.00822, 0.00557, 0.0021, -0.00303, 0.00743, -0.00707, -0.00357, 0.00206, -0.00346, -0.01655, 0.00546, 0.00976, 0.01174, 0.0256, -0.01058, 0.09538, -0.01237, 0.04223, -0.00487, 0.01671, 0.05945, -0.00349, -0.00423, -0.02127, 0.02919, 0.06248, 0.00948, -0.05129, -0.00266, -0.04072, 0.00169, 0.03233, -0.01576, -0.00784, -0.0487, -0.05581, -0.01985, 0.03152, 0.06321, 0.04279, -0.03683, -0.05541, 0.02115, 0.06945, 0.04642, -0.01124, 0.00749, 0.03298, -0.00879, 0.00749, 0.03419, -0.022, 0.01377, -0.00659, -0.00078, 0.00888, -0.00576, 7e-05, -0.00069, 0.01338, 0.01875, 0.02137, 0.00682, -0.02743, -0.01798, -0.00477, 0.00268, -0.01189, 0.02511, 0.00114, 0.01539, 0.00888, -0.00171, 0.02902, -0.00981, -0.02479, 0.00675, 0.02987, 0.04637, 0.16651, 0.04771, -0.0104, -0.02658, -0.04604, 0.1241, -0.00236, -0.03563, -0.00189, -0.04049, 0.00743, 0.012, 0.05331, 0.03744, 0.06398, 0.0673, -0.01701, -0.00161, 0.02244, 0.02291, -0.04324, -0.00479, 0.06385, 0.02329, -0.07291, 0.01403, -0.0709, -0.03304, -0.01408, 0.00213, 0.05984, 0.0703, 0.04012, 0.06436, -0.03735, -0.03046, -0.06068, -0.01414, -0.07108, -0.04256, 0.12322, -0.03156, -0.06354, -0.04821, -0.07649, 0.08504, 0.05982, 0.01707, -0.09459, -0.0361, 0.01911, 0.04562, -0.07467, 0.0587, 0.00906, 0.067, -0.05897, -0.05619, 0.01154, -0.00357, 0.02664, 0.07754, 0.07181, 0.04531, 0.12746, -0.03642, -0.01092, -0.01001, 0.01188, 0.08512, -0.03186, 0.01292, -0.01021, -0.03915, -0.01124, 0.05441, -0.04378, 0.01232, 0.06462, 0.02595, 0.04243, 0.02036, -0.00636, -0.0182, -0.0682, -0.03861, 0.07106, 0.0731, -0.0636, -0.00286, -0.00941, -0.05675, 0.02195, 0.02842, 0.01171, -0.00488, 0.04843, 0.01726, 0.01149, -0.02896, -0.01475, 0.02444, -0.01058, -6e-05, -0.02023, 0.00103, 0.0151, 0.02669, -0.00691, -0.02551, -0.03027, -0.00226, 0.00831, 0.02364, -0.01111, 0.00275, 0.02074, -0.03596, -0.02092, -0.00312, -0.01241, -0.01661, -0.01793, 0.0214, 0.01921, 0.00705, -0.00018, 0.00011, 0.00021, 0.01091, -0.00028, -0.00041, 0.00487, 0.0007, 0.022, -0.0184, 0.03375, -0.00071, -6e-05, -0.03208, 0.00031, 0.01259, 0.00197, -0.00096, -0.01597, -0.01557, -0.01005, -0.00234, -0.00615, 0.02222, -0.00015, -0.00933, -0.00027, 0.00698, 0.00064, -0.00034, -0.04353, -0.02554, 0.05506, -0.00476, -0.02615, -0.03993, 0.01055, -0.01056, 0.0008, 0.0379, 0.04433, -0.04742, 0.00112, 0.03277, -0.00557, -0.02143, 0.03499, 0.00813, 0.049, -0.02469, -0.08027, -0.04673, 0.05562, -0.00844, 0.02671, 0.06098, -6e-05, -0.02715, 0.01914, -0.01837, 0.03451, -0.01022, -0.02367, -0.05238, -0.0281, -0.08066, -0.01205, 0.02487, -0.0906, 0.09446, -0.05531, -0.01858, 0.00738, -0.06445, 0.04313, 0.04816, 5e-05, -0.12354, -0.00817, 0.09218, 0.0471, -0.04127, -0.05716, -0.06116, 0.00396, 0.00402, 0.02693, 0.09407, -0.02817, 0.03517, -0.00653, 0.01292, -0.0254, 0.00639, 0.05306, 0.02178, -0.06256, -0.00986, 0.08351, -0.01713, 0.0371, 0.04172, -0.03577, 0.06862, -0.03855, -0.04592, 0.02939, 0.01058, -0.00168, 0.00594, 0.00328, -0.01274, 0.04108, 0.00652, -0.02958, -0.03779, -0.01443, 0.02534, 0.01934, 0.03136, 0.03884, -0.01029, -0.00698, -0.0082, -0.05918, -0.00647, 0.03777, 0.00797, -0.00012, -1e-05, 0.14235, -0.00957, 0.00025, -0.00043, -0.0027, 0.08665, -0.00052, 0.01031, -0.01069, -0.0002, -0.00033, -0.01312, 0.00043, 0.00407, 0.00034, -0.00051, 0.01485, 0.01238, -0.00711, -0.00051, 0.00168, -0.00206, 0.00016, 0.00346, -0.00013, 0.00677, -0.05647, 6e-05, -0.00217, 0.00082, -0.01539, 0.02029, 0.04045, -0.06991, -0.0242, 0.04581, -0.01983, 0.03933, -0.052, 0.01345, -0.03497, -0.02341, 0.03542, 0.03346, -0.04648, -0.02468, 0.02714, 0.02552, 0.0145, 0.02052, 0.0718, 0.04317, 0.00918, -0.03237, 0.10251, -0.00519, -0.041, -0.05109, -0.0556, -0.03765, 0.05591, 0.04047, -0.00389, -0.00131, -0.02447, -0.03825, -0.00158, -0.00217, 0.0174, -0.00497, -0.00861, -0.00615, -0.03569, -0.01861, -0.00492, 0.02877, -0.01999, -0.01504, 0.02162, 0.00362, 0.00139, 0.01556, 0.00574, 0.02906, 0.01158, -0.04, 0.03427, 0.00655, 0.00038, -0.01947, 0.03349, -0.00689, -0.00035, 0.02455, -0.00151, 0.01026, -0.06873, 0.00978, 0.0035, 0.01952, 0.03183, 0.00457, 0.02347, 0.07788, 0.02135, 0.0062, 0.04048, -0.01144, 0.07089, -0.00102, -0.01661, -0.01111, 0.02014, 0.00944, -0.01731, 0.05776, 0.03022, 0.02359, -0.02149, -0.00724, -0.0227, -0.03173, 0.02604, -0.03869, 0.01177, -0.00405, 0.00468, 0.03945, -0.09827, -0.02003, -0.01307, 0.01764, 0.00498, -0.05325, -0.0177, 0.08463, -0.08229, -0.04042, 0.04904, 0.06704, 0.04978, -0.06777, 0.04756, 0.02884, 0.03967, 0.05888, 0.0182, -0.03826, 0.0037, -0.04756, -0.03353, -0.03656, -0.0273, -0.02729, 0.00377, -0.06745, -0.10864, 0.01719, -0.03332, -0.01214, 0.01675, 0.03621, -0.03422, 0.0033, 0.1071, 0.01144, -0.08002, 0.02969, -0.13028, 0.0475, 0.03779, 0.07438, 0.03684, -0.10622, 0.01836, -0.02734, 0.11748, 0.06624, 0.04851, -0.00604, 0.0338, -0.05319, -0.02935, -0.03358, -0.03776, -0.07813, -0.0278, 0.01029, 0.10816, 0.06683], "b": [-0.11566, -0.15473, -0.13872, 0.06814, -0.16709, -0.081, -0.1058, -0.0959, 0.04598, -0.11285, -0.19119, 0.11669, -0.02173, 0.12584, -0.06919, -0.10336, -0.00093, -0.01202, 0.19218, -0.10766, -0.0246, 0.08007, -0.06915, -0.05975, 0.09869, -0.1116, 0.00585, -0.1344, 0.09819, -0.22515, 0.04256, -0.13383], "in": 32, "out": 32}, {"w": [-0.00334, -0.00019, 0.00112, 0.00175, -0.00064, 0.00173, 0.00034, -0.00355, -0.03315, 0.00188, -0.00225, -0.00177, 0.00252, 4e-05, 0.00376, 0.00265, -0.00013, 0.00217, 0.00165, -0.00242, 0.00179, 0.00072, -0.03658, -0.00151, -0.00143, -0.00243, -0.01496, -0.00215, 0.00155, 0.00136, 0.00198, -0.00033, 0.03304, 0.02966, -0.0216, 0.01551, -0.01817, 0.02014, -0.00854, 0.00032, -0.0251, 0.03521, -0.01092, -0.00733, 0.00599, 0.02516, 0.01874, -0.02224, 0.01961, 0.00569, -0.03579, 0.01381, 0.01604, 0.0232, -0.02219, -0.00659, -0.03967, -0.00367, -0.04035, -0.00836, -0.00397, -0.00559, 0.01092, -0.02166, -0.00113, -0.00039, 0.00143, -0.00156, 0.00139, -0.00032, -0.00026, 0.00018, -0.03358, -0.00197, -0.0002, 0.00194, -0.00029, 0.00132, 0.00491, -0.00059, -0.00014, -0.00044, -0.00146, 0.00037, 0.0008, 0.00228, -0.03821, -0.00207, 0.00157, 0.00052, -0.01515, 0.00167, 0.00072, 0.00138, -0.00184, -0.00098, 0.0009, -0.00018, 0.00044, 3e-05, 0.0005, 0.00092, -0.00353, 0.00025, 0.07811, 0.00093, -0.00372, -0.00155, 0.00037, -0.00052, -0.04363, -0.01358, 0.0022, -0.00047, -0.0019, -0.00201, 0.00144, -0.00083, 0.11467, -0.00021, 0.00135, 0.00038, 0.09716, -0.0029, 0.00165, 0.00177, 0.00165, -0.00159, 0.00018, 0.001, -0.00099, -0.00034, -0.00072, 0.00115, 0.00448, -0.00231, -0.02089, 0.00081, 0.00198, 0.00048, -0.00195, 0.00215, 0.01644, 0.00743, -0.0025, 0.00491, -0.00019, 0.00225, -0.00236, -0.0007, -0.03215, -0.00129, -0.00063, -0.00207, -0.03593, 0.00175, 0.00243, -0.002, 0.00334, -0.00114, -0.00025, -0.00071, -0.00123, -0.00054, 0.00072, -0.00125, 0.00056, -0.00091, -0.0362, 0.0008, -0.00057, -0.00021, -0.00088, -4e-05, 0.0065, 0.00141, -0.00089, 0.0009, -0.00107, 0.00129, -0.00284, 0.00024, -0.03655, 0.00277, 0.00019, 0.00121, -0.01156, 0.00045, 0.00112, -0.00228, -0.00057, 2e-05, 0.00207, 0.00359, 0.0017, 0.00098, -0.00173, 0.0008, -0.00258, 0.00078, -0.04357, 0.00133, 0.00232, 7e-05, -0.00129, 0.00021, 0.0061, 0.00018, 0.00102, -0.00065, -0.00063, -0.00059, -0.00065, 0.00189, -0.04635, -0.00019, 0.00186, -0.00118, -0.0091, 0.00253, 5e-05, 0.00182, -0.00065, 0.00175, 0.01996, -0.00024, 0.04491, 0.02875, -0.03997, 0.03401, -0.02771, -0.03682, 0.0117, -0.05849, 0.01642, -0.10801, -0.04964, 0.0086, 0.06157, 0.00586, -0.02292, 0.0816, -0.0337, -0.00963, 0.08662, 0.03154, -0.00934, 0.03756, 0.04478, -0.02252, -0.06499, 0.01982, 0.02594, 0.03741, -0.00515, 0.00675, -0.00265, -0.02826, 0.01213, 0.03008, 0.02059, -0.04884, 0.0471, 0.01434, -0.04589, 0.00711, -0.01453, 0.02809, 0.03753, -0.01323, -0.01244, 0.00827, 0.01463, -0.02122, -0.02, -0.00879, 0.02751, 0.03764, -0.00224, 0.00711, 0.00865, -0.00901, -0.01884, -0.00691, -0.03846, -0.03264, 0.02773, 0.03193, 0.00015, -0.00024, -0.00067, 0.0, 0.00144, 8e-05, 0.00259, -0.00038, -0.0371, 0.0007, -0.00238, 8e-05, 0.00118, 7e-05, -0.00361, 0.00309, -0.00125, 0.00131, 0.00249, 0.00178, 0.00065, -0.00015, -0.03746, 0.00144, -0.00024, -0.00096, -0.00431, -0.00266, -0.00072, -0.00021, 0.00122, -0.00061, -0.00234, -0.00034, -0.00265, 0.0003, -0.00113, -0.00068, -0.00024, 0.00107, -0.09133, -0.00042, 0.00323, -0.00168, -0.00062, -0.00176, 0.02571, 0.01534, -0.00092, -0.0017, -0.00037, 0.00169, -0.00149, 0.00097, -0.11274, -0.00106, 0.0003, -0.00075, -0.06015, 0.00209, -0.00103, -0.00067, -0.00036, 0.00113, 0.00195, -0.0003, 0.00051, -0.00137, 0.00812, 0.00223, -0.00146, 0.00089, 0.02954, 0.00276, -0.00219, 0.0011, 2e-05, 0.00091, -0.0083, -0.00459, 0.00101, -0.00016, -0.00149, -0.0031, 0.00369, -0.00084, 0.0361, -0.00016, 0.00198, -0.00013, 0.02132, 0.00061, -0.00046, 0.00315, -9e-05, -0.00026, 0.00037, 0.00223, 0.00099, -0.00316, 0.0011, 0.00015, 0.00453, -0.00233, 0.03064, -0.00277, 0.00258, 0.00046, 0.00218, 0.00182, -0.01422, -0.00684, -0.00236, 0.00563, -0.00061, 0.00455, 4e-05, -0.00095, 0.0411, -0.00055, -0.00127, -0.00206, 0.02593, 0.00235, -0.00025, 0.00101, -0.00083, -0.00026, 0.01605, 0.06553, 0.0217, -0.03747, -0.0477, 0.01175, 0.03483, 0.01124, -0.10009, -0.03026, 0.01145, -0.03271, -0.02898, 0.01171, 0.01234, 0.07248, -0.06461, 0.01858, -0.00239, 0.01364, -0.05076, 0.02971, -0.04744, 0.00387, 0.07482, 0.0474, -0.03643, 0.02248, -0.04132, 0.00399, -0.02662, 0.05349, -0.01042, 0.0299, -0.0117, 0.00087, -0.06344, -0.028, 0.01117, 0.10483, -0.00712, -0.04933, -0.038, 0.00528, 0.05234, 0.0054, 0.01729, 0.02965, 0.02105, -0.0309, -0.05217, -0.11215, 0.03975, 0.04127, 0.01447, -0.0217, -0.01816, 0.01698, -0.01971, -0.00415, -0.00774, 0.01675, 0.05448, 0.04441, 0.00034, 0.0028, -0.00168, -0.00243, -0.00026, 0.00041, -0.00069, -0.00054, -0.03054, -0.0021, 0.00245, -0.0017, 0.00188, -0.00086, 0.00061, 0.00507, 4e-05, -0.00158, 0.00051, -0.00071, 0.0028, -0.00113, -0.03533, 0.00076, 0.00086, -0.00057, -0.01369, -0.00018, 0.00127, -0.00037, -0.00115, 0.00359, 0.00143, 0.00029, 0.00148, 0.00046, 0.001, 0.00047, -0.00198, -0.00062, 0.13762, 0.00165, -0.00411, -0.00035, 0.00066, 0.00202, -0.04972, -0.02691, 0.00196, 0.00206, -0.00078, -0.00215, 0.00177, -0.00061, 0.17286, 0.00151, 0.00101, 0.00043, 0.1212, -0.0036, 0.00137, 0.00208, -0.00046, -0.00153, -0.00336, 0.00078, 0.00099, 0.00093, -0.00143, -0.00034, 0.00224, -0.00124, 0.03003, 0.00061, -0.00212, -0.00138, 0.00175, 0.00231, -0.00813, -0.00286, -0.00071, 0.00386, -0.00031, 0.0004, -0.00172, 0.00071, 0.03585, -0.00134, -0.00203, 0.00086, 0.01873, -0.00454, -0.00055, -6e-05, -0.00254, 0.00162, -0.00017, 0.00284, 0.00256, 0.00145, 0.00022, -0.00203, -0.00139, -0.00317, -0.04117, 0.00064, -0.00171, 0.00024, -0.00028, 0.00038, 0.00779, -0.00307, -0.00044, 0.00157, -0.00031, -0.00056, -0.00402, 0.00116, -0.04354, 0.00044, -0.0012, 0.00078, -0.012, 0.00068, 0.00185, 0.00029, 0.00058, -0.00168, -0.00103, 0.00155, -0.00137, -0.00188, 0.00096, -0.00215, -0.00139, 0.00081, -0.03235, -0.00285, 0.0011, 0.00203, 0.0, -1e-05, 0.01246, 0.00061, 0.00197, -0.00665, 0.00143, -0.0015, -0.00222, 0.00262, -0.04355, 0.00091, -0.00175, 0.00234, -0.02492, -0.00084, -0.00153, 0.00112, -0.00273, -0.00133, -0.00114, -0.00113, -0.00177, -0.00047, 1e-05, -0.00076, 0.00115, -0.00021, -0.03732, 0.00204, 0.00232, -0.00203, 0.00045, -0.00085, 0.01373, 0.00433, -0.00264, -0.00304, -0.001, -0.00084, 0.00066, -0.00402, -0.04018, 0.00047, -0.00425, 0.00074, -0.01786, -0.00072, -0.0015, 0.00131, 0.0024, 0.00187, 0.00106, 0.00216, -0.0007, -0.00219, -0.0006, 0.00224, -0.00114, -0.00354, 0.02966, -0.00055, -0.00301, 0.00075, 0.00014, 0.00133, -0.01109, 0.00143, -0.00017, -0.00058, 0.00122, -0.00279, 0.00462, 0.00068, 0.03965, 0.001, 0.00018, 0.00085, 0.02407, -0.00319, 0.00419, -0.00141, 0.00227, -0.00283, 0.05107, 0.00822, -0.07637, 0.01479, -0.06881, 0.06071, -0.03277, 0.11673, 0.03535, 0.02335, 0.11011, 0.07876, 0.01166, 0.03029, 0.0434, 0.03875, 0.01337, 0.0217, -0.02335, 0.01006, -0.07849, -0.00506, 0.0168, -0.00022, -0.00398, -0.01158, -0.0287, -0.02924, 0.03869, -0.05117, -0.09002, 0.06389, 0.00062, -0.00074, 0.00069, 0.00101, -0.0006, 0.00024, -0.00261, 0.00077, 0.10799, 0.0008, -0.00229, 0.00052, 0.00203, 0.00142, -0.03657, -0.00261, 0.00081, 0.00074, 0.00211, -0.00106, 0.00241, -0.00188, 0.12687, 0.00045, -7e-05, -0.0019, 0.05565, -0.00148, 0.00146, 0.00067, -0.00027, -0.0002, -0.0011, -0.00234, -0.00153, 0.00176, 0.00059, 0.00013, -0.00036, 0.00127, -0.0312, 0.00142, 0.00182, -0.00308, -0.00144, -0.0016, 0.0064, 0.00094, 5e-05, -0.00039, -0.00403, -0.0025, -0.00054, 5e-05, -0.03417, 0.00031, 0.00041, 0.00136, -0.0166, 0.00109, -0.00198, -0.00129, -0.00148, 0.00177, -0.00197, -0.00114, -0.00154, -0.00035, -0.0012, -0.0003, -1e-05, -0.00062, 0.03465, -0.00153, -0.00159, -0.00086, 0.00258, 0.00117, -0.00271, -0.00141, 0.00188, 0.00182, -0.00112, -0.00032, -0.00182, -0.00259, 0.03841, 0.0007, 0.0005, 0.00085, 0.01132, 0.00039, 0.0015, -0.00188, -0.00199, 0.00057, 0.0004, 0.00059, -0.00103, 0.00407, -0.00479, -0.00081, -0.00324, -0.00131, 0.0303, 0.00354, 0.00222, -0.0028, 0.00065, 0.00117, -0.01828, -0.00479, 0.00249, -0.00274, -0.00127, -0.00365, -0.00374, 0.00354, 0.03394, -0.00111, -0.00553, -0.0001, 0.02914, 0.00011, 0.00053, 0.00093, 0.0028, -0.00098, 0.00686, -0.03516, 0.03313, 0.03824, 0.08894, 0.02262, -0.00175, 0.04272, 0.06554, -0.02338, 0.05697, -0.04025, -0.04991, -0.02439, -0.01334, 0.02457, -0.08855, -0.03996, -0.14711, -0.03394, -0.04173, 0.00582, 0.03494, 0.01514, -0.05016, 0.08463, -0.02285, 0.01254, -0.02169, -0.00435, 0.04181, -0.02076, 0.00302, -0.00179, 0.00208, 0.00149, 0.00224, -0.00139, -0.00353, -0.00166, 0.04343, 0.0011, -0.00148, 0.00416, 0.00221, -0.00176, -0.00551, -0.00461, 0.0001, -0.00344, 0.00281, -0.00388, -0.00142, 0.00131, 0.05121, 0.003, -8e-05, -0.00138, 0.01568, -0.00091, -0.00033, 0.00311, -0.0012, -0.00079, 0.00169, -0.00543, -0.00123, 0.00041, 0.0006, -0.00012, 0.00086, -0.00125, -0.03819, 0.00396, 0.00064, 0.00029, 0.00345, 0.00064, 0.00319, -0.00157, -0.00137, -0.00066, -0.00078, 0.0027, -0.00285, -0.00416, -0.04227, 0.00063, -0.00191, 0.00032, -0.01068, 0.00155, -0.00226, 0.00142, 8e-05, 0.00069, 0.00077, -0.00272, -0.00023, 0.00136, -0.0009, 1e-05, -0.00267, 0.00066, 0.04147, 0.00572, -0.00292, -0.00119, -0.00069, 0.00174, -0.0005, 0.00671, -0.0019, -0.00036, 0.00169, -0.00022, 0.00093, -0.00504, 0.03931, 0.00126, -0.00226, -0.00022, 0.00556, -0.00088, 0.00098, -0.00103, 0.00087, 0.0018, 0.09779, 0.05434, -0.02497, 0.05613, -0.07485, 0.03318, -0.08737, 0.03629, 0.00239, 0.06424, 0.06609, 0.01281, -0.11985, 0.08296, 0.0598, -0.07355, 0.05209, 0.00166, 0.10558, 0.12338, -0.00863, -0.08452, 0.04414, 0.07296, -0.05467, -0.06957, -0.0272, -0.07814, 0.04969, -0.05043, -0.01501, 0.05256], "b": [0.10351, -0.09197, -0.11004, 0.01367, 0.09866, 0.00758, 0.10899, -0.18082, -0.02916, 0.10327, -0.00943, 0.10434, 0.10374, -0.07569, -0.12556, -0.00811, 0.01035, -0.10517, 0.00519, -0.0083, 0.01001, -0.09679, -0.08272, -0.11024, 0.1063, -0.10304, 0.09349, 0.12749, -0.09763, 0.10111, -0.21217, -0.0642], "in": 32, "out": 32}, {"w": [-0.14739, -0.05705, -0.17129, -0.12762, -0.14531, 0.15301, -0.16012, 0.07856, 0.06205, -0.18832, 0.15451, 0.15313, 0.15721, -0.07203, 0.06108, 0.15438, -0.1672, 0.13186, 0.14719, 0.13762, 0.15298, 0.15201, -0.07929, 0.17561, -0.14112, 0.15027, 0.14529, -0.069, 0.14063, -0.16097, -0.14355, 0.07949, -0.12797, -0.04087, -0.15425, -0.11435, -0.11578, 0.13676, -0.13062, 0.05971, 0.04721, -0.15575, 0.15228, 0.13497, 0.1329, -0.05509, 0.0468, 0.14328, -0.15865, 0.13798, 0.14997, 0.12624, 0.12326, 0.14011, -0.06414, 0.17069, -0.14305, 0.13806, 0.1344, -0.05206, 0.13683, -0.14223, -0.13549, 0.06277, -0.1281, -0.03065, -0.1305, -0.10767, -0.12694, 0.13058, -0.13495, 0.04701, 0.03677, -0.11362, 0.15091, 0.11588, 0.12335, -0.04382, 0.03846, 0.12634, -0.14591, 0.11878, 0.11937, 0.12501, 0.12636, 0.13859, -0.05201, 0.16814, -0.12158, 0.12721, 0.11606, -0.04175, 0.12992, -0.12075, -0.12959, 0.05213], "b": [-0.04534, -0.03967, -0.03377], "in": 32, "out": 3}], "psnr": 37.89}