{"hidden": 32, "omega0": 30.0, "layers": [{"w": [-0.3113, 0.35402, 0.15905, 0.11246, 0.40274, -0.44329, 0.37163, 0.13662, -0.33478, 0.12424, -0.1518, -0.21894, -0.0355, -0.2252, 0.46031, 0.44154, -0.02423, -0.4626, -0.03799, 0.05017, 0.34849, 0.02836, 0.13373, 0.11044, -0.26191, -0.30351, -0.46603, 0.0087, 0.12522, 0.01533, 0.48122, -0.11564, -0.34475, 0.09757, -0.11698, -0.06824, 0.50265, -0.02661, 0.45516, 0.09403, -0.18325, 0.33604, -0.2522, -0.002, 0.09572, 0.22888, -0.46261, -0.01133, -0.1499, 0.33421, 0.16351, 0.17424, 0.27459, -0.11882, -0.02055, 0.38766, -0.40153, -0.35327, 0.03725, -0.20966, 0.00668, 0.42127, -0.06468, -0.42063], "b": [0.39687, -0.07397, 0.00727, 0.16643, 0.44366, 0.67651, -0.54448, -0.25154, 0.26515, 0.58768, 0.63404, 0.60894, 0.15018, -0.58277, 0.06376, -0.45904, -0.66109, 0.5982, 0.54522, -0.71613, 0.12279, -0.12855, -0.11152, -0.32681, 0.29049, -0.39778, 0.2719, 0.34607, 0.5169, 0.2682, -0.72591, -0.47743], "in": 2, "out": 32}, {"w": [-0.01061, 0.05264, 0.00084, 0.00419, 0.00119, 0.01178, -0.02097, -0.00492, 0.00059, 0.00442, 0.00478, -0.02315, 0.01845, -0.00533, -0.00216, 0.00715, 0.00728, -0.02675, 0.00693, 0.00103, -0.00571, -0.01359, -0.00514, 0.02592, 0.02829, 0.01084, 0.00277, -0.01056, 0.01086, 0.01976, 0.0043, 0.00613, -0.00272, 0.01275, 0.00762, -0.0069, -0.01614, -0.02854, -0.00181, -0.01445, -0.00206, 0.01657, -0.00894, -0.01498, -0.02255, -0.01512, 0.01402, -0.00975, 0.01757, 0.02475, -0.02833, -0.03684, 0.02254, 0.01619, -0.01306, 0.00173, -0.01157, 0.01106, -0.00283, 0.00867, 0.01576, -0.01644, 0.00836, -0.00125, 0.00175, 0.02725, -0.00793, -0.03959, 0.02106, 0.02016, -0.00543, 0.00221, -0.01306, -0.01446, 0.02381, 0.01597, -0.0116, 0.02226, -0.04155, -0.00635, 0.00336, -0.01684, 0.02096, 0.02278, -0.00996, -0.03319, -0.00805, 0.01252, 0.02427, -0.00264, 0.02275, 0.0126, -0.00426, 0.0064, -0.02507, -0.0101, 0.00674, 0.0065, -0.00453, 0.03966, 0.01, -0.01829, -0.01464, 0.02286, 0.00839, 0.00111, 0.00021, 0.00402, 0.02712, -0.05032, -0.01128, 0.00846, -0.0014, -0.03475, -0.04428, -0.00242, -0.01766, 0.01825, -0.00204, 0.00086, -0.00975, 0.03054, 0.02299, 0.0012, -0.00952, -0.01444, 0.01111, -0.01979, -0.00091, 0.00556, -0.01223, -0.01131, -0.00257, 0.0079, 0.00384, 0.00207, 0.01494, -0.03739, -0.00164, 0.00537, 0.00826, 0.00554, -0.00725, -0.00527, -0.01476, -0.00481, -0.00663, 0.00904, -0.00612, -0.04209, -0.00311, 0.01795, 0.01087, 0.00823, -0.0058, -0.00143, -0.0084, 0.01784, 0.00863, -0.00561, -0.01172, -0.01692, -0.01228, 0.00255, -0.01715, -0.00355, -0.00083, 0.00241, 0.0116, -0.00873, -0.02016, -0.02407, 0.01198, 0.00673, -0.00826, 0.00193, -0.00668, 0.01618, 0.00283, -0.01455, 0.00552, 0.0087, 0.00784, -0.00493, 0.00896, -0.00317, -0.00354, -0.00062, -0.00562, -0.00475, 0.00018, 0.00631, -0.00908, -0.02014, 0.0184, 0.00226, 0.01356, 0.01584, -0.03504, 0.0116, -0.05113, -0.00548, 0.0191, 0.00835, 4e-05, 0.00741, -0.02611, 0.0001, -0.01996, -0.04175, 0.00677, 0.02776, 0.00434, -0.00044, -0.00599, -0.00911, -0.00653, -0.01432, 0.01852, 0.00551, -0.00957, -0.01453, 0.03363, -0.00716, 0.011, 0.03172, 0.03251, 0.00261, 0.03035, 0.06534, -0.02449, -0.00915, -0.00116, -0.02428, 0.00526, -0.02911, 0.00306, 0.011, -0.04392, -0.00841, 0.00489, -0.02716, 0.01044, -0.0064, -0.01752, 0.03677, -0.0508, 0.00815, 0.01413, -0.04366, -0.01319, 0.02646, 0.00974, -0.00532, -0.0164, 0.01542, -0.01535, 0.01468, -0.00944, -0.00773, -0.01457, -0.02772, 0.00453, 0.00964, 0.00715, -0.01844, 0.01196, 0.01675, -0.02125, 0.00655, 0.00711, 0.01269, 0.00922, -0.01753, 0.01458, 0.04048, -0.01324, 0.00471, 0.01555, 0.00801, 0.02133, 0.0334, -0.00982, -0.01036, 0.02621, -0.03023, 0.00221, 0.01265, 0.01744, -0.0196, 0.01604, -0.01633, -0.00224, 0.00982, 0.01635, 0.00136, 0.01197, 0.01061, -0.01837, 0.00186, 0.00743, -0.01284, 0.0177, 0.00677, -0.00702, 0.00388, -0.01644, 0.00532, 0.01098, 0.01745, -0.00769, 0.00577, 0.00488, -0.00361, 0.01, -0.00615, 0.00413, -0.00577, -0.00053, 0.00393, -0.00038, -0.02534, -0.00098, -0.02023, 0.00069, 0.00261, -0.02852, -0.0027, 7e-05, 0.01819, 0.00303, 0.02638, -0.00478, 0.00394, -0.02978, 0.02204, -0.00388, 0.00431, 0.00416, -0.04071, -0.01535, -0.01944, -0.0069, -0.02329, -0.00969, -0.02202, -0.00678, 0.01256, -0.01466, -0.00107, 0.00718, 0.00412, 0.02514, -0.00182, 0.00214, 0.04319, 0.00235, -0.01371, 0.0051, -0.00291, -0.01582, 0.02425, 0.01718, -0.03003, -0.01753, 0.00063, -0.04111, -0.01332, 0.03158, 0.00446, -0.01026, -0.02941, -0.00829, 0.00695, 0.02953, -0.01771, -0.01318, 0.03236, 0.00241, -0.00453, 0.00694, 0.01863, 0.01409, -0.00691, -0.00178, -0.01907, 0.01262, -0.00955, 0.01364, -0.02654, 0.00155, 0.00114, 0.01087, -0.00849, 0.00682, -0.02558, -0.02773, 0.00795, -0.04328, -0.00745, 0.03106, -0.02137, 0.02165, -0.00247, 0.00531, 0.01287, 2e-05, -0.001, 0.00422, 0.00538, 0.01013, 0.00345, 0.00531, -0.01205, -0.02748, -0.01538, -0.0028, 0.02256, -0.0032, 0.00223, 0.01506, -0.00332, 0.02588, -0.00494, -0.01228, 0.00104, 0.01763, -0.02258, -0.01114, -0.02899, -0.0252, 0.00265, -0.00075, -0.00927, -0.02321, 0.02318, 0.00736, 0.00354, -0.02298, -0.03276, -0.02772, -0.00566, -0.00272, 0.00464, 0.01102, 0.00039, 0.0052, 0.0133, 0.03205, 0.0177, 0.03286, -0.00345, 0.01283, 0.01647, 0.01042, 0.00498, -0.00856, 0.00362, -0.02673, -0.00835, -0.00786, -0.00662, 0.0109, -0.02085, -0.01612, -0.02254, 0.0217, 0.02547, -0.01499, -0.00347, -0.0185, 0.00694, 0.00318, 0.01402, 0.00518, -0.02185, -0.00772, -0.03437, -0.00565, -0.00821, 0.00701, -0.02331, 0.0115, 0.02591, 0.00017, -0.00458, 0.0014, 0.01046, -0.00387, -0.00853, 0.00893, -0.02423, 0.00437, -0.00577, -0.02663, -0.01999, -0.01474, -0.0014, -0.033, -0.0087, -0.00931, -0.00402, -0.0015, 0.00311, 0.00684, -0.00053, 0.01908, 0.00844, 0.00378, 0.00934, -0.00705, 0.00187, -0.00985, -0.0094, -0.00776, 0.00376, -0.01245, 0.01735, -0.00895, 0.00457, -0.01946, 0.00479, 0.0139, -0.00745, 0.00856, -0.00098, -0.01298, 0.01763, -0.00486, -0.00793, 0.01215, 0.00677, -0.03079, -0.00373, -0.01636, 0.00239, 0.01801, -0.00013, 0.01314, 0.00825, -0.01186, 0.01314, -0.01297, -0.01579, 0.00405, 0.02026, 0.00884, -0.01506, 0.00275, -0.01629, 0.0199, 0.01344, -0.00739, -0.01571, -0.01168, -0.01731, 0.00257, 0.01224, -0.016, 0.00473, -0.00967, 0.01096, 0.03356, 0.0196, 0.02378, 0.00301, 0.00232, 0.00847, 0.00979, -0.0068, 0.00847, 0.01148, 0.00374, 0.01238, -0.00274, 0.0104, -0.0165, 0.01462, 0.00089, 0.00551, 0.00918, -0.00612, 0.0069, -0.00801, -0.00773, 0.00334, 0.01596, -0.01116, 0.00385, -0.00686, -0.03264, -0.00025, -0.00588, -0.00486, -0.00658, 0.00204, 0.00246, 0.00584, 0.01524, 0.02037, -0.00307, 0.0192, 0.00659, 0.0014, -0.00818, 0.00014, -0.01051, -0.00214, 0.01363, 0.01529, 0.01962, -0.00692, -0.01138, -0.02037, 0.00707, -0.00378, 0.00681, 0.00277, -0.00097, 0.00341, 0.017, 0.01895, -0.02067, -0.00522, 0.01365, 0.0015, 0.00267, 0.00837, 0.00172, 0.02595, -0.00806, -0.00287, 0.01846, -0.00786, 0.00594, -0.00533, -0.00976, -0.00704, 0.00903, -0.00703, -0.0076, -0.01701, 0.00447, -0.03332, 0.01574, 0.0345, 0.00749, 0.01326, 0.01071, -0.0246, 0.01207, 0.01755, -0.0045, 0.00124, 0.01262, 0.02865, 0.00823, -0.00967, -0.00375, 0.01087, 0.00887, -0.00388, -0.00239, 0.0077, -0.00734, 0.00557, -0.01289, 0.01608, -0.01439, -0.01247, 0.00292, -0.00375, 0.01797, -0.01669, 0.01117, 0.00249, 0.01037, -0.00232, -0.0141, 0.00711, 0.00958, -0.01446, 0.00764, 0.02149, 0.00609, 0.02017, 0.01687, 0.00441, -0.03243, 0.01692, 0.00471, -0.0124, -0.00436, 0.02637, -0.01714, 0.01698, 0.00089, -0.00791, 0.0126, 0.00823, 0.00736, 0.01684, 0.01529, -0.00057, -0.00084, 0.00227, -0.01281, 0.0317, -0.00847, -0.01631, -1e-05, 0.0016, 0.01091, 0.0113, 0.00678, 0.03576, -0.00164, -0.01416, 0.01838, -0.00197, 0.00612, 0.00711, 0.00265, 0.00169, 0.02586, -0.00922, 0.01807, -0.0061, -0.02475, -0.01193, -0.00341, -0.01888, 0.00795, -0.01177, -0.00192, -0.00462, 0.03059, -0.00447, -0.0058, -0.03087, -0.0346, 0.02075, -0.0015, 0.00257, -0.01896, 0.01098, -0.00917, 0.01798, -0.01695, -0.01696, -0.05107, 0.04616, 0.02306, -0.02318, -0.02153, -0.00358, 0.01527, 0.00749, 0.02088, 0.01344, -0.02481, -0.01737, -0.02471, 0.03546, 0.02271, 0.02261, 0.00075, 0.01619, 0.03908, -0.07151, 0.00617, 0.0218, 0.00236, 0.00744, -0.01885, 0.00453, 0.00293, -0.0115, -0.02205, 0.00555, 0.01944, -0.01527, -0.03725, -0.00347, -0.01818, 0.04068, 0.0005, -0.01185, -0.00982, 0.01077, 0.00658, -0.0135, 0.01714, -0.02958, 0.01213, 0.02081, -0.02117, -0.0042, 0.00036, 0.03047, 0.00574, 0.02355, -0.0166, -0.017, -0.00953, 0.01412, 0.00996, 0.02386, -0.00659, -0.00042, -1e-05, -0.01211, -0.00056, -0.00945, -0.00247, 0.00231, 0.00608, -0.01053, 0.00159, 0.00886, -0.01226, 0.00589, 0.00271, -2e-05, -0.00104, -0.00547, 0.00644, 0.0061, -0.00704, 0.01187, -0.00613, 0.00854, -0.00884, 0.01989, -0.00448, 0.00466, -0.01624, 0.01714, -0.00858, -0.00513, -0.00324, -0.03609, -0.00041, -0.01231, 0.00281, -0.01852, -0.00531, -0.01048, -0.00524, 0.00866, 0.0052, -0.02228, 0.00871, -0.02618, 0.00358, 0.00358, -0.00363, -0.00157, -0.00791, -0.01131, 0.01359, -0.00421, 0.02165, 0.01726, 0.02695, -0.00015, -0.0001, 0.00259, -0.00188, 0.01406, 0.00091, -0.01741, -0.00724, 0.02424, 0.00272, -0.00143, 0.00129, -0.0032, 0.00916, -0.00739, -0.01078, 0.01264, 0.00067, -0.00883, -0.0099, -0.00732, -0.00034, -0.01969, 0.00095, 0.0077, 0.01789, 0.00294, 0.00778, 0.02019, 0.01081, -0.00142, -0.00316, -0.00994, -0.02401, 0.0031, -0.00036, -0.03056, 0.00997, -0.03754, -0.03859, -0.00227, -0.02034, -0.01702, -0.03235, -0.00035, -0.00644, 0.00115, 0.03748, 0.00515, 0.00313, 0.01097, 0.02657, -0.00274, -0.02936, -0.0016, -0.00301, -0.00413, -0.01873, -0.00745, 0.02435, -0.02006, 0.00307, 0.01007, 0.02293, -0.00848, 0.0024, -0.0163, -0.0109, -0.01696, 0.01096, 0.00599, -0.00832, 0.00912, 0.02333, 0.00039, 0.01814, -0.01046, 0.028, -0.01831, -0.00931, 0.01661, 0.00031, -0.00171, -0.00749, 0.02027, -0.02283, -0.01186, 0.02085, 0.00714, -0.00251, 0.01607, -0.00607, -0.03451, -0.00095, 0.01546, -0.00735, -0.01482, 0.00309, 0.01017, 0.00297, 0.00681, -0.00071, 0.00935, -0.00361, 0.01587, -0.03471, -0.00786, 0.00562, -0.01837, 0.03446, -0.00476, 0.00173, 0.00057, -0.01003, -0.02573, -0.01405, 0.01005, 0.01344, -0.0173, 0.01975, -0.00699, 0.00383, 0.00228, 0.03333, -0.03302, -0.01893, -0.00144, 0.00428, -0.01546, 0.01244, 0.00075, -0.02034, -0.00145, 0.01606, 0.00715, 0.0009, 0.00251, -0.02476, 0.00708, 0.004, 0.00641, 0.02841, 0.00026, 0.02658, 0.02661, 0.00609, 0.02008, -0.02227, 0.01151, 0.02197, 0.00762, -0.01074, 0.02708, 0.01138, 0.00389, -0.01236, -0.02911, 0.00196, 0.00878], "b": [-0.05126, -0.16089, -0.11128, -0.00017, -0.1628, -0.03203, -0.10752, -0.13349, 0.06414, -0.13949, -0.1271, 0.1026, 0.03355, 0.12937, -0.01659, -0.08467, -0.0287, -0.00511, 0.13614, -0.17672, -0.01282, 0.08148, -0.10873, -0.09612, 0.0923, -0.15811, 0.03553, -0.14868, 0.09233, -0.14145, 0.1199, -0.17281], "in": 32, "out": 32}, {"w": [0.01458, -0.01797, -0.00658, -0.01807, 0.0127, 0.00511, 0.01409, 0.01244, 0.00205, 0.01508, 0.02946, -0.00663, -0.00633, 0.02128, 0.0065, 0.02633, 0.01566, 0.00406, 0.02591, -0.01501, -0.01182, 0.03671, -0.00013, -0.0223, 0.00887, -0.02883, -0.02158, 0.0066, -0.02239, 0.01667, -0.00292, -0.005, 0.00114, -0.00269, 0.00483, -0.00105, 0.00978, 0.00352, -0.0007, -0.0042, 0.0019, -0.01564, -0.00109, 0.00441, -0.00232, 0.00261, -0.0075, -0.00355, -0.00259, -0.00503, 0.00887, -0.00591, 0.00579, 0.01538, 0.00539, -0.00819, 0.00278, -0.01705, -0.00157, 0.0103, -0.00476, 0.00335, 0.00936, 0.00695, -0.01133, 0.00186, 0.00308, -0.00441, -0.00093, -0.00749, 0.00501, -0.00437, 0.00086, -0.01078, 0.00331, -0.00116, 0.0031, -0.00057, -0.00153, 0.00043, 0.00789, -0.00644, -0.0104, -0.00383, -0.01516, 0.00132, -0.00759, -0.00833, 0.00274, 0.00923, 0.01121, -0.0096, 0.00128, -0.00435, -0.00063, -0.00573, 0.00672, -0.00368, 0.0042, 0.00295, 0.00717, -0.0138, -0.00088, 0.00945, -1e-05, -0.0118, -0.00018, 0.01082, -0.00857, 0.00077, 0.01156, 0.0033, 0.00232, 0.00201, -0.01513, 0.00171, -0.00854, -0.00013, 0.00069, 8e-05, 0.01225, -0.01329, 0.00339, 2e-05, 0.00408, 0.00259, -0.01486, 0.01108, 0.01518, 0.00477, -0.02763, -0.01259, -0.0008, 0.03043, -0.00465, 0.00651, -0.01769, -0.00976, 0.00152, -0.02803, 0.00299, -0.02187, -0.00061, 0.00052, -0.00948, 0.00246, 0.00538, 0.00848, 0.01235, -0.0004, 0.01236, 0.00144, -0.02603, -0.03156, -0.01618, -0.02193, -0.00904, -0.02442, -0.00176, -0.01631, -0.0024, 0.0113, -0.02182, -0.00832, -0.01184, -0.00983, -0.01558, -0.00072, -0.00405, 0.01683, 0.01029, 0.01541, -0.0125, -0.00162, 0.02055, -0.01779, 0.00236, 0.00337, -0.00957, -0.00178, -0.00706, -0.02298, -0.00414, -0.02156, 0.01135, 0.00374, 0.01744, -0.00351, 0.00126, 0.00708, -0.00258, 0.00545, -0.0146, 0.0184, 0.00452, 0.00357, -0.00446, 0.00851, 0.01795, 0.00486, -0.02967, -0.01378, -0.02283, 0.0012, -0.01778, -0.00793, -0.00214, 0.00324, 0.02099, -0.00794, 0.01463, 0.00015, -0.02086, 0.00464, -0.00731, -0.00685, 0.006, -0.00567, 0.0038, -0.01076, -0.02168, -0.012, -0.0225, -0.00681, 0.02519, -0.0086, -0.00517, 0.00467, -0.00969, -0.00259, -0.00828, 0.00165, -0.01303, -0.0253, -0.01563, -0.00974, 0.02005, 0.02679, -0.00548, -0.00451, -0.00466, -0.00615, -0.00696, -0.008, -0.00686, 0.00556, 0.00828, 0.00744, -0.01104, 0.00973, -0.02188, -0.02825, -0.00094, -0.00039, 0.01372, -0.0256, 0.01264, -0.03066, -0.00656, 0.01595, -0.00036, 0.00849, 0.02359, 0.02667, 0.01227, 0.00171, -0.01849, -0.03833, 0.01849, -0.02023, -0.02208, -0.01609, -0.00352, -0.00366, 0.04789, 0.04481, -0.02504, -0.03243, 0.0241, -0.00746, -0.06338, 0.00312, -0.02368, 0.00578, -0.00551, 0.04604, 0.02144, -0.04657, -0.00563, -0.00128, -0.00108, 0.00156, -0.00376, -0.00425, 0.00257, 0.00165, -0.00648, 0.00136, -0.00416, -0.00662, 0.00391, 0.00814, -0.00351, -0.00168, 0.00409, 0.00873, -0.01471, 0.00713, 0.00518, 0.00093, -0.00319, -2e-05, 0.00896, 0.00185, -0.00489, 0.00429, 0.00295, -0.00363, 0.00105, 0.00016, 0.01624, -0.00844, -0.03107, -0.00137, -0.02954, 0.00472, 0.00261, -0.00952, -0.0112, -0.02583, -0.01314, -0.02787, 0.00218, 0.01736, 0.01214, 0.02373, -0.00222, 0.0098, 0.00293, 0.00792, 0.02276, 0.0175, -0.02455, 0.00255, -0.0097, -0.00936, -0.00732, -0.00215, -0.02882, -0.00463, -0.00589, -0.01496, 0.00049, 0.00595, -0.00793, 0.00529, -0.00503, -0.01034, 0.00397, -0.00142, -0.00154, 0.01121, 0.007, -0.00486, -0.00113, -0.0073, 0.00033, 0.00144, -0.00117, -0.01332, -0.00952, 0.00476, 0.00393, 0.00044, -4e-05, 0.00034, 0.00288, -0.00998, 0.00397, -0.00589, -0.0032, 0.00892, 0.00649, -0.00015, -0.00547, 0.00324, 0.0037, 0.00709, 0.00188, -0.0198, -0.0037, 0.00474, 0.00321, 0.00033, 0.00639, 0.00893, -0.00435, 0.00677, 0.00129, 0.0084, 0.00383, -0.00282, 0.00104, 0.00308, 0.00731, 0.00064, 0.00523, -0.0015, 0.00274, 0.01757, -0.0065, -0.01452, -0.00124, 0.00122, 0.00477, -0.00387, -0.01527, -0.0176, 0.01595, 0.02861, -0.00902, -0.05252, -0.03323, 0.00477, -0.02821, 0.06179, -0.00185, -0.0256, 0.04689, 0.03537, -0.03881, -0.03545, 0.01955, 0.01437, -0.06093, 0.00756, 0.04783, -0.06086, 0.05328, 0.00089, -0.02265, -0.00418, -0.05025, 0.01393, -0.03233, -0.04377, -0.03144, -0.01664, -0.00716, -0.00518, -0.00702, -0.00198, 0.00601, -0.00132, 0.00332, -0.00308, 0.00533, 0.00222, 0.00081, 0.0086, 0.00557, 0.00821, -0.01003, -0.005, -0.00173, -0.00174, -0.01029, 0.0036, 0.00018, 0.00223, -3e-05, 0.00653, -0.00917, 0.00893, 0.00659, 0.00384, 0.00369, 0.00793, -0.00767, 0.00909, 0.0014, 0.02342, -0.01161, 0.0306, -0.02035, -0.01761, 0.01009, 0.0292, 0.04088, -0.0238, -0.00618, 0.02704, 0.02643, -0.01098, 0.00373, -0.03645, -0.03177, 0.02143, -0.04361, 0.02984, -0.01398, -0.0408, 0.03059, 0.01374, 0.01814, 0.05934, 0.00385, -0.00082, 0.01806, 0.00812, 0.0002, 0.0513, -0.03149, -0.01324, -0.04117, -0.01998, 0.04517, 0.0328, 0.02181, 0.04544, 0.02049, -0.01083, 0.0415, -0.01387, -0.01027, -0.03863, -0.01412, 0.0123, 0.02804, 0.01483, -0.01465, 0.04348, -0.00313, -0.00261, -0.03318, -0.04565, 0.0073, 0.04317, -0.01769, 0.00582, -0.02359, -0.00741, -0.04859, 0.0038, -0.00173, -0.00814, -0.01084, -0.00043, 0.00624, -0.0047, 0.00014, -0.00015, -0.00235, 0.00073, -0.00294, -0.00599, -0.00632, -0.00098, 0.00848, 0.00354, -0.00549, -0.00055, -0.00197, -0.00851, 0.00461, 0.00655, -0.00161, 0.00192, 0.0056, 0.00897, 0.00979, 0.01098, 0.00593, 0.00113, -0.00044, -0.00159, 0.01764, -0.01002, -0.00601, -0.00631, 0.00211, 0.00625, -0.00374, 0.01511, -0.01254, -0.00248, -0.01036, -0.00569, 0.00781, -0.01271, 0.00804, -0.0075, -0.00791, 0.00417, -0.01822, 4e-05, -0.00934, -0.00211, -0.00322, -0.00674, -0.01629, 0.01116, -0.00484, -0.01045, -0.00531, 0.0062, 0.01248, 0.00092, -0.07104, 0.02319, 0.03796, -0.0011, -0.02984, 0.03705, 0.02887, 0.01218, 0.0051, 0.04039, 0.04403, 0.05742, 0.03453, -0.02058, -0.00704, 0.02831, -0.04864, -0.0615, 0.00043, 0.01131, -0.02849, 0.01988, -0.0014, -0.01153, 0.02935, 0.00802, 0.01388, 0.07927, 0.02403, -0.00205, -0.02453, 0.03761, -0.01225, 0.02036, -0.00389, 0.03538, -0.0274, -0.01265, -0.00553, 0.00916, 0.00841, -0.01473, 8e-05, 0.0045, 0.01234, -0.00053, -0.0155, 0.01991, 0.01086, -0.01992, 0.01535, 0.02207, 0.01811, -0.00249, 0.00891, 0.00115, -0.01659, 0.02522, -0.01494, 0.00356, -0.01351, -0.02645, -0.02214, 0.01599, 0.00395, 0.01396, -0.02285, -0.02212, 0.05791, 0.02711, -0.01296, 0.02604, 0.00356, -0.01636, 0.00557, 0.00861, 0.0065, -0.00674, -0.02565, -0.02471, 0.00668, 0.02441, -0.01723, -0.00315, -0.01106, -0.00645, 0.01591, -0.01346, -0.02152, -0.00225, -0.01207, -0.00044, 0.00386, 0.00973, 0.00757, -0.01383, 0.05304, -0.02052, 0.00038, -0.04788, -0.0682, 0.02929, -0.00021, -0.02903, -0.01979, -0.03459, -0.00901, -0.03915, -0.05085, -0.00021, 0.04285, 0.02653, 0.02969, -0.0067, 0.01397, -0.02389, -0.00636, -0.03056, 0.01522, -0.00736, 0.0143, -0.02152, -0.01419, -0.01342, -0.009, 0.01442, -0.00404, 0.00958, -0.00976, -0.00182, -0.02205, 0.03164, 0.00838, -0.01158, -0.00299, 0.00383, 0.00781, -0.00804, 0.0165, -0.0001, -0.00502, 0.00579, -0.0126, -0.00805, -0.02573, 0.01622, -0.04852, 0.00757, -0.00839, 0.02429, 0.0049, -0.00298, 0.00715, 0.01564, -0.00378, 0.01359, -0.00777, -0.01972, 0.00771, 0.0025, -0.00705, 0.00405, 0.00745, 0.01252, -0.01331, 0.00097, -0.00709, -0.00972, 0.00071, 0.00638, 0.00107, 0.0026, -0.0016, 0.01668, -0.00478, -0.0031, -0.00144, -0.00652, 0.01624, 0.00415, 0.00397, 0.00443, -0.00337, 0.01713, 0.01152, -0.00594, -0.00538, -0.00272, 0.00776, -0.00838, -0.01086, -0.01289, -0.00146, 0.0303, -0.00675, -0.00619, -0.01396, -0.03075, -0.04716, 0.02588, 0.02745, -0.0318, 0.0388, -0.00022, 0.03618, -0.04163, -0.00628, -0.02283, -0.02071, -0.06666, -0.03705, 0.05285, -0.00747, -0.03159, 0.05172, -0.01244, -0.01996, 0.0223, 0.02516, -0.00123, -0.02625, 0.00211, -0.03317, 0.02967, 0.02097, -0.02602, 0.00172, -7e-05, 0.00618, 0.01444, -0.00398, -0.01289, -0.00133, -0.03168, -0.0188, -0.02312, -0.00476, 0.00657, 0.00772, -0.01509, 0.00927, 0.00148, 0.00109, 0.01501, -0.02216, -0.0004, 0.01713, 0.01086, -0.00075, -0.00802, -0.01517, -0.03522, -0.00697, 0.01786, 0.0164, -0.00717, -0.00909, 7e-05, 0.00869, 0.00346, 0.00499, -0.0116, 0.00711, 0.00455, 0.01392, 0.0014, -0.00031, 0.00136, -0.00318, -0.01049, 0.00102, -0.00034, -0.00902, 0.00076, -0.01333, 0.00439, -0.00377, 0.00172, -0.00832, -0.00125, -0.00119, 0.00367, -0.01059, 0.00974, -0.00071, -0.00574, -0.00352, 0.007, 0.00397, 0.01798, -0.01285, 0.02731, -0.00691, -0.00396, 0.00325, 0.00089, 0.03629, -0.01115, -0.00483, -0.01099, -0.01034, -0.00935, 0.00054, -0.01706, 0.00578, 0.02055, -0.02317, 0.02184, -0.01925, 0.00907, -0.00372, -0.01053, 0.00945, 0.01247, 0.03955, 0.01307, 0.01272, 0.00945, 0.02852, 0.0043, -0.02163, -0.00247, -0.00049, -0.00416, -0.00297, 0.00183, 0.00401, -0.00033, -0.00755, 0.01306, -0.00051, 0.01529, -0.00253, 0.00713, 0.00404, 0.00055, 0.00373, 0.00273, 0.00859, -0.00249, -0.00322, 0.00248, -0.00146, 0.0003, -0.00072, -0.00085, 0.00897, 4e-05, -0.0031, 0.00104, 0.00761, 0.00761, 0.00443, -0.00287, -0.01814, 0.0118, -0.00277, -0.00592, 0.00575, 0.00422, -0.00557, -0.00508, -0.01882, -0.00283, -0.00094, 0.00274, 0.00145, -0.01431, 0.00079, 0.00501, 0.01242, 0.00082, -0.00181, -0.00264, 0.00351, 0.0108, -0.00827, -0.01045, -0.01133, 0.01062, 0.00504, -0.006, -0.01956, -0.01926, 0.00084, 0.00785, 0.00396, 0.0026, 0.00577, -0.00312, 0.00231, -0.00136, -0.01054, -0.00694, 0.0191, 0.00711, 0.00424, 0.00465, -0.00044, 0.0005, 0.01798, 0.00511, 0.00676, -0.02263, 0.01527, -0.00295, -0.01992, 0.00396, 0.00717, 0.00638, -0.0171, 0.00956, 0.00058, -0.00139, -0.00348, -0.00783], "b": [0.08141, -0.05859, -0.07115, -0.05283, 0.05309, -0.05337, 0.09537, -0.16798, -0.1033, 0.14351, 0.00141, 0.04251, 0.0259, -0.06958, -0.08267, 0.05614, -0.05121, -0.06303, 0.02671, 0.0804, 0.00045, -0.11766, -0.03705, -0.11847, 0.11822, -0.11822, 0.1321, 0.13015, -0.11642, 0.14663, -0.16653, -0.02891], "in": 32, "out": 32}, {"w": [-0.04609, -0.0345, -0.06363, 0.00186, -0.05809, 0.05974, -0.0556, -0.05048, 0.05659, -0.04783, 0.05731, 0.0616, 0.0778, 0.06677, -0.01277, 0.0647, -0.07109, -0.01463, 0.02507, 0.05822, 0.08137, 0.05846, -0.05103, 0.05236, -0.08596, 0.06109, 0.09587, -0.0601, 0.06949, -0.06559, -0.03235, 0.03721, -0.04574, 0.00142, -0.0221, 0.0266, -0.05471, 0.05791, -0.0552, -0.03217, 0.05293, -0.00769, 0.05394, 0.01649, 0.03659, 0.06266, 0.02363, 0.06033, -0.06545, 0.01776, -0.0037, 0.05479, 0.07404, 0.05436, -0.04811, 0.05511, -0.05671, 0.05716, 0.08558, -0.01519, 0.05919, -0.03044, -0.04208, 0.04648, -0.05393, 0.06422, 0.06819, 0.06992, -0.06098, 0.06592, -0.05945, 0.0078, 0.054, 0.07671, 0.05586, -0.05783, -0.04856, 0.05909, 0.08212, 0.05823, -0.06338, 0.08511, -0.0631, 0.05618, 0.0746, 0.05677, -0.0507, 0.06812, -0.0072, 0.05696, 0.07484, 0.05367, 0.04899, 0.05657, -0.0719, 0.07459], "b": [-0.13076, -0.20403, 0.04125], "in": 32, "out": 3}], "psnr": 32.88}