{"hidden": 32, "omega0": 30.0, "layers": [{"w": [-0.34892, 0.33179, 0.16225, 0.11501, 0.39674, -0.47456, 0.36665, 0.14359, -0.32813, 0.12256, -0.14105, -0.20351, -0.05808, -0.2214, 0.45938, 0.43092, -0.05534, -0.42905, -0.05372, 0.0527, 0.31374, 0.01279, 0.15404, 0.12524, -0.29481, -0.32789, -0.44245, -0.02107, 0.18907, -0.02237, 0.48358, -0.09822, -0.35702, 0.03653, -0.15875, -0.03287, 0.48717, -0.01673, 0.46682, 0.05137, -0.18338, 0.38312, -0.27431, 0.0128, 0.10274, 0.20915, -0.4746, 0.04179, -0.11701, 0.27305, 0.16618, 0.21569, 0.29304, -0.085, -0.00852, 0.38558, -0.4355, -0.34466, 0.07261, -0.19299, -0.01281, 0.40342, -0.07404, -0.40844], "b": [0.37891, -0.08727, 0.04184, 0.17923, 0.42129, 0.663, -0.5536, -0.26139, 0.28698, 0.60781, 0.60964, 0.60358, 0.15445, -0.59563, 0.06071, -0.45787, -0.66731, 0.63657, 0.53711, -0.71944, 0.13798, -0.11053, -0.11705, -0.28592, 0.30499, -0.41636, 0.2596, 0.3667, 0.52236, 0.27418, -0.69607, -0.47045], "in": 2, "out": 32}, {"w": [0.00035, 0.02327, -0.00509, -0.02506, 0.01342, 0.01674, -0.01401, 0.02369, -0.00571, 0.01277, -0.01169, -0.00329, 0.01031, 0.03738, -0.03081, -0.00615, -0.04161, 0.03347, 0.02831, -0.0016, -0.01871, 0.00266, 0.03879, -0.02904, -0.00815, 0.04092, 0.01591, 0.00769, 0.00353, 0.02054, -0.01657, -0.00279, -0.01268, -0.0003, -0.01516, -0.03128, -0.0198, -0.02747, 0.01954, 0.02151, 0.01462, 0.00932, 0.01173, -0.00046, 0.00143, 0.001, 0.0103, -0.00251, -0.01703, -0.02296, -0.02996, -0.02034, -0.00925, -0.00968, 0.01969, -0.02574, -0.00409, 0.01316, 0.01696, 0.02644, -0.00286, -0.00999, -0.01416, 0.01605, -0.0029, 0.0027, -0.00625, -0.0041, 0.01637, 0.01332, -0.00733, 0.00313, -0.00428, -0.02803, 0.01859, 0.0157, -0.02417, -0.00428, -0.0322, 0.01309, -0.03569, 0.03114, 0.02927, 0.05733, 0.00393, 0.01362, 0.00862, -0.04749, 0.00128, 0.00419, 0.0026, 0.00189, 0.01357, -0.0076, -0.00814, 0.00482, -0.0081, 0.03724, -0.01283, 0.04336, 0.0111, -0.00441, -0.02122, 0.0005, 0.00266, -0.00161, -0.07423, -0.0097, -0.0083, -0.02059, 0.00926, -0.0087, -0.00913, -0.02039, -0.04094, 0.02373, 0.01336, -0.02075, -0.0003, -0.00792, -0.01073, -0.0048, 0.01696, 0.00135, -0.00056, 0.01566, 0.01334, -0.01036, -0.00551, 0.02287, -0.00916, 0.0025, -0.01615, 0.00866, -0.0021, 0.0093, 0.01479, 0.00025, 0.01866, -0.01367, -0.01799, 0.02642, 0.00675, 0.0059, -0.03359, 0.00346, -0.02604, -0.00116, 0.00835, 0.01613, 0.00054, 0.00894, -0.00546, -0.0117, -0.04124, -0.00079, -0.0242, 0.01261, -0.0061, 0.01089, -0.0125, 0.00388, 0.01591, 0.03521, 0.01632, -0.00237, -0.00053, 0.01563, -0.0053, -0.0237, -0.02222, 0.0077, 0.00539, -0.00216, -0.04839, 0.00919, 0.01368, -0.03453, 0.00115, -0.02641, -0.00993, -0.03382, 0.01295, 0.02418, 0.00724, -0.01877, -0.01236, 0.00642, -0.01668, -0.01081, -0.03695, 0.00518, -0.01094, -0.00106, -0.01178, -0.01299, -0.0218, 0.02054, -0.02097, 0.01238, -0.00945, 0.00684, 0.02012, -0.00116, -0.00772, -0.05181, 0.00761, 0.01249, 0.03664, 0.03079, 0.00834, 0.00753, 0.00993, -0.01797, 0.00309, 0.01245, -0.01317, 0.00144, 0.01931, 0.00678, -0.00949, -0.01054, -0.0073, -0.00885, 0.01846, -0.00336, 0.0169, 0.00698, -0.00524, 0.00544, -0.01984, -0.00584, 0.00269, -0.00612, 0.00907, -0.01445, 0.00987, 0.02495, -0.04404, -0.02761, 0.02779, -0.00458, -0.01687, 0.01389, -0.01168, -0.00775, -0.01834, 0.01473, -0.0106, 0.00299, -0.0013, 0.02383, 0.01095, -0.00266, -0.02674, -0.00704, -0.00288, -0.00741, 0.00496, 0.00131, 0.00151, -0.03025, 0.01785, -0.01442, 0.0099, -0.00406, 0.0282, -0.01384, -0.0381, -0.01753, -0.00422, 0.01422, 0.00835, 0.00503, -0.00424, 0.0128, 0.00426, 0.00627, 0.01827, 0.01109, 0.0003, 0.01445, -0.02228, 0.017, 0.00716, 0.02454, -0.00347, 0.00279, 0.00749, -0.0323, 0.00377, 0.02696, 0.02929, 0.02034, -0.00923, 0.02735, 0.01364, -0.00381, 0.01225, 0.03182, -0.00205, 0.00958, 0.02383, 0.01724, 0.03133, 0.01246, 0.02418, -0.0528, 0.01979, -0.01495, 0.00407, -0.00711, -0.00148, -0.00174, 0.00849, 0.00102, -0.02457, -0.01299, -0.00589, 0.01229, 0.00686, 0.01079, -0.01432, 0.03706, -0.01293, 0.01274, -0.00653, -0.00086, 0.00261, -0.00589, -0.02791, -0.0044, 0.0098, -0.01915, -0.02389, 0.00686, 0.02481, -0.00624, 0.00714, -0.01787, -0.00225, -0.01491, 0.00155, -0.0064, -0.0085, -0.02101, -0.00652, 0.00902, -0.00826, -0.00895, 0.00602, -0.00229, 0.00812, -0.00664, 0.00571, -0.02411, -0.00569, -0.01542, 0.01148, 0.00333, -0.00781, 0.01872, -0.01817, 0.00085, 0.01292, 0.01253, -0.01452, -0.01968, -0.02633, -0.00476, 0.00424, 0.00641, -0.01509, 0.03502, 0.01756, -0.00686, -0.02417, 0.00714, 0.02397, 0.05209, 0.00059, -0.03115, -0.03633, -0.03815, 0.01335, 0.01004, 0.00902, -7e-05, 0.01342, -0.02526, -0.00197, 0.01297, -0.00534, -0.02289, 0.00046, -0.0276, 0.02709, 0.02591, 0.00929, 0.00238, 0.00976, -0.01734, 0.01668, -0.0037, 0.00545, -0.01174, 0.00119, -0.00381, -0.01306, -0.03344, -0.00387, -0.0359, 0.01266, 0.00857, 0.00092, 0.00282, -0.00529, -0.03362, -0.00997, -0.0165, 0.00013, -0.0315, -0.01209, 0.01494, 0.00754, -0.02353, 0.0413, 0.00826, -0.01121, -0.03779, -0.00514, -0.003, -0.02348, -0.00181, 0.00623, 0.00422, -0.01829, -0.04077, 0.02303, 0.01633, 0.02181, 0.00379, 0.02145, 0.0279, -0.02441, -0.01806, -0.03595, 0.01299, 0.0149, 0.00918, 0.0073, 0.01334, 0.01147, -0.01775, 0.00977, -0.02483, -0.00474, -0.00104, -0.02037, 0.00879, -0.00607, 0.00874, 0.02038, 0.00929, 0.01798, 0.02239, 0.00715, 0.00899, -0.00051, -0.00366, -0.00296, 0.0116, 0.003, -0.0005, 0.00455, 0.00094, 0.00492, 0.00136, -0.00952, 0.00839, -0.02148, -0.02245, 0.01606, 0.01873, -0.00839, -0.00317, 0.00757, -0.00324, 0.02662, -0.00695, -0.0187, -0.01434, -0.00135, 0.00325, -0.01132, 0.00037, 0.03206, 0.00895, -0.00504, 0.00874, -0.00269, -0.02345, 0.00845, -0.01688, -0.01907, -0.00566, 0.01283, -0.00659, 0.00934, -0.00762, 0.00475, 0.01785, -0.00241, -0.00892, 0.00413, -5e-05, -0.01201, -0.01134, -0.03335, 0.0047, 0.01134, -0.00363, 0.00821, 0.01428, 0.01026, 0.00267, -0.02758, -0.00634, -0.01196, -0.00127, 0.00455, -0.01265, 0.01708, -0.00426, -0.02514, 0.00496, -0.01576, -0.02043, -0.00279, -0.00993, 0.00082, 0.01439, 0.00444, 0.00604, 0.00521, -0.00273, -0.0091, -0.01057, -0.01153, 0.00998, -0.02277, 0.00309, -0.00627, 0.01127, 0.00511, -0.01809, -0.01053, 0.01331, 0.00059, 0.01555, -0.01714, 0.00882, -0.00304, -0.0016, -0.00458, 0.03519, 0.01873, -0.01766, -0.0041, 0.02437, 0.00771, -0.01291, 0.01681, -0.00888, 0.00601, -0.00485, 0.00181, -0.01175, -0.00035, -0.04275, -0.00138, 0.02139, -0.00356, 0.00663, 0.00342, -0.03301, -0.01251, 0.03065, 0.00484, 0.00477, -0.02829, -0.0246, 0.02187, 0.04112, 0.01791, 0.04955, 0.01339, 0.00631, -0.00232, 0.0284, -0.016, 0.01503, -0.02289, 0.00454, 0.0004, 0.01144, -0.0025, -0.0047, -0.01719, 0.02226, -0.00433, -0.01833, -0.0333, -0.02025, 0.00691, -0.00372, 0.00706, 0.02156, 0.00988, 0.01503, -0.0081, 0.00999, 0.00659, -0.03405, -0.01204, 0.01323, 0.00546, -0.02576, 0.01013, -0.01811, 0.00049, 0.00611, 0.03062, 0.00974, 0.00102, 0.01409, 0.00492, -0.00178, -0.03, -0.00242, -0.00847, 0.00811, -0.02073, -0.02403, -0.00589, -0.02651, 0.01837, 0.02174, -0.00464, -0.00241, 0.02024, -0.00337, 0.00908, -0.00225, 0.03038, 0.02095, 0.01044, -0.01992, -0.00044, -0.02845, 0.0078, 0.00984, 0.0331, -0.02419, 0.01489, 0.00669, 0.00544, 0.00281, 0.00378, -0.00098, -0.02424, 0.00939, 0.01549, 0.00211, -0.00936, -0.01087, 0.00174, -0.02542, 0.01705, -0.0002, 0.00425, 0.03058, -0.00502, 0.00491, 0.01787, 0.03041, -0.00814, 0.00362, -0.00031, -0.00631, 0.00794, -0.0018, 0.0033, 0.00247, 0.01906, 0.00447, 0.0062, -0.01334, 0.02068, -0.00809, -0.01251, 0.00638, 0.02385, -0.01623, 0.00414, 0.00707, -0.00501, 0.00012, -0.03106, -0.01384, 0.00117, -0.0132, -0.00489, 0.00584, -0.02143, 0.00542, 0.00353, -0.0068, 0.01996, 0.0291, 0.0242, 0.00132, -0.01983, 0.00218, -0.00128, 0.01208, 0.00673, 0.00099, 0.00294, -0.01964, -0.03664, -0.01227, -0.00495, -0.00116, 0.01458, -0.01438, -0.00148, -0.00316, -0.00338, -0.0085, -0.02001, -0.01307, -0.00103, 0.0055, -0.01009, 0.00967, -0.00717, 0.00616, 0.0011, 0.02158, -0.00089, 0.00359, -0.01017, 0.03304, 0.0181, 0.01106, 0.00664, 0.02528, -0.00125, -0.01392, -0.00523, -0.0138, -0.01152, 0.00471, 0.00167, -0.00269, -0.00274, 0.0037, 0.00483, -0.01882, -0.00247, 0.02062, 0.02748, -0.02383, -0.01887, 0.02194, -0.01342, -0.02125, -0.01672, 0.01778, -0.00749, -0.01366, -0.03693, -0.0272, 0.01609, -0.01189, 0.02043, -0.02486, 0.00135, 0.00147, 0.02411, -0.01081, 0.00903, 0.00947, -0.02221, 0.00055, 0.01521, 0.01192, 0.00054, -0.02269, -0.00322, 0.02137, -0.01422, 0.01368, 0.00791, 0.01943, 0.01828, 0.0008, -0.02656, -0.00354, 0.00215, -0.01892, -0.00986, 0.01831, 0.01863, 0.02246, 0.01812, 0.00734, 0.01246, -0.02711, -0.00287, -0.00481, 0.01551, -0.00654, 0.00473, 0.02645, 0.01782, -0.00471, -0.01347, -0.00929, -0.01103, -0.00337, 4e-05, -0.02383, 0.00457, 0.01162, 0.01329, 0.03484, 0.00411, -0.00292, -0.01139, -0.0003, 0.00909, 0.03724, -0.0026, -0.01053, -0.03298, 0.00029, -0.00503, -0.02658, 0.03016, 0.00826, -0.00289, -0.00674, -0.0247, -0.00235, -0.00175, 0.02492, 0.02275, 0.00219, 0.00687, -0.00707, -0.01027, -0.01302, 0.00519, -0.01059, 0.01044, 0.04064, 0.00203, 0.01657, -0.01029, -0.01426, 0.00404, 0.01324, 0.00374, -0.01814, 0.00793, -0.01663, 0.00451, 0.02145, -0.00426, -0.04391, -0.03073, -0.00314, 0.00684, 0.01777, -0.02958, -0.02642, 0.0026, 0.00579, 0.00857, -0.01919, 0.00514, -0.0006, 0.01387, 0.00707, 0.01566, -0.01192, -0.00264, -0.00171, -0.00712, -0.03747, 0.01755, -0.01997, -0.03887, -0.01706, -0.00858, 0.00233, -0.00127, -0.01663, 0.02209, -0.04767, 0.04337, -0.00075, -0.02427, 0.0308, -0.0163, -0.0188, -0.00967, 0.04087, -0.00424, -0.01323, -0.00212, -0.00684, 0.02465, 0.0071, -0.00187, -0.00483, -0.01215, 0.00806, -0.00139, -0.00249, 0.00917, 0.02751, -0.00689, 0.01604, -0.00398, 0.01192, -0.00238, -0.00685, 0.01364, 0.00739, 0.03767, -0.02299, -0.01368, 0.0109, 0.02781, -0.00996, -0.015, -0.0099, -0.03156, 0.01844, 0.01379, 0.00307, 0.00539, 0.03299, -0.0178, 0.00236, -0.03138, -0.00054, 0.00995, 0.02376, -0.0179, -0.00254, -0.01598, 0.01702, -0.00224, 0.02221, -0.00615, -0.00267, -0.01983, 0.01531, -0.00248, 0.00037, 0.00324, 0.01337, 0.01514, -0.0181, 0.01001, -0.00264, 0.00518, 0.0201, 0.0153, -0.01555, 0.02945, 0.0226, -0.02297, -0.00982, -0.00302, 0.03275, 0.01452, -0.02263, -0.00849, -0.00968, -0.01767, 0.0174, -0.01673, 0.03306, 0.01549, 0.00855, -0.01538, 0.02597, 0.00859, -0.01528, -0.02087, -0.00908, 0.00986, -0.01911, 0.00876, 0.0009, -0.00683, -0.01147, 0.00884, -0.03947, 0.00327, 0.04214, -0.01336, 0.00607, 0.04413, -0.00066, 0.01512, -0.00468, -0.00529, 0.00797], "b": [-0.02747, -0.15266, -0.08941, 0.02219, -0.15769, -0.00412, -0.12139, -0.12528, 0.0693, -0.14346, -0.1296, 0.12095, 0.05493, 0.16664, -0.0398, -0.09342, -0.00502, 0.00024, 0.14481, -0.17287, -0.03095, 0.05763, -0.10344, -0.09766, 0.0832, -0.19181, 0.05193, -0.15787, 0.08992, -0.15033, 0.13774, -0.18916], "in": 32, "out": 32}, {"w": [0.00145, 0.01451, 0.02589, 0.00126, 0.00911, -0.02574, -0.02151, 0.01497, -0.01608, -0.00216, 0.00926, 0.03332, -0.01769, 0.02774, 0.03592, -0.00301, 0.01318, -0.00696, 0.0215, -0.01524, 0.01681, -0.01508, 0.01106, -0.02442, -0.02616, -0.00541, -0.02523, -0.0082, 0.03119, -0.01581, 0.02339, -0.00692, -0.02895, 0.03735, -0.00219, -0.0008, 0.04563, -0.02349, 0.02276, 0.01482, 0.02555, 0.02172, -0.00061, 0.007, 0.01874, 0.02141, -0.03806, -0.02116, -0.02576, -0.03092, -0.00361, 0.00687, -0.00506, 0.02233, 0.02653, -0.0037, -0.01154, 0.00496, 0.0064, 0.05635, 0.01227, -0.00221, -0.00635, 0.01039, 0.02628, -0.01048, 0.00272, -0.01741, -0.04616, 0.00393, -0.01467, 0.00127, -0.02997, -0.01065, -0.01509, -0.01114, -0.01126, -0.00653, 0.00063, 0.01267, 0.03267, -0.02216, 0.0031, -0.04112, 0.00092, -0.01629, -0.007, 0.0215, -0.0242, -0.01753, 0.00405, -0.01114, -0.01936, 0.00398, 0.00144, -0.03089, -0.02962, -0.02361, -0.0107, 0.0401, -0.008, -0.0181, 0.01121, -0.00658, -0.06988, 0.01407, 0.00033, -0.03565, -0.00272, -0.03746, 0.03707, 0.01286, 0.06104, -0.03067, 0.00294, 0.01553, 0.0014, -0.03165, -0.0013, -0.02976, 0.04817, -0.00931, 0.0196, 0.06604, 0.01879, 0.02852, 0.02374, -0.02997, 0.00281, 0.00054, -0.00141, -0.00135, 0.00899, -0.00133, -0.01565, -0.00857, 0.00201, -0.00667, -0.00144, 0.00038, -0.00415, 0.00251, 0.00947, 0.01138, -0.00745, 0.01578, 0.00649, -0.00152, -0.00684, 0.00125, -0.01233, -0.00817, -0.00672, 0.0037, 0.01599, -0.00435, -0.00128, -0.00195, -0.00519, -0.00599, 0.0041, 0.00164, -0.00137, -0.0093, 0.01716, 0.00993, 0.0016, -0.01201, 0.00349, -0.01022, -0.01565, -0.00733, -0.02391, 0.0262, -0.00106, 0.01524, 0.00399, 0.00588, 0.00233, -0.00932, 0.02942, 0.02067, 0.01175, -0.0068, -0.00381, 0.01045, -0.00697, 0.0053, -0.00527, -0.01134, 0.0025, 0.0053, 0.0008, 0.015, -0.02451, -0.01415, -0.00929, 0.02027, -0.00375, 0.01712, 0.00255, -0.01907, -0.02228, -0.01279, -0.00814, -0.00426, -0.01109, 0.01359, -0.00926, 0.01057, -0.01319, -0.01631, -0.00765, -0.02026, 0.02986, -0.00968, -0.01569, -0.0085, -0.02453, -0.01554, 0.00148, 0.01379, 0.00779, -0.00965, -0.01333, -0.00517, -0.011, -0.00443, -0.02198, 0.0011, -0.00476, -0.01035, 0.00181, -0.00648, -0.00881, 0.01364, 0.00719, -0.01442, -0.01005, 0.01842, 0.01029, -0.0045, 0.00704, 0.00263, 0.00532, 0.01803, -0.01421, -0.01465, -0.00254, -0.01018, -0.02004, -0.01668, -0.0012, 0.00058, 0.01172, 0.00027, -0.01351, -0.00126, -0.00853, 0.01017, -0.0306, -0.00268, 0.01182, 0.00309, -0.00787, -0.02221, 0.00403, 0.02724, 0.00972, 0.01043, 0.0302, -0.02369, 0.00585, 0.01277, -0.0181, 0.01003, 0.00319, 0.00909, -0.01378, 0.01655, 0.00282, 0.00366, 0.01544, 0.01788, 0.00678, -0.02171, 0.03532, 0.01118, -0.02875, 0.03172, 0.07732, -0.00416, 0.02067, -0.02627, 0.04302, 0.04859, 0.02373, 0.03089, 0.03369, 0.02491, 0.01523, -0.0114, -0.03762, -0.03031, -0.01776, -0.00404, -0.02515, 0.01469, -0.0201, 0.0482, 0.00165, 0.0031, 0.01587, 0.01566, 0.0134, 0.01687, 0.02574, 0.01796, 0.01381, 0.01392, -0.02306, -0.01632, -0.01101, 0.03524, 0.01093, -0.01375, 0.01484, -0.02975, -0.01482, -0.01608, -0.00621, 0.00078, 0.02889, 0.02574, 0.01232, -0.00622, 0.00545, 0.05171, 0.00614, 0.02736, 0.0218, 0.01159, 0.00609, 0.01465, 0.00768, -0.00166, -0.04187, -0.00353, -0.00975, -0.01687, -0.00012, 0.00278, 0.02543, -0.02101, -0.01541, -0.01645, 0.01972, 0.03303, 0.05715, -0.0101, 0.01459, -0.06043, 0.01317, -0.03964, -0.02839, -0.00703, 0.01069, 0.01399, 0.01745, 0.02404, 0.00671, 0.00076, -0.01262, -0.01697, 0.02908, -0.01003, -0.01056, -0.03427, -0.0174, 0.0118, -0.00372, -0.03619, 0.00463, -0.00014, 0.0028, -0.04199, 0.03153, -0.00083, -0.00922, -0.01046, -0.02119, -0.0425, -0.01884, 0.01809, -0.02166, -0.00132, -0.0323, 0.03268, 0.00408, 0.04257, 0.01254, -0.01307, 0.03325, -0.00967, 0.02339, -0.00966, -0.01056, 0.01022, 0.00634, -0.03045, -0.00123, 0.00691, -0.03225, -0.01776, -0.00567, -0.02704, -0.00419, 0.00417, 0.00326, 0.00291, 0.01702, -0.00359, -0.00468, 0.00112, -0.0073, 0.00267, 0.00231, 0.00382, 0.00226, 0.00102, 0.0068, 0.00875, 0.02226, -0.00502, 0.00783, -0.00675, -0.00243, 0.00311, 0.00582, 0.00354, -0.0074, -0.00901, -0.01198, 0.00345, -0.00044, -0.00371, -0.01081, -0.00103, -0.00039, 0.05845, -0.00573, -0.02559, 0.01996, -0.01855, 0.05568, 0.06754, 0.00387, 0.03586, 0.04091, 0.01916, 0.02135, -0.00351, 0.00456, -0.02944, 0.01981, 0.04263, -0.04846, -0.02941, 0.011, 0.03416, 0.02623, -0.00489, 0.01735, 0.06164, 0.00683, 0.05137, 0.00826, 0.02744, 0.04958, 0.04055, -0.02158, 0.0216, 0.00863, 0.02011, -0.00514, -0.01212, -0.00074, 0.03154, 0.02847, 0.01684, 0.00883, 0.02296, 0.028, -0.02246, 0.01272, -0.01335, -0.04537, -0.01689, -0.0223, 0.02225, 0.02164, 0.04721, -0.00808, 0.02954, -0.00528, 0.02668, 0.00618, -0.01382, 0.03396, 0.02215, 0.00958, 0.03503, -0.00339, -0.01271, 0.0017, 0.00452, -0.00286, -0.00811, -0.00628, -0.00902, -0.01276, 0.00323, 0.00092, 0.00138, -0.00285, 0.00307, -0.00031, -0.00168, -0.00105, 0.00205, 0.01325, -0.0034, 0.00045, 0.0015, 0.00776, -0.01283, -0.00209, -0.00325, 0.01718, -0.00052, 0.00288, 0.02077, -0.00095, -0.01122, 0.01903, -0.02812, 0.00848, -0.00067, -0.01926, -0.00147, -0.03751, -0.02918, 0.00024, -0.03048, -0.03138, -0.0072, -0.00855, 0.00051, 0.01298, 0.0402, 0.00501, -0.02526, 0.03401, -0.01214, 0.01458, -0.02568, -0.00516, -0.01636, -0.02056, 0.00139, 0.00697, 0.00269, 0.0061, -0.03722, 0.00988, -0.00321, 0.00202, -0.00837, 0.00692, -0.00345, 0.00837, 0.00242, -0.00017, 0.00161, -0.00066, 0.00016, -0.00428, 0.00042, 0.00341, -0.00059, -0.00071, 0.00743, 0.0051, 0.00062, -0.00277, 0.00911, -0.00177, -0.00224, 0.00246, 0.00052, 0.00071, -0.00315, 0.00739, 0.00099, 0.00262, 0.00614, -0.00108, 0.00081, 0.00253, 0.0017, 0.00311, 0.00454, 0.00011, -0.00017, 0.00821, 0.00416, 0.00309, -0.00125, 0.00706, 0.00652, 0.00557, -0.00303, -0.00183, -0.00563, 0.0034, 0.00905, -0.00208, -0.0096, -0.00092, 0.01009, -0.00267, 0.01431, 0.00131, 0.00288, 0.00183, -0.00613, 0.00325, 0.00711, 0.0018, 0.00735, -0.00573, -0.00302, -0.00493, 0.00616, -0.00262, -0.00158, -0.00175, 0.00313, -0.00182, 0.00211, -0.00052, 0.00492, -0.00349, -0.00385, 0.00306, 0.00058, -0.00275, 0.00143, -9e-05, -0.00016, 0.00347, -0.00219, -0.00064, -0.0012, 0.00359, -0.00225, -0.00109, 0.0005, -0.00148, -0.00144, 0.00658, 0.00417, -0.01226, 0.02689, 0.00799, 0.02049, 0.027, -0.0137, 0.01151, 0.04585, 0.0128, -0.01334, -0.00262, -0.00668, 0.00195, 0.00161, 0.00921, -0.00248, -0.02298, -0.01753, -0.02669, -0.00261, 0.01488, 0.01918, 0.01969, 0.01522, -0.00588, 0.01218, 0.01019, -0.00441, -0.00247, 0.0221, -0.01791, 0.01154, -0.00052, 0.00283, 0.00197, -0.00099, -0.00337, -0.00506, -0.00413, 0.00457, -0.00401, -0.00089, 0.00081, 0.00294, 0.01075, -0.00696, 0.00965, -0.00823, 0.00423, 0.00329, -0.00335, 0.0043, 0.00754, 0.00352, 0.00355, -0.00135, 0.00413, 0.00482, 0.00801, -0.00074, -0.00165, -0.00287, 0.00022, 0.00244, 0.03593, -0.00523, 0.02469, -0.03538, 0.04077, 0.00779, 0.02199, 0.00258, 0.01605, -0.00579, 0.05086, -0.01129, -0.04985, -0.0048, 0.03436, -0.00488, -0.00429, -0.01021, -0.031, 0.00434, -0.03629, 0.00732, -0.02913, -0.01639, -0.00391, -0.03, 0.02417, 0.0225, -0.00392, 0.01076, -0.00946, 6e-05, -0.02613, 0.0238, -0.0047, -0.00591, 0.01936, -0.0018, 0.01168, 0.00203, 0.00573, 0.00597, 0.00667, 0.00143, 0.00411, -0.0262, 0.0339, -0.00928, 0.01476, 0.00865, -0.00792, 0.0071, 0.01402, -0.01351, 0.00239, 0.00537, 0.00546, -0.00032, -0.02607, 0.01331, 0.02207, 0.01337, 0.00345, -0.02397, -0.02669, -0.01172, -0.03175, 0.0043, -0.00016, -0.02107, -0.0193, -0.01009, 0.01679, 0.01266, 0.00202, 0.02295, 0.01771, -0.01485, -0.02662, 0.00107, -0.0117, 0.00594, -0.03031, 0.01765, -0.02118, 0.02348, -0.01576, -0.04954, 0.02186, -0.02273, 0.03301, -0.01613, -0.01011, -0.00409, 0.00824, 0.02455, -0.00167, 0.00302, -0.01333, 0.01431, 0.02366, -0.01645, 0.01469, 0.00801, 0.00053, -0.01771, 0.00081, -0.00899, 0.00858, -0.03393, 0.00433, 0.01862, 0.00109, -0.00477, 0.00322, 0.00889, -0.0005, 0.01557, -0.00149, -0.01553, -0.02624, 0.03504, -0.02195, 0.01737, -0.00792, 0.00143, -0.01284, 0.00402, -0.00131, -0.02141, 0.00333, 0.01024, 0.019, -0.00022, 0.00533, -0.01141, 0.00298, -0.00438, -0.01951, -0.00562, -2e-05, -0.0082, 0.00151, -0.01423, -0.00204, -0.00406, -0.0055, -0.00183, -0.01491, 0.00505, -0.02088, 0.00275, 0.01386, 0.00653, -0.00901, -0.00295, -0.0097, -0.00724, 0.01483, -0.00562, -0.0033, 0.00386, -0.00248, -0.00174, -0.00027, -0.00124, 0.00906, -0.00065, -0.00601, 0.00238, -0.0001, -0.00378, -0.00064, -0.00451, -0.00043, 0.00385, 0.00312, 0.01377, 0.00103, 0.00492, -0.00023, 2e-05, -0.00614, 0.01068, 0.00111, -0.00029, -0.00219, 0.0085, 0.00444, 0.00588, 0.00476, -0.00517, 0.04787, -0.00774, -0.00968, 0.01989, -0.01107, 0.038, -0.00853, 0.02633, 0.01209, -0.07315, -0.00418, -0.03255, -0.04541, 0.02384, -0.00137, 0.01543, -0.05763, 0.06167, 0.03547, -0.00271, -0.0139, -0.05305, 0.05268, -0.01383, -0.00527, -0.03258, -0.04498, 0.0156, -0.01117, -0.00433, -0.03123, -0.02462, -0.02371, -0.00716, -0.00172, 0.0294, -0.01234, -0.03409, 0.00058, 0.01326, -0.0274, 0.00172, 0.0071, 0.0577, -0.01969, -0.02384, 0.02563, -0.02064, 0.00604, 0.00076, -0.00926, 0.02245, 0.00291, -0.00477, -0.02091, -0.02389, 0.01384, -0.00248, -0.00479, -0.00606, -0.01114, 0.01127, 0.03605, -0.00043, -0.00054, 0.0139, 0.01466, 0.02417, -0.00679, -0.02605, 0.01306, -0.02058, -0.03026, 0.00718, -0.01026, 0.00125, 0.00854, 0.02412, 0.01884, 0.02331, -0.00398, 0.02024, 0.01058, 0.00038, 0.01441, 0.00488, 0.03598, 0.01895, -0.00193, -0.01996, -0.00852, -0.03303, 0.00057, -0.00485, -0.02367, -0.01562], "b": [0.07793, 0.00571, -0.0881, -0.0078, 0.0573, -0.01793, 0.07388, -0.13036, -0.05709, 0.11605, 0.0228, 0.02211, 0.07482, -0.03434, -0.04235, 0.06372, -0.05515, -0.07938, 0.035, 0.04187, -0.04657, -0.10004, -0.04771, -0.11428, 0.07161, -0.1231, 0.14484, 0.05458, -0.16261, 0.11543, -0.17144, 0.00321], "in": 32, "out": 32}, {"w": [-0.05713, -0.07036, -0.07252, 0.04738, -0.07718, 0.07973, -0.06667, -0.07188, 0.06361, -0.05524, 0.06308, 0.05661, 0.06826, 0.0666, 0.06788, 0.06962, 0.07275, -0.06739, -0.07099, -0.06158, 0.07983, 0.06184, 0.06397, 0.07596, -0.06325, 0.0682, 0.0588, -0.07133, -0.02834, -0.05781, -0.05794, 0.05993, -0.04267, -0.05585, -0.0548, 0.03601, -0.02984, 0.06037, -0.05392, -0.04904, 0.05036, -0.04121, 0.04757, 0.04386, 0.04976, 0.02122, 0.05111, 0.05442, 0.047, -0.04786, 0.01117, -0.00531, 0.01131, 0.04881, -0.02311, 0.05584, -0.04849, 0.05362, 0.04145, -0.04268, 0.07942, -0.04363, -0.04382, 0.04767, -0.03625, -0.04969, -0.04533, 0.03045, 0.00732, 0.05192, -0.04875, -0.03362, 0.04458, -0.03367, 0.04076, 0.03875, 0.04097, -0.01882, 0.04315, 0.04897, 0.02945, -0.03817, 0.08259, 0.03536, 0.04955, 0.04306, -0.08305, 0.04736, -0.04065, 0.04575, 0.03309, -0.02424, 0.15026, -0.03776, -0.03632, 0.04381], "b": [-0.22973, -0.10816, 0.08432], "in": 32, "out": 3}], "psnr": 35.62}